0.17502908 1.18287647 -0.59447902 -0.54515058 -0.09508528 0.44026050 1.33907568 0.06311687 -1.23964882 -0.40898180 -1.46100748 0.08589373 0.30311000 -0.34427717 0.15472041 -0.59442574 0.24739397 0.61986369 0.70310807 -0.64858717 -0.41046593 -0.33778769 0.44068170 -0.33801430 -0.76820463
0.48410347 0.82126927 0.02861683 -0.38391817 -0.16505682 0.49981758 0.03542066 0.25123692 2.13193750 -0.10028458 -0.41846660 -0.35975030 -0.52967793 -0.40884286 -0.66632169 -0.30522540 0.27111810 0.14327772 0.93148011 0.63090342 -0.60543156 -0.48940253 -0.03247444 0.84806812 0.38925445
0.96476454 -0.47162360 0.74696136 -0.45041975 0.68868536 0.72274399 -1.51924825 0.82742816 -1.62385273 0.12566566 -0.76119095 -0.08794957 -0.16528980 -0.63772571 0.20976917 0.44782922 -1.50903451 -0.02592296 0.46636230 0.68484634 0.12012432 0.08674346 -0.11983272 0.03823115 -0.42294750
-0.30962509 -0.75221074 -0.12065931 0.56145054 0.52028024 -0.60645181 -0.27242994 0.24427469 0.82702994 -0.19543281 -0.75227201 0.39579341 0.85846514 0.33922791 -1.03570712 0.20990184 1.06071222 -0.71853131 -0.03318268 -0.07202925 1.37001991 -0.15713242 -0.12489942 -1.35442793 0.67262429
0.59058124 0.59961945 0.79898876 0.27026728 0.30618989 -0.56676501 0.09869944 0.23738886 -1.17482603 -0.78951484 -0.08501309 0.27095559 -0.65846407 0.33395669 0.53799093 -0.83746678 0.00521372 0.45156986 0.45140919 -1.05501676 0.29684561 -0.26113766 0.25212261 -1.01893425 0.45631421
0.00180447 -0.67831093 -0.31918269 -0.57367438 -0.31712106 1.66300511 -0.30560753 1.32861209 0.52106243 -0.15597174 -0.71996188 0.13329214 0.51403135 -0.36091554 -0.72194934 0.71924496 0.12499122 -0.59857047 0.62410587 -0.44049054 -0.45475608 0.07224456 -0.16461749 0.78489071 0.62311459
0.30655655 -0.11273344 -0.29636002 -0.20318425 0.46908969 0.82723415 -0.16324604 0.37209418 1.11833572 0.70317727 0.40048054 -0.06071716 0.29164496 0.16317534 -0.38981539 0.06396230 1.26291180 0.01506483 -0.23307419 -0.50931597 0.74348259 -0.50681716 0.26430133 1.55868733 -0.23317404
0.21176277 0.70554584 -0.14255697 -0.50986654 0.70459032 -0.22355165 -0.65803707 0.13191050 1.17939460 0.35639805 0.23187062 0.23668355 -0.20104045 -0.55868071 1.59136629 -0.61581171 1.66059279 0.17933926 -0.21261239 0.46285602 0.88419545 -0.22521320 -0.34035820 -0.58926350 0.08271147
-0.13244389 -0.10114021 1.06014752 -0.51917750 0.64511758 0.72177202 0.93278867 -1.07708108 0.26083934 0.35983825 -1.61098075 0.24284361 -0.04827918 -0.69645172 -1.10822952 -0.55421019 0.15230934 -0.57498246 0.32173270 0.16240263 0.74146897 0.27046439 0.59999746 0.29534623 0.38033667
0.00610650 -0.36655852 -0.55582029 0.17791395 0.09673228 -0.30603093 0.19185801 -0.30701026 -0.14982593 1.10173213 0.24611725 0.15213040 -0.81166071 0.06813801 -0.05402573 -0.66854686 -0.87139887 0.20194606 0.14406203 -0.48234987 0.60311472 0.19997868 0.78393406 0.13328965 0.74098802
0.50620508 0.08778103 -0.52087629 0.41897973 -0.85234725 -0.14850430 -0.23754750 0.73706150 -0.30004188 -0.30564699 0.57960767 0.44590819 0.43593025 0.05767388 -0.78803992 -0.73422849 1.23727953 0.33046222 0.49216181 -0.20252363 -0.17702930 -0.31452578 -0.23584458 -0.41847998 -0.21937209
0.17001708 0.11796506 0.61853367 -0.50411761 -0.72071165 0.37614742 1.31745625 -0.02619206 -0.14391664 1.21647501 -0.48251840 -0.33107954 -0.07223816 -0.58935249 0.37908000 0.30417854 -0.08856145 0.05792052 0.44558129 0.65518242 1.70131111 -0.47212157 -0.12310617 0.33410195 -0.39333588
0.02381736 -0.09388755 -0.85440671 0.33408004 0.42906010 -1.29608548 -0.96429724 0.22545671 -1.10603297 -0.75344992 -1.04943347 -0.71418172 0.72748023 0.39693740 0.09387340 0.22838660 -1.10209441 0.63982576 0.49943516 -0.44377396 -0.23971154 0.50916439 0.20181973 0.34454897 0.49695376
-0.10774966 -0.40588620 -0.78938740 -0.30955863 0.85531783 1.22836602 -0.02660107 -0.56380552 0.19530299 -0.46427140 -0.85662884 -0.17934109 -0.97308618 -0.46498504 -0.07268590 0.99246240 1.13439071 -0.21989930 -0.61458981 0.15332226 0.54248297 0.76229388 -0.01390954 -0.38524869 -0.08839129
0.53800291 -0.30721971 -0.01742771 0.18667567 0.96303838 -0.90322691 -0.12171150 -0.32820252 -0.51184428 0.23320481 -0.78567839 -0.22220846 -0.22719751 0.07367355 -0.54436886 0.06552376 -0.79240030 0.10787304 0.88477266 0.83729100 0.57258904 -0.55678523 0.18917225 0.51086253 -0.19620340
-0.25002071 0.20142531 0.12807868 -0.23247193 0.28942338 -0.16726573 0.30179113 0.27176961 0.85684848 0.15219341 0.75359255 0.14607875 0.09280184 -0.16200402 0.39218226 -0.26005092 0.92099100 -0.12795727 -0.20885813 0.09821734 1.56041098 -0.07814196 0.16537374 0.09435778 -0.15392081
0.05328077 0.00403805 0.67765826 0.44788009 -0.65588862 -0.57069862 -0.84644276 0.50999773 0.80132174 0.21041757 -0.34418863 0.19061872 0.24954118 0.40237013 -0.32151800 -0.32218736 1.30221081 0.16576238 -0.08406058 0.37585676 0.83349675 -0.09686944 0.28519851 -0.48987305 -0.07899385
0.28415632 0.55493826 -0.28051490 0.06002101 -0.46643814 -0.47777447 -0.10871360 -0.54225171 0.77760661 -0.64170951 0.52954143 0.09339309 -0.02662517 -0.18073285 -0.32282925 0.11832978 1.28519368 -0.33679327 0.52950299 -0.10180403 0.06711973 0.28850678 0.46671066 0.40607104 0.66828692
-0.39963809 0.31926790 -0.07928837 -0.11053070 -0.35217607 1.25988400 0.75039208 0.10526937 1.91381621 -0.15203589 0.43659896 -0.35588557 0.18131703 0.18892796 0.59254348 -0.04181629 0.59223294 0.46240973 0.27147311 -0.29543108 0.43609756 -0.36850432 -0.28384113 -0.23692539 0.09001807
-0.49296880 0.00728186 -0.61935413 -0.32838154 -0.11854287 -0.38194299 -0.05011263 0.51534748 1.41033006 -0.14212805 1.01076996 -0.51845670 0.00262019 -0.31534970 0.49240822 -0.29928765 -0.44555503 0.59755558 0.91442204 -0.19907664 -0.28421342 0.04824975 0.62210226 1.32682872 0.03561393
-0.19903268 0.14947614 0.10816424 0.39595050 -0.76320285 1.05138934 0.13797076 0.26681322 -0.20158228 0.49801359 1.24952233 -0.49819922 -0.63914639 0.14345475 1.00411820 -0.00444383 0.34460303 -0.26698324 0.33794755 -0.48888740 0.39349735 -0.20062497 -0.25587735 1.69422853 0.29438829
-0.28599170 -0.03486652 0.36136383 -0.04129550 -0.48160347 -0.52025962 -0.40848273 0.51739699 2.45442104 0.49789912 0.85497034 -0.21254806 -0.46022880 -0.32376233 -0.42127585 0.84963316 0.50538629 -0.05514671 0.62117761 -0.18257970 1.73283148 -0.29538965 0.05440685 -0.04312306 -0.10997178
0.12978247 1.20287800 0.29719633 -0.46012455 0.66381657 0.35406005 -0.18319176 0.89358401 0.36389211 -0.30470058 -0.45344195 -0.13807949 0.09282428 -0.45588905 -0.81381083 0.48418108 0.37546635 -0.64169514 -0.12941432 0.70234334 1.68429160 -0.13324916 -0.72384083 0.14366178 -0.12397122
0.13745317 0.88171542 -0.39478433 -0.85896015 -0.09735902 -0.34592497 -0.28192466 -0.61166793 -0.61281651 -0.64099455 1.71814549 0.18664804 0.68533850 -0.93581647 -0.37572625 0.42343104 0.46192235 0.04249727 -0.55775142 0.48762986 0.34277424 0.61621130 0.33591980 -0.06213253 -0.44286859
-0.18652280 -0.33822769 0.38799658 -0.31267294 -0.04192199 -0.75137609 0.61720085 -0.36920285 1.05078423 -0.07132354 0.38980788 0.60531259 -0.22522803 -0.25727704 0.42754632 -0.10483152 -0.62071693 -0.13665508 1.02792811 -0.23931177 -0.07974611 0.09178776 0.48506802 -0.51115340 -0.10285894
0.01562805 -0.03095153 -0.28322309 -0.22561473 -0.31881189 -0.52299625 0.40812963 0.25724998 0.77377266 -0.07960410 0.29589000 0.41067031 -0.44100267 -0.12374080 1.37121725 -0.37229586 -0.04092501 0.19718269 0.29391506 -0.11777784 0.17157176 -0.19074157 -0.30592850 0.09169184 -0.23019926
-0.58657467 0.02904936 0.22444393 -0.18777792 0.06942967 -0.20832548 0.56111377 0.07723599 0.23648354 0.63176811 -0.68011642 -0.13897969 -0.28625718 -0.23877227 -0.37878606 -0.29376757 0.08811056 -0.12540148 -0.40957478 0.30859232 0.94578552 -0.12353374 0.10534635 1.53055286 -0.06880697
-0.29364499 0.40823859 0.31301698 -0.52058625 0.57377756 -0.75687975 0.24917878 -0.22484885 0.56465226 0.43149161 1.59860408 0.45672348 0.16202755 -0.25620973 -0.41703248 0.01706497 -0.46972978 -0.06188528 -0.12159180 -0.78235215 0.59305543 0.06057079 0.44962144 -1.47305572 0.42463636
0.48211718 -0.39513147 -0.88247591 -0.27184820 -0.56181628 -0.20014542 -0.33771670 -0.38173500 0.19336246 -0.24082205 1.27258670 0.54221475 1.11025822 -0.28040373 0.76430011 -0.37035051 1.61396027 -0.63593388 -0.28744751 0.56054974 0.06517016 -0.06893804 0.52813131 -0.32998145 -0.22502306
0.01216759 -1.25265276 0.26644397 0.66802365 0.85207403 -0.77274030 0.62137324 -0.46402934 0.15290450 -0.28232321 0.62854975 0.00667386 -0.03556168 0.06250453 1.40344012 -0.60078537 -0.32985064 1.00963497 -0.01569149 -0.46120974 -0.04506867 0.41117716 -0.41053236 0.84038144 -0.34915450
-0.67956287 0.23629931 -0.26572317 -0.07324047 0.20420845 0.40896189 -0.20824537 -0.30517638 0.13011180 0.03701234 0.24850920 -0.27236837 0.24122675 0.49035648 0.67065585 0.09363585 -0.32014030 -0.36492872 1.16181207 0.32625949 -0.27262929 0.18961219 0.55296302 -1.28175235 -0.95664483
-0.05289910 0.00582133 -0.02242405 -0.01714291 0.01089407 0.11212100 0.09083841 -0.07404130 0.33120564 -0.10282589 0.47160479 -0.03312995 0.01686108 -0.01815276 0.21257959 -0.06610577 0.14694327 0.01088606 -0.02552776 -0.10496530 0.59944278 -0.09427119 -0.12189829 -0.10136408 -0.10629582
-0.79680097 0.85420752 -0.48114660 -0.14716808 -0.00020237 0.93960172 0.47197577 -0.00800965 -0.33402517 -1.05886543 -0.48767442 -0.41532648 0.38221326 -0.06277192 -0.54302782 -0.05840472 -1.13154435 0.31895217 -0.28958088 0.17659655 1.01889849 -0.20124686 0.46557570 0.02497724 0.15480343
0.51581985 0.26167622 -0.32977968 0.77737468 -0.68344879 -0.42705166 -0.31304824 -0.46960375 -1.10129881 -0.05102282 1.17188931 -0.35099107 0.11414793 0.76329762 -0.88135523 -0.59091997 0.22605419 -0.18390170 -0.20562673 0.14959067 -0.22632061 0.18448853 -0.49884129 1.10168755 0.17834932
-0.27983770 0.95588219 0.07070343 0.11109348 -1.11068022 -0.36977473 -0.45547691 -0.38891149 -0.25871995 0.35008392 0.15618007 0.27277339 1.03775513 -0.02143909 -0.20686148 0.24061131 -0.12063259 -0.01521094 0.87079406 -0.52900952 -1.18089652 -0.61691463 0.11629435 0.42805254 0.67232740
-0.58487999 0.53901362 0.65940815 -0.55379349 0.41991845 0.21250628 0.19762892 -0.22153819 -0.51907104 1.02605522 1.47898531 -0.01178080 0.15606560 -0.53340757 0.55116463 -0.14985445 0.65810335 -0.35670921 -0.55785668 0.42741576 0.79654002 0.77010202 -0.61086106 0.54026747 -0.11753920
-0.50358385 -0.25234085 -0.82329845 0.42470640 0.22677077 0.69800806 -0.30595291 -0.80739784 -0.17023800 -0.73455513 0.03965496 0.19856501 1.23984778 0.23069268 -0.87667912 -0.29232642 0.96117204 0.18149172 -0.55173022 0.13244991 1.42347765 0.01605448 -0.14097187 1.21773207 -0.17437698
-0.39890179 -0.36374593 0.97369272 0.69903153 0.29257318 0.61725152 -0.52999783 0.58381599 -0.33675477 -0.49997321 -0.99001288 -0.05455973 -0.46494317 0.69427413 0.32800716 -0.38149178 1.31875288 0.13024141 -0.65559834 0.34857839 1.12861633 -0.88548499 0.48745251 -0.94309932 0.40042478
0.14177361 0.52232271 0.56074846 0.49801362 0.80701709 0.37159005 0.05973146 -0.79151982 0.35555759 -0.63082600 -0.46947753 -0.24862514 0.01290850 -0.39689258 1.03413570 -0.24036328 -0.79029799 -0.22752051 -0.71328336 0.29400131 -0.67691439 -0.22476982 0.29505560 -0.26234370 0.12073407
0.54846746 -0.01039670 0.06365277 -0.18675220 -0.39376938 -1.08193350 1.45823336 -0.38073725 -0.01271946 -0.91126978 -0.95153964 -0.49589077 0.38916761 0.57024568 -0.38420668 1.20244730 0.43733829 -0.43118033 0.94629550 0.71478808 -0.33014002 0.25918633 -0.08059243 0.67679745 -0.27094054
-0.07921089 -0.34785140 0.50404048 -0.46732771 -1.01381290 -0.94541883 0.39966625 0.61522001 0.00651225 -0.65839458 -1.72869968 0.58490306 0.41426665 -0.77631861 -1.01185000 0.02331747 0.19712715 0.27338994 0.38921812 0.37267724 -0.31724143 0.01622545 0.35308450 0.12303483 0.22213435
0.18644506 -0.30884081 0.81029856 0.08196150 -0.08461435 -0.01666430 1.06769800 -0.41381675 -0.08263863 -0.27115905 2.17740083 0.34631720 0.45644975 0.17492168 -1.15866017 0.21325062 -0.80541545 0.88767016 -0.53443927 -0.66039324 0.48758146 -0.71535867 -0.32212654 0.24376331 0.18920729
-0.19739984 -0.72822982 0.07022113 -0.43600267 0.63396221 0.67974418 0.85586858 0.89004022 -1.39123702 0.00448126 0.41764832 -0.08212980 0.22304134 -1.00212765 1.06937683 -0.26825342 -0.63624364 0.15223949 -0.19201903 -0.34062272 -1.19196630 -0.36040926 0.01122205 -0.24252479 0.24322891
-0.09894483 -0.15813762 -0.18901999 0.12372044 0.50915939 -0.51269877 -0.97179747 -0.28639933 -0.33552277 -0.40108663 -0.26994333 0.47938266 -0.94187820 0.44378012 -0.27288377 0.51609147 0.97502494 0.11278856 0.57258463 -0.23976742 1.47352040 -0.13775121 0.27248937 -0.86641926 0.21393974
0.15102933 -0.85514224 0.79430085 -0.47466025 0.13988774 0.64242506 -0.84063339 -0.31515872 -1.30027962 -0.06439047 -0.56373292 -0.50598699 0.21116020 -0.11565698 0.78412664 0.65223438 -1.28464711 0.76913625 -0.60802776 -0.16904411 -0.30907232 0.39426777 0.13389654 0.89040238 0.18996876
-0.63906097 -0.77623457 0.05297955 -0.63868421 -0.49070969 0.22670871 0.26022267 0.68628359 -0.41206527 -0.77295578 0.43447188 0.55497235 -1.23165333 -0.55508035 0.30230555 0.57343239 0.14572096 1.02897668 0.99153394 0.05702142 -0.87302119 0.18527226 -0.23550951 -0.12725012 0.45545965
0.70041656 0.95538193 -0.12935644 0.28909031 -0.45695534 -0.24109723 1.42682028 0.36719877 -0.19186091 -0.82481277 1.50084102 -0.19873650 -0.30356136 -0.08332290 -0.98981744 0.65652204 1.03995228 -1.26214409 -0.63181275 -0.43632582 0.67310566 -0.13167183 0.14719845 0.28220865 -0.18050838
0.34523001 0.64142352 0.35966229 0.28890836 -0.13989885 0.46359158 -0.27482888 -0.02768388 -1.76095760 0.66631770 -2.14210033 -0.47577751 -0.68749470 0.32508361 0.31361854 -1.05803859 0.48711810 0.71685964 -0.15745616 0.35471916 -0.36875537 0.13954680 -0.14011785 -0.26280603 -0.44875401
0.45319271 -0.75852561 -0.08787934 0.75495625 -1.00478375 0.07062241 -0.37287608 -1.03186405 1.05011153 -0.34614718 -2.02444911 -0.11247534 0.43613493 0.55298877 0.37358373 -0.16538855 -1.25666189 -0.04848275 0.13980950 -0.17515668 0.25327197 0.13174033 -0.71667576 -0.32899320 0.41442093
-0.31717423 0.15759131 -0.11504491 0.05671617 -0.01241571 0.09419043 -0.09449770 -0.31595531 -0.47167659 -0.42495733 -1.70296085 0.00016415 0.43751994 0.25425127 -0.28409180 0.36848277 -0.26609007 0.10182913 -0.42575845 0.44939685 -1.17718959 0.28246582 -0.17890674 -0.26192743 0.22010526
0.18424670 0.07918447 -0.36755085 0.12392607 0.04514195 -0.23899417 -0.08603639 -0.24987157 -1.04001212 0.04348479 -0.80551147 -0.06404333 0.13191652 -0.22505912 0.13919856 0.10941742 -0.02775444 0.16103026 0.08140171 0.16667834 -0.63595396 0.32167846 -0.15642785 -0.85597628 0.16668528
0.38022143 -1.01849437 -0.33943751 0.64615190 0.38177362 0.33099923 0.41713890 -0.27243680 0.08452999 0.80104464 -0.45174944 -0.24874261 0.58986825 0.31346503 -0.38800931 -0.40213698 -1.97969949 -0.04211539 0.24698198 -0.96181881 -0.15265624 0.12856059 -0.65151620 -0.86653191 -0.38354570
0.25704935 -0.58098668 0.51726168 -0.13738732 0.61260003 0.24503991 0.63508016 -0.14712751 -1.48338723 -0.97941869 0.04986439 0.06272946 0.09396012 0.24311039 -0.42662522 -1.04937196 -2.51529527 -0.62324512 0.10935856 0.32515869 -0.56863916 -0.12155622 -0.17332251 0.48655665 0.24762465
-0.38306269 0.22377928 -0.51311034 0.38309577 -0.02159772 -0.31184050 -0.07918081 -0.28097004 -0.18318456 -0.17793189 -0.04492712 0.34810400 0.27214089 -0.32888740 -0.21456186 0.48795864 -0.41743654 0.00045118 0.19993506 0.47725189 -1.86917281 -0.01078178 0.02236658 -0.19703887 0.24559787
0.47930318 0.60306966 -0.35463771 -0.75518215 -0.21223038 0.54466307 0.19042221 0.45221129 1.17887115 -0.18679789 -1.13310945 -0.01656047 -0.04820196 -0.39234772 -0.10550380 -0.64523870 -1.09430075 -0.25599265 0.45724341 -0.79905379 0.14381711 0.57266998 -0.08497962 -1.51122415 0.22356498
-0.86885518 -0.45711729 -0.03951268 -0.32137793 0.33543941 -0.59254748 0.27685645 0.69988412 0.55317533 0.54699880 1.25288069 0.21085234 0.37666908 0.11300894 0.08558394 0.27811182 -2.17878461 0.65044171 -1.06157327 0.06711402 0.41615504 -0.19154076 0.13744940 -1.07186306 -0.36159340
-0.65549874 -0.32053289 0.30917728 0.81579590 0.35114905 0.37902483 -0.51913720 -0.68283492 0.38523453 -0.41896018 0.26004201 -0.63020635 0.50581449 0.62590963 0.49124816 0.29015553 -1.19623661 -0.41368115 -0.77340472 0.00001662 0.50057256 -0.05615127 0.52324116 -0.34897840 0.37716258
-0.27603140 -0.32922503 0.42338255 -0.51557702 -0.08390465 -0.16442963 0.41106850 -0.07584310 0.51864254 0.27268502 -0.59799135 0.31037378 -0.26078904 -0.38545418 0.42487121 0.11993034 -0.78745049 0.01997309 -0.74365097 0.39061037 0.26884553 -0.04501183 0.47504491 -1.01830912 -0.52845579
0.09927844 0.09655983 0.90069455 -0.12529409 -0.42522484 0.20461549 -0.88950890 -0.17341524 1.16167545 -0.36286891 0.93538129 0.24968067 0.23946103 0.71178985 0.14914793 -0.37443846 0.19260459 0.00026401 0.52272630 -0.44971463 0.81921422 -0.45952839 0.33291379 0.89590180 -0.64002991
-0.47432226 0.73979574 -0.68787903 0.04834563 -0.39360952 0.03013676 0.49458104 -0.87203592 -1.03444755 0.41295999 0.27418932 0.45831743 0.59742749 0.27773777 0.33577067 -0.61257678 -1.03921556 0.59096569 -0.57693708 0.76234192 -1.34050226 -0.56972247 -0.92175078 0.52466345 -0.48096406
0.08038390 -0.63350481 0.48676741 -0.06232104 0.04746436 -0.37844050 0.74985939 0.14844666 1.27856135 -0.67748642 0.01722966 -0.44344404 0.91353554 0.18153615 -0.65299499 -0.35587800 1.69204724 0.56007338 0.94770777 0.45243031 1.11686826 -0.53264993 -0.41161999 0.78293461 0.06833674
0.05252130 0.01223586 -0.23902509 0.17054893 -0.08684372 0.25555605 0.03408254 0.11742429 0.12569354 -0.01125059 -0.31178993 0.44347420 0.46581382 0.07777376 -0.26539141 -0.64369309 -2.89644527 0.32555470 0.05685899 0.37232906 -1.90173352 0.00072485 -0.04105735 -2.20104623 0.06135868
0.15583767 0.17199671 -0.77260441 0.60374343 -0.71313447 0.04564502 -0.44970793 -0.10583322 1.17620039 -0.12396277 -1.96850502 0.43742952 -0.04555351 0.81028098 -0.29327756 0.06991430 -0.73824781 0.14330912 -0.67504579 0.29786676 1.03631032 0.02492680 0.09904886 0.72335857 -0.37122962
-0.75046927 -0.95952415 0.62031573 0.46605185 0.10213059 -0.35821566 0.68330479 -0.06998887 1.37774467 -0.02955708 -0.07737405 -0.43198532 -1.08653069 0.49609089 0.49820337 0.35919821 1.07633841 -0.13259216 -0.50505972 -0.05260634 0.86981362 0.44218624 -0.05962481 -1.21683741 -0.41807759
-0.18470725 -0.00507087 0.07440588 0.58900452 -0.87511241 -0.15772994 0.17298278 0.68916231 -0.34987015 0.69551635 0.23738091 0.45327020 -1.17450023 0.42728430 -0.69995707 -0.31049511 -1.00945675 -0.43225521 0.14642787 0.46746916 0.18482040 0.45833451 0.30028319 -0.57725209 -0.74159825
0.07765419 0.21326023 -0.49154028 0.36011931 -1.03428125 0.29399022 0.74843222 -0.30463976 0.19807008 0.07939316 -0.02738942 -0.46049467 -0.96097833 0.18489009 -1.00815463 -0.15628360 -1.17439365 0.42125309 0.39386767 -0.58720613 0.63794982 0.28756535 0.46493953 0.17327854 -0.32414407
0.04977778 -0.26205894 -0.48556513 -0.27899778 0.48996231 0.11784745 -0.29640612 0.83417767 0.72235340 -0.56417638 -0.90618134 0.18081124 0.16966294 -0.12618622 1.04086947 -0.30557922 -0.65260190 -0.18371342 0.49926621 0.21813713 -0.72079796 -0.03931690 -0.32348284 1.40100968 -0.11573037
0.25557244 0.15252770 -0.19046095 -0.05238269 -0.07883079 -0.19475217 -0.35939923 0.33821002 -1.05872595 0.10425845 -0.97872216 0.24313538 -0.10188607 0.17187837 -0.88256502 0.24022339 -0.27020857 0.06262714 0.17633645 0.28845644 -1.47497940 -0.05060003 0.10745160 -0.59269458 -0.01176810
0.34095663 0.16797940 -0.74635214 -0.09918491 0.40194607 -0.16271913 -0.22971413 -0.54044110 -0.05670467 0.92562151 -0.85856950 0.17751944 -0.27448881 0.04596491 -0.08303052 0.55832297 -1.35430741 0.27129242 -1.03883493 -0.32888818 -0.86157954 -0.21531858 0.32042471 -0.48276234 0.43560743
-0.14237596 -0.34852278 0.19250852 -0.45668185 -0.10450300 0.19999094 0.23567466 -0.48944801 -1.85654712 0.52237898 -1.01372075 -0.03198447 0.27219769 -0.16859727 -0.16695230 0.55724281 0.83128417 -0.02654942 -0.03534305 0.11552455 0.06423163 0.25218767 0.36087596 -0.56121570 0.06474376
0.04526859 0.06856250 -0.02047002 0.07307722 0.08406394 -0.02782778 0.15453038 -0.01871284 0.36982512 -0.04582652 0.36042494 -0.06833357 0.07251108 0.01718637 -0.25960743 0.03138129 0.29619786 0.04099742 0.03439503 -0.11332699 0.45624346 -0.04979161 -0.08969606 0.05989213 -0.03993686
-0.24202979 0.07075527 -1.33880150 0.58230239 0.44922933 -0.83423924 -0.40407330 -0.42491278 -0.43881643 0.83255088 0.57404560 0.36648589 -0.11696621 0.72205734 0.28043336 0.34142542 -0.71663696 -0.69616610 0.35260275 0.33227760 -1.10689652 -0.16793518 -0.57225108 -0.00517465 -0.28262848
-0.05085562 -0.30723006 -0.38090709 -0.26968285 -0.67158705 1.05118740 0.02628180 -0.42074355 0.10419011 0.88434523 -0.03938619 -0.34098613 0.46918109 0.00305855 0.43819252 0.50243413 0.34763828 -0.24061354 -0.36863759 0.49257019 0.15917033 0.33801305 -0.56936932 -0.41750878 0.45316932
-0.69014937 1.40973532 0.49979815 -0.26228949 0.34294111 0.55519563 -0.67320955 -0.36375010 -0.79810876 0.26684824 -0.12727399 0.08613096 0.43890360 0.04876637 0.25712246 0.12866934 -0.51329529 -0.24241051 0.73336810 -0.95793068 -1.04782796 -0.62079287 0.37538964 1.17331207 -0.47514284
0.68732470 -0.71354234 -0.06977124 0.52307051 -0.58127272 0.16537267 0.34720817 0.17982143 -0.29868680 -0.23650970 -0.72600710 0.42239168 -0.33946061 0.01268963 0.74042988 0.63317323 0.66916949 -0.07136809 -1.08829618 0.35482535 -1.45033526 0.26849008 0.13460407 -0.78476238 -0.54835248
-0.28766930 -0.46484175 -0.00485837 0.41212827 -0.39951763 0.29877585 -0.67866206 -0.62679261 -0.71493047 -0.55285889 1.78759313 -0.14530171 0.28953183 0.31592250 0.15226693 0.22686145 1.79940212 -0.29001236 0.50029349 -0.05951919 -0.96449137 0.40246409 -0.37155616 -0.88857734 -0.30369261
-0.19783905 0.62040383 0.51926225 -0.46317741 -0.24648948 -1.25704134 -0.13370048 -0.75760543 -0.68991250 -0.39270926 -1.27872503 0.47446081 0.07153575 0.13204667 0.79438192 -1.30742574 -0.36833683 -0.00587918 -0.00267195 0.32318416 -0.02083566 0.89220440 -0.60751367 -0.38895568 0.39665118
0.06049082 -0.05661343 -0.07997900 -0.03549110 -0.15572441 0.10057873 -0.14469019 0.03086986 -0.13503735 -0.09429935 0.23341291 0.03122762 -0.00275403 -0.04655476 0.00223006 0.03351914 -0.01371386 -0.07746121 0.00044163 0.03391467 -0.47075599 0.00503371 0.07123958 0.20282114 0.00248793
0.21717951 -0.90853560 -0.84602815 -0.38427287 -0.44045848 0.46592399 0.05562724 0.68428797 -0.10791449 0.17379722 1.75962079 0.67415994 0.59611344 -0.42967185 0.03505066 -0.34130293 -1.39657545 -1.14508748 0.49272224 0.09779050 -0.55505574 0.86901355 0.17313755 1.16564167 0.20653620
-0.07761224 0.04463328 -0.36770293 -0.27503967 -0.27608657 -0.75739795 -0.04941330 -0.52547008 -0.06217980 0.81931365 -0.48131308 0.02272815 -0.13051480 -0.28316349 0.75944853 0.08531819 1.70225585 0.23982862 -0.23669545 -0.26275226 -0.20550771 -0.09877837 -0.31531456 0.93522745 0.36580393
0.03512271 -0.35077605 0.54715526 0.31898609 -0.50604379 0.82393581 -0.34459126 -0.44660294 -0.47694492 1.01448667 -0.05743673 0.48806643 -0.47584596 0.41176715 0.26713359 -0.39939132 0.64496094 -0.37709948 -0.60328847 0.02676875 1.21200645 0.16482510 -0.33656630 1.07172489 0.13995679
-0.11155380 0.43612644 0.12698843 0.51966834 0.60200191 -0.63412422 0.02258466 -0.38233235 0.72379529 0.65909553 -0.44367975 -0.18894981 -0.82869655 0.36497641 -0.28068209 0.33695731 -1.90664327 -0.08649241 0.17278902 -0.83058435 0.05015172 -0.06383500 -0.38695893 -0.99675882 0.22107694
-0.00877013 -0.38131395 0.29721227 0.44346777 -0.16331595 0.46915272 -0.26469332 -0.58164781 1.19020998 0.60112661 1.83269978 -0.42129627 -0.02631927 -0.09446824 0.95185143 0.07868857 -0.40412506 0.36683753 -0.20542422 0.20288374 1.17541909 0.01713239 -0.16488536 -0.80093253 0.08620992
0.37333018 -0.90705317 0.15412204 -0.70060498 0.60621339 0.20619817 -0.09180037 -0.72377658 -0.22900434 0.17031957 -0.33165041 0.78389424 -0.35238057 -0.45004201 -0.05608758 0.68249917 -0.55460232 -0.35175571 0.78362948 0.26719618 -0.99911618 -0.51187146 -0.08726041 0.86505461 -0.14891984
-0.23889771 0.66773683 0.33489138 0.00045365 0.07393092 0.19596030 -0.27464607 0.16738161 -0.02731429 0.55004048 -0.21343940 -0.38112888 -0.02133988 -0.43417084 1.72456872 0.27083555 0.16832340 -0.26367822 -0.24675094 -0.42452535 -0.41110432 -0.22492100 -0.24012522 3.69255996 -0.20850696
0.15994903 0.05591558 0.15411523 -0.27529183 0.02310937 -0.44135296 0.31563783 0.18229030 -0.19299307 -0.02953625 -0.55555195 0.08986858 -0.04382417 -0.18272471 -0.04713822 -0.18747176 0.00473503 0.12966850 0.16657667 0.14186601 -0.38286492 0.09815496 0.29424688 -0.33254239 0.10090122
0.47563002 -0.25162318 -0.31733909 -0.55242974 0.72161067 0.24706419 -0.52825302 -0.41658276 -0.62730950 -0.01658665 2.07610106 0.06478655 0.81950158 -0.60463989 0.24425317 -0.63419026 0.30896717 0.36010101 0.18358691 0.14679149 0.33453050 0.55437040 0.06505076 -0.16788743 -0.10170326
-0.16118945 0.18091151 0.32409105 0.11836546 -0.31874794 0.07756883 0.14126153 0.42081630 -0.70550686 -0.65830398 -0.23663075 -0.14102557 0.18531759 -0.10583840 -1.21600723 -0.32290852 -0.68072939 -0.14813818 0.53298491 0.52268422 -0.62028325 -0.21481121 0.32214999 0.59692669 0.19511257
-0.11377662 0.16144216 -0.87148601 0.60888469 0.36014846 -0.76814508 0.35654914 -0.02041076 -1.15244639 -0.25906074 0.74689877 -0.05691752 -0.63886029 0.54122621 -1.04064453 0.02665015 -0.22531818 0.13889819 0.10617039 0.58467031 -0.47672600 -0.74771464 -0.14597225 0.05373360 0.62092757
-0.32964608 0.42000926 -0.32750368 -0.70550716 0.29801893 0.90498823 -0.35265154 0.50550210 -1.29275978 0.26666605 1.05668235 -0.40495178 -0.56396610 -0.39489415 -0.77994227 -0.93708152 0.78465611 0.41262898 -0.18553334 0.37513536 0.05778914 0.60020584 -0.01768788 -0.90610307 0.66234708
-0.19238567 -0.12118509 -0.46245259 -0.03475795 0.97154504 -1.01938021 -0.45196301 0.86389673 -0.70927769 0.89146990 -1.26109827 -0.49845195 -0.15286966 -0.15357734 -0.74081898 -0.34053075 0.83204234 0.53545696 -0.49152559 0.44650757 0.03832995 0.16989790 0.13952798 0.87098968 0.30095127
0.27774963 -0.70725328 -0.16306894 -0.41793719 0.82523799 -0.47536102 -0.48360589 0.35184559 1.69420636 0.66098940 0.33411160 0.12024461 0.29295886 -0.34526896 1.23244762 -0.96868581 0.54144573 -0.74520493 -0.14632064 0.41207075 -0.03869945 -0.53564793 0.63291937 -0.32046530 0.21321467
0.33454558 -0.27278492 -0.30504462 -0.07528667 0.76346487 -0.11156709 0.54312021 -0.91315567 0.29300594 -0.03530107 -2.13083172 0.15899543 0.47861576 -0.25101405 -0.67424220 -0.47067961 0.66509163 0.68331438 -0.60984063 -0.39137533 -0.07801129 0.41916326 0.42011398 -0.42544737 -0.12743908
0.10747397 -0.58927238 -0.08088518 0.38575694 0.62717211 0.41041264 1.15366852 0.57378626 0.95295101 0.06086459 1.50502694 -0.53886294 0.19576676 0.31270847 -0.83897972 -0.30642131 0.74581188 -0.46800020 0.42076096 -0.83422267 -0.15693730 -0.47787344 0.05779823 0.73981887 -0.21028595
0.44733310 0.88892108 0.83284640 -0.13473253 0.00537262 -1.12596655 -0.15334296 0.49895895 -0.34120303 -0.12173946 -0.27020684 0.07484840 0.81367308 0.09956416 0.07491513 0.39094049 -0.03942535 -0.85758829 -0.43662754 -0.19634518 0.01497090 0.62436122 -0.38721260 -0.73184437 -0.17843488
0.23680264 0.05496078 0.95061868 -0.58594280 -0.07018040 0.67680180 -0.48278350 -0.71725774 0.17118743 -0.97278464 1.91636455 -0.35097885 -0.42134368 -0.39720982 0.20777586 -0.40068266 1.62954581 -0.11414270 -0.17916611 0.44961947 -0.48042950 0.12471654 0.13577518 0.30172622 0.52376896
-0.18486692 0.93559462 0.10601506 -0.07313097 -0.55301499 -0.21624236 0.10274511 0.38951746 -0.37496486 -0.49302405 1.08971000 -0.56558996 0.06263508 -0.26553604 0.02173625 0.17700522 -0.14951414 -0.13445967 -0.40865052 -0.29289347 0.50885403 0.04739230 0.49837261 1.50366509 0.00669626
-0.73008132 0.48078835 -0.78661048 0.12907693 -0.68931031 -0.34844559 -0.18156004 0.37711710 -0.04151683 0.38099903 -0.63298196 -0.06333254 -0.03959288 -0.07107974 -0.74581605 0.04274353 0.58610940 -0.21757016 -0.13899827 0.46494910 0.52045649 0.44262138 -0.13637227 0.30530640 0.19772561
0.48286051 -0.07979492 -0.22724533 -0.53482533 0.83294594 -0.82017910 0.15429437 0.20114072 -0.76477343 0.73087591 1.40695536 -0.38742900 0.10623026 -0.50821692 -0.82189077 0.91819590 0.97179425 0.34735182 -0.07082830 -0.34842494 -0.49724784 -0.26992205 0.12972665 0.07671494 0.11243308
0.11604640 -0.28176752 0.40192053 -0.11564812 -0.64174014 -0.64847589 0.09304893 0.68673533 0.03168989 -0.05812690 -1.21551454 0.02412688 0.33892682 0.01575901 0.07994885 0.62684274 -1.57146394 0.45390734 -0.63532704 0.51906890 -2.92513847 -0.44837445 -0.13961346 -1.24391377 0.21954595
-0.10980096 -0.04055833 0.22807510 -0.30509850 0.21473058 0.40738714 0.19719025 0.15428950 0.27086857 0.00139789 -0.42345461 0.01649831 -0.31222302 -0.23034103 0.25453359 -0.20414504 -0.33007088 0.13103954 0.30207101 0.01703600 -0.01107727 -0.19597046 0.10465722 0.99819225 -0.27637154
0.23728590 -0.77939790 -0.96089000 0.03165144 -1.20361638 -0.90765226 -0.62361950 0.90340275 0.09000253 -0.52876896 -0.74035311 -0.09407663 0.24477080 0.51899976 -0.00184633 0.68149137 0.77770323 0.49609601 0.07631277 -0.30978608 -0.05501515 0.26926059 0.01218080 1.03403962 -0.12552446
-0.34792393 0.47936666 0.10093942 0.63959181 0.24950272 0.25373915 -0.17936504 -0.06261645 -0.06045421 -0.13987574 0.51567429 0.65564477 0.90863395 0.58133572 0.00350875 -0.00345957 -0.41014692 -0.25609928 -0.05226849 -0.32822093 0.22001293 -0.55986077 0.05210087 -0.87058532 -0.68404102
-0.77028704 -0.40979618 0.10132803 0.44296259 -0.81321681 0.68386638 -1.24456298 -0.53462785 -1.25691545 0.84831554 1.29466069 0.29522943 -0.35098502 0.41777658 -0.85560280 0.19371296 0.48288646 0.21979888 0.88265520 -0.10030635 -0.83223850 0.09589467 -0.34045133 -0.25607738 -0.44346288
-0.35107231 0.12198997 0.30705079 0.79826444 0.87739962 0.94403571 -0.40023890 -0.18691906 -0.39851895 -0.46072435 -1.18342710 0.07952373 -0.09915860 0.66992247 0.37676328 0.59009963 1.43481016 -0.47008881 -0.20323995 -0.99077767 -1.49113071 -0.50061065 -0.04115612 0.07673910 0.05224814
-0.21697012 -0.19979914 0.38492483 0.00752510 -0.22837247 0.28647164 -0.58582449 0.78023702 0.43231910 -0.39948511 -0.35483718 0.10700850 -0.48752314 -0.06963389 -0.04713552 -0.57823068 -1.59961128 -0.12586020 -0.28029540 -0.27034980 -1.55056000 0.35194194 0.40236580 -0.92830575 0.31484756
0.36384028 0.94392174 0.96384412 -0.58424360 0.28187996 -0.16609241 -0.03710724 -0.01171220 1.25250721 0.27903283 0.34103805 0.00059286 -0.00257034 -0.47093743 -0.49227610 0.75926328 -0.15348740 0.21708241 -0.68950373 -0.51224059 0.11075156 -0.05146476 0.33598077 -0.51437533 0.18367775
0.49991116 0.32609478 -0.06111011 -0.40984723 -0.42838392 0.46756464 -0.21669604 -0.21665011 0.26282492 0.34522304 -1.15182543 0.03118632 -0.22443660 0.09351054 0.21410424 0.40394416 -1.35661042 0.23022453 -1.04319417 -0.67799753 -1.82100296 0.36416107 0.16686697 0.11733478 0.33681890
0.16230594 -0.03428690 0.20888241 0.05516004 0.03348778 0.29811901 0.11545936 -0.14205199 0.42496642 0.01739175 0.85421354 0.01199460 -0.01946070 0.08969291 0.33520770 -0.00174885 0.19558601 -0.02976883 0.01029030 -0.07098565 1.37928104 -0.23077242 0.01047665 0.85833901 -0.24112444
0.16561784 -0.00123527 0.06096244 0.17768055 -0.15200010 -0.12867498 0.14230816 -0.09266425 -0.66801572 -0.32273662 -0.34290954 0.22568479 -0.02500356 0.19499218 -0.52922416 -0.23300116 -1.01528025 0.04112628 -0.08153639 0.08111952 -0.98439795 -0.02485748 0.12025358 -0.33594045 0.19942440
0.24302477 -0.28322983 -0.72821498 0.30360216 0.96456271 0.69802636 0.18515545 -0.19523495 0.17111899 -1.17138541 0.80750650 0.44801530 -0.96360791 0.49620599 0.59515494 0.09222474 -0.87595618 0.93620718 -0.48017815 0.32074314 0.30870843 -0.57679790 -0.28404221 -1.01047778 -0.24367815
0.25301647 0.72634578 0.82040757 0.04591483 0.33589736 -0.40935284 -0.47666958 0.76775146 0.22378938 -0.20984702 0.76234591 -0.38923338 -0.69528371 0.00606098 -1.33294797 0.39690676 -1.90511096 -0.47409979 -0.13750693 -0.12756875 -0.53529072 0.51984954 0.16398312 1.27542531 -0.62331134
-0.20787409 0.34714675 0.12971513 -0.41971350 0.20018351 0.31632206 1.11515152 -0.85166407 -0.58904976 -0.37330931 -0.48584807 -0.00651505 -0.02409993 -0.72449523 1.05918097 0.79028511 1.93002415 0.70036888 -0.24702370 -0.15761055 -0.92467618 0.17699325 0.16926068 -0.54525608 -0.35815945
-0.17182125 0.67248005 -0.56450349 0.34738505 0.03011727 0.42264616 -0.62553823 -0.13025598 0.16002235 0.26754102 0.25495726 -0.75444806 -0.16779809 0.13652223 0.11670963 0.56351107 0.57753175 -0.62962413 0.91069841 0.38177016 0.34984002 -0.59667003 -0.11467404 -1.36134863 0.36432892
-0.06955443 -0.19068439 -0.00520090 0.85925478 -0.27523559 -0.57148618 0.43390104 0.54891241 -0.70122623 0.42736080 -0.34481341 -0.34573087 0.76070589 0.55244952 0.39181724 -0.41889280 -0.08992270 -0.69052857 -0.52335984 0.52102792 0.01840097 0.10153969 -0.15770616 -0.15112743 -0.33908755
-0.08731811 -0.05289006 -0.42262024 0.10868752 -0.65170842 0.48185238 0.22656472 0.82383913 -1.94912779 -0.00691039 -0.97022992 0.24218620 0.01207199 0.40726516 -0.31212738 0.47632223 1.32290876 -0.41801709 -0.90722227 -0.74473721 -0.31110322 0.29630393 -0.92858607 0.61610061 0.21017683
0.89817023 -0.29357708 -0.31695777 0.06957828 -0.81044090 0.65819174 0.19836618 -0.35095358 -0.77902544 0.31528524 0.48050174 -0.01059168 -0.06123855 -0.29997662 0.44772288 0.97929651 -0.69895691 -0.17475313 0.22607671 -0.11182363 -0.85923922 -0.76208347 0.11619885 -0.14784577 0.34912407
0.56334704 -0.30624619 -0.05897291 -0.18258627 -0.32067165 -0.18008678 0.38129777 0.76279569 -1.74959517 0.16480021 0.08039391 -0.20553418 0.12863189 0.42328134 0.82863981 -0.43238652 0.57757199 -0.27262607 -0.80392760 -0.45691109 1.02259219 -0.30905861 -0.09080385 0.71288437 -0.24069047
0.02100151 -0.25016850 0.09599524 -0.06328967 0.13675214 -0.27038550 0.01325048 0.21711135 0.88356465 0.22090644 0.48440731 -0.02549802 0.07420532 0.13622963 0.72394097 -0.35895616 1.07236743 -0.19017306 -0.05731600 -0.12710683 1.97202039 0.01430155 0.03925886 -0.10728619 -0.14664614
0.70158660 -0.52065182 -0.74652052 0.70455414 -0.09328312 0.36015648 -0.47638193 -0.25318176 0.24215481 0.53692937 -0.81396854 0.34173816 -0.63136226 0.37018469 -0.47258037 -0.03413238 -0.42213160 0.03388628 -0.49191052 0.38809597 0.40671232 0.41736856 -0.47219366 0.61930346 -0.81997448
0.22267783 -0.20051970 0.47593439 -0.10650098 -0.50991327 -0.68020475 -0.32583803 -0.15478876 0.82787514 -0.48975450 -0.88126355 0.27019709 -0.57675505 0.32633275 0.52367091 0.25156093 -0.38606620 -0.26527891 0.55790460 -0.09208920 -0.37292695 0.19828154 0.27926356 -0.68802994 0.41363546
0.05644472 1.03019869 -0.25382313 0.13679403 0.14338195 -0.89844751 1.06799269 0.85606307 0.00906560 -0.50198781 -0.32970184 -0.13909528 -1.09053397 0.06832952 -0.35235712 -0.13163958 0.62649035 -0.67140847 0.04984574 -0.28629565 -0.20987298 0.42364845 -0.29932183 0.89965802 -0.32742852
-0.22735064 -0.81653768 1.31696832 -0.12682267 0.41030416 1.14548457 -1.13258481 0.03796597 0.81079197 0.19405343 -0.04733833 -0.15636744 0.41927651 -0.38665360 -0.19711702 0.02489822 1.14435923 0.67444903 -0.13276188 -0.47471729 1.17809737 0.39816830 0.27773327 -0.77814859 -0.60659993
0.16677912 0.19244197 0.41078314 0.32625392 -0.22555391 -0.96862334 -0.00329797 -0.12973644 -0.82933104 -0.80486315 -0.10973616 -0.36408201 -0.37698853 0.40490982 0.08438614 0.09787510 -0.62153769 0.10279634 -0.31861442 0.75939518 0.75128418 -0.15693678 0.59434342 -0.01266044 0.00548388
-0.05735167 0.11784507 -0.46249667 0.25965324 0.27194372 0.31802231 -0.32222041 -0.49712768 1.31913435 -0.56257707 1.15164018 0.06368998 -0.08201796 0.68618131 0.04025706 -0.81262177 0.66393995 0.52098089 -0.76154929 -0.21617508 0.52728510 0.26013732 0.29365632 -0.43414479 -0.21056154
0.20257102 0.19112869 -0.00532892 -0.36296150 0.17905433 -0.40985015 -0.20804149 -0.00702797 -0.15486073 0.11302765 -0.45499393 0.40893441 0.01415195 -0.33838099 -0.09244977 0.03128325 -0.78512502 0.21635409 -0.17655876 -0.30213770 -1.30579090 0.29255050 0.01916542 -0.73434460 0.03150752
0.38757530 0.06984040 1.01645541 -0.25854236 0.07186380 0.83527082 -0.41986114 -0.30533540 0.98975146 -0.78942609 1.40543175 0.47349495 -0.39049053 -0.19696254 0.04473590 -0.44132307 0.52481353 0.29505891 -0.63696176 -0.11833572 0.77135259 -0.40091896 -0.31023175 0.58671135 0.54986674
0.48070565 -0.19697723 -0.44454134 -0.59196806 -0.07427071 0.54413384 0.35461923 -0.15518676 1.15597177 0.12636368 0.54067814 -0.35930583 -0.40052494 0.12910295 0.80173004 -0.82980424 0.61456621 -0.25620836 -0.34192243 1.10319817 0.15422602 -0.77725887 0.26096302 -0.39460632 0.35315591
0.09345052
0.08133744
-0.04973617
0.06735179
0.05054914
-0.11209323
0.04117976
-0.09898096
-0.74549949
-0.03851491
-0.73406512
0.08500165
0.03941242
0.02622850
-0.23403066
0.04680791
-0.63721544
0.18895175
-0.07735091
-0.00142203
-1.07414651
0.16492173
0.00816158
-0.72373289
0.12801877
