0.00194433 0.02599521 0.00370530 0.00044218 0.04185636 -0.01879689 -0.01675979 0.01977241 -0.01182146 0.00675114 -0.00520504 0.01439706 0.02229086 -0.02005402 0.03891647 -0.02950571 -0.02188865 0.02635033 -0.00801865 -0.00497186 0.02468837 -0.00603733 0.04136539 0.04490994 -0.04128323 -0.02343085 0.03228990 0.00112578 -0.02991545 -0.02525651 -0.03464047 0.01145743 0.04100605 0.03332135 -0.01487162 0.00086002 -0.03622297 -0.04756794 -0.00534835 0.02356539 -0.03616754 -0.01295651 -0.02180777 0.02963955 -0.00757598 -0.01393863 0.03530086 0.03739986 -0.03744458 0.02597692 -0.00136445 -0.04899020 0.04170967 0.01034672 -0.02319150 0.01209797 -0.00430999 -0.03288412 -0.00519555 0.00249839 -0.00282202 0.01182039 0.04060281 -0.03601147 -0.01901118 0.03936254 -0.04039683 0.02433311 0.00170969 -0.02651515 -0.02362694 0.03342202 0.01207823 0.02836308 0.00256691 0.02748107 0.01730767 0.01413497 -0.04065049 -0.04604077 -0.03945519 -0.00216683 0.04907336 -0.00710982 -0.01074185 -0.00147305 0.02951862 0.03586135 -0.02987286 0.03587312 -0.04657985 0.04560790 0.02105788 -0.01885556 -0.03282815 0.04710447 -0.03444500 0.04169395 -0.04701013 -0.02336307 0.01152488 0.01201764 -0.02742294 -0.02966774 0.04131231 -0.02275901 -0.03590763 -0.03005074 -0.00877217 0.02645128 -0.03080034 0.04457846 -0.02941080 0.04934970 0.00910511 -0.02955037 -0.04621875 -0.04533192 0.00497875 -0.00393387 -0.03798834 -0.02848345 0.02874544 -0.01157391 0.03005500 0.03687190 0.03619761 0.02839104
-0.25066093 -0.03835266 0.13590600 0.13140714 0.26453629 0.08632091 0.28458214 -0.29529777 -0.20828104 -0.55727577 -0.35556674 -0.08807153 -0.03632471 0.01757927 -0.22514558 -0.01163302 -0.02183074 0.25037321 0.08007620 0.08677220 0.08635434 0.11924184 -0.10823967 -0.18022662 -0.08329742 0.15132368 -0.45515898 -0.14661688 0.17894079 0.00789503 0.05312730 0.30641663 -0.12145907 0.45407107 -0.39894372 0.17695020 -0.51779717 0.09155058 -0.64802700 0.00293820 -0.71240056 -0.30927959 -0.88067508 -0.30439457 -0.70191926 -0.18666555 -0.70314866 -0.45394805 -0.56850445 -0.67807877 -0.61931604 -0.57889706 -0.72891313 -0.75009489 -0.51603818 -0.87094581 -0.46232760 -0.84597927 -0.62569797 -0.92557085 -0.52438313 -0.93896735 -0.29183203 -0.96857190 -0.23922145 -0.98640239 0.16372401 -0.94515747 -0.13416308 -0.96746820 0.05240595 -0.98506975 -0.15929461 -0.98238671 0.45865589 -1.01926923 0.10544058 -1.00429988 0.16507377 -1.00484717 -0.25621203 -1.00553823 0.04971008 -0.97771519 -0.45761561 -0.97924399 -0.38735747 -1.03428757 0.03669812 -0.97777104 0.11022690 -1.01717389 -0.33241937 -1.00570762 0.15134633 -0.99137735 -0.08859546 -1.02204585 -0.67218059 -1.02204621 0.29936832 -0.99293154 0.21754214 -1.00692999 -0.11435959 -0.96965617 -0.24362859 -0.99830371 -0.02743071 -0.97870296 -0.14553286 -1.00609469 -0.57121092 -0.98215985 0.52596861 -1.00565350 0.46441245 -0.98345637 0.40050328 -0.98630881 -0.28886873 -0.98332024 0.19806603 -0.98710960 0.23583481 -0.98335731 -0.04274369 -1.00448084
0.07937030 0.14648055 -0.03351562 0.12284197 0.20089965 0.09428222 0.32204846 -0.01617879 0.31347442 -0.29823712 -0.10296988 -0.04609610 0.14020601 0.06441247 -0.04010235 -0.08405279 0.07331674 -0.14484718 -0.07692738 0.09719636 -0.00432990 -0.16026750 -0.20226209 0.00183381 -0.02747921 0.07342831 0.04708508 -0.01635947 -0.04786921 -0.04017163 0.07262252 0.17019196 -0.13487716 0.06544527 -0.11669636 0.07366796 -0.48898947 0.02684000 -0.59712869 0.10989200 -0.68022013 -0.12233339 -0.63798535 -0.23140182 -0.68258065 -0.46199340 -0.62317163 -0.49280304 -0.63814884 -0.58863091 -0.46358275 -0.69959503 -0.62626708 -0.78349155 -0.26318619 -0.81172633 -0.39754596 -0.89843696 -0.53837979 -0.88201267 -0.38922229 -0.92760152 -0.45473927 -0.94816566 -0.25063771 -0.96669674 -0.47800103 -0.99817961 -0.31380692 -0.98781490 -0.05084121 -0.98791742 0.03772857 -0.98029679 -0.30586436 -0.98436141 0.20698535 -0.97063208 -0.01439273 -0.98005939 -0.26806745 -1.00549412 -0.50390202 -1.00112867 -0.01533416 -0.99544090 -0.31076959 -0.99709153 0.47094911 -1.01537132 -0.50975561 -0.99002707 0.56757730 -1.01104307 -0.13475332 -0.99911261 -0.02839765 -1.00917959 -0.32944876 -0.98517275 0.03038400 -0.98365247 -0.01283964 -0.97467214 -0.64459169 -0.99020416 0.38276112 -1.00326240 -0.07400212 -1.01711798 -0.20176490 -0.97846800 0.31063721 -1.00561213 -0.21339813 -0.99840361 0.00021318 -0.98322362 -0.73943567 -0.98360735 0.22767968 -0.99368519 0.10073691 -0.98104489 -0.13117173 -0.99583572 0.17901404 -0.99965525
0.08383862 -0.04955641 -0.08008759 -0.09414771 -0.17333907 0.06713258 -0.23963137 0.28441155 0.12778489 0.42638007 0.23819511 0.02362296 -0.11981415 0.13511935 0.20525277 0.08805278 -0.25217715 -0.00363438 0.25880915 -0.02333295 -0.11167959 0.03374710 0.03365481 0.05401563 -0.15969472 -0.00231452 0.14157295 -0.13058980 -0.05570500 0.04360928 -0.12804131 0.15359825 -0.12994596 0.01520374 -0.21930173 0.13864611 -0.46611243 0.10561754 -0.60423714 0.10184809 -0.66952991 -0.07854266 -0.66314852 -0.38157561 -0.68908775 -0.36772820 -0.62093920 -0.49705556 -0.64428109 -0.64202058 -0.52857852 -0.70932883 -0.61173218 -0.79806793 -0.39316094 -0.82635784 -0.38537696 -0.87754619 -0.26634398 -0.92097813 -0.29336160 -0.93616897 -0.20724009 -0.95951027 -0.43082997 -0.94374752 -0.10831220 -0.98080713 -0.28437600 -0.96176940 -0.19038747 -0.98708737 -0.02878409 -0.97902876 -0.45104629 -0.98234004 -0.32369030 -0.99690002 -0.03377720 -0.99821955 -0.03039810 -0.99251199 0.04359800 -0.99804580 0.05027041 -0.99170816 0.62889475 -1.00955760 0.05999203 -1.01069403 -0.11525954 -1.00249898 -0.32507932 -0.99463189 0.44612658 -1.00302196 -0.58168429 -0.99345398 0.10888059 -1.00282609 0.40860078 -1.00452673 -0.15913667 -0.98657185 -0.47766367 -0.99942356 -0.25397161 -1.01668787 -0.31847757 -0.98741400 -0.10383727 -0.99726176 0.10345901 -1.00794697 0.14581308 -0.99442267 0.06964654 -1.00194514 0.25249168 -0.98854542 -0.68382752 -1.00817275 -0.44376558 -0.99686480 -0.70018744 -1.00331473 -0.42685339 -1.00716400
-0.06413835 -0.19947688 0.16814336 -0.02096310 0.07166073 -0.01148452 0.07227466 -0.28642115 -0.13323902 -0.29789788 -0.13440482 -0.05182489 -0.24888203 -0.06314589 -0.01606240 0.11733900 0.04105329 -0.12981497 -0.17225820 -0.24789749 -0.02225026 0.07263086 -0.17473045 -0.00543435 -0.17613696 -0.13648093 -0.25435519 -0.15024908 -0.10288400 0.05764824 0.01576384 0.00856349 -0.16473240 0.59790820 -0.51917231 0.24455601 -0.46581239 0.13378498 -0.65337276 -0.07847541 -0.69226706 0.19412406 -0.71463442 -0.29342163 -0.71438992 -0.28366330 -0.63534021 -0.48700291 -0.59033787 -0.65167153 -0.52220237 -0.51495886 -0.55288535 -0.79560977 -0.50248754 -0.83560944 -0.53042066 -0.89066094 -0.16740583 -0.90521014 -0.29897988 -0.91640556 -0.15170313 -0.91852880 -0.01051413 -0.97207582 -0.19078305 -0.97896034 0.00746547 -0.98129135 0.07120382 -0.98013604 -0.41192803 -1.00553775 -0.09565402 -1.00827074 -0.04890091 -0.99000669 -0.10484533 -1.01924109 0.70958292 -1.00848305 -0.69351280 -0.99770504 -0.11526263 -1.02071381 -0.13562232 -0.97844124 -0.30801204 -0.99171376 -0.03609336 -1.03241277 0.23832428 -1.01181149 -0.53374803 -1.02140868 -0.00741889 -1.00044513 0.02714561 -1.01641822 0.11287554 -1.00133061 -0.05360038 -0.98365134 0.69234204 -1.01937258 0.33112141 -1.02177894 0.09723835 -0.99616867 0.09108279 -1.00327361 0.27254125 -1.01423728 0.33764991 -0.99228841 0.40114319 -1.02260506 -0.50818133 -0.97600728 -0.33729652 -1.02616179 -0.07293420 -1.01869226 -0.38770351 -1.00319850 -0.21462889 -1.02131665
0.16868348 -0.17540874 -0.00349472 0.06138399 0.09909485 -0.29022437 -0.15764099 -0.58159971 -0.66269398 -0.02691767 -0.15601555 0.37318665 0.16341640 -0.10605970 -0.10549489 -0.34541357 -0.38621190 0.27924839 0.46067914 0.23826678 0.18158975 -0.31859300 -0.37845725 0.05163908 -0.15062729 0.04111477 -0.05954733 -0.00016230 0.02771828 0.10851683 0.06065829 0.01617724 -0.18394248 0.41387635 -0.22558764 0.14734685 -0.46667835 0.00895484 -0.61960834 -0.12659785 -0.67822284 -0.07407615 -0.70438856 -0.33717221 -0.67793012 -0.32187152 -0.63135773 -0.52501947 -0.62609810 -0.56658989 -0.51495522 -0.51366663 -0.42151248 -0.78263593 -0.27461579 -0.83403790 -0.39207181 -0.85509449 -0.44433388 -0.92640376 -0.46431211 -0.91707230 -0.17486736 -0.94623375 -0.22828507 -0.95525670 -0.10924248 -0.95309687 -0.22739281 -0.98275590 -0.13130116 -0.97980827 0.04046616 -0.98600054 -0.27477020 -0.99169135 -0.45555252 -0.97250313 0.04564237 -0.97576725 -0.34345436 -1.00176668 0.61721796 -0.99183327 0.44414756 -0.96313220 -0.31598049 -1.00604856 0.79557174 -0.98638904 -0.38116238 -1.00195384 -0.35004953 -0.98683971 -0.00406214 -0.99356544 0.02624416 -0.99115020 0.16919613 -1.01470828 -0.57479686 -0.99111265 -0.09469020 -1.01825500 0.77693570 -1.00138021 -0.46698433 -1.00575364 0.23239240 -1.00257134 0.33804786 -1.01103210 0.43601519 -0.99649197 -0.05960963 -1.01317823 0.07994965 -1.00166452 -0.00046766 -0.99514580 0.33435661 -0.98508722 -0.75950110 -0.99460769 0.28144065 -1.00261486 -0.13846283 -0.98584968
0.63499188 0.18522428 -0.18434884 0.05249636 -0.16448162 0.18943667 -0.10977983 0.38903978 0.09476184 0.19701444 0.49020845 0.15691221 0.26986265 -0.42581338 -0.07948012 -0.16554378 -0.24044828 -0.04672785 0.04344797 -0.19858874 -0.26240757 0.36877179 -0.12370873 -0.19095257 0.35076261 0.06185456 -0.18934210 0.20551626 -0.08242472 -0.18947443 -0.05897664 0.29022345 -0.02809909 -0.27888891 0.32228649 -0.00060011 -0.50378036 0.17797041 -0.73181683 0.03154101 -0.66164428 0.01936117 -0.54832894 -0.24050203 -0.71456414 -0.19193795 -0.68410522 -0.55954456 -0.73757482 -0.56714535 -0.52718455 -0.75515294 -0.73037750 -0.83242482 -0.49397266 -0.79059023 -0.60481179 -0.87994325 0.06958758 -0.90230131 0.35804757 -0.90838850 -0.54149467 -0.95637953 -0.60751271 -0.94052428 -0.39300004 -0.98946697 0.43092203 -0.99511611 -0.01958123 -0.99142647 -0.31405106 -0.98864686 -0.07493678 -1.03845942 -0.34297660 -0.97102976 0.19775355 -0.99744058 0.04044036 -1.01718485 0.50404412 -1.01457334 0.02009490 -0.99424827 0.10438560 -0.97443753 -0.02419479 -0.99911344 0.46278381 -1.02959991 -1.00920784 -1.00830245 -0.72082007 -0.98516923 -0.43132144 -0.99593961 -0.06885660 -0.99911350 0.17268977 -0.99314851 0.32845026 -1.01959395 -0.14079992 -1.01705468 0.32745764 -0.98958206 0.29571706 -1.01815784 0.06942862 -0.99387914 -0.11872168 -0.99611384 -0.43375063 -1.01728427 -0.27145121 -0.98681486 -0.29911664 -1.01603305 0.32430246 -1.01715040 0.29205301 -1.00059807 0.15745829 -1.00988448 0.36983377 -0.98460329
0.19441627 -0.14029032 -0.26331767 -0.11318075 -0.26258659 -0.09190309 -0.33283791 -0.24412012 -0.51399761 0.28043342 -0.11291677 0.60026485 0.13695534 0.28214028 0.08002971 -0.32838780 -0.15130800 0.37748221 0.27588642 0.06014715 0.23341036 -0.08159776 0.23817949 0.13012901 -0.31873870 -0.15454352 0.12665847 -0.32559368 -0.28107461 -0.21713386 -0.15920803 0.04521397 -0.02577371 0.69102365 -0.46245927 0.20562531 -0.44540060 0.02741300 -0.73946959 0.38592264 -0.65781242 0.18327260 -0.51823997 -0.44547847 -0.66830438 -0.42429912 -0.52378708 -0.53621405 -0.42358819 -0.64480788 -0.45178956 -0.88692385 0.22695909 -0.77784872 -0.65642107 -0.79136348 -0.41799855 -0.87435782 -0.11213154 -0.89065915 -0.44068664 -0.90694749 0.12394711 -0.95671606 -0.31269121 -0.91453683 -0.51001644 -0.97180378 -0.97812641 -0.99741024 -0.30162126 -0.96833491 0.19051604 -0.96873468 0.05142146 -0.87639230 0.52911192 -1.00385880 0.09812832 -0.98747838 0.43976831 -0.99490601 0.51451504 -0.98755866 -0.16257265 -0.99680179 0.51574850 -0.97166473 0.01945928 -0.98916793 0.32716730 -0.99361259 -0.14180867 -0.96741313 0.42011642 -0.99541366 0.25501764 -0.99322361 0.23947151 -0.96698821 0.09236099 -0.98772120 0.16802038 -0.98459071 0.45750865 -1.00594521 -0.31047812 -0.97058064 0.16911572 -1.01611078 -0.72629774 -1.01422381 -0.29361716 -0.98911321 -0.43725681 -0.98403245 0.30752155 -0.98459327 -0.41525194 -1.00643015 0.44963890 -0.97240102 0.23499073 -1.00277770 0.27833575 -0.99784255 0.26054850 -0.99910408
-0.14522630 0.16312066 0.01993274 -0.38811463 -0.19830862 -0.09856337 0.06429297 0.25150976 0.15361179 0.22801659 0.22467186 -0.28735876 -0.08076952 -0.31776625 -0.25511655 -0.03865942 -0.01417092 -0.00548113 -0.21686023 -0.07285897 -0.05807224 -0.21003221 -0.25048968 0.44126418 -0.31498903 -0.23668693 -0.07094862 -0.11985731 0.31073618 0.21414274 0.02947857 -0.09027423 -0.28105021 0.34400335 -0.33105084 0.09435939 -0.47320938 -0.03421554 -0.64443386 -0.16301355 -0.77716517 0.14869912 -1.05211377 0.12469639 -0.71574759 -0.72252429 -0.65138537 -0.50952506 -0.64482099 -0.59682798 -0.45123699 -0.52226704 -0.98810637 -0.74393421 -0.13438490 -0.87729883 -0.10718516 -0.87386036 -0.22507600 -0.91299886 -0.23862140 -0.92306042 0.13515915 -0.94636405 -0.31357726 -0.96917582 -0.74457878 -0.98308539 -0.13203727 -0.97122347 -0.07668982 -1.00452030 -0.53509986 -1.01549459 0.60734445 -0.99560559 -0.50242066 -1.01457226 -0.13317132 -1.00460076 -0.51392627 -0.97279924 0.32643986 -1.02301550 0.53901595 -1.02432716 -0.06839254 -1.00450313 -0.46901959 -1.00860143 -0.27371609 -0.96862215 0.51087838 -0.99432945 0.35814893 -0.99959385 0.02256983 -1.00339687 0.09890939 -0.98899823 0.07417407 -1.00907445 -0.17096575 -0.98517060 0.12044866 -0.98391068 0.15244018 -0.96974534 0.13067982 -0.98413992 -0.01511318 -1.00372565 -0.45022503 -0.99724936 -0.35725793 -1.01463747 0.12819076 -0.99978215 0.54349285 -0.98073512 -0.31236970 -1.00884438 0.11539312 -0.98763233 0.30544147 -1.01847315 0.16221808 -0.98224282
-0.17799081 -0.23876595 -0.12422799 -0.06238927 -0.12086156 0.08492184 0.25235343 -0.02915482 0.27636600 -0.26695961 -0.32295623 -0.43967801 -0.53924483 0.24330872 0.00189266 0.08963450 -0.32920370 0.04173865 0.09002116 0.19561902 -0.10943853 -0.05320633 0.01723382 0.25845844 -0.00112097 0.02385127 -0.14970419 -0.07974199 0.24660811 0.02041857 -0.09214943 -0.01466976 -0.09548727 -0.04015441 -0.36417690 0.17706223 -0.43351644 0.08019081 -0.68110573 0.08421358 -0.73668891 -0.12398558 -0.96601474 -0.22909571 -0.69022816 -0.46340477 -0.67587161 -0.50656611 -0.60911864 -0.57576966 -0.55971849 -0.70388132 -0.49849525 -0.76159912 -0.41092893 -0.82778150 -0.33650196 -0.86971515 -0.30157241 -0.95018685 -0.25503862 -0.94946533 0.03040958 -0.95223755 -0.37573904 -0.94487482 -0.13802072 -0.96485436 -0.33362651 -0.96867377 -0.29359993 -0.98854232 0.08507469 -0.98621035 -0.41394329 -0.98528725 -0.16493596 -0.98767555 0.33584821 -0.99777722 -0.26111600 -0.98098654 -0.79598159 -1.00707495 -0.38448754 -0.99230158 -0.34622061 -1.01037037 -0.43647403 -1.00097334 0.12763707 -0.98145938 -0.01409268 -0.98686284 -0.34193879 -1.02733874 0.52419609 -1.00630081 0.09620710 -1.00930560 0.33380085 -1.01569653 -0.10292571 -1.02274716 0.12239634 -1.00274754 0.11222885 -0.98880827 0.30076653 -1.02391839 -0.08589860 -1.00682211 1.02862918 -0.99209291 0.26476392 -0.99932152 -0.19320646 -1.01221669 -0.31590080 -1.02421343 -0.33251300 -0.97647095 -0.13167724 -1.00330639 0.12904243 -1.00887859 0.32418814 -0.98143804
-0.12715405 0.39808750 -0.55683738 0.37464589 0.03776938 0.37239209 -0.29428807 0.33071503 -0.04961990 0.30096233 -0.10365793 0.20441000 0.12930174 0.31464428 0.41521487 0.27486277 -0.15697287 -0.18149771 -0.02295461 -0.12741700 0.06930513 0.28060386 -0.06223776 0.16125670 0.03386385 -0.19195721 0.22029798 -0.03307125 0.16430703 -0.06522140 -0.01009760 0.17778294 -0.15552996 -0.31354856 -0.22712038 0.12702610 -0.60156149 0.14475699 -0.57507497 0.09431127 -0.64210767 -0.64128971 -0.63502210 -0.53035820 -0.57247698 -0.09744843 -0.60822970 -0.54014236 -0.44826746 -0.58429676 -0.59683877 -1.02994466 0.03373704 -0.74746883 -0.63552362 -0.79660678 -0.44799605 -0.87164462 -0.38768479 -0.93241942 -0.53025120 -0.95819557 -0.97858644 -0.92920923 -0.49505714 -0.99961358 -0.30095485 -0.91613549 -0.13912180 -0.95064414 -0.70237345 -0.96097785 -0.09347753 -0.96215498 0.92488062 -0.96230078 -0.43566388 -0.99371451 -0.07095693 -1.02477765 -0.11743782 -0.99811178 -0.51760256 -0.97813952 0.47887185 -0.97881848 -0.83941370 -1.00273132 -0.31742120 -1.01605284 0.09315611 -1.04674959 0.15039563 -1.02743697 0.35003027 -1.03289688 0.08382823 -1.00828421 0.48588243 -0.98318571 -0.17438075 -0.98596793 -0.29911929 -1.01679671 0.50159669 -1.00326395 0.42254576 -1.04321003 0.00368190 -1.00015080 0.05079972 -1.01336324 -0.73398054 -1.01215386 0.23921970 -1.01310539 -0.12411752 -1.00806868 0.09488955 -1.01754892 0.26466781 -1.01373613 0.06215427 -1.00676286 -0.41565251 -1.01115298 -0.04028995 -1.01829815
-0.05303072 0.05738203 0.01116883 0.05127168 0.07373387 -0.00727851 0.09438654 0.07004034 0.08495878 -0.05056156 0.26090887 -0.21664526 -0.29767439 -0.24197704 -0.11025014 0.29352596 0.12863313 -0.11160404 -0.03707206 -0.35778642 -0.21071976 0.10969342 -0.22845219 -0.03931717 -0.15483522 -0.08306471 0.05633198 -0.03432989 -0.02703997 0.05643468 -0.10294364 0.07152395 -0.26378769 0.23387171 -0.24072497 0.15483078 -0.44372010 0.10504451 -0.58807313 0.02357013 -0.68846202 0.00580190 -0.67025918 -0.22323047 -0.71141613 -0.27210036 -0.61546803 -0.51574951 -0.49772897 -0.58862281 -0.47225574 -0.53250301 -0.53668815 -0.75386995 -0.54858083 -0.83260411 -0.44503078 -0.85947293 -0.33360064 -0.91225749 -0.48959005 -0.91541696 -0.13557738 -0.93792659 -0.12569584 -0.93954939 -0.57773650 -0.95869958 -0.34617275 -0.98773766 -0.49012107 -0.96796942 0.02461109 -0.98072135 0.03131731 -0.96802145 0.65787685 -0.99593973 -0.51165128 -0.98574334 0.55885446 -0.99573165 0.67123193 -0.99556857 0.18379183 -0.99111062 -0.85417694 -0.98827046 0.35198912 -0.99423069 0.72828239 -0.98717278 0.09596757 -1.00897992 -0.30865955 -0.98734361 -0.39865622 -1.00218952 0.68671042 -0.99673235 -0.41197723 -0.99251735 -0.37463111 -0.98976195 -0.48359656 -1.01329362 -0.56463766 -1.00189471 -0.38734362 -0.99562198 0.37871149 -0.98331213 0.46270490 -1.00264633 0.32192573 -0.98099905 -0.58851033 -0.98576170 0.19443549 -1.00755155 -0.40380645 -0.99455184 0.65980500 -1.00907719 0.62325215 -0.99979770 -0.50768858 -0.99310160
-0.10474607 0.12879173 0.08269732 0.06805221 -0.04793590 -0.47794971 -0.51081133 0.04445780 -0.33773169 0.13254268 0.25383765 0.59983528 0.16993204 -0.20303905 0.06747711 -0.10729621 -0.16901408 -0.26808330 0.08324039 -0.20252627 -0.55579358 -0.07981631 0.09779022 0.28171253 -0.18591098 -0.00277778 0.17034414 0.00349820 0.15927230 -0.18291637 -0.32235074 0.07753549 -0.26491961 -0.27235675 -0.68224734 0.41772801 -0.37392700 0.15092005 -0.49554920 0.07708703 -0.70072287 0.05046257 -0.48255053 -0.06562700 -0.68109828 -0.29511440 -0.57571256 -0.35052085 -0.74608386 -0.47646037 -0.46640739 -1.12427843 -0.18894415 -0.71704960 -0.64001304 -0.83931792 -0.50567108 -0.86248970 -0.97449040 -0.95197880 0.02795253 -0.94173211 -0.23426121 -0.93622887 0.28891996 -0.98121881 0.13744657 -0.95379466 0.29171965 -0.95316231 -0.22252695 -0.97926927 -1.44888186 -1.00929689 -0.54699659 -0.92265868 0.23692356 -1.01921046 -0.75416279 -0.97949702 0.22407068 -0.99685717 0.22928791 -0.97838837 -0.23603156 -0.96759748 -0.36554962 -1.02161825 0.19088259 -0.97679996 0.80519056 -1.02086711 -0.27080366 -1.00604653 0.36652285 -0.99480271 0.06814584 -0.98017430 -0.12312926 -1.01252329 0.11108927 -1.00168979 0.53724110 -0.98409021 -0.38826999 -0.98548061 0.09654544 -1.00075960 0.47732788 -0.94635391 -0.01561739 -1.00371671 -0.15033853 -0.98503476 -0.49161527 -1.00674224 -0.42496532 -1.01579571 -0.14864346 -0.96408087 -0.27529156 -1.03485286 -0.69111443 -0.97176999 0.21050161 -0.99198622 0.53657269 -0.98687690
-0.22870232 0.29007319 -0.24349347 0.01883935 -0.31371400 0.37011346 0.13285649 0.65123349 0.44728267 -0.00677611 -0.14563249 -0.59742057 -0.40188247 -0.08884230 -0.33853084 0.51034343 0.56557488 0.03804767 0.11517673 0.12302709 0.18191312 -0.36420855 -0.13113591 -0.08875171 -0.18953919 -0.06468163 0.12985563 -0.14584446 -0.16767688 0.12929167 -0.18260087 0.03916190 -0.08785168 -0.01706922 0.06351148 0.14402150 -0.47024131 0.12982528 -0.61999226 -0.01092021 -0.71594965 -0.23687313 -0.83297890 -0.51013625 -0.69856369 -0.14732841 -0.62224013 -0.46052516 -0.48740813 -0.60906625 -0.61812407 -0.52705228 -0.58808088 -0.74482715 -0.46156925 -0.83566636 -0.36726272 -0.86228693 -0.46357185 -0.90378737 -0.60868973 -0.91396713 0.00292222 -0.92809314 -0.28192201 -0.95094633 -0.48223123 -0.97014040 0.28587559 -0.95941609 -0.62041289 -0.99116576 -0.11892380 -0.99971777 -0.33098939 -0.99710631 -0.00753105 -0.99569982 -0.70272565 -1.00512648 0.12505937 -0.99001575 -0.57195491 -0.97845405 -0.50499815 -0.99808973 0.18037151 -0.98831838 -0.46144301 -0.98602873 -0.79643947 -0.99683827 -0.03676517 -1.00455892 -0.31648973 -0.97748089 0.40910921 -0.97164208 -0.33139887 -1.00756133 -0.13239470 -0.99668860 0.58321184 -1.00130427 0.43187541 -1.01961434 -0.47782484 -1.00195801 -0.71176046 -1.00810516 -0.03136033 -0.99932486 -0.11304845 -0.99266922 -0.29411107 -1.02408242 -0.45461428 -1.00184882 -0.11745898 -0.99988604 0.61380714 -0.99972975 -0.20757967 -1.01052928 0.04358847 -0.99860567 -0.28178573 -1.03727448
-0.34826586 0.05344709 -0.10985824 0.01125037 0.02823713 -0.23337983 -0.08299090 -0.21736896 -0.07092694 -0.30440453 -0.31022877 0.00809628 -0.10441306 0.07979204 0.02736032 0.06897078 -0.17843120 -0.04515379 -0.23984906 0.25121498 0.15526068 0.29114601 -0.02748357 0.18003222 -0.07228928 -0.04217838 0.04349308 -0.12391227 0.00832256 0.06734245 -0.00866434 -0.05936727 -0.01245423 0.10984720 -0.37931839 0.25455076 -0.50206465 0.04398974 -0.62317514 -0.09957164 -0.70870805 -0.15554713 -0.81164002 -0.07977040 -0.70726717 -0.21464190 -0.67987913 -0.46639818 -0.51241434 -0.58918440 -0.46805096 -0.51621765 -0.23503949 -0.77546567 -0.59809470 -0.79322338 -0.48538595 -0.85845894 -0.24422494 -0.88242638 -0.34545487 -0.96172196 -0.26951748 -0.93684429 -0.34770644 -0.95892304 0.29282707 -0.96939683 0.04405348 -0.95603901 1.20137286 -0.97652662 0.18540800 -0.99076945 0.18270366 -0.95017099 0.75846642 -1.01591110 -0.42715195 -1.00734711 -0.31050643 -0.99296403 0.37832424 -1.01055157 0.20758282 -1.00101340 0.29124606 -0.98154634 -0.58468169 -1.03259063 0.02204967 -0.97520655 -0.62356991 -0.98506862 0.24879363 -1.01457119 0.58698982 -1.00356400 0.00941632 -0.98285377 -0.73482984 -0.99599445 -0.59804690 -0.98991048 -0.37131783 -1.00803983 0.36682650 -0.98719579 0.16756150 -1.01275492 0.10352571 -1.01236165 0.29269201 -1.01492727 -0.52300322 -0.99715221 -0.37936279 -1.02450061 0.58765858 -1.01174462 0.20340168 -1.00668240 -0.37531030 -1.02079046 -0.40444672 -0.99895734 -0.36031196 -1.03128672
-1.59449005 -0.52051806 0.74289656 -0.54479837 0.04725147 -0.09750443 0.02832205 -0.19445960 -0.17220654 0.34465376 0.09057625 0.41636616 0.63668287 -0.38280362 -0.13222627 -0.38485175 -0.26785317 0.08413991 -0.17805606 0.17032404 0.32533303 0.04034971 0.10105743 -0.01201895 -0.39084932 -0.16922329 0.35742682 -0.20554467 -0.27125299 0.13350610 -0.20610364 -0.21016462 -0.22334881 0.34794420 -0.25581622 0.08421563 -0.37836602 0.29834142 -0.49304721 -0.70311624 -0.78858757 -0.10847351 -0.53439957 0.26243654 -0.75670409 -0.44774950 -0.81577224 -0.52340144 -0.54234016 -0.75363213 -0.55260634 -0.17978799 -1.13179326 -0.81754541 -0.50897235 -0.91359395 0.12219096 -0.85102683 -0.14102918 -0.92409474 0.01269452 -0.84980309 -0.91483539 -0.96537620 -0.28009406 -0.94927180 0.61896437 -0.98699445 -0.54043525 -1.00260663 -0.93997604 -0.97269434 -0.00918504 -0.97913861 -1.07419050 -1.10397494 0.38960981 -0.99004984 -0.54465413 -0.96441519 -0.60762024 -0.98399734 -0.34633374 -1.00306475 0.30794626 -1.00864100 0.46887916 -1.02295578 -0.06450870 -0.98080552 0.49322814 -1.00711977 -0.16351286 -1.00722504 -0.35476658 -0.99476099 0.21864152 -1.00144601 0.21935126 -1.02911890 -0.30050483 -0.99347985 -0.18303619 -1.03742623 0.14099951 -0.99311137 -0.01353653 -1.03717446 0.00292625 -0.96720350 -0.36781377 -0.96355510 -0.81936210 -1.02315390 -0.21536784 -0.98401254 0.33633104 -0.99364221 -0.14659698 -1.01556575 0.10621373 -0.98447996 0.30261350 -1.00685418 0.12517959 -1.01473010 0.16679695 -0.97153175
0.21420890 -0.28397432 -0.29128146 0.07672565 -0.14590056 -0.12621936 -0.06939284 -0.31638864 -0.02492446 0.27886319 0.29975620 0.27824071 0.31799063 0.12212977 0.20144159 -0.55553728 -0.22843772 -0.03818600 -0.41416812 -0.35234013 0.16278417 0.52368069 -0.50606471 -0.11648893 0.22955483 -0.01490088 -0.24700612 -0.08378818 -0.15210374 0.24383077 0.20627677 -0.01873176 -0.28473988 0.20656383 -0.35964492 0.20681176 -0.50748652 0.06138447 -0.61709243 0.11938365 -0.70475918 -0.18654802 -0.72339308 -0.15096639 -0.66290998 -0.17659827 -0.57615298 -0.57340091 -0.47268608 -0.61775947 -0.51877165 -0.67973965 -0.35551739 -0.72004992 -0.27151042 -0.83955777 -0.65663296 -0.87646455 -0.21031240 -0.93112361 -0.60952425 -0.93516427 -0.02298383 -0.96672463 0.21579264 -0.97088015 1.24798048 -0.96073121 -0.53412902 -0.97300732 -0.56493944 -1.00001383 -0.08398613 -0.99966353 -0.43035334 -0.98456550 -0.95709944 -1.01408327 0.37044707 -1.01188540 0.82983702 -1.02788186 -0.19222161 -1.01003444 0.12588444 -0.99025291 0.36576718 -1.00278687 -0.80094963 -1.00429296 -0.28515682 -1.00560939 0.33937696 -1.02958047 0.10320462 -1.00511646 -0.02944686 -1.01826048 -0.12237366 -1.01734757 -0.24899170 -0.97569746 0.01924651 -1.02389419 -0.90063983 -0.99730486 0.12744363 -0.98662871 0.18887702 -0.99651301 0.50324214 -0.99174833 0.22800164 -1.02400661 -0.33011171 -1.01104963 0.07081956 -0.99011612 0.50969934 -1.01241291 0.79638290 -1.01668799 0.35879919 -1.02763247 0.52084732 -1.00297725 -0.14692327 -1.01684856
0.49636912 -0.14113362 0.12666382 0.28290093 0.21346271 -0.22242750 -0.46097514 -0.10533726 -0.16751207 0.16507229 0.06573092 0.08174673 -0.08529168 -0.05246822 -0.17363054 0.25701341 0.32291326 -0.12115405 -0.35799307 -0.04370805 -0.00931003 0.23806682 0.28518930 0.08327122 -0.00236899 -0.09618303 -0.02841335 -0.29811487 -0.24032339 -0.08715957 0.25138113 0.11968181 -0.05981798 0.29450789 -0.85333240 -0.03466136 -0.37187594 0.28496003 -0.62014675 0.11830796 -0.73281586 -0.04887838 -0.29265878 -0.20447184 -0.70463395 -0.58120733 -0.58056182 -0.59910351 -0.72644508 -0.64996636 -0.41112059 -0.92047721 -0.20353641 -0.78432828 -0.75372392 -0.81605285 -0.24272853 -0.86381733 -1.03499329 -0.90636712 -0.96580946 -0.91371739 -0.71886736 -0.92187625 -0.23201507 -0.95534986 0.16056626 -0.95296365 0.04113846 -1.00634646 0.18919638 -0.94488800 -0.55834973 -1.02058375 0.44027919 -0.99763870 -0.46852669 -0.97886443 0.04417579 -1.00325418 -1.00117981 -0.97126335 -0.37434959 -1.04612386 -0.57150668 -0.99818444 1.21590662 -0.99232036 -0.13467795 -1.00123930 -0.19262493 -0.99422169 0.66631961 -0.95545608 -0.70862365 -0.98260087 -0.14947101 -0.99172556 0.17799166 -0.98992312 -0.31983936 -1.03269029 0.59968066 -0.97154427 0.09714980 -0.98714960 -0.49111396 -0.97699887 -0.44441739 -1.04261136 0.48274589 -1.00236821 0.41387355 -0.98954564 0.27024484 -0.95379812 -0.60108811 -1.03069735 0.04889984 -1.00032282 0.17789231 -0.99508631 0.44171754 -0.99528396 -0.09924156 -0.96876633 0.42600778 -0.99600071
0.47657663 -0.04528704 0.35752454 -0.37322628 -0.43236926 0.03251854 -0.01977417 0.00061824 -0.59920394 -0.44262511 -0.76750112 -0.11513267 -0.13003905 -0.01037649 -0.39222318 0.57030624 0.43815768 0.04160639 -0.35168865 0.09155598 0.09979475 0.09446990 -0.00711899 -0.06619529 -0.23071578 0.00749606 0.09880357 0.28595528 0.04398628 -0.16061839 -0.11992694 0.18278192 0.01365218 -0.15996464 -0.03228753 0.28022483 -0.55963022 0.37625948 -0.68581259 0.27507561 -0.60268450 -0.34528980 -0.33864132 -0.36552370 -0.55007881 -0.28705305 -0.65769619 -0.52709603 -0.59332955 -0.71311563 -0.69043022 -0.76657724 -0.17414087 -0.85748059 -0.59184307 -0.81852394 -0.29539683 -0.89854473 0.30435511 -0.89866441 -0.02531201 -0.91005200 -0.16531084 -0.98013902 1.09167480 -0.87729222 -1.22933698 -0.93795544 -1.02856338 -0.96120501 0.36618122 -0.97594541 -0.07264658 -0.93334407 -0.91781706 -1.01219451 -1.26985192 -0.99995124 -0.86078709 -0.98595905 -0.98645324 -1.03185511 -0.33274511 -1.01404977 0.23740321 -1.01618326 -0.21206138 -1.03817618 -0.12758638 -1.02925146 0.03849889 -0.97292590 -0.40377498 -0.97673005 0.13933422 -1.02269864 0.40488693 -1.00730193 -0.51950234 -0.98459911 0.05203640 -0.99340111 -0.09393922 -1.00735450 -0.33370450 -1.05327082 0.06449091 -1.01780558 -0.19671689 -1.01781464 0.02105332 -1.03662407 0.04458968 -1.05496800 0.45129886 -1.01334846 0.25883567 -1.02025425 -0.21245891 -0.99204540 0.16655934 -1.00790060 0.57150817 -1.00904357 -0.09608504 -1.05152929 0.20464841 -1.01068926
1.14457619 0.71352410 0.33857495 0.79445988 0.50301200 0.57760376 0.51843798 0.18291536 0.68919909 -0.42686000 0.08267149 -0.16257758 0.23456046 -0.00594281 0.37711450 0.13489495 0.29385379 -0.66827387 -0.64106780 -0.30329046 -0.31890714 0.10969486 0.08705717 0.02507459 -0.14361593 -0.45600304 -0.65544868 0.61435032 0.13900927 -0.40082580 0.11924660 0.12299614 -0.08584180 0.01398457 -0.82716620 0.38827711 -0.23497489 0.24270308 -0.60160959 0.03792293 -0.65687054 -0.34244195 -0.35337335 0.86438757 -0.66556543 -0.77301031 -0.60463542 -0.49332714 -0.20700225 -0.50018263 -0.76382750 -0.55070376 0.42039940 -0.74230206 0.16347072 -0.77340907 -0.16853724 -0.87459153 -1.10012615 -0.90754992 0.55483466 -0.94510138 -0.40859550 -0.90654141 -0.57524770 -0.95170557 -0.17675844 -0.93608522 0.22529936 -0.96617997 0.14650293 -0.96525496 1.03757262 -0.97634375 -1.01699853 -0.76849049 -0.85846561 -0.97659385 -0.50638574 -0.98468566 0.22502190 -0.97021353 -0.17829330 -0.98503065 -1.06955016 -0.96354425 -0.13524285 -1.03618944 -0.08616895 -0.98630393 -0.32182744 -0.99521518 0.26751602 -0.98375934 0.60393918 -1.01596713 -0.29750884 -1.00418437 0.22067367 -0.98454177 -0.58812642 -0.98530787 -0.18462457 -1.02648652 0.82468235 -0.98118651 -0.10031647 -0.98095113 0.35662878 -0.99994451 0.10157713 -1.02373672 -0.59412485 -0.98009372 -0.01341637 -1.01621449 0.20680848 -0.99058849 0.41276190 -0.99141663 -0.53856403 -0.97336984 0.33348861 -0.99245328 0.02204628 -0.99712986 -0.04623211 -0.98411584
-0.22234416 -0.48131481 0.33332220 -0.32331550 0.44116154 -0.80482179 -0.82242310 -0.67438954 -0.78139216 0.39843428 0.26903224 -0.02834437 -0.58744186 -0.45322168 0.38108128 0.82632399 -0.10323484 -0.49984950 0.00727267 -0.14576435 -0.25403458 0.43749195 -0.17567508 -0.34840453 -0.13969812 -0.17205346 0.03956402 0.56281364 0.01826296 -0.08879406 0.24158083 0.14918353 -0.10950734 0.07727198 -0.29851818 -0.00638331 -0.54839027 0.32931545 -0.66983426 -0.15608801 -0.65227640 0.25194153 -0.58333331 -0.02100921 -0.67372352 -0.29417133 -0.62539214 -0.46581551 -0.29623657 -0.63926482 -0.61672121 -0.63382328 -0.03805941 -0.87416911 -0.42589623 -0.77428508 -0.31172341 -0.83292073 0.13931216 -0.89410657 -0.20871854 -0.86752433 -0.02277950 -0.97774523 0.43505877 -0.90757042 -1.35222673 -1.00604260 0.44504246 -0.98454344 -0.76962930 -0.99585944 -0.41073337 -0.98646283 -0.64608085 -0.88916302 0.48848343 -1.00169611 1.05605829 -0.94262993 -0.39735970 -0.96566725 0.01183329 -0.96686471 -1.46342647 -0.98756838 0.38378391 -1.00710642 -0.05756739 -1.00923049 -0.52143186 -0.96051311 0.63444769 -0.99673700 -0.72651619 -0.96950185 -0.23693961 -1.02315962 -0.54747403 -0.99373651 -0.32589316 -0.98874313 -0.80205911 -0.97888702 -0.12384574 -0.98071730 0.28361198 -0.99399793 -0.49684533 -0.98687357 0.07972170 -0.98993033 -0.88659602 -0.98732579 0.38341248 -0.98777467 -0.75242949 -0.94789463 0.51445228 -1.00655365 0.88807470 -0.96631718 -0.65392518 -0.98245615 0.15957597 -0.97339237 0.11217611 -0.97793871
0.60312372 -0.39840814 0.23219475 0.01942653 0.22833277 0.00973246 -0.08679815 -0.04712936 -0.21029198 0.31529397 -0.18014038 -0.10434730 0.01923299 0.04659724 0.24513982 0.00659237 0.01782196 -0.10260873 0.05118916 -0.16876097 -0.27057388 -0.09994572 -0.02047079 0.02161603 0.11081745 0.20176321 -0.10953546 0.09712367 -0.15671635 0.01350043 0.19911774 0.13128442 0.11102484 0.05737144 -0.65815002 0.70683330 -0.30554822 0.25400889 0.34022963 0.22436264 -0.22411822 0.77817458 0.85062122 -0.07541603 0.21044788 0.26531392 -0.40547356 0.84935790 0.07211429 0.11471710 -0.04262222 -0.19101574 0.21424472 -0.37689269 -0.24610762 0.35020679 -0.87818611 0.65335286 -0.21044366 0.21542750 -0.27409968 -0.14575860 -0.00001460 0.03094841 0.78046215 0.10727456 0.06609520 -0.58788449 0.09231410 -0.00311553 0.10307501 -0.05266989 -0.71356201 0.04146545 0.00879312 0.07827752 -0.00911671 0.11457551 -1.20646203 0.00217181 0.15508626 0.07779185 -0.08047494 -0.19886796 0.42327482 0.59579223 0.15239702 0.04921845 -0.10469440 -0.31166327 0.14138523 -1.20645320 0.14164260 -0.29735222 -0.13908044 0.19239148 0.15677974 0.46482658 0.13986866 -0.19433439 -0.12342636 -0.27276558 0.04869791 0.62162161 0.21691567 0.70593971 0.19094458 -1.41344392 0.12817049 -0.11634032 0.16712709 -0.27297693 0.11905416 -0.21813981 0.18634446 0.17549953 -0.02216470 0.78350610 -0.27103952 0.39295900 -0.30983320 -0.13083330 -0.11335503 0.94147062 -0.56821012 0.15678585 -0.21705072 -0.29859605
-0.18677649 0.11316175 -0.30858451 -0.07639556 0.24591175 -0.17038704 -0.30899850 0.16614531 -0.10155021 -0.36091551 0.15787508 -0.17167823 -0.34212393 -0.23240778 0.31586501 0.02459505 0.05126473 -0.31466666 0.08501268 -0.16595638 0.16210738 -0.00365203 -0.15735699 -0.15638003 0.05626450 -0.06321122 0.28467229 0.15928721 0.20097196 0.35208598 0.38156098 -0.07210225 -0.05597143 -0.02476814 0.33920655 0.25987279 -0.38522330 0.37747687 -0.23246309 -0.21547128 0.18227011 0.12962487 -0.04423191 -0.15804513 0.12788634 0.44408426 0.12278586 -0.17022224 0.16614813 -0.01995911 -0.03155007 0.56384230 0.18911330 0.24881476 0.15537581 0.05883231 -0.21501613 -0.10010374 0.25344422 0.23920120 -0.04283565 0.28118920 0.03067155 0.26835150 0.20354152 -0.04570802 -0.28361645 0.00131616 0.47121561 -0.04212880 -0.19645084 -0.26113987 0.07340090 0.05152001 0.01984968 -0.12621883 0.17586118 -0.18738936 0.10968731 0.09755407 0.33931011 -0.35974774 0.11690101 -0.24436544 0.00042810 -0.15364814 0.01249223 -0.05247710 -0.29369262 -0.06395468 -0.29587701 0.30655599 0.05924500 -0.09811898 -0.24821760 -0.35169053 -0.18907948 -0.44318649 0.26287490 0.17553782 -0.43215254 0.10720018 -0.48281652 -0.13826348 -0.12321034 -0.18885550 0.07716754 0.18728781 -0.22054851 -0.03736521 0.58233094 0.30876982 0.08617302 -0.35013708 0.08483321 -0.24699023 -0.33862984 -0.22914191 0.25941160 -0.07315315 0.30165699 -0.17927775 -0.36831635 -0.45141655 0.12965246 -0.00556921 -0.37410948 -0.38297775
0.15607224 0.19795936 -0.13217692 0.08510701 0.02813294 0.06392328 -0.06289018 0.07532625 0.21362738 0.08904999 0.27229515 -0.18259174 -0.04943898 -0.18104108 -0.01868724 0.26967326 0.01545403 -0.02267921 -0.23677325 -0.03302569 -0.12918860 -0.05238412 -0.00441637 -0.19375055 0.24653748 0.00251577 0.11536855 0.05144710 -0.00625021 -0.15558945 0.22261432 0.03852443 0.19349428 -0.23700601 0.30934560 -0.23651314 -0.01049164 0.19389100 0.06394687 0.14418852 0.12773615 0.17840551 0.19032791 0.11829411 -0.19456236 -0.00283557 0.03557678 0.01277727 -0.10350735 0.11620346 -0.00615706 -0.12409479 -0.12545407 0.00728825 -0.07110097 0.06476966 -0.01970286 -0.21928349 -0.12972404 0.20356597 0.15880382 0.05351060 0.05044015 0.10628290 0.18478902 -0.07338823 -0.11235955 -0.04914404 0.26283905 -0.08663274 -0.01294389 -0.01081765 -0.26579317 0.04649363 -0.14239247 -0.20849684 0.11841188 -0.14657032 -0.08239803 -0.11970668 -0.04065792 -0.12941685 -0.09032680 -0.23154144 -0.09908424 -0.19540314 0.10205229 -0.05436388 -0.03175214 -0.03272138 -0.12144802 -0.23556918 0.10044577 0.14880496 -0.25205570 -0.13944668 -0.01474338 0.07798705 -0.18216668 0.04890162 -0.06691194 0.06689730 0.26279694 -0.00770164 -0.15602505 0.09036558 0.10556666 -0.21098264 -0.22996348 -0.03642898 0.30523309 -0.25977570 0.11231057 -0.00599869 -0.31740636 0.10386445 -0.26934791 -0.05233327 -0.10154002 -0.06599302 0.22227058 -0.11268333 -0.04886826 -0.09189793 0.10534792 -0.13760929 0.21303235 -0.06752806
0.02861645 -0.04883533 0.01547337 -0.00242356 0.01946393 0.04253551 -0.02297492 -0.03138681 -0.01035886 0.00609387 0.03608083 -0.01316790 -0.03441013 -0.00062583 -0.00464379 -0.00203881 0.04513578 0.03698022 -0.02942814 -0.02369721 0.04319600 -0.02319932 -0.03106274 0.04089690 0.04941982 0.01531137 -0.00945572 -0.02623709 -0.01466014 -0.03344484 -0.02313838 0.02316299 -0.02466692 -0.02593516 -0.03387339 0.04771319 -0.00773038 0.04112189 0.01790543 0.01532761 -0.03113718 0.04678649 -0.02872266 -0.01088870 0.01007084 0.03122811 -0.02012565 0.02800241 -0.04930978 0.01862574 -0.04038057 -0.01974624 -0.04484177 0.00442351 -0.01032097 -0.02756944 0.03906146 0.03395857 -0.04505963 0.00579624 0.02026048 0.01621873 0.02779390 0.03543660 0.03520424 -0.03478347 -0.01597188 0.04144612 0.03590338 -0.03105427 -0.01317905 -0.00137496 -0.01012856 -0.00128435 -0.01262491 -0.03666957 -0.04555968 -0.02912525 -0.02556326 0.00030786 0.03373975 0.03412160 -0.03531003 -0.01420683 -0.00881513 -0.01432542 -0.04284230 -0.01930691 -0.04887352 -0.00545740 0.03607671 0.02901448 -0.02747320 -0.02554261 -0.00150692 -0.00465953 0.02960419 -0.01342937 0.02150074 -0.01642609 -0.04804815 0.01250608 -0.01660485 0.01705417 -0.02319487 0.04376492 0.00731299 0.03991575 -0.00117060 -0.03202176 -0.01257280 -0.04530473 -0.04274951 -0.03215810 0.03466250 -0.00989195 -0.01499834 0.02134239 -0.01448834 -0.03991258 -0.04718032 -0.01242346 0.04148780 -0.02794122 -0.01818136 0.02086006 0.00731798 0.03026709
