2.92705464
2.43506527
3.34098244
2.71561074
2.88865638
3.25648642
2.11734986
2.46407914
3.26872945
2.20807815
2.37069678
2.74688196
2.88891363
2.90472436
2.17731524
0.80966336
2.10059571
1.83724117
1.70848787
2.20835924
2.34257698
2.25039339
2.53127241
3.02117825
2.02562737
1.54749441
1.53593862
2.36552191
2.45290446
2.67836571
2.21793652
0.18358393
2.30591702
2.70670033
2.65593052
2.36680794
2.81924701
2.90942597
2.11902547
3.02796626
2.52934861
2.83619356
2.68950009
2.22806144
2.50168920
3.16671562
3.26429987
2.73184752
2.94646382
1.32937884
0.68962127
2.63747931
2.66205549
1.32102883
2.65440059
2.75497603
2.59681535
1.79188704
2.09665036
2.86767888
2.61014199
2.03459549
2.56689334
2.73977566
2.76255393
2.39057612
1.99467266
0.90297949
2.37404633
1.53939152
0.21573779
2.73073721
2.06604242
2.73884273
2.41084576
2.02643681
2.81322527
0.23722048
3.31977916
1.94463098
2.25264955
2.50061154
1.85040748
2.14993787
2.46959019
0.41521025
2.16496396
1.56478930
2.55739999
2.58314228
2.58120561
2.82055855
2.42558146
2.46280432
2.48724985
2.35868859
1.95533216
1.71779597
2.62954736
2.03527212
0.86662060
2.63479424
2.30862522
2.57664585
2.57675695
1.59768581
2.19109559
1.78596079
0.49296421
0.39493489
2.60778522
2.88176990
2.60109878
2.41032910
2.34269810
2.35281706
2.32617545
1.85111368
0.55703986
2.39450812
1.79707861
2.85618663
3.12957191
1.95996940
2.10362077
0.88947600
2.37686515
2.13016820
0.22273330
0.11399946
0.07187908
0.12215973
0.17809480
-0.07859273
-0.09163539
0.13917042
0.00876734
0.06415866
0.04260958
0.01190989
0.03811116
0.14004418
0.15127724
0.46094948
-0.01284786
0.12551425
0.24285948
-0.04481616
-0.07751242
0.00542038
0.01896742
0.03457997
0.10116391
0.16150004
0.08761872
0.00156746
-0.11251602
0.21307893
0.16961017
0.84294903
0.10316879
0.05878743
0.05304829
0.07242472
-0.08453304
0.05342750
0.06223343
0.14558114
-0.13490085
0.11529653
-0.13545768
0.08868847
-0.10474589
0.06560132
-0.15377906
0.05578421
0.01158537
-0.10267615
-0.30468482
-0.01765308
-0.07800025
-0.09741717
0.02212512
-0.01676428
0.02474954
-0.19538058
-0.20645662
0.01095182
-0.04324449
0.03246083
0.04985471
-0.13298075
0.00009317
-0.10404959
0.05470441
-0.42099261
0.04434033
-0.22471859
0.88551283
-0.12460024
0.12952740
-0.14252892
-0.01175080
-0.35021070
0.11912610
-1.09724772
-0.09940118
-0.14434808
-0.03107530
0.03305754
0.18277769
-0.23966819
0.02154677
-0.92157936
0.19110800
-0.26618996
0.10473606
-0.08603016
0.06962613
-0.22763026
0.10020357
-0.23543191
0.14968340
-0.25702661
0.01111120
-0.09334417
0.12149040
-0.10707695
0.25486946
-0.22700913
0.01867832
-0.22651426
0.15297553
-0.30215618
0.24150406
-0.20111826
0.58182293
-0.66803616
0.21102749
-0.17611949
0.20722367
-0.12310658
0.12153087
-0.18770073
0.00644568
-0.23190598
0.48757130
-0.14079818
0.08896665
-0.08704300
0.01743268
0.03188672
0.15138236
-0.36437389
0.05225014
-0.27231216
