-0.09054261 -0.16105717 0.22073698 0.28522459 0.02301244 -0.33827612 -0.25107852 -0.32049504 0.33987331 -0.05729128 0.11985133 -0.10789194 0.08022915 -0.20674014 -0.16773705 0.19930927 -0.31102878 -0.03066970 -0.12506780 -0.06884547 -0.28005004 -0.02398778 -0.01572544 0.01147072 -0.52967077 -0.01943384 0.21167447 0.09480592 -0.05340373 -0.34253576 -0.05873417 0.41075251 0.18444124 -0.32175383 0.08737969 0.13513914 -0.19858386 -0.15185070 0.13929074 0.00575801 0.18287744 0.25105751 0.26455539 0.56520021 0.54070735 -0.35282072 0.22541139 -0.21308286 0.17172182 0.40580204 -0.03811029 0.02197002 0.12060018 -0.43896410 0.17637655 -0.35515249 0.01119818 0.12568624 0.31805143 0.27869838 0.03657458 -0.16936754 0.39796853 -0.28003874 -0.31727201 -0.13179618 0.54170316 0.42369026 0.10047636 -0.09941346 0.26738900 0.02336562 0.36990541 0.27761734 0.11648178 -0.14860032 -0.34382474 -0.15005454 0.15863912 0.00292286 0.18419185 -0.16358159 0.31359181 0.01950360 -0.35688141 0.40491551 -0.13265319 0.18502553 0.72264123 0.47710830 0.18027556 0.19064498 -0.16029947 -0.57887608 0.01836696 -0.35408542 -0.21010941 0.01229950 0.20797934 -0.01240222 0.09766728 0.09845211 0.04784123 -0.07029293 -0.27847183 0.04117936 0.35768011 0.10155805 0.20391908 0.19636869 -0.05642406 0.13921903 0.15275213 0.10551064 -0.03271743 -0.08792979 -0.07816534 -0.25420901 -0.00769459 0.07119646 0.00219455 -0.02328774 0.21425706 0.14017145 0.10495713 -0.22638911 -0.39731646 -0.12477270
-0.08664358 -0.25488549 0.12779084 -0.17988816 0.06917498 -0.06390858 -0.18417530 -0.23554951 0.25243431 0.10890870 0.02567816 0.04099233 0.06892341 -0.14807095 0.32880121 -0.14151929 -0.06778776 -0.12490672 0.06098919 -0.14362806 0.08255105 -0.11326220 -0.13174273 0.02696658 0.13179480 0.19628060 0.12422379 -0.02065346 0.00890594 0.07648712 0.04999800 0.34548494 0.00465302 -0.16129190 0.05663305 -0.35417971 -0.30081886 0.07254230 0.28172582 0.00145114 -0.38219249 0.00428936 0.16482067 0.19764277 0.06508489 -0.01774060 -0.02470241 0.12256050 -0.02897498 0.17015082 0.03215106 -0.09564057 -0.00238953 0.17404959 -0.25627694 0.25374907 0.15300296 0.01752709 0.14270964 -0.22009130 0.05412965 0.29481965 0.15846027 -0.14870521 -0.38426977 0.13161905 0.06049499 -0.10821065 0.13669826 0.37846339 0.29415402 -0.11804290 0.30887738 0.26557100 -0.25975630 -0.18421315 -0.16918537 -0.10639936 0.28302628 -0.19028264 0.23442926 0.07848460 0.09783919 -0.04800147 0.04924062 0.06624939 -0.04021322 0.41719997 0.04379429 0.27797028 0.37254918 0.28962278 0.00752424 -0.11332029 -0.04046760 -0.31287938 0.10938825 -0.06287374 -0.03843108 0.03770503 -0.13087989 0.05182300 0.15550816 0.02990261 0.02606961 0.40291455 0.09081227 0.26686978 0.20057227 0.11747538 -0.02297281 0.10923146 0.12820521 -0.20209450 0.25903648 -0.03786332 -0.03762167 -0.09413396 -0.00873525 -0.18334986 0.14366652 0.16966699 -0.28132072 0.07103130 0.10976850 -0.27884400 -0.14889146 -0.14794953
-0.06788422 0.09390195 0.23024151 -0.06764894 0.05146435 0.16441600 -0.02801658 -0.00990396 0.05990792 -0.21368159 0.03060320 0.27991971 0.09595983 -0.01590943 -0.18930297 0.24910566 -0.04361782 0.23916711 0.03429523 0.01412672 0.24923198 0.06067158 -0.13457675 -0.18870623 -0.14082111 0.05370849 0.00781770 -0.21260358 -0.08121013 -0.00025461 0.06267221 0.10201904 0.20145132 0.13134663 -0.12704141 0.17845660 -0.07630853 -0.06887293 -0.10187175 -0.07090200 -0.21598491 0.03024447 0.16595384 0.07945848 -0.09403402 -0.17370242 -0.21263334 0.32472256 0.12835181 0.02676438 -0.15985328 0.14497814 0.05537962 0.04266460 0.26099646 -0.22303262 0.16803597 -0.00999648 -0.12629148 0.05136969 0.00097614 -0.02257499 -0.11473920 0.26138580 0.00852075 -0.02300446 -0.24851052 0.36527798 0.24407724 -0.33121020 0.02437613 0.08814649 -0.11682072 0.32457203 -0.07169027 -0.01612794 -0.15682542 0.09996846 0.01692790 -0.12487482 0.22124217 0.07549065 0.08876751 0.47374901 -0.27163956 -0.29708087 0.08115932 -0.43859854 -0.06333447 -0.15491918 -0.28759882 0.00705327 -0.05153854 0.40389183 0.06793411 0.11093243 -0.13801499 -0.07130877 0.14003311 0.13302296 -0.01887611 -0.11106429 0.03948928 0.09864737 0.00935050 -0.19676611 0.10436802 -0.15705843 -0.11819139 -0.09198773 -0.08274323 0.01343390 0.27124560 0.21401298 -0.00696570 0.08530009 -0.02055914 -0.11851022 0.14084771 -0.06731998 -0.15889086 -0.00831688 0.17855971 0.00169215 -0.15426931 0.32920787 0.19716763 0.00794082
-0.30363050 -0.22580533 0.24024245 0.02449383 0.04310063 -0.05538839 -0.27846521 -0.26710826 0.18315284 -0.02135766 0.21900447 -0.01487749 0.07423725 -0.06553181 0.13718218 0.01783837 -0.00755880 -0.09115981 -0.12608232 -0.14808165 -0.11708391 0.00431800 0.01420218 -0.03844577 0.02917771 0.15812032 -0.17062959 0.00737960 -0.07907952 0.04010782 -0.06727801 0.05504906 -0.11816735 -0.33161345 0.01722716 -0.17689970 -0.21144804 -0.01748845 0.20259507 -0.19987829 -0.14667067 -0.13279568 0.07731228 -0.09250324 0.31235111 -0.05654704 -0.00788475 -0.06185500 -0.20749682 0.34003091 0.22754547 0.00586151 -0.05037089 0.01610645 0.14232096 0.06976260 0.22941132 -0.09437029 -0.20632730 0.06880458 0.55793118 -0.00919525 0.11924794 0.20078844 -0.30222291 0.02679603 -0.12296877 -0.01276964 0.06803790 -0.03782590 0.39305267 -0.10679216 0.18881539 0.31883195 0.15812601 -0.27623746 -0.49854910 -0.03225840 0.30002984 -0.11377029 -0.00107570 0.05118835 0.31270278 -0.04696243 0.21314664 0.34317157 0.08825403 0.07968900 -0.07504310 0.11563354 0.29482058 0.16881333 -0.05176876 -0.49306041 0.01871976 -0.43735954 0.13605283 -0.11296463 0.08406188 0.05463954 0.11910772 -0.08212211 -0.00292750 0.04924740 0.01714277 0.13845496 0.05268363 0.46041927 -0.23302674 0.17882608 0.00811062 -0.06127664 0.02340726 0.14122942 0.16371378 -0.02947983 0.18067564 -0.04592386 0.18110971 0.16690344 0.17582335 -0.01534465 0.06916435 0.18502581 -0.13324142 -0.18155290 -0.07083329 -0.18365194
-0.07963347 0.02320442 0.19009939 0.01221407 0.15780167 0.23516333 -0.16665636 -0.22226289 -0.00407554 -0.15387458 0.16827501 0.29106686 -0.19490403 0.11412463 0.05323138 0.20182848 0.07431474 0.32252663 -0.23047698 0.03975438 -0.01352065 0.15107983 -0.08433908 -0.19842982 -0.01490555 -0.16362283 -0.21015815 0.04587558 -0.17838123 -0.05138121 -0.07964978 0.18926311 0.17579533 -0.24381432 0.07251766 0.08448679 -0.17839158 0.17924654 0.02721285 -0.07162356 -0.45148584 0.14669885 0.23649599 -0.17998451 -0.00330332 -0.18575016 -0.10652607 0.31533301 -0.10825635 0.08669781 0.17801636 0.04640001 -0.06192296 -0.09054602 0.18712968 -0.01376822 0.02952239 0.03379613 -0.22713678 0.06427662 0.13270777 -0.11457580 -0.10043471 0.22576892 -0.08977450 -0.44499066 -0.33048937 0.26100212 0.30731812 -0.35265946 0.09657750 0.07030545 0.19778481 0.38924408 0.02933483 -0.08232785 -0.23086317 -0.01222799 0.32306972 -0.25312626 0.07690750 0.22243206 0.12122697 0.35062695 0.03953792 -0.24041976 0.07771382 -0.33329937 -0.04111508 0.10430884 -0.10462046 -0.01641291 -0.00929634 0.00811731 -0.18405244 -0.13623084 -0.04327852 0.07690213 -0.05634429 0.13271514 0.05228094 -0.15113528 0.06346322 -0.13112251 -0.10844024 -0.08021171 -0.02143383 0.15043277 -0.16890879 -0.10740729 -0.14082207 -0.00063181 0.20841990 0.17891432 0.14033575 0.32986259 -0.04833256 -0.19731171 0.12661973 -0.19114996 0.16797554 0.09509490 0.05071183 0.12167519 0.00312417 0.23462668 -0.13169181 -0.34889472
-0.25829270 -0.19448611 -0.07988086 0.11926951 -0.23570001 -0.00679019 -0.26693511 -0.05167472 0.08106174 0.27620563 0.36729521 -0.11369576 0.17496935 -0.42265350 0.18177933 -0.28223386 -0.01169163 -0.05404186 -0.13043630 -0.01211881 0.03789098 0.05685705 0.08294344 0.44758016 0.05460578 0.10769748 -0.11903752 0.19277623 -0.05704980 0.22035465 0.23416665 -0.21622507 -0.06438228 -0.08646774 -0.21679311 -0.03706582 -0.31373996 0.17167503 -0.00414258 -0.05479361 -0.23091102 -0.32402751 -0.08465056 -0.02501778 0.34725627 -0.03841490 -0.16875719 -0.30207142 -0.20806052 0.32407343 -0.00868943 -0.18526489 0.25321952 0.28301185 0.05885857 0.23193847 0.07233601 -0.02781683 -0.13335282 -0.15121767 0.29567623 0.23751551 0.06179788 -0.30061266 -0.10638078 -0.05952696 -0.19755274 -0.13068566 -0.25138319 0.28397661 0.25264171 0.04073080 0.05222417 0.16286851 -0.27467456 -0.35908297 0.00591503 -0.23211698 0.27348340 -0.29225156 0.03520506 -0.26902965 0.22507744 -0.02257056 -0.27390838 0.28712136 0.05690636 -0.01295057 -0.16032299 0.07521925 0.51008290 0.42698380 0.21853931 -0.16052149 -0.09970113 -0.27116841 0.21354476 -0.09560414 -0.10449890 0.20507663 0.01146842 -0.01712921 0.14551036 -0.07123587 0.08928143 0.27382892 0.00974754 0.51910478 -0.14333127 -0.02256772 0.04452457 -0.17642236 0.13090469 0.06543130 0.27537799 -0.05337926 0.05389968 0.02488680 0.25614843 -0.14490886 0.15820919 -0.18621962 -0.23588142 0.24229516 -0.37633583 -0.03135373 0.05202650 0.01917467
-0.40130949 0.20706570 0.10665599 0.22218554 -0.10328994 0.18789212 -0.00888306 -0.14920464 0.29246870 0.13747011 0.37758395 0.10704830 -0.22962582 -0.22523624 0.30686781 -0.13784857 -0.17830744 0.36146149 -0.39906415 -0.07514971 0.10574512 0.04566625 -0.14350957 -0.02842946 0.12540638 -0.00650314 -0.24519026 0.30961850 -0.13697901 0.20908627 0.24395135 0.07273883 0.01356682 -0.38849047 -0.16075650 0.15009585 -0.38754317 0.27509612 -0.13845721 0.02148562 -0.53255725 0.14562210 0.11641207 -0.13161474 0.10356604 -0.22793418 -0.19047289 -0.02556759 -0.34880093 0.27867094 0.12578258 -0.21530072 -0.06235064 0.35234460 0.13364048 0.18203747 0.17730445 -0.07297942 0.08643705 -0.08424366 0.33464301 0.29003525 0.09944047 -0.17562857 -0.34757763 -0.52201658 -0.18727511 -0.03317197 -0.08296475 -0.02205120 0.13930912 0.10054149 0.09740021 0.26020402 0.02734432 -0.31322214 -0.04298016 -0.17141791 0.25955775 -0.41245216 0.41467720 0.08070920 0.22158763 0.56858712 0.05345048 -0.09969249 0.06941666 -0.13191840 0.05458792 0.54525077 0.37156913 0.35982162 -0.24964161 0.53826350 -0.22773747 -0.12948737 0.13419279 -0.13438812 -0.27483881 0.34005600 0.35251227 -0.21690872 -0.03604200 -0.21608265 -0.36383802 0.25955713 0.16094719 0.45266867 -0.22236253 -0.14225273 -0.25709134 0.12741660 0.15151258 0.07496377 0.20041728 0.42780980 0.00924489 -0.17942350 0.24657317 -0.18411933 -0.05828504 -0.09332921 -0.31077573 0.20734245 -0.03012131 0.02944140 -0.14970480 -0.19233663
-0.29866603 -0.31041628 -0.35662362 0.20923026 -0.26765609 -0.00070740 0.01156871 -0.10001382 0.11487832 0.10857661 -0.18906753 -0.34433287 0.57253343 -0.46525428 0.01565120 -0.35443467 -0.11455180 -0.12941283 0.27727884 -0.25741616 0.12883489 -0.24114686 0.13504007 0.30828696 0.07715022 0.33986953 -0.31909582 0.17952958 -0.15856712 0.14626396 0.13066837 -0.20737086 -0.29579362 0.09133327 -0.06823878 -0.20396267 0.07653039 0.02131738 -0.26083776 0.11750149 0.04133587 -0.31384081 -0.17000729 0.00953312 0.41812104 0.28118378 -0.04105637 -0.28648379 -0.14752643 0.24115202 -0.17741686 -0.24917884 0.04525372 0.21685389 -0.29981080 0.31627408 0.05381855 -0.14406615 0.25938520 -0.23471650 0.11102404 0.31721857 0.11069323 -0.33673891 -0.11371993 0.28412715 0.26242590 -0.14283022 -0.17821680 0.58341515 0.24088225 0.05405081 0.04380922 0.18263987 -0.00383647 -0.46951953 -0.14340252 0.05859654 0.33357450 0.02241998 0.00506711 -0.00941522 0.08300048 0.09084973 -0.30388248 0.38642442 0.16911118 -0.02968361 -0.33895347 -0.07895081 0.61112148 0.14022727 0.29118058 -0.00496750 -0.16695976 -0.33428529 0.20675120 -0.38565612 -0.11152108 0.25559226 0.33140033 0.18509534 0.12055513 0.06810808 0.04363381 0.37318662 -0.17168045 0.29784659 -0.07168466 -0.04381321 0.23986979 -0.09827185 0.06397959 -0.09718499 0.01244386 -0.07675280 0.11594597 0.14256956 0.08961774 0.10304567 -0.00090029 -0.30774918 -0.26103234 0.20673002 -0.38606498 -0.35720378 0.22733842 0.46581799
-0.32183620 -0.10508449 -0.14519700 0.29113826 -0.01676744 0.26949504 -0.13241228 0.08408657 0.34139702 0.24367246 -0.12952277 -0.26662832 0.17559223 -0.55098903 0.25950748 -0.42376256 -0.13123968 0.21513587 -0.19144768 -0.41393566 0.07927041 -0.17277662 0.19854409 0.34674874 0.18434240 0.07046824 -0.44958672 0.90529329 -0.34002230 0.42076656 -0.04228141 -0.00548528 -0.30617890 0.05002648 -0.09476560 -0.31490213 -0.30635202 0.00339574 -0.59749913 0.14790027 -0.58001572 -0.29628906 -0.09124940 0.05424312 0.35958374 0.06779958 0.15780868 -0.11447136 -0.37058654 0.30022645 -0.28565350 -0.36852580 0.09108774 0.21707650 0.11508208 0.02734690 0.10615929 -0.50190479 0.09965185 -0.34529757 0.43719500 0.57781523 0.23656292 -0.64840531 -0.00117297 -0.18568346 0.14677356 -0.26560101 -0.32884479 0.42437276 0.39820874 -0.03677390 -0.10968113 0.09801961 0.12031913 -0.53449690 0.20312090 -0.03102610 0.48100817 -0.42158672 0.23993021 0.06644668 0.29668435 0.55732656 -0.10851458 0.18389130 0.14004983 0.09847942 -0.26137900 0.28150862 0.61206573 0.17441832 -0.08952576 0.63785857 -0.37727985 -0.33877343 0.15080017 -0.21415223 -0.48096269 0.26872832 0.66839576 0.00395600 0.21250485 -0.22334872 -0.44341856 0.50943732 -0.23820525 0.63975608 -0.45717466 -0.27439940 -0.02325042 0.20375323 0.12430886 -0.14143024 0.15577666 0.20588514 -0.07900113 0.05861840 0.22003771 0.12722245 -0.39566672 -0.24315900 -0.53419447 0.48411956 -0.23959988 -0.38889548 0.08693724 0.37241805
0.33543265 -0.52896476 -0.25982913 -0.12873976 0.21843137 -0.36877745 -0.00613334 0.14258677 -0.33949617 -0.04809735 -0.72830075 -0.01639234 0.70972228 -0.12689601 -0.16024067 0.02833210 0.32112181 -0.29846266 0.36949271 -0.05484839 -0.10848311 -0.56529760 -0.17662416 0.01282629 -0.10440552 0.31786957 -0.00379964 -0.07015503 0.21838972 -0.31606025 -0.21007521 -0.43943322 0.36296403 0.51363796 0.17761974 -0.41589490 0.60258651 -0.38487524 0.22484790 0.32471231 0.40534690 -0.46167597 -0.24407861 0.40547916 0.22893527 0.12035371 0.08470449 -0.11478215 0.42366117 -0.06033533 -0.20169649 0.33994681 0.03352523 -0.12518221 -0.45468327 -0.16799201 -0.14788559 0.22318853 -0.14164715 -0.23909894 -0.20444439 -0.20674880 -0.13692258 0.06219859 -0.05276312 0.73824763 0.40592739 0.00134960 0.16232657 0.25738889 0.19489866 -0.18837290 0.30274567 -0.38577318 -0.08478504 -0.13116115 0.47321811 0.39156529 0.09609344 0.33501130 -0.49674568 -0.20891021 -0.31731021 -0.35240114 -0.56254095 0.21815497 -0.00518871 -0.12864792 -0.45669007 -0.55891979 0.11326881 -0.40574121 0.37289837 -0.38662559 0.14116037 0.21134010 -0.28763971 -0.07588787 -0.12100377 -0.20239426 -0.16125678 0.25322026 0.26777148 0.26643333 0.35220492 -0.26761574 -0.01232038 -0.19989701 0.11445868 0.07431871 0.62758422 -0.54145461 0.04445118 -0.26745823 -0.46927974 -0.31667903 0.20418733 0.20779911 -0.18060042 0.38962504 0.24252149 0.06700378 0.01340254 -0.16250551 -0.38600487 -0.42285466 0.30283222 0.36872768
0.49400082 -0.31414017 -0.27921307 -0.09338359 0.28405857 -0.48943645 -0.45906803 0.37429291 -0.14348395 -0.10897499 -0.64413273 -0.00464146 0.33629924 -0.20878223 0.09676664 0.09031251 0.14758508 0.21496047 0.29823872 0.05672131 0.03733889 -0.97806573 -0.34266314 -0.01391433 0.05019311 0.20609631 0.05716831 0.02401219 0.04117790 -0.24297188 -0.31590354 -0.23043080 0.32444575 0.27974796 0.24585582 -0.26413736 0.53929996 -0.32532814 0.30945536 0.58558851 0.14392760 -0.40417984 -0.03557754 0.45721424 0.20295049 0.06067164 -0.02410874 -0.24523944 0.31513861 -0.03959794 0.15367487 0.47656864 0.18993193 0.29762828 -0.41637000 -0.07801072 -0.25351337 0.25041515 -0.23711230 0.10388558 0.15468252 0.06714705 0.02418037 -0.07392275 0.25182095 0.64895278 0.22872235 0.06413017 0.31609872 -0.20042299 0.32157788 -0.06760297 -0.17401484 -0.24311604 0.30907956 -0.13906501 0.55788136 0.51529264 0.49738795 0.19017132 -0.24388346 -0.13325699 -0.22465929 0.22306052 -0.27472353 0.19321091 -0.29814863 0.34898826 -0.47237045 -0.38309598 0.07828414 -0.30619004 -0.08624940 -0.15661062 -0.15649997 0.04012751 -0.31892791 -0.02291969 -0.32342249 -0.00360740 0.07346795 0.19462481 0.30768573 0.32907620 0.20969565 0.02169732 -0.16394068 0.14323641 -0.00254111 0.05681914 0.38129178 -0.19854675 0.07622442 0.14093120 -0.55289745 -0.11603034 0.34035066 -0.15942326 -0.23441879 0.50834125 0.25042170 0.18935086 -0.19776349 -0.37838665 -0.23283271 -0.48569825 0.36519605 0.24627838
0.41946599 -0.40116578 0.16508660 -0.32091340 -0.08365747 -0.34932691 -0.18642139 -0.17214911 -0.61229563 -0.12649085 0.08487323 0.32790810 0.20029904 0.29986498 0.08304177 0.49060538 0.04527834 -0.11011595 0.07941198 0.58946872 -0.14839280 -0.24192843 -0.27438846 -0.43107125 -0.24603121 0.29069188 0.48294294 -0.91314560 0.12117600 -0.43626130 -0.00499053 -0.13413101 0.24049024 0.09315643 -0.05031253 -0.08560980 -0.11567266 -0.15973155 0.23964281 -0.02985239 0.35271803 0.24668151 0.18147214 -0.23679115 0.05038923 -0.22405571 -0.07472131 -0.20774174 0.49246228 0.05544896 0.14476934 0.45980147 -0.12051094 -0.06470343 -0.24911587 -0.13809569 0.07286977 0.53387123 -0.20309246 0.23138377 -0.37039196 -0.62609047 0.02584550 0.66261494 -0.58458072 0.40037218 0.14091484 -0.06906588 0.67213821 -0.53217876 -0.00723984 -0.04693605 0.35771576 -0.30080783 0.15600514 0.19636588 0.01038711 0.39656901 -0.04382583 -0.00282488 -0.20304517 -0.26529914 -0.30022883 -0.21578848 -0.25084236 -0.18403651 -0.12040412 -0.17253697 0.10183185 -0.24086760 -0.24517931 -0.30982304 0.45911282 -0.53635383 0.51853853 0.27934587 0.07162218 -0.21252120 0.22040023 -0.10051026 -0.28137437 0.04769211 0.09520540 0.23129413 0.58977562 -0.65522337 0.49299866 -0.31707492 0.24519336 0.29397666 0.26617986 -0.49508539 -0.04996484 -0.03218076 -0.32066411 -0.14546473 0.35599938 -0.02189652 -0.25605923 -0.40962419 0.51495719 0.07147720 0.45777276 -0.40789789 -0.05575816 -0.03674052 0.02656187 -0.46600306
0.39821249 -0.17425135 0.36890918 -0.11303533 -0.10961737 -0.13347943 -0.34191641 -0.01156949 -0.32314727 0.27103850 -0.03196677 -0.02780517 0.31090555 0.16260301 0.29440051 0.43193808 -0.30607030 0.06238997 -0.20164676 0.24236375 -0.01271944 -0.35004425 -0.16829073 -0.53402859 -0.09922911 0.39035499 0.32079750 -0.35153231 -0.25329566 -0.29859370 0.04184985 -0.28794467 0.09642352 0.17769711 -0.61385834 -0.02132720 -0.27778891 -0.21947138 -0.15711823 -0.15802534 -0.38762912 0.08374313 0.21196057 -0.03997991 0.54714119 -0.33267799 0.22561456 -0.08475380 0.32949546 0.28241792 -0.09472618 0.32970533 -0.39563063 -0.13314310 -0.49789199 0.05491657 0.26834726 0.12760839 -0.59332043 -0.12788780 -0.11213695 -0.32337838 0.22423932 0.58459222 -0.52689850 0.49349084 0.19314671 -0.57558393 0.69943595 -0.57735062 -0.12371433 -0.00986300 -0.22040299 -0.39052019 0.09109617 -0.12689736 -0.27767649 0.23353736 0.02431208 -0.01099688 0.12712516 -0.42383823 -0.30699733 0.53487962 -0.14130305 -0.13266702 -0.37448612 0.13309959 0.08851001 0.20180996 -0.16711099 0.19201870 0.36602402 0.09957082 0.18348758 0.15797214 -0.07830912 -0.61560106 -0.16377145 0.24119277 0.16174935 -0.01073415 0.06905160 0.32252488 0.41648710 -0.44665575 0.19378965 -0.12543774 0.02705153 0.22063105 0.40036052 -0.25465876 0.03098688 0.05681310 -0.18855745 0.08901071 0.56348532 -0.08660450 -0.27387273 -0.57895911 0.08644813 -0.12341898 0.16918574 -0.35526115 0.13779227 -0.31871420 -0.08156347 -0.51148033
-0.20111382 -0.39063099 0.26556468 -0.16585398 0.02384353 0.03485607 0.28542301 -0.35047594 0.15926288 0.28860146 0.06209526 -0.01005075 -0.07678867 0.04983037 -0.06812871 0.07645356 -0.11873893 -0.54702657 0.09099793 -0.24343777 0.06528448 0.35434905 0.30026442 -0.11999399 0.03595809 -0.15047684 -0.37691051 0.17238314 -0.11458684 -0.00443306 0.27657431 -0.17246094 -0.38529858 -0.20059197 -0.16614735 0.15923199 -0.35626280 -0.19359939 0.06421580 -0.42084047 0.40185854 -0.09432063 -0.50383657 -0.31024858 0.06412546 -0.02905949 0.30161226 0.02276963 0.04552735 0.30701941 0.02845818 -0.31490782 -0.05956924 -0.43214929 0.21055602 -0.03620117 -0.05358340 -0.13627051 0.10066115 -0.07835950 -0.10964616 0.05376403 0.00399253 0.18750973 -0.41438457 -0.18828148 0.09504075 -0.18770374 0.13101304 0.12409481 -0.16782944 -0.03302618 0.19102064 -0.22131427 0.10800076 0.04904535 -0.06122034 -0.70470154 -0.08183757 -0.17363289 -0.22139251 -0.17791449 0.07023398 -0.23394687 -0.12035295 0.22622584 0.31246656 0.10202309 0.02022127 0.22180605 0.13284540 0.19352528 0.10063733 0.28785589 0.11238925 0.20072819 0.08049355 -0.29117900 0.48209193 -0.02302507 0.01066273 0.01286618 -0.26177803 -0.28016987 0.18192004 -0.22227460 -0.00196001 0.03350123 0.05115604 -0.16050255 -0.24618201 -0.21075501 -0.17769718 -0.44680625 0.31361857 -0.05305433 0.23924488 0.24962117 0.17157809 -0.15698533 -0.24792606 -0.41502830 0.17720962 0.55920291 -0.12212724 0.06995352 -0.07639908 -0.02967117
0.16457656 -0.58278430 0.02774727 -0.10683518 0.22074358 -0.28479582 0.14900368 -0.00162251 -0.00947288 0.10545150 -0.06722198 0.02023412 -0.08133551 -0.10365406 0.09995409 0.17732973 -0.07386564 0.02249807 0.68563837 0.03858552 0.11564799 -0.10862941 0.03291367 -0.12895046 0.09126765 -0.29211074 -0.21511865 0.24989271 0.24970639 -0.20502976 -0.46530321 0.01003200 0.02995752 -0.11792494 0.49384964 0.09591050 0.07938956 -0.46399865 0.25150526 0.04394589 0.33115667 -0.28871232 -0.29018447 0.13337126 0.19925681 0.07968204 0.12241947 -0.39428821 0.18453126 0.04049333 0.53548563 0.00134386 0.27942500 -0.02644210 -0.23683354 -0.09997208 0.07116210 -0.00917367 0.19304265 0.17675522 0.01155050 0.39051998 -0.16321146 0.30797687 -0.10719549 0.20805751 0.33324346 0.29005286 0.30812705 -0.20933232 0.19660741 -0.65315098 -0.37093419 -0.14359748 0.05670228 -0.12743336 0.22679693 -0.24510428 0.16578148 -0.07188357 -0.30451244 0.01187618 0.12088876 -0.36966982 -0.15830314 0.21596198 -0.15887834 0.19023234 -0.20597059 -0.18058200 -0.02906387 -0.37290025 0.04115439 -0.07488789 -0.35799211 0.16916457 -0.04960441 0.29836994 0.23599540 -0.08315495 -0.11625338 -0.19526869 -0.09158145 0.07843984 0.03919912 -0.43187118 -0.35411793 0.35034168 0.25902772 -0.10819086 0.06037250 -0.02554592 -0.02891339 -0.12172346 0.00474262 0.01283126 0.60922617 0.10426455 0.01390468 0.31053871 0.00306089 -0.29333773 0.03712465 0.04770779 -0.28994486 -0.33401293 0.08292853 0.04465304
-0.31902167 -0.05050215 -0.52600545 0.07157773 -0.25464091 0.30055439 0.26968792 -0.20316008 0.20031081 -0.33903363 0.20500608 -0.02118735 -0.15144476 -0.30130264 -0.19586630 -0.16297172 0.22630857 -0.12174637 0.30240667 -0.03888951 -0.14726798 0.11038422 -0.07013042 0.38220081 0.09590689 0.17038485 -0.01050768 0.06334707 0.30211589 0.48263496 -0.06042492 0.39782009 -0.04427641 -0.03451827 0.48836187 -0.20562491 0.30157045 0.51168901 -0.27901804 0.04745632 0.26834372 -0.05443140 0.06713217 0.14051856 -0.45175964 0.42064121 -0.13578779 0.00430650 -0.19434570 -0.35547778 0.13228256 -0.40142548 0.46790886 0.07942893 0.41786113 0.08216092 -0.24833833 -0.08590346 0.75551569 0.08992511 0.09265487 0.08599951 -0.03651872 -0.11469726 0.52460474 -0.22074839 -0.10975987 0.39479515 -0.34407124 0.38849908 0.12615573 -0.08537877 0.02819895 0.35187909 -0.11931112 0.30965587 0.04814899 -0.08065312 0.13994727 -0.11532697 -0.22038244 0.12983973 0.29124334 -0.55201262 0.35621554 0.11259025 0.27104378 0.48743924 -0.04500737 -0.17479442 0.21998595 -0.22736210 -0.22053988 -0.01769929 0.02446299 -0.53435272 0.45535088 0.47375432 0.31577212 -0.23838703 0.01284744 -0.23331760 0.44865522 -0.37774584 -0.64552259 0.37451991 0.03026650 -0.17160350 0.12373710 0.16599612 -0.19022284 -0.01184196 0.16618209 -0.05076660 -0.16684118 0.11485565 -0.41448420 0.24723560 0.31878853 0.13881427 0.07352725 0.10537576 -0.12135974 0.46988359 -0.30205941 0.02809255 -0.05404430 0.21034926
0.00606661 -0.01368388 -0.37710136 0.51656693 -0.03164573 0.54673868 0.10598662 -0.09132106 0.36998412 -0.10044006 0.12649718 -0.06754614 -0.25679615 -0.63802284 -0.03895060 0.01439509 -0.03727432 -0.02619225 0.05486094 -0.22253546 -0.21426156 -0.21674839 -0.27940711 0.18240364 -0.11372506 0.21359131 -0.26674744 0.41384226 -0.36167186 0.45629597 -0.10347028 0.33641019 -0.05950217 0.28008536 -0.08883205 -0.02497051 0.11003163 0.53769660 -0.14576553 0.01133731 -0.47791418 -0.27932534 0.09695274 0.18103430 -0.03038043 -0.01284343 0.23002768 0.07917368 0.11694907 0.31061301 -0.30942121 -0.76009977 -0.06296453 0.09755882 0.23789108 0.21395409 0.07194750 -0.13176790 0.41402125 -0.11216874 0.25649720 0.18613151 0.49005347 -0.14538595 0.37808296 -0.14694194 -0.10046041 -0.26246512 -0.15382554 0.18920885 0.17638925 0.04011958 -0.33712345 0.37910369 -0.11448014 -0.09329563 0.09973797 0.24304877 -0.05963783 -0.07792621 0.02348488 -0.05794751 0.09837814 0.22751790 0.11110505 0.20965032 0.11887465 0.45186025 0.35488799 0.24009688 0.02620843 0.10765567 -0.01569306 0.53540772 0.15860407 -0.54256701 0.46274680 0.07332487 -0.05426756 -0.10785816 0.20417136 -0.18752365 0.22117822 -0.03898541 -0.65417784 0.51410270 0.11893848 0.23147780 -0.24275026 0.38016748 -0.24875322 -0.01691803 0.33898735 0.25551412 -0.09642740 0.09224077 -0.33207586 0.15527061 0.17644505 0.02862137 -0.32097641 0.06203972 -0.29405019 0.16897574 -0.09607976 -0.23996671 -0.08350029 0.27616313
0.21131317 -0.07218026 0.11558454 0.21636030 -0.38323480 -0.17799239 -0.12544218 -0.26130739 -0.45393279 0.28349024 -0.14258945 0.21785657 0.10232972 0.37696055 -0.31396177 -0.06295221 0.04219581 -0.61007434 -0.25897181 0.02967504 -0.08706180 0.29369256 -0.04888067 0.30211505 -0.05305510 -0.18912998 0.06792177 -0.42253101 0.16546738 -0.23407826 0.42382655 -0.40748388 -0.26025629 -0.14777115 -0.42503333 -0.28952667 -0.03448548 0.00911182 0.58524096 -0.37062553 0.22336321 0.09817071 -0.04566673 -0.33836108 0.10597648 0.08480141 0.01051813 0.23073980 0.26087004 -0.04303895 -0.57577026 0.35106009 -0.29189253 -0.06887702 -0.08105281 0.01830165 -0.28053114 0.05614000 -0.34762681 0.16175109 -0.17661582 -0.39910623 0.01813508 -0.14650150 -0.22232810 -0.24822836 -0.04442294 -0.61009133 -0.01482712 -0.16510022 -0.23629065 0.00802931 0.17827019 -0.63355166 0.16411285 -0.11545135 0.18995605 0.06960281 -0.03087757 -0.04018982 0.17328502 -0.28465238 -0.10814788 0.03934114 0.08212379 -0.00570970 -0.10165492 0.11792962 0.14640853 -0.05749643 0.08567163 0.31146029 -0.19434491 -0.20635521 0.37610009 0.58286333 -0.24372485 -0.19473252 0.36407778 0.11451317 -0.13211311 0.27631387 -0.45502624 0.27955091 0.33677244 0.00580748 0.39335400 -0.29620221 -0.16098711 0.06834306 -0.00018508 -0.22159648 -0.25630459 -0.43411797 0.03060950 -0.63679498 -0.23088649 -0.09679906 -0.17359245 -0.12296256 0.08963042 -0.00600316 0.04280322 0.03454002 -0.02260610 0.43490756 0.30469468 0.05100901
0.03688004 -0.01730170 0.30566099 0.14875285 -0.54643065 -0.23178749 -0.13250265 -0.20755015 -0.43362281 0.16415475 -0.18690598 0.15040332 0.42538711 0.61173022 0.24321535 0.28301540 0.16784583 -0.56906283 0.09425849 -0.16143791 -0.26691493 0.20225886 -0.11727960 -0.07112949 0.13286237 -0.13151030 0.47358114 -0.31095126 0.76014715 -0.49079549 0.23732066 -0.37496918 -0.13296221 -0.23709528 -0.00996019 -0.49728099 0.07988481 -0.26955572 0.09371091 -0.19592072 0.40387031 -0.09079298 0.38864198 -0.05656628 0.15809280 0.26874140 -0.36039975 0.15880318 -0.03420812 0.06448978 -0.00631425 0.40450847 0.15023205 -0.23448658 -0.23822460 -0.08274664 -0.27683514 0.25962952 -0.26977670 0.14603624 -0.29837775 -0.28976342 -0.18333636 0.10172645 0.11737590 -0.14862141 0.30998445 -0.17426205 0.16733213 -0.22883560 -0.33646178 -0.13587761 0.34787852 -0.59640878 0.15532288 0.14266597 0.02020920 -0.01315278 0.28933981 -0.10449946 0.04721266 0.02453746 -0.49892020 -0.25585112 -0.15583391 -0.10571719 -0.22696410 0.24104902 -0.31802738 -0.30099231 0.20918255 0.08985926 -0.00958570 -0.43656838 -0.01932243 0.47923464 -0.09683393 0.38953215 -0.17777529 0.26607901 -0.16889322 0.12205888 -0.25624996 0.08994371 0.21049799 -0.03261067 0.21626733 -0.22979046 0.10734722 0.33963898 0.37680915 -0.09217200 -0.41573778 -0.57631207 -0.10473059 -0.31819475 -0.01852159 -0.07800744 -0.33287773 -0.07738911 0.35329679 -0.29884186 0.00237999 -0.07091873 -0.25273177 -0.27223527 0.48767215 -0.00477429
-0.03798435 -0.00454240 0.38988376 -0.35844174 -0.21838003 0.16196853 0.17189527 -0.16592386 -0.41628364 0.02211042 0.12718517 0.01986304 0.18406139 0.21088302 0.16868903 0.00098619 -0.18203294 -0.42081073 -0.15390076 -0.11334240 0.24491160 0.29987428 0.11063144 0.15002467 0.06674996 -0.26048478 -0.05079719 -0.03185463 -0.00837973 -0.05066133 0.27789375 -0.02951808 -0.36641935 -0.14364304 -0.39970037 -0.25575215 -0.22419959 0.20943409 -0.22472011 -0.11404705 0.13172632 -0.15987895 0.01032626 -0.03015128 -0.11114920 0.26029119 -0.12773789 0.15886767 0.07257141 -0.09222947 -0.20976499 -0.15646748 -0.04736308 -0.49381024 0.14363460 0.00140605 -0.17868337 0.09552543 -0.20262308 0.02601395 -0.11179177 -0.34296837 -0.23683557 0.16187975 -0.13203584 -0.10567939 0.05114373 -0.59047782 0.02882835 0.00627530 -0.49665478 -0.00069911 0.42234385 -0.45120046 0.11553448 0.45709109 -0.06564432 -0.29866546 -0.15585427 -0.03145500 0.29626578 -0.14843695 0.08538614 -0.01497665 0.00172373 -0.06096533 0.35756871 0.23120105 -0.24628259 0.10695167 0.43464595 0.04860041 0.05132164 0.09302432 0.22208652 -0.08874413 -0.03206765 -0.15047020 0.03421878 0.31524700 -0.02398371 0.37220788 -0.15592870 -0.36625740 0.25518981 0.07796261 0.05966789 -0.23001055 0.13034526 0.03456648 -0.38357547 -0.27579412 -0.17571899 -0.14529152 0.18160024 -0.14080088 0.03274067 0.20615055 0.09208197 -0.33735529 -0.05807665 -0.11353089 -0.01063362 0.22902629 0.07322749 0.09267277 0.13757923 -0.24420629
0.29533383 -0.21964194 -0.02977809 -0.05169027 0.00028774 -0.05065955 0.06364329 -0.40345892 -0.23580256 0.23835254 -0.06990633 0.15845904 -0.43708804 0.06551944 -0.16358930 0.13700445 -0.22243825 -0.25370485 -0.32527906 0.19516806 0.18677197 -0.09815525 -0.05667480 -0.24246496 -0.14696389 -0.11093600 -0.05031874 -0.18368332 0.07113781 0.08684483 0.18986942 -0.29486260 -0.16448674 -0.17302793 -0.20654286 -0.02855136 -0.20013660 0.24957226 0.47326174 -0.25509149 0.05818786 0.37195042 0.01595139 -0.26388672 -0.21616070 0.32174146 -0.19054519 0.01906109 0.38708076 0.13517284 -0.42439029 -0.05727607 -0.30677974 -0.11303055 0.04027617 0.01079062 -0.14608893 -0.11682231 -0.02166660 0.15312384 -0.07741138 0.01573786 0.49995181 0.06465714 -0.25948998 -0.10124859 -0.13910170 -0.26742133 0.24044169 0.09601695 -0.31880984 -0.03706732 0.14375603 -0.10492189 -0.35243875 0.09120319 0.09966828 -0.05023957 -0.16010197 -0.14580360 -0.08752163 -0.24731900 0.00459028 0.15111290 0.06889015 -0.06034144 -0.15012512 0.19938566 0.27589801 -0.06264495 -0.08261535 0.30848554 -0.12421155 0.09659435 0.46439645 0.09505729 -0.00585218 -0.05065252 0.23605497 0.16564253 0.03944336 0.43954751 -0.16980587 0.06800794 0.32086018 -0.08564956 0.25248259 -0.26606110 0.00366603 -0.41293865 -0.26266161 -0.28866115 0.09553483 0.18839779 0.17546140 -0.72981137 -0.15087122 0.00195405 0.04208771 -0.56120205 -0.32650083 -0.05112605 -0.03212947 -0.00356532 -0.14381471 0.33705628 -0.10500188 -0.05335782
-0.01402580 -0.55477500 0.24071388 0.11412603 0.08354130 -0.03160478 0.26148647 0.31491646 0.12050360 -0.25303000 -0.12902677 -0.16389255 0.16406329 -0.31917334 -0.05367078 -0.45199278 -0.20593405 0.38419637 -0.09063103 0.57033116 0.01872056 -0.24781053 0.33327696 0.03831094 0.11944292 0.24495310 -0.06728709 0.12253927 0.05228948 0.10105286 -0.23010086 0.16078225 0.44479725 0.05463221 0.21628326 0.58502311 0.25252032 -0.11413273 -0.40382940 0.38584810 -0.08650312 0.10198808 0.05565869 -0.05553288 -0.23632669 -0.30100390 0.50604606 -0.44404092 -0.16894728 -0.08623443 0.11709977 0.01806020 0.30958626 0.21465224 -0.21547557 -0.06189099 0.15334757 0.24235134 0.50533342 -0.23101817 0.23726584 0.07668465 -0.08777519 0.51380068 -0.04469433 0.15158132 -0.17436188 0.39432049 0.27132994 -0.00936060 0.40399888 -0.09948193 -0.33709183 0.24969265 -0.02956013 -0.03163083 0.46230707 0.01700286 0.15678647 0.01409081 -0.02055979 -0.26698864 0.30660352 -0.12548178 -0.06905345 0.24724600 0.02090582 -0.13817097 0.16945370 -0.12900046 -0.73225421 -0.30359355 -0.16613823 -0.01017400 -0.12711719 -0.07874627 0.21852748 -0.12095017 -0.01666399 -0.05392607 -0.34883943 0.16071300 0.31954435 0.01833315 -0.08987020 -0.25538445 -0.00063763 0.10140035 0.23063901 -0.23714921 0.33415121 0.02307888 0.34214383 0.02527871 0.08551914 0.10123581 0.47325164 -0.06518386 -0.04795660 0.16282386 0.08071471 -0.02716013 0.52807409 -0.17275782 0.06373523 0.37255114 -0.33708560 0.10081145
0.39174163 -0.47274348 0.18114287 -0.02583431 0.13254187 0.26416513 0.23591055 0.39054933 0.36023381 0.16625950 -0.09431814 -0.00974437 0.55345154 -0.03734640 -0.17385612 -0.02665357 -0.12249006 -0.32267487 0.12891610 -0.29976723 0.09747814 0.05201203 0.12201768 0.10435594 0.07443868 -0.22835994 -0.52544415 0.04633510 -0.08213835 0.13939877 0.30318972 0.13731934 0.09182927 0.29055095 -0.07675655 -0.16587271 -0.11629856 -0.13313279 -0.02917672 0.02708124 0.20091543 -0.38485003 -0.11433597 -0.19524036 0.20687366 -0.01605995 0.32200909 0.08799845 0.33251590 0.34638554 0.03421007 -0.17274293 0.28684190 0.36022675 0.15555046 -0.10936935 -0.31680533 -0.02557927 0.36530271 0.14782226 0.25380066 -0.15855685 -0.38134491 0.28551957 0.08982316 -0.15001979 0.07498759 -0.43260154 -0.10795139 0.21587327 0.09070019 0.00450052 -0.09332192 0.13965692 0.17466824 0.36951032 0.01987121 -0.25045913 -0.00759595 0.15011604 -0.18130147 -0.08195805 -0.18994626 -0.04910463 -0.04733268 0.14199349 0.17639016 -0.08817461 0.18129809 -0.01603121 0.03065756 -0.37889448 0.10109229 0.21997035 0.07026982 -0.05141559 0.11786614 -0.16186461 0.04511174 -0.11368091 -0.03003928 -0.11294918 0.22843537 -0.00582922 -0.09776336 0.02825534 -0.26489416 0.09123819 0.26325974 0.23377480 0.04969852 -0.27574793 -0.19592445 -0.22723366 0.35285962 0.25043738 0.02719194 0.15284497 -0.19855772 0.35335800 -0.22540028 0.14074436 0.22361310 -0.10730780 -0.02612392 -0.17845881 0.29536048 0.18301712
-0.13312535 -0.27398536 -0.25557837 -0.53460884 0.43467000 -0.17031062 0.07296409 0.17544843 -0.18693893 0.19099991 0.07883573 -0.01463223 -0.06396121 0.08643073 -0.16090705 0.05699900 0.26904333 -0.45936158 0.31703201 -0.19835261 0.19057034 -0.08954765 0.06384789 0.20150802 -0.24645908 -0.10766678 -0.01793355 0.00970598 -0.19177318 0.05764579 -0.04142964 -0.01106529 0.16490655 -0.06870247 -0.26234105 0.00162057 -0.24051902 0.09253282 0.13942574 0.15794609 0.45696506 -0.14602633 -0.24821709 -0.26149198 0.28363436 0.08118823 0.31588465 0.00200303 0.15733083 -0.15036462 0.22321880 -0.19390120 -0.15968893 0.26734236 -0.08616129 -0.15770385 -0.22109516 -0.23626733 -0.22763076 0.17855120 -0.16327661 0.12223114 -0.31018159 -0.25596261 0.03900690 -0.05619744 0.32036114 -0.13860293 -0.02567698 -0.06710668 0.07260240 -0.22864062 -0.09534252 -0.34478939 0.39494592 -0.08822697 -0.09234166 -0.25156772 -0.34177622 0.17649977 -0.01765601 -0.19059362 0.14418589 0.04419156 -0.42788342 -0.04340597 -0.05050387 0.08796210 -0.33256197 -0.25606126 0.40330273 -0.11292351 -0.15320875 0.02301217 0.24522676 -0.09361240 -0.54737371 -0.08972203 0.50610346 -0.41704908 0.21772836 -0.21915495 0.03141114 -0.18151423 0.36943886 0.06017771 -0.00716473 -0.05869111 -0.01467953 -0.25258833 0.01167026 -0.17302629 -0.09716149 0.00771414 -0.10543909 0.03405199 -0.12799516 0.04459708 0.09412120 0.25802290 0.26156515 -0.08169821 0.05900094 0.17624924 0.20266300 -0.17075084 0.14378604 -0.02512830
-0.17860828 -0.02023729 0.30612859 0.05996089 -0.05149022 -0.03658209 0.20352253 0.16762121 0.22519018 0.00444405 0.04127425 -0.34566522 0.16280691 0.02127260 0.47599384 -0.37831849 -0.37398741 0.21849446 -0.07790577 0.11516248 -0.04607338 -0.47823578 0.26826385 0.12054279 -0.10214916 0.17733946 -0.07901764 -0.00239332 0.02999298 -0.32887974 -0.26470113 -0.14167692 -0.08457055 -0.12021865 -0.13169730 0.31579703 0.11160458 -0.08600839 -0.02240930 0.11907296 -0.04987947 0.19283573 -0.26014930 -0.12539881 0.20294636 -0.25345206 0.14125909 -0.22649248 -0.04812029 -0.09772273 0.05225474 -0.11478729 -0.10734700 -0.33725333 0.12182353 0.32372943 0.44080168 0.07546108 -0.00118796 -0.33167598 0.47343862 0.19460370 0.07871134 0.36860955 -0.30262974 0.05985049 -0.00457077 -0.03400963 0.06348752 -0.23023471 0.07341576 0.00219304 -0.09732062 -0.06547229 -0.19747345 -0.12594414 0.35547927 -0.08923929 0.23535588 -0.21417503 0.26503149 -0.18011785 0.23836669 0.20982113 0.03943092 0.17329700 0.34251660 -0.09838302 -0.15626149 0.01895664 -0.17865275 0.00227933 0.01276384 -0.30168959 -0.36847609 -0.04141470 0.13957369 -0.14815010 -0.33877838 0.43296701 0.10016754 0.21105844 -0.08342464 0.10602919 -0.04000296 0.23020807 -0.09889863 0.01043977 0.09054004 -0.10511626 -0.07960954 -0.00813914 0.20344003 -0.26172850 0.17548957 0.08116002 0.27082822 0.01240522 -0.09962100 -0.02087367 -0.14145842 -0.08894612 0.20860322 -0.16790968 0.07203291 0.02764366 -0.46440291 -0.03979871
-0.43111163 0.29903570 0.10276346 0.37070301 -0.05053870 0.12322063 0.03648068 0.00471359 0.02816842 -0.21925114 0.28346846 -0.11102837 0.22586036 0.12827404 0.47398207 -0.24717918 0.18587384 -0.03100383 0.00280384 0.01959062 0.03039429 0.12179738 0.03470742 0.06799821 0.08810160 -0.08020747 -0.30089670 -0.04154232 -0.19240411 -0.19828005 0.35296011 0.22186224 -0.20415595 -0.13421479 -0.06963134 -0.03889897 -0.12710325 0.19265017 0.09421987 -0.11148232 0.05443897 0.15644225 -0.00383408 -0.32549608 -0.09334490 -0.20748141 -0.33439600 -0.11683159 0.20726532 0.02115516 -0.02856925 0.18991426 -0.09273698 -0.22649679 0.02909608 0.07849398 -0.07855386 0.06423443 -0.15165010 -0.15444395 0.11986871 -0.10045667 -0.12954624 -0.02638446 0.13081178 -0.18216115 -0.14434962 -0.21084669 0.14496902 0.14705092 -0.09234465 0.02536650 0.16873285 -0.27733335 -0.12938292 -0.00879700 0.03745971 -0.20857489 0.15610363 -0.08902784 0.41659534 -0.10039072 -0.02457618 0.21900184 0.16469418 0.13934426 0.32928529 0.06974923 -0.10062343 0.15431193 -0.10569285 0.19238196 -0.20254749 0.05353312 -0.36238509 0.01382164 0.23302470 -0.02055398 -0.15073681 0.44294748 -0.15898669 0.28988388 -0.48293304 -0.12548663 0.03868225 0.01325196 -0.01676398 -0.06437887 -0.00028557 0.20921956 -0.19319868 0.09258247 -0.13281085 -0.18933065 -0.10597758 0.03584885 -0.07880712 0.10377482 -0.05577278 -0.20220190 0.17486663 0.11192007 0.16980782 0.15918906 -0.18053618 0.07362784 -0.22229540 -0.07449627
0.33504340 -0.17754102 -0.37930673 -0.11501990 -0.12298478 -0.00752458 0.05247244 0.10464258 -0.42637742 0.29361281 -0.48079681 -0.27941698 0.50011742 0.18113464 0.10883065 0.29221871 0.16280667 -0.47226825 0.54637069 -0.12305467 0.05840542 -0.03537712 -0.06713461 -0.20816647 0.09362456 0.24349566 0.00462190 -0.02976497 0.12662372 -0.12947384 -0.18668920 -0.15417020 -0.06129278 0.19795197 0.11148312 -0.38501051 0.25129429 -0.07691438 -0.31041476 -0.30743113 0.32425120 -0.50882870 -0.20219821 0.07346158 0.00797588 0.11669748 -0.30125353 -0.23200123 -0.01827101 0.03108709 -0.10254095 0.03660524 0.09462114 0.10333973 -0.17588221 -0.36905688 -0.42036203 0.11469515 -0.02844844 -0.18213156 -0.23938218 -0.46421188 -0.22990413 0.10906790 0.28536671 0.28689915 -0.16191356 -0.19249265 0.32415533 0.25547045 0.12559751 -0.29519537 0.17300525 -0.34837791 0.14869703 0.02350554 -0.04849984 0.19769673 -0.05255697 -0.04193185 -0.40640464 -0.23347396 -0.66571885 -0.44897142 -0.15582070 0.11417558 0.01150128 0.00117443 -0.04333223 -0.13266911 0.23420683 -0.22930922 0.13108125 0.04658703 0.25566581 -0.05503447 -0.07324279 -0.16082852 0.00676030 -0.25372836 0.14199643 0.25788203 -0.03411406 0.14809583 0.17600276 -0.07948146 -0.22403884 -0.43810025 0.03497148 0.34322643 0.12354686 -0.34447193 -0.08664048 0.00501956 -0.24186620 -0.23603781 -0.24069394 -0.11638248 -0.33123413 -0.02203119 0.06773633 -0.48068342 -0.18648249 0.26610348 -0.42334276 -0.13790223 0.23689534 -0.09823114
-0.32193151 0.06200714 -0.16051005 0.02014836 0.01360836 0.04017367 -0.02913804 -0.20156257 -0.05558747 -0.39570758 0.39113417 0.08852568 0.09887231 -0.28686026 0.35879159 -0.16257225 0.14077054 0.21083111 0.25084642 -0.02798658 -0.27050716 -0.52596039 0.08072297 -0.06468770 0.02880596 0.26294631 0.12507483 0.07178169 0.06623122 -0.18270826 0.08836761 0.33721840 0.29722363 -0.23320116 0.07322783 0.14806004 0.02655779 0.14508028 -0.37279445 0.41512921 0.20028093 -0.04431723 0.47270671 0.45722592 -0.18618606 0.09456616 -0.19765018 -0.22091028 -0.13652657 -0.31083417 0.21714377 0.06110207 -0.01028217 -0.08988697 0.26902670 0.14977773 0.20942934 0.50423270 0.24254824 -0.11198485 0.22857054 0.13180406 0.04014980 0.04432001 -0.03751063 0.05114577 0.17395777 0.09261955 0.18406680 -0.12989013 -0.19545421 0.01112430 0.02316000 0.39965570 -0.07106219 0.19064376 0.41895762 0.20477614 0.00077442 -0.22018810 0.22203964 -0.14808446 0.08317678 -0.00307058 0.15553810 -0.13331601 0.10448338 0.13321860 0.04603834 0.24587294 0.02333374 -0.07349227 0.07826433 0.21013331 -0.19520158 -0.50646371 0.15802416 0.13894254 -0.25492501 0.35633975 0.00733715 -0.15122569 0.35496280 -0.37001055 -0.26991510 0.31542355 0.11689879 0.20691063 0.13810989 -0.21140933 -0.05489280 0.24873050 0.23944406 0.13804722 -0.43164241 0.22491616 0.31602898 0.00803789 0.18852250 0.17869267 -0.12022851 -0.39494866 0.14383267 0.11643495 -0.00206908 -0.13239938 -0.29282737 -0.27882519
-0.17535098 -0.08789448 -0.19644076 -0.56564146 0.17354560 -0.38286942 0.27558443 0.02253469 -0.19233823 0.02629566 0.30743110 -0.33566856 -0.27439526 0.33011603 0.22633250 -0.43664393 0.14162412 0.11645417 0.31021905 -0.25817701 -0.12585206 0.44972622 0.04751571 0.03369651 -0.30336097 -0.17406918 0.04121120 0.21613197 -0.02655151 0.06269187 -0.05115001 0.30449474 0.24009277 -0.40477023 -0.04295877 0.01108581 -0.41365734 -0.37667188 -0.21532726 0.13782538 0.15903139 -0.09165113 0.18142094 -0.13468976 0.22591251 0.30008605 0.07277641 -0.02999294 -0.19686277 -0.01169889 0.21817520 0.01515799 -0.20399573 -0.01361666 0.12314799 0.14349639 0.22469014 -0.22866015 -0.23654594 -0.02057282 -0.09004112 -0.26659635 -0.42588332 -0.23899837 0.07111896 -0.16341104 0.29817843 -0.11009049 -0.04679528 -0.29025412 -0.22485100 -0.00137366 0.13947822 -0.01872711 0.33144483 -0.04399463 -0.01981895 -0.15875967 -0.11744789 0.17526872 0.16209193 -0.10277161 0.12605502 0.10873680 -0.13093337 -0.27052674 -0.15346794 -0.07875626 -0.22249250 0.01731438 -0.00703857 0.08755834 -0.36716557 0.01224694 -0.39939284 0.04263634 -0.36204550 0.11641715 0.10520376 -0.04105907 -0.04909153 -0.11292525 0.17789854 -0.25914174 0.21859074 0.30783001 -0.09459417 0.16823339 0.10706110 -0.37016046 0.19062766 0.26005030 -0.23877771 -0.12374900 -0.14177407 0.16829669 0.15359752 -0.09375680 -0.03229517 0.05081378 0.02586605 -0.03670336 0.03350632 0.08624367 0.08069347 0.15288927 -0.01943426 -0.13169138
-0.40870488 0.21272737 -0.25463200 -0.09938521 0.22397608 -0.12334742 -0.03896345 -0.19598134 -0.35141149 0.10403500 -0.31351733 -0.21039422 -0.27498144 -0.03510552 -0.29199806 0.10957827 -0.12418441 -0.04160960 -0.11576690 0.18617561 0.18684825 -0.12100291 -0.18219620 0.19547495 0.19493435 0.16218206 0.28941524 0.04092557 0.13674180 -0.02516781 -0.36526620 -0.04885688 -0.08405759 0.17891158 -0.19580927 -0.03255101 0.18563659 -0.17635196 0.19182745 -0.08013198 -0.07222485 0.12293041 -0.25998896 0.18072110 -0.17874832 0.18739693 -0.14062862 -0.25605908 -0.02288812 -0.31525227 0.04145353 -0.02396462 -0.12350658 -0.16372983 -0.25402603 -0.11073476 0.03273774 -0.07668549 -0.35599017 -0.27080441 -0.18349436 -0.12268257 0.15166250 -0.38153806 0.08275043 0.12680577 -0.17739360 0.18165232 -0.09730792 0.03838133 0.10262276 -0.31790492 -0.10430815 -0.53321743 -0.01197639 -0.23929231 0.05296906 0.16482250 -0.05646304 0.23786911 0.03239858 0.02451376 0.00542441 0.14025894 -0.19591995 -0.15646334 -0.13232732 0.26439431 -0.54243350 -0.31769976 0.23638012 0.04900038 -0.22766010 0.01249127 -0.03193475 0.14673723 -0.30435956 -0.16100481 0.07732522 -0.19190569 -0.00528350 0.29160571 -0.21012384 0.15864287 0.19483875 -0.09267910 0.06522366 -0.21250844 -0.14181991 -0.33811262 0.02888215 -0.08675294 -0.04709732 0.21140958 -0.10147938 -0.48723143 -0.25385606 0.18758699 0.00943271 -0.17896846 0.11809800 0.05715640 -0.18842804 0.12854996 0.00225774 0.27285862 0.01123776 0.13044381
0.03963883 0.02890696 0.16999379 -0.05504964 0.31980953 -0.02719120 -0.26713765 -0.25327703 -0.04900591 -0.21436776 0.14612353 -0.12861769 -0.55837584 -0.00922728 -0.01022623 0.23681518 -0.07629734 0.11096872 -0.12441670 0.36416289 0.06811834 -0.03065327 -0.30830115 0.22376414 -0.17229366 0.19848470 -0.04429156 -0.08151127 0.00854871 -0.19115996 -0.14695206 0.19004887 0.36502358 -0.17199083 0.03238942 0.34709448 -0.05021533 -0.02890537 0.23793419 0.44511819 -0.07583566 0.00696228 -0.30458865 -0.08998970 -0.16543363 0.03360372 -0.09752344 -0.06470081 -0.12423078 -0.21555547 -0.02035811 -0.09037876 -0.19066474 -0.49302301 0.23211925 -0.03571126 0.15015662 -0.03199962 0.28439173 0.30849648 0.19505732 -0.07199746 0.20701033 0.22210252 -0.10294050 0.02606814 -0.17080231 0.35429674 0.04984930 -0.06697026 -0.08698370 -0.21436894 0.20615494 -0.03852580 -0.41774562 0.08507671 -0.00999256 -0.02413355 -0.14013928 -0.03899479 -0.01025979 0.06344721 0.32560965 0.06112163 -0.14017306 -0.12834145 0.15156119 0.21935457 -0.09313304 0.09710272 -0.21270926 0.02098435 -0.08044530 0.06518502 -0.00948817 -0.09084184 -0.23947664 0.11543290 -0.00622685 0.13365172 0.00045360 0.26986441 -0.14108831 0.05458618 0.08159022 -0.06368618 0.06757972 0.12659591 0.33193362 -0.29716173 -0.17887995 0.13748334 0.07802832 0.31652182 -0.07111275 0.10460177 0.23479719 -0.11570869 0.05222173 -0.17081268 -0.07713015 0.36701199 -0.07307510 -0.02285277 -0.05713395 0.19975157 -0.34712651 -0.28617665
-0.16035543 -0.18642671 0.13496475 0.32354900 -0.34848323 -0.04969804 -0.18363623 0.03274577 0.09583886 -0.27923718 0.15767254 -0.37273523 0.28659275 0.10531569 0.24085982 -0.16055308 0.31854767 -0.07237549 -0.00420636 0.18555102 -0.36284149 0.03921002 0.12060761 -0.01456842 0.15847319 0.30518290 -0.17103346 0.22935101 0.10958344 -0.02610863 0.20951334 0.00002466 0.13619296 0.03813672 -0.12421252 -0.07489511 0.08183093 0.07950318 -0.35648021 -0.03371838 -0.20153587 -0.23632523 0.18958613 -0.05508437 0.22061186 0.04088893 -0.03584865 0.02020844 0.16377546 0.33841497 -0.02638643 0.00398074 0.21213283 -0.08504590 0.05438089 0.00261843 -0.12357000 0.16532677 0.27424204 0.04064076 0.37188837 -0.23729523 0.13747704 0.25150847 0.09625031 -0.07234810 0.29010537 -0.15580922 0.37272605 -0.01361218 0.01625248 0.11395034 0.26646009 -0.02018819 -0.17207909 0.20522277 -0.06139187 -0.05094026 0.46263236 -0.10792951 0.29960552 0.10839663 -0.00249533 0.02723530 -0.02243786 0.27886227 -0.07874738 -0.14303948 0.20080249 0.20427917 -0.18551835 0.09871620 -0.14634232 -0.08923790 -0.26612744 -0.07942357 0.16735187 0.07607460 -0.21514651 0.25360775 -0.11818751 0.26221573 0.04371335 -0.12337334 -0.14260393 -0.00594972 -0.00195623 0.16996343 -0.01646374 0.35453928 0.28294796 0.05842490 -0.05318125 0.00713180 -0.02355120 0.32601297 0.22864963 0.04829096 -0.15537475 -0.24539271 0.08169314 0.02143875 -0.01711992 0.13883942 -0.30313575 -0.14851859 -0.04398808 -0.26114205
0.32438424 -0.22405037 0.21772689 0.16071658 -0.28091371 0.11350271 -0.03044061 0.12555857 0.00255486 0.11144631 -0.20810850 0.10274827 0.13270514 0.08845694 0.18830770 -0.01326170 -0.30962920 -0.10633966 -0.10709371 -0.08554629 -0.08107665 0.15218098 0.18170998 0.14988016 -0.02693740 -0.22307967 -0.47337085 -0.19875318 0.04039875 -0.13186142 0.28475007 0.03569264 0.15204608 0.13947333 0.06149841 -0.07909174 -0.21101291 0.13886639 0.12000478 -0.07429070 0.19378293 0.05394066 -0.09180713 -0.21043672 -0.00387460 0.15790592 0.16591541 0.05606372 0.30577853 0.20426488 -0.21428259 -0.13164687 0.13750966 -0.07927687 0.04567993 0.15083507 -0.18723463 0.23069173 0.18019332 0.16517745 0.17906649 0.01650368 0.10470943 0.15387313 -0.06814612 -0.15190054 0.19865619 -0.19760771 -0.07884214 0.11191241 -0.09646992 0.20939431 0.09022608 0.02561079 0.04263551 0.38703647 0.27234074 -0.19748600 -0.00961614 0.16215891 0.11728714 -0.18848942 0.05811050 0.03756388 0.09964158 0.19133775 0.06990395 0.19503422 0.06689875 -0.14225699 -0.01542446 -0.03792321 -0.03724588 0.04732774 -0.15743420 -0.09848177 0.11811717 -0.02825750 -0.11086056 0.14551945 -0.38831386 0.02202592 0.22577153 -0.19925624 -0.02550935 0.20301388 -0.09450478 0.05026817 0.27070275 -0.07802431 -0.32375067 -0.14368661 -0.22474687 -0.28140715 0.38746044 -0.08361083 0.09248555 -0.03389267 -0.06754281 -0.15364149 -0.21059589 -0.12038986 0.07489724 -0.02050047 0.00834425 0.02190301 -0.11134135 -0.13029046
0.08649853 0.05025050 0.08078998 0.18740630 0.01089227 -0.20474789 -0.34029168 -0.45578319 -0.11590114 0.30501303 0.11421306 0.66812384 -0.53394449 0.20202230 -0.90155756 0.46743846 -0.04264535 0.10800267 -0.45793897 0.24686335 -0.14913493 0.13784561 -0.00723032 -0.15176705 -0.33323982 -0.28414178 0.30650729 -0.45102486 -0.01395952 0.31341422 0.35224965 -0.18297811 0.07029419 0.07229066 -0.33703929 0.12711546 -0.11111528 -0.14372213 0.16965042 -0.22827142 -0.02817987 0.32718554 -0.15066068 -0.14754385 -0.36297926 -0.25121596 0.14303334 0.19546941 -0.09242204 -0.27707294 -0.19259365 0.01683809 0.17279090 0.14971474 0.00320348 -0.13541472 -0.11366858 -0.10293263 0.04906292 0.68723583 -0.25112578 -0.17603023 0.19411661 0.19871294 -0.22520012 -0.49614254 -0.26867029 0.10231179 -0.08158296 -0.45587081 0.03701021 -0.15042889 0.03075899 -0.22465073 -0.08897936 -0.03989723 -0.19602816 0.13000788 -0.14657280 -0.00996058 -0.21732990 0.11533753 -0.10556318 0.21265781 0.03234259 -0.52723658 -0.37697947 0.24022080 0.25019300 -0.02581031 -0.30408615 0.03361592 -0.24273121 0.00853454 0.61028349 0.38130224 -0.26132599 0.10146007 0.38819399 -0.33866385 0.09319334 -0.21347332 -0.25954044 0.25358295 -0.20965315 -0.56667888 0.38929430 0.00013661 -0.00620920 -0.13603641 -0.14367422 -0.09537711 0.16995066 -0.03420771 0.08484195 -0.05014339 -0.12113468 -0.10480684 -0.13938835 -0.47600749 0.22553578 0.42404753 0.10984854 -0.24822044 0.35864082 0.38208759 0.26592103 -0.40990520
-0.05812707 0.22370064 -0.34581131 0.29774559 -0.38193113 -0.21388957 -0.34506303 -0.07467873 -0.33316109 0.02060215 -0.23413068 -0.25599054 0.18600892 0.05844779 0.50408894 -0.31372657 -0.01256820 0.09553736 -0.04723817 0.23322499 -0.00028394 -0.25948042 0.09213405 -0.08768952 0.15683784 0.14166300 -0.29245192 0.39208582 0.30882660 -0.29022762 0.02990466 -0.07529628 -0.17165309 -0.38218755 0.36912051 -0.30514234 0.11959078 0.17830421 0.13406917 0.03066143 0.01895155 -0.13845253 0.22243400 0.08228964 0.02485680 0.26007080 -0.72855067 -0.07194057 -0.11741599 0.08772714 -0.31718177 0.45550409 -0.10346042 -0.15228720 -0.03034786 0.07290649 -0.27048334 0.70872885 -0.02182780 -0.49464923 0.03423579 -0.06122833 0.06407279 -0.41507792 0.13051699 0.12854417 0.03899971 -0.06333462 0.33187595 0.31739074 -0.21941875 0.42368871 0.32164481 -0.18840663 -0.45319247 -0.23234656 0.12440701 0.40018895 0.36432549 -0.00402156 0.30089775 -0.02059149 -0.23235336 -0.11235426 0.21758178 0.17384170 -0.13773754 0.18560329 -0.15364072 0.06034257 0.46892613 0.20468926 0.02474266 -0.06398141 -0.10577454 -0.30273470 0.12059188 -0.02723846 -0.46954769 0.48505670 -0.18035474 0.63058370 -0.37545034 -0.03957501 -0.00681020 0.49072215 -0.22045924 0.01966165 -0.16032705 -0.06098580 -0.03395138 0.07593385 -0.19457410 -0.33873937 -0.26147452 -0.57338578 -0.09856412 -0.22061561 -0.26189229 -0.11692372 -0.10171431 -0.54111868 -0.26171672 -0.08602499 -0.55348235 -0.05940600 0.04357065 0.19163968
-0.14024456 -0.02426638 -0.16773534 -0.26880264 0.27509591 -0.08034248 0.04917848 -0.06149224 0.08333478 0.19870737 0.10041384 0.28388569 -0.00735172 -0.10417269 -0.26606917 0.22167726 -0.25704613 -0.07586998 0.29834113 -0.19950375 0.17282198 0.01479732 0.23108135 0.03622250 0.19240929 0.03397702 0.06282958 -0.14088529 -0.08335936 0.11521918 0.06359603 0.20756920 -0.23189496 -0.13047205 0.05508724 0.15903360 -0.12991734 -0.13489732 0.04413479 -0.28269163 -0.04642433 0.10972983 0.06703427 0.26233515 0.09494822 -0.08445946 0.18610340 -0.15307216 -0.07494368 -0.03221102 0.28563422 0.02584235 0.14693338 0.12998095 -0.04674572 -0.10155491 0.30218819 0.11836680 -0.23259223 -0.02461105 -0.30584389 0.14987019 -0.12096723 -0.00990646 -0.34413895 0.08938295 -0.05712474 0.08803090 0.18373434 0.07431028 0.02498966 -0.16718990 -0.30709511 0.15635802 0.38334104 -0.14118703 0.00476472 -0.37943116 -0.17954819 0.29712501 -0.09256382 -0.05916420 -0.06166939 -0.25728962 -0.08609147 -0.10327824 -0.26424086 -0.05590393 0.05128779 -0.02751736 -0.19497231 0.00850971 0.04522649 0.08879539 0.06330345 0.01193783 -0.08198331 -0.04470717 0.17315795 -0.03715448 -0.03270320 -0.38254932 -0.01933178 -0.09980348 0.04925020 -0.23980963 0.09003737 0.01827362 0.00333908 -0.12979692 -0.16830365 0.07524493 0.02219311 0.03907619 0.24730207 0.15110655 0.21039878 -0.11722938 0.04265228 0.16999878 0.20984533 -0.30250144 0.11135046 -0.11754265 0.28265041 -0.10060483 -0.17844583 0.00470128
-0.00552955 0.12390660 0.19013156 -0.08103154 0.22021472 0.08876258 0.00485780 0.30682907 0.17333202 0.12954235 -0.12563820 0.25994062 0.12357212 0.02741733 -0.25434250 -0.03751456 -0.04066989 -0.06792033 -0.02966240 -0.33018044 0.10481413 -0.04004603 -0.05678542 0.06469982 0.11482788 -0.11384962 -0.13547686 0.16554523 -0.08429091 -0.21802758 0.04004683 0.02404641 -0.01335699 0.10519005 -0.22193649 0.07136653 -0.21488030 0.01560298 0.03960528 -0.00459422 -0.10688625 -0.18723060 0.15642291 0.11080458 0.22043404 -0.37754941 0.27979672 0.25066575 0.17216392 0.22175094 -0.09169701 0.20845893 -0.17792352 0.26909897 -0.01120811 -0.23338591 0.02957407 -0.29832625 -0.15276812 0.11426804 0.14410034 0.09913187 -0.04650772 0.06190632 -0.19850212 -0.15203167 0.05756533 0.03712773 -0.18952803 -0.11191162 0.14618596 -0.14312318 -0.07617984 -0.09989470 0.24659269 0.21008840 -0.01762856 -0.07226057 -0.08681922 -0.00587336 0.09457388 0.07220353 -0.09954102 0.23214391 -0.27114648 -0.00128528 0.12618469 -0.20946728 0.00778837 -0.05999799 -0.18464264 0.02173113 0.15426718 0.00928103 0.14856784 0.06685653 -0.03406096 -0.01974598 0.16639552 0.10343307 0.18738945 -0.24832892 -0.07636171 0.08516306 0.05906389 -0.11363412 0.06847066 -0.04123096 0.05750480 0.01482714 -0.25869790 0.12807783 -0.11461787 0.18001689 0.14778715 -0.00899064 -0.03022020 0.06375956 -0.16866352 0.14963990 -0.05276572 0.24314755 0.01692058 -0.12888338 0.11410242 -0.27486283 0.17484860 0.19815978
0.02821623 -0.20518389 -0.14160840 0.07420646 0.20101893 0.22824545 0.12105466 0.31849465 -0.02433552 -0.38066831 -0.04660180 -0.12112332 0.00464286 -0.32658449 -0.01072904 -0.19018057 0.10166355 0.07582235 0.17517795 0.03739379 0.05465900 -0.19477831 0.03430315 -0.05842082 0.21564914 0.01121678 -0.18875541 -0.22558440 -0.11772429 -0.13922910 0.02624380 0.15365408 0.22214012 0.19531526 0.31436026 0.19802523 0.20617425 0.12980190 0.10552883 -0.03075765 0.14428197 -0.02754878 0.18363115 0.10033344 -0.12984955 -0.07728312 0.11919699 -0.10834682 0.24387214 0.00642449 -0.06753019 -0.14223674 0.21569310 0.10346927 0.13229510 0.18527980 0.04170746 -0.04579080 0.28426880 0.01164027 0.10915701 0.15646705 0.08110937 0.09525357 0.09598231 0.21257938 0.00977782 0.03387463 0.00245037 -0.01219625 -0.03205765 -0.08295432 -0.16094041 0.28154770 -0.03153277 0.26812363 0.22231728 -0.00307599 0.15437219 -0.00335632 -0.04630905 -0.11183663 0.05313591 -0.03806748 -0.07677791 0.33433202 0.15146564 -0.16063160 0.09453082 -0.07662313 -0.14208096 -0.09997077 0.02190842 0.12212352 0.18517143 -0.26767299 0.20296440 -0.00211017 -0.14292616 -0.07225487 -0.01451875 0.07866383 0.34092250 0.13741726 -0.09048014 0.14884873 0.04235654 0.10352340 -0.09900186 0.14025728 -0.01167302 -0.15906756 0.13419151 0.19357730 0.07034311 0.05483582 0.19406989 0.21824378 0.13338964 0.17031936 -0.09648849 0.06284352 0.24954149 -0.22236419 -0.13612020 0.11338875 -0.08385789 0.28249866
0.12326819 0.04517508 -0.17109139 0.02731558 0.18275179 -0.06218114 -0.03345424 0.13068612 0.00427388 -0.10426489 0.06837223 -0.21293736 0.00557581 -0.15490858 0.16662532 0.21048377 0.06862684 -0.04147695 0.19264869 0.06018531 0.34744674 -0.15242194 -0.17980213 -0.04875405 0.34531814 -0.04442110 -0.09598152 0.24319747 -0.09344260 0.07371327 -0.30113298 0.18871652 -0.07812148 0.24816176 0.00926398 -0.04530415 0.03540992 0.17895186 0.01012810 0.04377022 -0.17000094 -0.14118746 -0.16384690 -0.02684940 0.10104682 -0.17017736 -0.03337049 -0.15871844 0.16648428 0.02728196 0.12527558 -0.26310518 -0.31676346 -0.01198789 -0.22297999 -0.17764713 0.02183035 -0.32018298 -0.27831259 -0.23917818 0.17006461 -0.21165273 -0.06460771 0.04404980 0.00290698 0.06771082 -0.10315293 -0.15688640 0.14483608 0.21534777 0.04006289 -0.18037952 -0.10145016 0.03803911 0.10086550 -0.14332955 -0.24250773 0.08215385 0.00342942 0.08184907 -0.07061686 -0.07938810 -0.05932057 0.11917025 -0.19615501 0.02473655 0.09613436 -0.17241514 0.06238399 0.08812857 0.12995689 -0.05261055 -0.16065115 0.34042025 0.12679249 -0.11159310 -0.06432603 -0.28877789 0.15286808 -0.08039998 0.16892123 0.04583338 -0.06763347 -0.02794225 0.11735778 -0.17232516 -0.11179199 -0.15552482 -0.17993613 -0.12469884 -0.08970403 -0.02047128 0.14488433 0.49060211 0.04766545 -0.07329465 -0.08762087 -0.17627303 -0.05156317 -0.11355700 -0.01447399 -0.09628101 -0.01735203 0.11418808 -0.06266665 -0.01073079 -0.08664187 -0.03645339
0.07009374 -0.13838488 0.00280320 0.47819969 0.01202396 -0.19744819 0.22026041 -0.05707982 0.30399734 0.16429587 0.11498328 0.18259169 0.23479335 -0.12268814 0.19548991 0.08429682 -0.04088487 -0.45362514 0.43556163 -0.15022811 -0.32406622 0.18488483 0.19542906 0.22939917 -0.22171079 -0.09349198 -0.45829904 0.29241043 0.15546803 -0.20987383 0.17232235 -0.25016361 -0.21936183 -0.14058250 0.05889210 0.24513912 -0.00237221 -0.00183411 0.05057899 -0.29422864 0.24823202 -0.07865183 -0.26789737 -0.06174576 0.03647515 -0.20043464 0.12028440 -0.26607743 0.14792433 0.36318350 -0.16842306 -0.20709288 -0.04624435 0.06694806 -0.10002331 -0.13072906 -0.17979784 -0.04168822 0.43130550 -0.18281688 0.08348339 -0.00082784 0.17520714 -0.03088784 -0.03059342 -0.25560266 0.12983397 0.05331016 0.11586870 0.12321592 0.22710501 -0.21655706 0.06524965 -0.10886004 0.18633723 0.10263000 0.14319587 -0.13398810 0.08898508 -0.15634276 -0.10900832 -0.13911124 -0.13323206 -0.14095484 -0.21068308 0.43865722 0.11095066 0.04294621 0.17460924 0.22007471 -0.02540004 0.08386408 -0.06114721 -0.07626629 -0.15277673 -0.01411226 0.25102323 -0.09893645 0.32123220 0.05699168 -0.02030876 0.01798636 -0.12878692 0.08578183 -0.24750113 -0.17680871 -0.04601806 0.11887863 0.30277589 0.33779889 0.12872711 0.01130809 0.03806828 -0.40089667 0.14850338 0.14802192 -0.05197043 -0.09970019 -0.10718584 0.25840938 0.06796289 -0.04914627 -0.07079353 0.15690823 -0.30027154 -0.30537683 -0.32546055 0.25357997
0.23007318 -0.06474870 -0.00866597 0.20252676 -0.11423747 -0.15112704 -0.06103108 -0.18690448 0.05913617 0.02372628 0.11662317 -0.03535042 -0.01476545 0.07398736 0.01287694 0.07892464 0.14345039 -0.06076169 0.12396280 0.28220153 -0.05349668 -0.07723738 0.10122581 -0.23467351 -0.09327009 -0.05567435 -0.14343232 0.16669042 0.24168502 -0.22519408 -0.09225523 0.07817484 0.17043966 0.03031055 0.20787925 -0.02308450 0.07584935 -0.09765033 -0.02554796 0.14539716 -0.10818301 -0.03378050 0.10850495 -0.14182036 -0.05904937 -0.12462477 -0.18143322 -0.05561059 -0.11100089 0.05672816 0.01907791 -0.08591195 -0.01000541 -0.12971182 -0.17507009 -0.10077570 0.08651364 0.16870591 0.14520653 0.05617287 -0.04287069 0.14147860 0.11244994 0.22808164 -0.12735143 -0.14637458 0.03706213 0.03986210 0.12395644 -0.12954322 0.05622838 0.10091981 0.00746668 -0.04941086 -0.17630324 0.10592706 0.21765892 0.11332873 0.10737912 -0.09879853 -0.14875028 0.06285215 -0.02324044 -0.11774074 0.13978797 0.09486759 0.02934882 0.07243615 0.16275690 0.11089052 -0.04958297 0.08470333 0.04188255 -0.12041633 0.12004659 -0.06045049 0.17614034 -0.03942287 -0.07533300 0.09736755 -0.19138151 -0.04339248 -0.01653329 0.17438325 0.05484658 0.04063755 -0.05450670 0.17083149 0.25282454 0.25739142 0.17346449 0.08872092 0.03782187 0.01306993 -0.24892436 -0.04599651 0.02140850 -0.13970499 -0.12445603 -0.04242285 -0.13705294 -0.23844549 0.20954427 -0.15736194 -0.02905438 -0.20718455 -0.16598712 0.02648065
0.13400973 0.24168764 -0.06498716 0.16410869 0.08008786 -0.27536038 -0.29261592 -0.13211583 -0.04325998 0.03612088 -0.41055620 0.69848025 0.10329435 -0.02256993 -0.57700729 0.28813964 0.09818109 0.11852732 -0.19276692 0.03030667 -0.27753794 -0.35210282 0.07907593 0.40679562 -0.43335572 -0.14896138 0.12543920 -0.08611297 -0.09100181 -0.15913907 0.10704070 -0.11330118 0.17361109 0.26512650 -0.05956903 -0.10493614 0.20160951 -0.11459289 0.16836612 -0.06601858 0.29039317 0.21038491 -0.30114347 0.38311350 0.14044255 -0.38710439 -0.02866374 0.17592861 -0.08445016 -0.23801385 0.00833757 0.26158947 0.29209256 0.34243688 -0.05458822 -0.11057033 -0.35912001 0.32079107 0.08377814 0.32986709 -0.47322607 -0.03921370 -0.06404596 -0.13007581 0.06973149 -0.17630413 0.27277341 0.40047935 -0.14206588 -0.04339644 0.29204291 0.05303151 -0.27854952 -0.29288545 -0.01798693 0.13894227 0.16852362 0.22164820 -0.13427816 -0.02210053 -0.32318613 0.07257763 -0.37373242 0.12619239 -0.00750067 -0.36775160 -0.18394786 0.07148203 -0.14748904 -0.15136063 -0.12583610 -0.27340510 0.08469242 -0.00498260 -0.00899936 0.23193084 -0.44313553 0.02967729 0.04667469 -0.11910129 -0.16473524 -0.20219603 -0.01336443 0.09039546 -0.12224208 -0.20786934 -0.02640357 -0.16778234 -0.09673577 0.19879957 -0.08050556 0.03267837 0.18076240 -0.35581529 -0.37273824 0.12158234 -0.18254195 -0.03069817 -0.05815255 0.20289546 0.39495972 0.30436042 0.34670645 -0.26775241 0.24228533 0.02316710 0.31724262 0.13426469
0.34339020 -0.21217938 0.34590301 0.29900244 -0.19754936 0.19267789 -0.01779755 -0.07778336 0.20935857 -0.35837746 -0.23295856 0.04472485 0.27357480 -0.05164350 0.12414952 0.35003734 0.02141880 -0.03371368 0.35181025 0.30659604 -0.14437404 -0.29476735 -0.31691119 -0.31660494 0.10327205 0.20176652 0.11275071 -0.17703547 0.02826443 -0.36644647 0.02048521 0.14779814 0.21430720 0.46187639 0.00448350 0.08435020 0.17347202 0.15925911 -0.03522328 0.05068711 -0.12581481 -0.18223289 0.18192923 0.12230747 0.35066208 -0.45190305 -0.08616136 -0.23528969 0.44901752 0.27408311 0.06177244 -0.12787068 0.10221545 -0.25236058 -0.05762994 -0.26115149 -0.11936520 0.30038095 0.12709214 -0.27948448 0.12683578 -0.19424835 0.12184068 0.53383279 -0.09569210 0.15741934 -0.02295177 -0.14041246 0.31921467 -0.19675989 0.19521382 -0.09286221 0.10291230 0.04176250 0.05207583 0.33568984 -0.28025979 0.32486519 0.32089475 0.12086490 0.11987125 0.17493628 -0.40217689 -0.20164415 -0.07099478 0.37419477 0.04771451 -0.03058364 0.19142140 0.11518658 -0.38523853 -0.08198500 0.41504434 0.00538585 0.22601560 -0.12274767 0.24145417 -0.15316455 0.03738549 0.06977818 0.04445306 0.22835946 0.26993126 0.04242261 -0.16082697 -0.30975106 0.15619916 -0.17264204 0.32065171 0.55230540 0.01262368 -0.36961553 0.09779240 0.32288694 0.09131087 0.10773486 0.18400635 -0.14498821 -0.08616456 0.02523117 0.12041404 -0.20614603 0.36641419 -0.34017968 -0.18815529 -0.36635661 -0.03730775 -0.21705782
0.25936604 0.17755298 -0.07753122 -0.53446728 0.44642144 0.01732801 -0.18911016 0.34305879 -0.32608107 0.01130588 0.13962767 0.03697101 -0.14743051 -0.17353988 -0.26569676 -0.00668764 -0.09473676 0.45556608 -0.01296891 -0.23656024 0.07313512 -0.36152625 -0.19370444 -0.17192155 -0.22573058 0.13496055 -0.07529953 -0.01526160 -0.47894970 0.05940640 0.08626124 0.26004377 0.52925199 -0.00581396 -0.25870088 0.29855195 -0.38770834 0.09089469 -0.35385558 0.56811136 -0.19848497 0.01180391 0.08183753 0.33897460 -0.22280096 -0.23311861 0.22288610 -0.21722624 0.03180277 0.09070126 0.15390167 -0.07086753 -0.22398810 0.28679132 0.08388276 -0.13405409 0.49561629 0.12275138 -0.20587541 -0.05425721 0.04432573 0.09489294 -0.31668392 0.00688907 0.06526043 0.06472798 0.00838001 0.24032652 0.15527467 -0.28434840 0.09091671 -0.16720328 -0.18606310 0.25723693 0.21592304 0.16482814 0.26422226 0.12404829 -0.01152038 -0.06357203 0.19481540 -0.06633085 0.12220507 0.57048053 -0.29640096 -0.43229425 -0.07259065 -0.07627983 -0.00533583 0.07244261 -0.16873777 -0.14507551 -0.01900433 0.52982336 -0.12995224 -0.33834040 -0.29451871 -0.06491075 0.16379449 -0.01045428 0.34245208 -0.16649348 0.55292058 -0.17352207 -0.00733523 0.06320626 -0.09041284 0.39460230 -0.13486703 -0.45924470 -0.12687097 0.13477130 0.36841851 0.47232148 -0.00774131 0.43800321 0.23695709 -0.25238597 0.21986023 -0.02440826 -0.15590778 -0.15242030 0.11873344 -0.28550783 0.19527487 -0.14482597 0.08198941 0.00990789
0.04598834 -0.28359932 -0.12780726 -0.10951889 0.12038673 -0.06464309 0.15848361 -0.21274483 0.00606617 -0.12041215 0.09313686 -0.09528080 0.05513052 -0.13709232 0.00864884 0.09236580 -0.14683284 -0.17918491 0.13424318 0.28773165 -0.14857644 0.15767050 0.20213975 -0.14664668 -0.17028245 -0.08144272 -0.14335962 -0.15172946 -0.04331118 -0.13355713 -0.17693143 0.10186016 0.15722384 0.04829725 0.20425445 0.14980625 -0.14561963 -0.10271905 0.05037255 -0.00034794 0.13450947 0.12003259 -0.03310250 -0.22529733 -0.06244954 0.10406185 0.15508112 -0.16964561 0.05072179 -0.06675218 0.20653009 -0.22677232 0.14567643 -0.20649362 0.09663968 0.02142487 -0.01213778 -0.04583550 0.33356711 -0.23737514 -0.05760949 0.00128624 -0.07607101 0.18892419 -0.05374239 0.02113378 -0.04582003 0.12516618 0.18189144 0.14182805 -0.05042340 -0.09154418 0.13533761 -0.08027576 -0.05993665 0.00352532 0.14528462 -0.30149087 -0.25065669 0.13652977 -0.22238848 0.04704967 0.20723900 -0.12286974 -0.12853678 0.15252863 0.13086194 -0.01733638 0.05547900 -0.08153128 -0.27232152 0.05659322 -0.07409403 0.10677382 0.12442100 -0.10449272 0.03961539 -0.07013611 0.25471312 -0.28985384 -0.25333950 0.02135023 0.13099504 -0.18474597 0.08629082 0.02892306 -0.06992791 0.04254411 0.09467027 -0.04088892 -0.01882790 0.00659168 -0.10465655 0.15386033 0.05500299 0.15058254 0.15426296 0.07428673 -0.03162945 -0.05440028 -0.09154239 -0.13977706 0.12282509 0.16477795 0.08731520 0.02969774 -0.29546109 -0.06062079
-0.01960627 -0.22872846 0.02298174 0.36093262 -0.00911383 -0.21003403 0.26141870 -0.25433266 -0.07357537 -0.02053666 -0.03414138 0.08423790 -0.04654989 0.13281858 0.32399508 -0.08970012 -0.22785532 0.28416947 -0.23656829 0.33546826 -0.18634509 0.10461481 -0.04019992 -0.06489438 0.31740999 0.29435751 -0.16598243 -0.45108595 0.28131369 0.02618666 -0.39176399 -0.11154272 -0.09736416 -0.13597757 0.45521685 -0.03080314 0.15803602 -0.07817499 0.34488595 -0.35904890 -0.04550942 0.18335231 -0.00974585 -0.02420631 -0.13203420 -0.07046012 0.00142221 -0.03140763 -0.03126032 0.04057136 0.08482809 0.30037364 0.08228882 -0.01647268 -0.36147267 0.40360978 0.11666293 0.35142538 0.06360976 -0.31537482 -0.10551489 0.10570263 0.18593898 0.22962944 -0.25646883 0.21859163 -0.24270143 -0.18727587 0.22265534 0.11543698 -0.14418821 0.28814170 -0.06479339 -0.09864110 -0.36793920 -0.19928481 0.08233342 -0.12598129 0.28235400 0.20408623 0.11891656 0.02475965 -0.06656875 -0.26876229 0.41013265 0.02714603 -0.20368376 0.14501089 0.11547770 -0.10265934 -0.07702755 -0.01295436 -0.16844036 -0.33746162 -0.04299929 -0.08648824 0.39646628 0.01332349 -0.25037923 0.08883767 -0.24410021 -0.06351104 -0.31616375 0.25397453 0.16784182 -0.04198295 0.38530296 -0.24234994 -0.28083691 0.08464644 0.11963548 -0.30111164 0.17340781 -0.26497251 -0.20959191 -0.40467095 0.05489365 0.04224679 -0.46475297 0.04117060 0.32675469 -0.30436897 0.18872826 0.29023528 -0.13144124 0.24519873 -0.11329588 0.07402002
0.06481623 -0.15581003 -0.09444416 0.25834596 -0.23368384 -0.16513792 -0.07274709 -0.03137572 0.10715022 0.01659000 -0.08786125 0.05156310 0.02168779 -0.11311681 -0.14341350 0.27720279 0.05837494 -0.35892144 0.35991168 -0.05306109 -0.35224378 0.05115979 0.01951594 0.01914564 -0.28740945 0.08535904 0.13100322 -0.05633867 0.29326183 0.05408051 -0.24184322 -0.25529519 0.07986324 0.10573222 -0.06936983 0.08766251 0.26261953 -0.24908006 0.01557074 0.04468378 0.12512292 0.02443167 -0.12757352 -0.03875013 0.10565336 -0.21721448 0.17553402 0.01092476 0.21353605 0.30258366 -0.05348547 0.01689538 -0.03338593 0.09875696 -0.08091392 -0.31428596 -0.08414979 -0.20244686 0.25223389 0.07836600 -0.09599457 -0.05299828 0.11912810 0.22213483 -0.05236269 0.03772205 0.22352310 0.07733849 -0.03503835 0.06166404 0.12506309 -0.24891166 -0.04976996 -0.11187019 0.13082561 0.06666913 -0.13906489 0.11953332 0.00180346 0.07924926 -0.10382924 0.11275198 -0.16336912 0.04639357 -0.19361085 0.17442541 0.13747495 0.15219268 0.10167509 -0.09096988 0.02241356 -0.02534708 0.03229548 -0.22297871 0.01433411 0.19881681 0.01635414 0.24514294 0.19341920 0.02637738 0.03175393 -0.02370665 -0.13925211 0.28573841 0.07457920 -0.32309183 0.02000259 -0.04798702 0.22379486 0.33124381 0.21025294 0.09146185 0.07348917 -0.07614771 -0.09473244 0.02852210 -0.00319326 0.07647366 -0.21308394 -0.02947988 0.08837535 0.16569412 -0.03376677 -0.11027506 -0.02779733 -0.38135687 -0.09222464 -0.03881332
-0.03990624 0.05355346 -0.24719474 0.07551406 0.19350630 -0.00381091 -0.02610771 0.01058249 0.13111903 -0.00750299 -0.09185674 -0.08408618 0.19492325 0.06236676 0.22722204 0.08505895 0.00951384 -0.05376926 0.09054720 0.07967450 -0.08526045 0.05771773 0.11885061 -0.07539973 0.36064732 -0.13870895 -0.28334570 -0.08839169 -0.03055177 -0.05925957 0.16757040 0.36764729 -0.26064333 0.23442641 -0.12547533 -0.25233459 -0.22391234 0.01579056 -0.09276575 -0.09015618 -0.13913903 -0.10195090 0.04888830 -0.05022579 -0.14190996 0.14289361 -0.18875562 0.05344100 0.10765086 0.11251774 0.20846704 -0.02710297 -0.06884906 -0.12423756 -0.09555858 -0.06295663 -0.08912568 0.03390886 -0.07363012 0.05533791 -0.02044836 0.08469454 -0.32322612 0.02162927 -0.11990511 0.07628372 0.00257989 -0.08920653 0.09659627 0.20674390 0.02291892 -0.02883738 0.18454365 -0.02737001 0.14699544 -0.02314795 -0.01145599 -0.14194074 0.10809751 0.13497996 0.08902037 0.11701650 -0.02504021 0.04822686 0.17858325 -0.04058192 -0.13458398 0.23418079 -0.08644096 0.05177527 0.25999454 -0.12495814 -0.24452451 0.28100044 -0.01351633 -0.16302028 -0.05892504 -0.03595741 0.10098892 -0.06429917 -0.26249722 -0.02358595 0.08588345 -0.16642198 0.13345739 -0.05111685 -0.15540004 -0.11646991 -0.31781867 0.04823130 -0.21481769 0.17818250 -0.06140940 -0.06758798 -0.12190282 0.10245403 -0.19354054 0.14797162 -0.21596724 -0.04694723 0.09250417 -0.18499261 -0.11356635 0.33184853 0.14390668 -0.27290642 0.22925036 0.02674492
0.18209441 -0.31689280 -0.15504679 0.14178093 0.10322317 0.31356475 -0.01026584 -0.18548399 -0.13668442 0.20485413 0.16048424 0.07471464 -0.28412941 -0.32600272 -0.18380675 0.07170515 -0.19168688 0.01142796 -0.33348420 0.04132593 -0.29007179 0.13828900 0.25386477 -0.05593659 0.30304885 0.12824658 -0.05580365 0.15480395 0.02204619 0.35024357 -0.26199031 0.16230951 -0.28083935 0.01663906 0.15434349 -0.05512377 0.05610565 -0.13785103 0.01322862 -0.25268370 -0.13869584 0.16620174 -0.10355342 0.32614937 -0.44394356 0.43065563 0.07110321 0.06361760 -0.20661649 0.17805040 -0.19286680 -0.19370441 0.26741365 0.10590761 -0.00660898 0.02900346 0.13640286 0.01211512 0.20292951 0.24511491 -0.16510195 0.37146601 0.21682213 0.25590807 -0.30865291 -0.07647774 -0.30858496 0.20310973 0.13286601 0.15528914 0.08595539 -0.28927255 -0.13956426 0.29954284 -0.12924530 0.13146919 0.19800954 -0.13800028 0.17843814 -0.04888670 -0.33991739 -0.12818541 0.22758482 -0.26883614 0.07359489 -0.28284267 -0.34156385 0.16393605 0.15511839 -0.06849788 -0.09270766 0.06306553 0.07204692 0.16786702 0.17774627 0.04395800 0.32762524 0.34220964 -0.01588504 -0.36204606 -0.04967676 -0.29495275 0.11570169 0.08399367 -0.16838963 -0.27160859 0.09817179 0.31186160 -0.22461058 -0.30275142 -0.05679455 0.03556497 0.12491527 -0.26827115 -0.02682832 0.10109509 0.09726591 -0.04632587 0.01062848 0.08854922 -0.37796703 -0.01963662 -0.25748414 -0.12774743 0.14083150 -0.14808773 -0.15077153 -0.14317071
-0.09605208 0.13420634 -0.11117390 -0.10507488 0.01159545 -0.15799388 -0.12971388 -0.10876577 -0.05682065 0.09273048 0.25606677 0.00428224 -0.03678452 0.18860833 0.34869286 -0.15388729 -0.02686923 -0.00471879 0.19963044 -0.39296952 0.11447111 0.00561710 0.07240395 0.04352688 -0.08898333 0.14552884 0.03109378 -0.04432013 0.18476726 -0.17473954 -0.21118774 0.05269298 0.13427049 -0.21656094 -0.26447427 -0.27082691 -0.15454049 0.08356800 0.10865006 0.10116752 0.26794052 -0.15550078 0.15924922 -0.09663652 0.21147898 -0.11844765 -0.08057382 -0.14990848 0.03969802 -0.07860481 0.23349708 0.00359092 -0.14741534 -0.13193309 -0.02426515 0.12517275 0.18399651 -0.02423075 -0.25243512 -0.06755882 0.22365052 -0.14755711 0.05879297 -0.19161525 -0.20967308 0.13292556 0.01921173 -0.04234429 0.06400868 -0.24330342 0.11012919 -0.12386697 0.07586621 -0.31737036 0.22054112 0.12718225 -0.09329315 -0.25695628 -0.01733927 -0.00590853 0.20791632 -0.00881319 0.13575178 0.34711301 -0.10648286 0.08629408 0.05957728 0.16309078 -0.27076137 -0.07677905 0.34606773 0.22757414 0.00900739 -0.24677409 -0.18773331 -0.27999848 -0.26243192 0.16762863 -0.22491734 0.23617025 0.06474446 -0.03635111 -0.14859800 -0.19033785 0.19602309 0.21201700 0.00476947 -0.04566392 0.14900868 -0.04513788 -0.20925045 0.11737585 -0.09761056 -0.10959507 -0.03593092 -0.07354006 -0.00644003 0.03553462 0.05426090 0.10270360 0.31011096 -0.28154048 0.03244824 0.18829629 0.23769611 -0.19944485 0.04766909 -0.16933341
0.02538367 0.10081988 -0.10412828 0.01090058 0.25132635 -0.24130964 -0.19101237 0.08347068 -0.03360260 0.12876387 -0.30710271 0.11987568 0.17022425 0.33643338 0.16771200 0.30179545 0.39276379 -0.35409999 0.25429848 0.14503421 0.08957576 -0.12019084 -0.01441041 0.14681639 -0.41390392 0.14322303 0.18493538 0.25472787 -0.33704168 -0.21833184 -0.27403599 -0.32736143 -0.10630298 0.19681476 -0.23638049 -0.07188918 0.18340205 -0.10672509 -0.01948474 -0.03731562 -0.14768212 0.08570860 -0.20574759 -0.25035721 0.24207301 -0.43069237 -0.14123836 -0.17822745 -0.17323351 -0.05614411 -0.02922335 0.17619167 -0.15414636 0.07769977 -0.26250243 -0.37158710 -0.42893004 0.07365388 0.11305816 0.15608644 0.19790319 -0.36468777 0.06092357 0.09227679 0.02576649 0.08759081 -0.04785844 0.08439856 0.14955130 0.05311033 0.31954736 -0.17426078 0.14300708 -0.45269942 0.10218511 -0.01728916 -0.29105681 0.01584057 -0.04701706 -0.14990887 0.08938599 -0.02070950 -0.34654981 0.24444164 -0.01948184 -0.04042849 0.18102175 -0.10428873 -0.17649014 0.05570809 0.08786871 -0.28336588 -0.19621533 0.00847450 0.07057343 0.25874224 -0.33680841 -0.10174188 0.16506761 -0.09934296 0.15965852 0.11820795 -0.17632374 0.12180638 -0.03598453 -0.11512770 -0.40416658 -0.26057568 0.06297227 0.32500440 0.21535845 -0.08720163 0.03959463 -0.06517762 -0.00313830 0.26479217 -0.21884787 -0.18390194 -0.43732092 -0.06952814 0.32666039 0.19940099 0.13283132 -0.14959666 -0.02834506 -0.01969328 0.11154904 -0.09976042
-0.40718156 0.38471755 -0.24363616 0.08376016 0.24436791 0.14076984 -0.47723186 -0.15399368 -0.43748683 0.20104764 -0.06214666 0.21886110 -0.43033397 0.00453034 -0.25772780 -0.21543485 -0.20563501 0.47033280 -0.64351314 0.16641846 0.20273203 0.05977969 -0.15873930 0.14220767 0.39154887 -0.04510948 0.35950613 0.11488808 -0.31682694 0.08958004 0.11830911 0.18035370 -0.17474231 0.02493849 -0.11450916 0.10015488 -0.23336133 0.26986685 0.18487167 -0.15174443 -0.52550411 0.33115092 0.25273678 0.19515145 -0.56404114 0.17640525 -0.36936927 0.22479612 -0.50352031 -0.36344278 -0.21609619 0.23904575 0.10358985 0.14331049 0.09503414 -0.05012138 0.19829164 -0.05828568 -0.43809226 0.25663614 -0.31799573 0.12424093 0.05407748 -0.22651300 -0.02969578 -0.25027117 -0.37832746 0.29202026 -0.20046115 0.10825579 -0.37891942 -0.02463157 -0.18595773 0.07896060 -0.44913667 -0.10880539 0.03923788 0.16171500 0.12372195 0.14349927 0.34517586 0.43726179 0.15872896 0.15105763 0.08545861 -0.72307754 -0.18150951 0.10295429 -0.28249902 -0.35554814 0.21512894 0.24286304 -0.15884180 0.36786154 0.13949685 0.09250148 -0.29035479 -0.13631527 -0.11592612 0.05588335 0.05421616 0.06612309 -0.00731495 -0.11420093 -0.15474406 0.12778188 0.11535201 -0.10772631 -0.60660493 -0.50664783 -0.29675281 0.29922876 0.02126789 0.23422366 0.15802141 -0.27786368 -0.25539938 -0.23167528 0.04299529 -0.33152902 0.04494149 0.08845551 -0.27054188 -0.00804005 0.04544647 0.35032555 0.38558981 -0.06990931
0.41576770 -0.81736910 0.24224848 -0.05279172 0.24381521 0.29377538 0.24843353 -0.43505591 0.08959088 0.07675163 0.41696063 0.12964243 -0.05784945 -0.21143767 -0.28931022 0.42533532 -0.23709686 -0.54884553 0.04555929 -0.18994810 -0.44105551 -0.03866928 0.22696459 0.00596258 -0.03623784 0.16083296 -0.23239949 -0.39696640 0.60697180 -0.17517610 -0.57740510 0.43314216 0.17420101 -0.18908422 0.18096414 0.02267810 -0.11862955 -0.32608664 0.18238485 -0.48389634 0.76236230 -0.01371957 0.04810855 0.37063676 -0.17527792 -0.31962284 0.72773355 -0.31308684 0.42780951 0.47293091 0.08027116 -0.59828216 0.02508675 -0.36550683 -0.03707338 -0.11093934 0.37984556 -0.33281884 0.66681319 0.40289420 -0.19247501 0.05163698 0.38596901 0.91922015 -0.49337658 -0.16396089 0.10719147 0.35428062 0.28752056 -0.27724883 0.30599222 -0.64858079 0.03871905 0.34796232 0.36726874 0.56205308 0.07355046 -0.50996608 -0.08076175 -0.03307624 -0.51194441 -0.56409276 0.37050146 -0.17457552 -0.22608778 0.08666016 0.05506487 0.16114317 0.69846588 0.28786415 -0.42968962 0.05282933 0.27416599 -0.51829046 0.49870741 -0.08348899 0.57409036 0.61395299 0.58188951 -0.40650046 -0.06385909 -0.18087061 0.20046349 0.00688253 -0.02775459 -0.58513260 0.44172657 -0.03387214 0.93758494 0.13477637 -0.21237940 -0.35344937 0.11574837 -0.16759728 -0.00069634 -0.01679491 0.48886901 0.04198360 -0.12016907 0.25734624 0.00679609 -0.36668482 0.31655079 -0.05385740 0.17073472 -0.19300322 -0.65815175 -0.26546723
0.05017735 -0.05818213 -0.12270850 -0.02328652 0.11638904 -0.25477442 -0.06217925 0.06319963 0.12167002 0.20650107 0.14540826 -0.24732444 -0.28260946 -0.28216374 -0.05815884 0.19639479 -0.01545692 -0.13441333 -0.21375369 -0.28963542 0.02563668 0.25857714 0.01718016 0.13365166 0.03562757 0.30156282 0.01845259 -0.09546167 -0.15329719 0.25481966 -0.33515057 -0.39475632 -0.08532251 -0.17335925 -0.04059687 -0.14228249 0.04596509 -0.29575983 0.12699246 0.00780425 -0.01218012 0.12914279 -0.17618246 -0.08672933 -0.01171151 0.19645314 0.10522074 0.13984931 -0.09029479 0.03358412 -0.28879169 -0.11875144 -0.30713281 0.11404813 -0.25522238 -0.04783463 0.35199755 -0.35434368 -0.14628263 -0.04350007 0.16525580 0.04554665 0.14351892 -0.26833665 -0.12253510 -0.00955247 -0.21562739 -0.20557062 -0.20005417 0.13214186 0.22200164 -0.20477685 -0.01046193 -0.22558351 0.12934925 -0.08463476 0.00424814 -0.07658728 0.05179403 0.18383425 -0.06588434 -0.13668491 0.36818296 0.25345370 -0.03088011 0.04940637 -0.02034441 0.33475116 0.00901749 0.09007351 -0.03711832 0.51359487 -0.22655217 -0.01358026 0.30700532 0.15246518 0.13202165 -0.04473965 0.30590442 -0.03839596 0.15579426 0.09034637 0.00496296 0.32363313 0.18415160 0.04271231 0.43571234 0.20088269 -0.19500470 -0.11328006 -0.05819400 0.22946002 0.23825657 0.03292464 0.12696005 0.03382200 -0.12924232 0.03812867 -0.05155336 0.04551496 0.05723906 -0.03838213 -0.39380231 0.07071384 0.12587772 -0.19807780 -0.26279813 0.17448738
-0.55595767 0.28549951 -0.09289554 -0.24986953 -0.22090426 -0.10115989 -0.63133788 -0.37791976 -0.43183753 0.05614319 0.18469340 -0.30601910 -0.25673729 0.03524954 0.25495610 0.15160502 -0.25906044 0.44659492 0.11315401 -0.08223576 -0.05003644 -0.17258717 0.00981985 -0.26157445 -0.24019784 -0.33004820 0.21249245 0.55709690 -0.25577664 -0.18498741 0.39048213 0.00951826 -0.01403739 -0.36155498 -0.19066377 0.32798871 -0.59025711 -0.05508313 -0.11010852 0.24751572 -0.57440811 0.02878490 0.30447584 0.35981634 0.11574850 0.25267777 -0.44215459 0.15949972 -0.17400698 0.28278357 0.17328854 0.18918417 -0.19354801 -0.18941635 0.09605847 -0.30226970 0.30986011 -0.07180481 -0.38243344 0.05857167 -0.08653907 0.03056757 0.26884571 -0.60099608 -0.04598739 -0.18672609 0.28675848 0.06293939 0.11280042 -0.14789976 -0.14662582 -0.06150390 0.45546103 0.15843424 -0.18588640 -0.02523868 -0.14611150 0.14534178 0.26170331 -0.25874227 0.35800052 0.33204198 0.49556190 0.52783972 -0.44814539 -0.36907661 -0.15992405 -0.05579663 -0.43837526 0.10066071 0.16304529 0.53911006 0.03317079 0.30722407 -0.08165181 -0.04236658 -0.62810344 -0.10962886 -0.15283208 0.48274285 -0.08574367 -0.04617750 0.06042127 -0.14243047 -0.04061957 0.01357963 0.01643182 0.35945556 -0.13991949 -0.39988828 -0.05520557 0.67471045 0.11200382 0.22675700 -0.12062204 -0.02268312 0.20029615 -0.05671116 0.26271757 -0.24333021 -0.16717082 -0.15311156 -0.37118506 -0.03246040 0.10358427 -0.50913614 0.12422982 -0.26719752
0.04276543 -0.35124117 0.21292882 -0.06344373 0.00135365 0.14327575 0.08768372 -0.24539699 0.02528366 -0.20405880 0.05386923 -0.01528425 0.05709136 0.05773269 0.19186680 -0.00349093 -0.08741106 0.02517731 0.10804992 0.25387755 -0.12417251 -0.16511774 0.05934252 -0.00667036 0.08762229 -0.01164711 -0.33290684 0.06573430 0.07712706 -0.24099481 -0.06778785 0.34400472 0.02489633 0.21570723 0.02860179 -0.05030328 0.08251318 0.23730557 -0.12422752 0.02260134 0.26279077 -0.20499346 -0.14145975 -0.16782406 -0.14051764 -0.00062040 0.08333956 -0.31683192 -0.13406716 0.16003320 0.03655792 0.01658605 0.18765578 -0.20103641 -0.03002638 -0.17224492 0.10072462 -0.01812089 0.26345250 -0.16242048 0.21796177 -0.11668137 0.15037782 0.36266112 -0.22671185 -0.15440008 0.02490887 -0.09229598 0.35629168 0.01107336 -0.01904387 -0.11876662 0.10040464 0.13592850 -0.10954247 0.13184932 0.13329139 -0.30756453 0.23561692 -0.09765216 -0.05675212 -0.03487784 -0.02552983 -0.24314244 -0.12142128 0.18518804 0.33122590 -0.02550092 0.23404704 0.01355333 -0.06498656 -0.27406964 0.04545139 -0.17035416 -0.06505680 -0.36031049 0.19870786 -0.07516135 -0.04937272 -0.03719698 -0.15178683 0.09227636 0.12199213 -0.14219785 -0.23974511 -0.12494486 -0.22568074 -0.03656068 0.27892956 0.12886840 -0.03413530 -0.34646460 0.12165498 -0.02599372 0.08075640 0.00816547 0.27744472 -0.00722441 -0.17219768 -0.10782478 0.10918537 -0.21330404 0.24211138 0.21455431 -0.27923235 -0.04834408 -0.20814048 -0.03797492
0.13543504 -0.12964711 0.06416092 -0.47618982 -0.39286062 0.51693618 -0.21411695 0.14448965 -0.48570451 -0.14447202 0.03383882 -0.03329759 -0.10958662 0.07688119 -0.42644808 -0.08525220 0.29647928 -0.34301540 0.01173657 -0.84562653 0.28421772 0.24431720 -0.46093175 0.01985028 -0.18679273 0.09815904 0.15903978 0.27159786 -0.20349385 0.29722241 0.49547344 0.28010637 0.24697988 0.27423495 -0.47516140 -0.05404512 -0.33032966 0.08526603 -0.35625812 0.34019968 0.21581095 -0.49028909 -0.02821264 0.03205081 -0.29269013 0.71090698 -0.20890915 0.11085436 0.23864250 0.14203529 -0.32989225 -0.34156525 -0.27432019 0.36779273 0.35182458 -0.07178131 -0.32446882 -0.33076042 0.00266025 0.23423840 -0.19014028 -0.39114156 -0.24681406 -0.36697307 0.33965620 -0.26306835 0.11832742 -0.29636621 -0.15376303 -0.11522982 -0.16685873 -0.07683882 0.28991944 0.42803776 0.30803362 0.41404930 -0.09279891 -0.00885635 -0.34662136 -0.15077336 0.00099983 0.04012457 0.12736005 0.13996319 -0.25837144 -0.12664923 0.16408560 -0.12881622 -0.13206811 -0.15736569 0.44120881 -0.28104547 0.10663215 0.45209265 0.52883697 -0.06999447 -0.29987085 -0.05023907 0.23402940 -0.29215571 0.35410389 0.30920097 0.43203574 -0.13750161 0.07018837 0.40337020 0.04612076 -0.23943160 0.03114152 0.05566767 -0.19441020 0.10475030 -0.24809018 0.24876148 -0.16436876 0.07749426 -0.50113899 -0.03216027 0.09632550 -0.13386229 -0.36191821 0.08902395 -0.39695486 -0.26573145 -0.18869983 -0.01854252 0.55075657 -0.36028287
-0.07801830 0.15436843 0.06233157 0.01971155 0.05198057 -0.10890024 0.14328530 -0.13387850 -0.04644681 -0.10602366 -0.05180610 -0.08629550 -0.13935083 0.16055471 -0.19350106 -0.06448885 0.12175478 0.09684796 -0.01577477 -0.06867348 -0.03361596 -0.02343974 0.06977066 0.13859600 0.05007696 0.02669940 0.04943280 -0.14034934 -0.11513223 -0.03790423 0.07852366 -0.03821408 -0.02415275 0.17193513 -0.08681136 0.09137336 -0.10871709 0.04247681 0.08945149 0.06816205 -0.05833551 -0.04190870 -0.11812793 -0.13631631 -0.16669792 -0.19216673 -0.07373437 -0.00810293 -0.11591660 -0.10184180 0.10673182 0.07056525 -0.16119996 0.11973700 -0.01072672 -0.10569967 0.00531597 -0.06976735 -0.00111033 -0.00558706 0.03899328 -0.15313835 0.01364201 0.12873827 0.12533809 -0.06200609 -0.08736306 0.04915195 -0.08178310 0.03189263 0.09915478 -0.19260639 -0.10238033 0.00899524 -0.11230949 -0.07808913 0.10818930 -0.01324649 -0.14919229 0.01964016 0.12468801 0.03410681 0.12133843 0.15514016 -0.18140315 0.08160932 0.08459286 -0.05535594 -0.07332387 0.09159969 0.03923609 0.10734465 -0.03607622 -0.05326846 -0.06639386 0.16813092 -0.18719330 -0.07169738 0.09425243 -0.02178118 -0.18885830 -0.11099065 0.08026271 0.12008928 -0.09950570 -0.02031494 0.04584359 0.04334896 0.14378199 -0.02240596 -0.18022850 0.02890390 0.02725416 0.14657643 -0.09049134 0.12945166 0.10143518 -0.10941052 -0.23420410 0.11927441 0.10189349 0.08152970 -0.02734422 0.16747567 0.08559501 0.04300409 0.00411692 0.03989723
-0.05663855 0.02733638 -0.76360810 0.11506940 -0.42433012 -0.15696418 -0.02344424 -0.20868148 -0.41051280 0.46504259 -0.59696025 0.38753384 0.48292664 -0.44215056 -0.60783219 -0.16718468 -0.25184616 0.17952006 -0.12027711 0.93286079 -0.08132556 -0.40587652 0.93606555 0.00252606 0.07808453 -0.17036574 0.02924655 0.15032691 0.16525945 -0.01431099 0.14555767 -0.31787372 0.14042562 -0.14567730 0.72678620 0.45730394 0.37711015 -0.06417713 0.04961391 -0.03331642 0.40754873 0.40662917 -0.45203900 0.33201742 -0.21416621 0.25534070 -0.41516691 -0.15070315 -0.21925581 -0.56629193 -0.43500501 0.46244881 0.83939672 0.40211111 0.08117532 0.08567660 -0.49167806 0.90808851 0.62659699 -0.49213380 -1.08803284 0.44092491 -0.03678375 -0.28543293 -0.03208330 -0.05509781 0.19301218 0.84929967 0.34982455 0.22333357 -0.44762602 0.61238253 -0.05055910 -0.07991275 -0.83342820 -0.62711042 0.82732034 0.24361315 -0.30226836 -0.13137192 -0.13756688 -0.10662100 -0.31379232 -1.06255448 0.31438565 -0.24923474 -0.40484792 -0.14661337 -0.17163683 -0.25202370 -0.08503325 0.01464061 -0.03667412 0.02388246 -0.32653189 0.29994684 -0.44252989 -0.15733361 -0.29471982 -0.46924955 -0.55552715 -0.20118706 -0.21817493 0.00919818 -0.46949992 0.17385148 -0.13086542 0.00743420 -0.13228871 -0.27586707 0.27176571 -0.00722846 -0.24964803 -0.50939828 -0.39832208 -0.73394495 -0.03333562 -0.38110736 -0.41847354 -0.18621692 -0.28757870 -0.60596949 0.58683586 -0.26411584 -0.13538150 0.53154987 0.04748041 0.72125471
-0.04599987 0.19227026 0.05382496 0.03558971 0.00687246 -0.00428184 0.09233603 0.07278168 0.16883452 -0.08648337 -0.08741031 0.03444305 -0.08282214 0.13231531 0.01291182 -0.09072288 -0.03215135 -0.12231956 0.10067532 0.15786941 -0.00998486 0.03782052 -0.07706970 0.01732588 0.02611958 0.02189060 0.02175580 -0.18851598 -0.05332776 -0.08675204 0.04061227 0.11362705 -0.11777275 0.12356776 0.00978879 -0.03470086 0.15909328 0.02343535 0.10715468 -0.08357405 0.03506327 0.04918212 -0.03304094 -0.02562187 0.06515040 -0.24747275 0.14051951 0.17206375 0.10717076 -0.19647658 0.06992415 -0.02876206 0.15736894 0.01030895 0.18265790 0.02051294 -0.14866349 -0.11711963 -0.12855794 -0.04196638 0.17991775 -0.11440218 -0.05311744 0.03254690 0.13966578 -0.02480759 0.00712694 -0.07027580 -0.05191705 0.10113190 0.02436046 -0.06931809 -0.15324296 -0.16289854 -0.21105674 -0.09602106 -0.16042309 0.07228281 0.13641436 -0.03796383 0.09542925 -0.08280478 -0.16016400 0.00046560 -0.11410461 0.22965781 0.21239629 -0.02323323 0.03803056 -0.01681456 -0.12329388 0.08103925 -0.05012893 -0.01454608 0.12130780 0.11187093 0.15066950 -0.06540467 0.07383163 0.06184313 -0.03624581 -0.03930250 -0.00139229 -0.05592349 -0.07573145 0.02171859 0.00882215 -0.16573745 -0.08418711 0.18299477 -0.02315639 -0.02317943 -0.14014356 0.13638334 0.11833717 -0.10368589 -0.08874530 -0.00068605 -0.16195950 -0.12608509 -0.02973140 0.21467339 0.11600228 0.00783563 -0.14806512 0.22060189 -0.06254686 -0.06685131
0.13199855 0.09580685 -0.16067752 -0.66505808 -0.58064985 -0.07539415 0.02200003 0.46108124 -0.23144534 0.18555640 0.03699642 0.43234912 0.97827458 0.13199216 0.18402429 -0.30914816 -0.54910028 0.95948821 0.01092204 -0.66586220 -0.01406652 -0.53370529 0.62969023 -0.49757895 -0.06195046 -0.04400684 0.25893855 0.32895824 0.02067068 -0.21693216 0.59778094 0.70789838 0.61913174 0.24747506 0.18112472 0.20901853 -0.37624517 -0.08922315 -0.70712394 0.44926646 -0.07297963 -0.12705624 0.86099511 0.70215726 0.83543384 -0.01355547 0.37409550 -0.12965277 0.12538654 0.24164328 0.23563574 0.21278070 0.50732070 0.34777263 0.10440608 0.40068495 0.31910151 1.06051493 -0.15486625 -0.79423207 -0.32042602 0.30337724 -0.99509257 0.26713383 -0.32563141 0.49767387 0.73585093 0.27921805 0.29902408 -0.44711900 -0.39624497 0.46791631 -0.31355691 0.80893862 0.49621990 0.24789909 0.68690795 0.45592567 0.26148161 -0.05759548 0.61523181 0.11431652 -0.18202399 0.01022578 -0.04542574 -0.54107589 -0.44843817 -0.45366600 -0.14946833 0.31385455 -0.14594147 -0.40003058 0.50336945 0.29659915 -0.63640761 -0.48879904 -0.31003717 -0.14782636 -0.62486488 0.09521161 -0.03665963 -0.44618627 0.74262619 -0.43136624 0.00329382 0.38609225 -0.16979994 0.42496166 -0.02929956 -0.05903393 0.39816445 0.00811043 -0.17135897 -0.04632001 -0.18489838 0.13617125 0.49379399 -0.22922294 -0.14159872 0.17258894 -0.09960879 -0.82613379 0.40375671 -0.64159441 0.16202204 -0.23651823 0.12148304 0.13340086
-0.15420918 0.18710275 0.04627929 -0.14299129 -0.09415408 0.31378964 -0.12366309 0.23078278 -0.14843805 -0.27849430 -0.17198811 0.03326475 -0.07933825 -0.11085936 -0.33670369 -0.11831135 -0.06412064 0.09702904 -0.18450586 0.02210418 -0.04578389 -0.00050612 -0.19078338 -0.11394130 0.31020942 -0.17059472 -0.04208087 -0.29262042 0.07943462 -0.10062975 -0.08884120 0.06947616 -0.19719256 0.25095311 -0.03511951 0.10702695 0.05418834 0.01451850 0.08213229 0.13805030 -0.03609401 0.10318016 0.05759086 0.04265096 -0.33131561 0.17327335 -0.07082815 0.38524467 0.13578805 -0.34588885 0.07049307 0.20741877 0.18571247 0.02126123 0.22737925 0.11859474 0.13447754 -0.16080962 -0.27743572 0.01929381 0.00802614 0.10672960 -0.11957864 0.04873884 0.26182106 -0.30667847 -0.07973412 0.16204734 -0.13973853 -0.14120913 -0.22277085 -0.20761335 -0.19439526 0.03637269 -0.28268605 0.14261648 0.03214715 0.08234498 -0.07501820 0.15404652 -0.15947025 0.27383628 -0.12891510 -0.12066344 -0.00729520 -0.10211150 0.11488743 0.03929349 -0.14418212 -0.20705712 -0.27181455 0.13665292 0.07693481 0.15216222 0.10006105 0.20355657 -0.02799295 0.06131271 -0.19247961 -0.06440747 -0.24520904 0.12977153 0.03906955 0.02286169 0.00116548 -0.12778753 0.13198431 -0.32926971 -0.16196078 -0.01483636 -0.24669556 0.01544202 0.00571534 0.30302718 -0.05459653 0.01148776 -0.09085714 0.15920368 -0.09126112 -0.18174985 -0.15977809 0.20190516 0.22327141 -0.16671652 -0.07251146 0.19721961 0.18794340 -0.02136591
-0.05315393 0.84647220 -0.76799572 0.37336865 0.35130548 -0.16136113 0.00505047 -0.27210677 -0.10426345 0.35516658 -0.36655515 0.33331376 -0.16066907 0.12006551 -0.87126535 0.37894306 -0.01955968 -0.61297351 -0.16634998 -0.36642659 -1.02088177 0.11132349 0.81689274 0.85761243 0.03147652 -0.40744755 0.56537986 0.20519057 0.23707086 0.11437422 0.15827842 -0.30705968 -0.75100297 -0.50812995 0.04763791 0.21328644 0.17337213 0.03689347 0.40755358 -0.50520003 0.45543304 0.52940947 0.06502970 0.91261774 -0.39508846 -0.18605012 0.26974970 0.80762488 -0.14834376 -0.27328801 -0.54098445 -0.23137869 0.05255654 0.50510341 0.10259406 -0.43899614 -0.15735640 0.11524547 -0.02561595 0.51187092 -0.35407272 0.22837362 -0.27280495 -1.28898251 0.12429590 -0.25320187 0.03171849 0.96105033 -0.88439655 0.54179513 -0.17189580 -0.51146567 0.20451786 -0.38389045 0.17490302 0.24782406 0.25708479 0.23478055 -0.39212072 0.18921907 -0.30963790 0.34435046 -0.01787425 -0.30657110 -0.06344949 -0.77754104 -0.69645768 0.55426246 -0.39474344 0.44450796 0.10219900 0.83426636 -0.55609858 -0.14760894 -0.15628880 0.55316299 -0.97058856 0.31736985 0.29171893 -0.20907399 -0.27212447 -0.34456745 -0.09637788 0.20458719 -0.37109002 -0.17251885 0.36626899 -0.31318003 -0.32261962 -0.18693648 -0.38184801 0.90184069 0.02319741 -1.26686108 -0.02817600 -0.18886611 -0.73722547 -0.29121333 0.04628170 0.63181818 0.23339969 0.12899107 -0.64804161 -0.36755553 0.72118217 -0.38681701 -0.12230320 0.55078304
0.06758001 0.06516681 0.12439051 -0.07085202 -0.07570630 0.14551304 -0.14777534 0.06089796 0.11916222 0.08880389 0.01979432 -0.04030721 -0.05021819 -0.00773711 0.11404939 -0.02253058 -0.16477153 0.00431443 -0.05416109 -0.06443016 -0.01010408 0.03392037 0.01362860 -0.01163095 0.25710380 0.10380381 -0.00955964 -0.05112074 0.17074712 0.07508080 -0.04173902 0.03312041 -0.20066954 0.01964898 0.08212526 -0.15053520 -0.15597090 0.06939635 -0.00851793 -0.16377665 0.21236601 -0.01538501 0.08593587 -0.07052886 -0.12401742 0.12499557 0.02378859 0.16597553 -0.08084302 0.00545286 0.02346837 -0.09157332 -0.09424006 0.11627556 -0.11444963 0.04169587 0.15215790 -0.10441074 0.01257065 0.09894643 0.11655400 -0.05421441 -0.12198652 -0.02329657 0.06915581 0.00383498 0.04379546 -0.21897207 -0.09335766 0.04563088 0.05476164 -0.13480714 -0.09039769 -0.00433914 0.08929089 0.01538336 -0.00441696 -0.14704673 0.10634137 0.07209506 -0.04928201 0.01961739 -0.08906794 -0.12880316 0.07880785 -0.10361256 0.06582103 0.15832748 0.02290556 0.14990443 0.10064007 0.04920349 -0.03174573 -0.07285438 0.01308464 -0.17093530 -0.09171285 0.08313227 0.08009822 0.05876131 -0.11265802 -0.08196581 -0.04787596 0.10037865 -0.02380066 0.06001895 0.03698101 0.01174277 -0.12478084 0.06167013 -0.06770954 -0.09122368 0.13513373 -0.06628174 0.05742093 0.02285907 0.02413774 0.11810559 -0.08868504 0.14047961 -0.04858247 -0.12049200 -0.04283933 0.24525341 -0.00012320 -0.06050751 -0.10796910 -0.03211684
-0.13454017 0.82411331 -0.77769160 -0.05989050 0.68412697 0.65706158 0.60332793 0.00608597 0.15862632 -1.07907045 0.42301333 0.12097210 -0.33564165 -0.69184953 -0.82941359 0.90194541 -0.01949242 0.00926002 0.81984878 0.91909122 -0.77886468 -0.18639201 0.27184519 -0.44080219 0.18530606 0.61974251 0.43260130 -0.66790777 -0.40833110 -0.19750011 -0.45935068 0.57762522 0.16437134 -0.01063979 0.31313339 0.75419432 0.55208027 0.49328727 0.03607976 -0.74269968 0.11957060 0.83139557 -0.21685304 0.19768547 -0.65775603 -0.38164896 -0.20871525 0.67475009 0.48976222 -0.57078451 0.38830560 -0.75385249 -0.30560985 0.26940224 0.43777019 -0.05761887 0.06207236 0.10795563 0.16611084 -0.36126423 0.03543895 0.26214424 -0.49520692 -0.08610878 0.09770330 -0.28650779 -0.70609021 0.82914197 -0.07534807 0.27709728 -0.34045005 -0.12684852 -0.19595499 -0.05468787 -0.11442474 0.24870461 -0.33601224 0.72103441 -0.69698179 0.60596365 -0.22558071 0.50522333 -0.11156057 -0.91985500 0.51632130 0.11264899 0.10350525 -0.03308544 0.46450278 0.85724938 -1.05954087 0.64225525 -0.08492226 0.66498506 -0.05269820 -0.15669705 0.17798512 0.08197863 0.50636119 -0.48501959 -0.50368410 -0.21124117 -0.00493336 -0.09159464 -0.31201288 -0.23867019 0.41796869 -0.81950450 -0.48815882 0.49921757 -0.48675263 0.47594377 0.70032412 0.61425263 -0.74860311 0.37351355 -0.56806356 -0.06257390 0.04882374 -0.06922211 -0.06017919 -0.39603460 0.58581507 -0.22689345 0.29884109 0.32493186 -1.16249371 0.37939563
0.06330273 0.04149999 -0.12950182 -0.18806212 0.00320842 0.08067837 -0.02437156 -0.12517563 -0.24338387 -0.11971433 0.02451462 0.24286009 0.08563976 -0.00206940 -0.34875309 0.07189047 0.14357831 -0.11789828 -0.06870764 0.19054957 -0.18840159 -0.01485219 0.18053992 0.09628095 -0.20704685 -0.15425074 -0.09728878 0.04428428 -0.05677141 -0.15963548 0.10722716 0.39845166 0.15871748 0.11340778 -0.07860958 0.18323371 -0.15730341 0.16702583 -0.14863677 0.20457532 0.05404431 0.14988771 0.00577259 0.03866320 -0.12740673 0.02346980 -0.06976644 0.03038913 -0.08898480 -0.19138993 -0.02497093 0.16690406 0.16286445 -0.00924491 0.27449962 -0.13868622 -0.17569251 0.26589015 0.15729898 -0.10982896 -0.32030809 -0.12104202 -0.25617534 0.13628630 -0.00465630 -0.34855047 0.08695317 0.35031143 0.03121049 -0.13299672 -0.17564532 0.05546980 -0.09437297 0.13418581 -0.25711647 0.27175269 0.00014385 0.05055852 -0.12802255 0.09323367 -0.04785641 0.13649049 -0.13529871 -0.17640755 -0.29865009 -0.24603166 -0.02050325 -0.07679358 0.22219971 0.00497459 -0.10693117 -0.19269772 -0.08843304 -0.03308788 -0.09713903 -0.11781867 -0.28593218 0.12795973 -0.02362030 -0.23340049 -0.26859468 0.09817262 0.21476951 -0.28738233 -0.07473212 0.04256755 -0.14499073 0.10423333 0.07690606 -0.01002399 -0.09628380 0.15859848 0.10892420 -0.18532039 -0.06497561 0.09688549 -0.02573977 -0.03487812 -0.18932833 0.08385976 -0.15747485 -0.07515912 0.23316842 -0.29486191 0.03622114 0.24134976 -0.00181424 -0.11618659
-0.32269591 -0.03344401 1.53702545 -0.74828458 1.68684518 -0.29083309 0.32519081 1.09799337 -0.59440845 -0.11018880 -0.65417725 -0.56121343 -0.03965672 0.26959029 0.01748857 -0.12199722 -1.37274361 0.25133902 -0.79759139 0.70149195 0.47160110 0.04003184 -0.63574648 -0.17696218 0.92512298 -0.22548810 0.36550954 -0.90132600 -0.42938584 -0.63800621 -0.82441843 -0.96065795 -0.64270210 0.90637368 -0.23521189 0.50814766 -0.10910473 -0.91472065 0.84783089 -0.47859415 -0.67490953 0.34433085 -0.36341411 -0.68508744 -0.50601649 -0.27991408 1.22343767 -0.25693420 0.28111696 0.10737665 -0.04140084 0.79824257 -0.50077152 -0.79663426 -0.99996698 0.09139552 0.92414963 -0.44622406 -1.54291010 -0.57255155 0.55444020 -0.20309658 -0.03525780 0.75044644 -1.20310414 1.14742303 -0.97617334 -0.88906646 0.28486255 0.02656506 0.41197464 -0.66917306 -1.00437641 -0.89322633 0.20509145 -0.18440604 0.06026399 -0.69211435 0.42296213 0.50086224 0.36573416 -0.14929335 0.00957617 1.09819818 -0.60213327 -0.00967103 0.12087747 -0.55757171 -0.35570502 -0.53314203 -1.04634809 0.81252623 0.46831664 -0.01194440 -0.06220943 1.03473663 0.40402010 -1.01640081 -0.38727087 0.51032728 -0.12438428 0.06580981 -0.33751354 0.95948648 0.62931275 -1.27610207 0.21205732 -0.26849234 -0.45295098 -0.97899365 0.16115412 -0.19707771 0.17975068 0.49124199 1.41607130 -0.01002602 1.11881399 0.47003213 -0.17786875 0.07718057 0.09089223 0.58789676 -0.13098946 -0.11945654 0.67700052 0.45517752 -0.23903470 -0.06044326
