-0.12445444 -0.01860683 -0.05513727 -0.04700953 0.02410883 -0.06188062 -0.01674366 0.00846369 -0.00870244 0.08441918 -0.13630629 -0.07088839 -0.11397389 0.15354884 0.09752993 0.05955634 -0.04604083 -0.01689716 0.06235971 -0.09705403 0.03617210 0.03604278 -0.06106880 -0.10533582 0.00315468 -0.11852866 0.06055513 -0.05800927 0.04802359 0.03852873 0.01038771 0.09732214 -0.09447354 -0.04991874 0.01139659 -0.21606007 0.02474617 0.12596074 -0.01572038 0.00687748 0.07720261 0.06278955 0.11841887 -0.08944151 -0.13253456 -0.15572786 -0.00703812 0.03580075 -0.04142373 0.03533520 -0.05779601 0.01762146 0.05289601 -0.06492672 -0.10038176 0.03831937 -0.00030028 0.00118097 -0.10665344 -0.05727739 0.04780512 -0.14370929 0.04411082 -0.01894171 0.02167203 0.12798487 0.05805047 0.02712738 -0.01504017 -0.22071257 -0.06347286 -0.05399454 0.01224558 0.04025312 0.03174600 0.08147988 -0.04118582 0.00226122 -0.01740319 -0.01306967 0.03633928 -0.02220616 0.02002433 -0.11728109 -0.05448714 -0.00863826 -0.03279801 0.03421128 -0.07226033 -0.01482572 0.00153154 0.03182954 -0.09811121 0.05411106 0.08986660 0.00497235 -0.11741658 -0.23243968 -0.00724560 0.14234370 0.13884999 -0.08648212 0.20190494 -0.01329818 -0.42509547 -0.09491958 0.28871933 0.11505771 -0.04051776 -0.05825172 0.10095973 0.18085310 0.05768944 0.02009151 -0.09253826 0.06395841 0.05043046 -0.09087870 0.01925853 0.21822841 -0.06790004 0.00931751 -0.05923857 -0.06265730 -0.12954190 -0.06030701 -0.20517091 0.19748656
0.24647306 0.00701793 -0.09719533 -0.07369438 0.10939582 0.01326894 0.03246899 -0.01412107 -0.01833410 0.09305554 -0.03714866 0.03262370 -0.05376054 0.00516446 0.03704489 -0.10055207 -0.09823696 -0.01294281 0.03740982 -0.23307002 0.07484794 0.03878464 -0.00176138 0.01778125 -0.11504359 0.13891354 0.07484903 -0.08406015 0.02482791 0.09616283 0.05520644 0.11491343 -0.07240311 -0.00741293 -0.00316191 0.21915144 0.01158259 0.02690921 0.05217388 -0.17026073 0.03998544 0.08717895 -0.02089516 0.02635799 0.00809313 -0.06040953 0.04569854 0.04108333 0.05842070 0.02812579 -0.13681202 0.05742542 0.02036089 -0.03637822 0.08694644 -0.04994544 -0.06797194 -0.02241007 -0.02582469 0.19579671 0.02408617 -0.05104471 0.03129268 -0.02559218 0.00157370 -0.08407567 -0.01734432 0.19910546 -0.01858493 -0.03652079 0.06482425 -0.04144689 0.02146342 0.03153617 0.01056817 0.05753407 0.09754106 0.01255090 0.04987542 0.07883523 -0.08354877 0.04912966 0.04430337 -0.10582017 0.04504246 0.00749493 0.03333651 -0.23895550 -0.06418098 0.02345002 0.09662090 -0.08311968 -0.05158908 0.10033135 0.07282917 -0.04925145 0.01314346 0.34246224 -0.24362861 0.03395772 0.06364682 0.02581530 0.07800158 -0.14397702 -0.10916227 -0.08396845 0.02660310 0.05952555 -0.19858351 -0.22491066 0.13570234 -0.15229556 0.19091861 0.10894293 0.20704819 0.03079640 -0.02114210 0.02543467 -0.10134736 -0.13221702 0.18696022 -0.00614949 -0.11288063 -0.26201141 0.28047961 -0.11236937 0.09742643 0.08755072
0.14145853 0.21992567 -0.15716608 0.16559322 0.03983468 -0.02520625 -0.03669263 0.01635812 -0.08961400 0.06611872 -0.12960970 -0.04582565 -0.10671486 -0.11473548 -0.08586304 -0.30723098 -0.11849559 0.03552438 0.16552156 -0.23870248 -0.00100476 0.01466262 -0.03803046 -0.05419450 -0.02825232 0.07061719 0.02355249 0.21666525 -0.12527135 -0.03170289 -0.00218692 -0.11300614 -0.13923931 -0.06076080 0.11661032 -0.17305443 -0.02196055 0.00764450 0.09280074 -0.14912510 0.10170494 0.04280573 -0.02596504 -0.19476488 -0.14604099 -0.03089359 -0.00049988 0.00864947 0.18786716 0.13820356 -0.05322205 -0.16320981 0.03078128 0.00249048 -0.20765299 -0.08662111 0.00531090 0.00130918 0.16568005 -0.08656986 0.19463275 0.03360488 0.07187919 0.04959453 -0.07524483 -0.03356005 -0.06255674 0.01393444 0.06259155 0.13856918 0.16674891 0.02464401 -0.01267230 -0.00052355 -0.04888520 -0.00595741 -0.26416084 0.00680433 -0.03247611 0.23818387 -0.09434975 0.10155539 -0.03411246 0.22733182 0.00206554 -0.03274525 0.10206383 0.10125327 0.07542783 -0.05327647 -0.00043935 0.11365307 -0.04654600 0.14598125 -0.04994976 0.01232436 -0.33025780 -0.16661839 -0.03750135 0.07910082 -0.11756023 -0.08725951 0.16614592 0.03911294 0.09495477 0.06836458 0.19416821 0.19094233 0.31819659 -0.36291590 0.17838463 0.27251786 0.35618091 0.27104983 -0.03574999 0.12860328 -0.04181480 -0.03176277 0.10279269 0.18102758 -0.25337619 -0.07973937 -0.08501633 0.14548323 -0.06204030 0.28196880 -0.06647296 -0.22665073
0.05722992 0.12994055 0.29545453 -0.05992601 0.22444636 0.07657468 -0.02168483 0.03749017 -0.28211993 0.22156969 0.13192603 0.00187765 0.36381060 0.16939679 -0.16329880 -0.12211447 -0.12813929 0.14756544 0.09845373 0.14094855 -0.12082770 0.03267191 -0.06593392 0.10553792 -0.13892099 0.46690208 0.01676328 0.02990479 0.20264491 0.05229020 -0.08288632 -0.13721254 0.08983379 0.11707787 0.07163620 0.33316064 -0.11501165 -0.03798921 0.09582037 -0.01418985 0.19487275 0.07782457 0.02965496 -0.09756438 -0.17950344 -0.26054314 -0.01667847 0.02791394 0.04871951 0.09783552 0.04355646 -0.23840769 0.00975783 -0.04087448 -0.05912298 0.08973981 -0.11342097 -0.06642296 -0.17880993 0.20144935 0.32436141 0.18496634 0.04355209 0.25294414 -0.02947999 -0.04186151 0.13939284 -0.14687189 0.00360076 -0.16307482 0.07891769 -0.01207291 -0.02598646 -0.18379492 -0.08202722 -0.11019563 0.05368832 0.02701723 0.02094351 -0.05488925 0.10120014 0.08760845 0.01072819 0.07264639 -0.04350542 -0.03221336 0.10903124 0.16786711 -0.06530999 -0.02162582 0.09941047 -0.03472018 0.08605205 0.09143767 -0.10207459 -0.06985965 -0.38431546 -0.04880457 0.04718118 0.22479779 0.32683495 0.02575639 0.10062939 -0.05243093 0.03057780 0.03226527 0.01820425 0.09224246 0.18598890 -0.23769574 0.10578447 -0.05021879 -0.00246052 0.10796352 -0.24831374 -0.00197263 0.20889068 0.22587241 -0.00550127 -0.34273627 0.43288222 0.04069573 -0.06482070 -0.21335199 0.12913041 0.05030095 -0.14044020 -0.03118869
-0.28262049 0.11984418 -0.13930704 -0.32291320 0.11403798 0.21800859 -0.01856017 0.03061024 -0.00916466 0.27080032 0.02019078 0.12122628 0.07214962 -0.18202731 0.20988886 -0.20131512 -0.07560903 -0.08915910 -0.00580456 -0.14761868 0.03399830 0.01868678 0.12793353 -0.08427202 -0.26236999 -0.20825525 0.22123082 -0.07383490 -0.19983052 0.06895207 0.23991208 0.07077455 -0.06035097 0.01272607 -0.00615255 -0.29087147 -0.04791838 -0.22909667 -0.10433762 0.00302641 0.04393520 -0.13840175 0.05345773 -0.20951226 0.13976045 0.15505628 0.01557787 0.01095550 0.01743522 0.08721723 -0.08378783 0.43838790 0.06364605 0.00830450 0.15734924 0.08858176 -0.13675584 0.00581992 0.02535903 0.09330120 0.14220937 0.10653740 0.15025409 -0.03710409 0.00504107 -0.03271229 -0.00999207 -0.04266384 0.01116969 0.04737936 0.07114314 0.03793507 -0.02456664 0.05844420 -0.03863690 -0.01201112 0.01065847 -0.01530319 -0.02641414 -0.07241940 -0.13454691 0.01038610 0.02220158 -0.07167232 -0.07860728 -0.09762444 -0.32863876 0.00296077 -0.09545228 -0.05429890 0.20276371 -0.02730530 0.08602560 -0.13872342 0.01674609 0.06423818 -0.04376057 -0.26973927 0.01299285 -0.08285832 -0.23221929 -0.17647851 0.16408460 -0.28803143 -0.00599358 0.01064407 -0.21815234 -0.34351137 -0.10848330 -0.14616883 0.01182020 -0.09196328 -0.47948241 -0.02979092 -0.25345975 -0.10548943 -0.08064887 -0.06845342 -0.09029600 0.11629271 0.10823287 0.22569916 -0.09848037 -0.10667606 -0.16743913 -0.01513593 0.32840011 -0.24041633
0.18169349 -0.02004558 0.03007286 -0.30463234 -0.01631287 0.05346032 0.04025262 0.06786434 0.06047521 -0.27248788 -0.25127381 0.12353043 -0.04158940 0.02034134 -0.26179168 -0.22419649 -0.01298578 -0.02348842 0.21872544 0.45431986 0.21339716 -0.25378802 0.36513001 -0.09770758 0.10504790 -0.01736518 -0.13084199 0.00377364 0.35380110 -0.05030727 0.29267725 0.03476901 0.28083381 -0.21904232 0.05781407 -0.28209755 -0.08707882 -0.18504614 -0.33661970 -0.38440809 -0.31757733 0.28865987 -0.02851555 0.07348549 -0.14345790 0.37097147 0.03732679 0.08359374 0.01141544 -0.02657532 0.03760373 -0.15903954 0.01966740 -0.10932570 0.03927201 0.00090205 0.28319380 0.49833864 -0.42648846 -0.24327695 0.09442537 0.26403216 0.12840505 -0.17995411 -0.00100568 0.04265511 -0.09629971 -0.01453469 -0.02649320 -0.09593744 0.04136395 0.00728527 -0.00241854 0.04431793 -0.06155655 -0.08848349 0.17436962 0.02864816 0.01547999 0.00382847 -0.07832778 0.08364654 0.05541465 -0.06594694 0.06760512 -0.01028316 -0.02080564 -0.09913559 -0.07049606 0.03143974 0.04389884 -0.11006595 -0.17545587 0.16098188 0.01092492 -0.20610109 -0.21933903 -0.10967495 0.07574640 -0.03444669 -0.13487376 -0.02674529 -0.29165661 0.22013985 0.35233027 0.00565815 0.13817437 0.13736266 0.21996669 0.39614785 0.37753201 -0.10637114 0.29868799 0.03936021 -0.16844705 0.01002878 -0.24765319 -0.09481031 0.01490016 0.34603274 -0.32055789 -0.01975366 -0.22670479 -0.05828398 0.33886072 -0.11148115 0.13805602 0.14951229
0.00225195 -0.22475685 -0.14994195 -0.39651933 0.45459464 0.08752272 0.02893928 0.10608824 -0.19163060 0.07292843 0.09423357 0.16545434 -0.03841009 0.22199881 0.02725450 -0.07912919 -0.07943007 -0.01874549 0.13506804 -0.18803650 -0.20235094 -0.04569872 -0.05244328 -0.13888629 0.09776366 0.26724726 0.22564994 -0.18328920 -0.39229962 0.05427801 -0.07850963 0.09777172 -0.25459382 -0.11320481 0.02205228 0.12196286 -0.09559423 -0.11877721 0.18536001 0.22441955 0.03141112 0.01203002 -0.08303727 0.12224387 -0.25202048 0.09888320 0.08422396 0.16135687 0.10381009 0.08571184 0.02388378 -0.16304681 0.05996558 -0.08753834 0.48003781 -0.38246107 -0.02488814 -0.07396031 0.01847521 -0.00593494 -0.00178581 -0.07213091 0.05734063 -0.15416186 -0.02169032 0.05932133 -0.03244813 -0.11898095 0.02604375 -0.11013798 -0.08535716 0.03490852 0.00169889 0.13728510 -0.04167525 -0.19911420 0.07578301 -0.01255227 -0.00887789 -0.06989619 0.01281159 0.05797581 0.04557731 -0.05195484 0.07652997 -0.07769985 -0.22523962 0.00793937 -0.12025128 -0.03973083 0.08586279 -0.06322432 0.02956829 -0.05875358 -0.02136751 0.02320032 0.00638584 0.42898151 0.24178623 -0.06770063 -0.07387273 -0.05059871 0.13510352 -0.09673818 0.09468704 -0.05772324 0.36530703 0.32088429 0.39773518 0.11261350 0.04857420 0.13608725 -0.12648672 0.09326174 0.11237042 0.15351035 -0.09857643 -0.02417557 -0.09089186 0.14876910 0.18946297 -0.00772747 0.18872558 0.08705944 -0.25392482 -0.00554256 -0.02831139 -0.11370277
-0.19024749 0.01470864 0.12479982 -0.31431845 -0.17710418 -0.06292367 0.03181382 -0.00857497 -0.07168428 0.20144449 -0.07533050 0.00767719 -0.08700600 -0.41980940 0.42524475 -0.19899172 0.07591567 0.29534552 0.07485243 -0.32026812 0.01562304 0.28848311 0.15368079 0.04522217 -0.06465231 -0.12235504 -0.19623716 -0.24891604 -0.00801485 -0.09194668 0.03019892 0.01296226 -0.00279028 0.03923616 0.04216420 -0.49199679 -0.08711778 0.30368212 0.10372965 0.30721214 0.10108152 -0.34665188 -0.12432911 0.17664853 -0.15960771 -0.13884111 -0.01492855 -0.06453320 -0.28571126 -0.02777195 0.05837822 0.51182961 -0.04349520 -0.03811498 0.01780558 0.06803861 -0.12902069 -0.02164195 0.03361658 0.45942983 -0.07459863 -0.01389041 0.07872890 -0.01878240 -0.01049782 -0.05101403 -0.16476253 0.06113986 -0.02150190 0.09608284 0.28410992 0.01901659 0.03651156 0.05785791 0.10175758 0.03756624 -0.06801616 -0.00817309 0.01087499 -0.16554408 -0.08672863 -0.00243262 -0.02970010 0.01800185 0.05804334 -0.02746057 0.00195691 0.03259476 0.09803917 0.04219076 0.23551996 -0.10102022 -0.08024948 0.22382618 -0.09188177 -0.24523854 0.23160671 -0.08989814 -0.14606908 0.09472375 -0.16598344 0.07013494 0.07509129 -0.55539519 -0.06025370 0.11364974 -0.12760480 -0.00943086 -0.21213250 0.10949865 0.36499023 -0.05804484 -0.22829314 0.05219840 -0.13859957 -0.09307588 0.08789913 -0.10022214 0.13410041 -0.25690874 0.55896997 0.12333114 -0.00067903 0.16019620 -0.32355258 -0.00981424 0.18706197 -0.07039451
0.10973894 0.09451110 0.26471415 0.44284922 -0.00296570 0.11714821 0.03761089 0.09421751 0.05205040 0.21608247 0.25742826 -0.11471644 -0.20797595 0.29313806 -0.08423420 0.17649128 -0.16512524 -0.58866501 0.11989970 0.13356145 0.00750249 0.33931184 0.00179926 -0.06132499 0.02977767 -0.41501382 -0.17303966 0.03603544 -0.38131565 -0.07051865 -0.42024258 -0.32356715 0.32128635 0.10654356 0.06654048 0.13096729 -0.10239885 -0.34271368 -0.24346390 0.09215821 0.02795267 0.04702990 -0.06222069 -0.23542866 0.07483988 -0.14360453 0.03613920 -0.17794003 0.30831406 0.14972173 0.04644100 -0.09416406 -0.02079267 -0.02096453 -0.22135131 0.04827122 -0.01237345 -0.39969832 0.37634480 -0.46901220 -0.04665193 -0.24224563 -0.07722787 0.21466197 0.03727181 0.00679413 0.12572938 -0.10002000 -0.05661322 0.46377730 -0.23224247 0.07718649 0.02971309 0.00845807 0.01031169 -0.08146460 0.02002669 -0.02794889 -0.02082664 -0.05058389 0.31569275 0.00507063 0.06981427 0.35874584 0.05297089 -0.07031207 -0.04953265 -0.00806024 0.05640700 0.02393460 -0.63611311 0.11321989 0.04520179 -0.04343294 0.04834116 0.05252761 -0.04467343 -0.32668403 -0.21449342 -0.16286196 -0.03746150 0.08330939 0.00183057 0.13774809 -0.20244342 -0.22281627 -0.40195188 -0.05250246 -0.16244124 -0.14307944 -0.60295576 -0.04668213 0.16173030 0.03824430 0.13051797 0.08242624 0.07533903 0.01069887 -0.01230181 0.05517921 -0.44030449 -0.21234986 -0.29659104 0.20552360 -0.17271647 0.22149137 -0.21304972 0.04492918
-0.06689714 -0.07819731 -0.36888477 -0.05013339 0.39002430 0.04847409 0.01623165 -0.01163168 -0.15899453 0.36378345 0.11127688 0.03664653 -0.06815128 0.12486130 0.12704858 -0.30718315 0.02478210 -0.68406886 -0.04181160 -0.05465510 0.01578523 -0.06417705 -0.56701183 0.13733083 -0.19352327 0.27195591 0.33379132 0.49608871 0.09685154 -0.07311241 -0.06254923 -0.02707484 -0.22083199 -0.07663908 -0.10905846 0.12241656 0.03260070 -0.32988349 0.01978131 -0.03999738 -0.03670580 0.13649841 0.02506506 -0.14716639 -0.01467349 0.05765565 -0.02348149 0.09368094 0.36016208 0.10695892 0.01350521 -0.30358049 -0.13448501 -0.00361177 0.07945664 0.01969018 0.24370949 -0.12787521 -0.18016818 0.01568279 0.32653666 0.31041119 0.20684689 0.06837141 -0.03251800 0.06693422 0.14366618 -0.12778792 -0.02833690 -0.18845490 0.29101670 -0.04679201 -0.06363382 0.09066557 -0.03089826 -0.25996098 -0.25932318 0.07508634 0.01387445 -0.27802527 -0.01100438 -0.08127487 0.00976030 0.32350522 -0.04060794 0.10031275 -0.03845087 -0.15878107 -0.02343598 0.06792164 0.01980787 -0.20688786 -0.42217836 0.07751020 0.01752469 -0.26443174 -0.53442419 0.03459261 -0.09682409 0.02571987 -0.09720567 -0.01661918 -0.20792122 0.23744215 -0.08172838 -0.40254068 0.12799656 0.15642463 0.30716646 -0.21098509 -0.30097952 0.21576650 -0.16842894 -0.04733535 0.02557203 -0.27130184 -0.02847634 0.07181416 -0.03639715 0.16872223 -0.05737408 0.15883489 -0.35975242 0.01548084 -0.08084754 -0.00053937 -0.00059931 -0.05639018
0.13503453 0.00049344 -0.38233873 0.12447087 0.12598036 0.08059236 -0.08942167 -0.03050972 0.12192997 -0.16311294 -0.07816722 -0.04143428 0.31140029 0.08895016 -0.16285925 0.19112976 -0.09931659 0.73815238 0.01985161 -0.48280761 -0.25142971 -0.88297129 0.41475561 -0.19280076 0.47428036 -0.32780862 -0.13639681 -0.22351897 -0.04869955 0.05302449 0.24129316 -0.25557318 -0.09562974 -0.21274348 0.06617472 0.21833439 0.03290862 0.04284722 0.57738167 -0.08687537 -0.26360592 0.22003175 0.15794306 0.05950530 -0.09979849 0.22989738 0.03803564 0.08549314 -0.21217339 -0.13519788 -0.06187057 0.08260716 -0.08361407 -0.01227874 0.23996747 -0.28400758 0.11200178 0.23280467 0.27288675 -0.20912686 -0.07962757 -0.19662623 0.06607062 -0.10384469 -0.03599274 -0.27118504 -0.05888525 -0.09356690 -0.02822968 -0.10512875 -0.02637882 0.02522817 -0.05725466 -0.15188235 -0.04990670 0.29745910 0.11422066 0.10319386 -0.06386364 0.26379013 -0.27092463 0.01385839 0.01049807 -0.21871664 0.10072485 0.04669192 -0.04201019 -0.00035077 -0.05138178 0.03749044 -0.08429718 -0.00088314 0.27552640 -0.26881996 -0.01462194 0.21927515 -0.01860205 -0.03235056 0.33339196 -0.21350682 -0.01350230 0.01690364 0.78337771 0.00775039 -0.03961405 0.14511105 0.22063668 -0.18265346 -0.09147519 0.35438192 0.36630481 -0.04010039 0.16895673 -0.08132712 0.24761727 -0.07056617 -0.13401802 0.22743574 -0.00032449 0.04417540 -0.08563757 0.14545920 0.16076471 -0.09007982 0.02553370 0.02637470 0.20879310 -0.14114751
0.40577182 -0.20234571 0.50447023 0.15791786 -0.07780960 -0.06663030 -0.00638516 0.01251800 -0.00349349 0.25526059 0.17912395 -0.08553926 0.23706265 -0.01002295 0.27133033 -0.21994971 -0.06326967 -0.29920128 -0.05387517 -0.07313654 0.16837236 0.52257824 0.54641843 -0.30210975 -0.00178019 -0.29984647 -0.07330596 -0.07755684 -0.03587037 -0.05549945 -0.05904756 -0.15581340 0.27560765 0.12202702 -0.01886027 0.23714384 0.04312425 0.10770223 -0.33525217 0.12656660 -0.22147325 -0.17514336 -0.12894171 0.27107057 -0.14416641 -0.07655147 -0.01644142 0.14212941 0.10212797 0.07685321 -0.08420422 0.14024946 -0.00346604 -0.04500466 0.24240732 0.26683563 -0.04842360 -0.20136866 0.33817247 -0.30764088 0.11937585 -0.06644221 0.03323963 0.04569761 0.00983095 0.04193243 0.03963250 0.05863912 0.03510118 0.52859449 -0.14386368 -0.09318213 -0.05515341 -0.16197763 0.29916960 0.20228827 0.40643480 0.01689375 -0.00297726 -0.07141742 0.17863259 -0.07729856 -0.02843006 -0.06910127 0.12926443 0.04507682 -0.52107364 -0.02915304 0.04738048 -0.02428502 -0.23281865 0.06368656 0.00728838 -0.05481675 -0.02594007 -0.08290573 0.08818565 0.09495527 0.05995487 0.05296508 0.15382567 0.01315503 0.27517280 -0.21014886 -0.13321514 -0.12438961 -0.04262249 0.15857053 -0.24142572 0.11325915 0.16791181 0.10971031 0.41163820 -0.04282970 0.12292302 -0.00716216 0.00232439 -0.33413699 -0.14539774 0.17068182 0.06152479 0.17013982 -0.37543544 0.30492762 -0.16572200 -0.03929405 0.22254983 0.37546089
-0.67446548 0.09818459 -0.32259241 0.15552910 0.48954287 -0.02222133 0.02053021 0.03566355 0.23780373 -0.24050319 -0.21257778 -0.03160072 -0.45746708 -0.16433492 -0.39574158 0.22146581 -0.12038052 0.05671017 0.05220745 -0.01200527 -0.24398917 -0.24265482 -0.03251757 0.13759179 0.10423362 0.15644372 -0.15991312 -0.19635852 -0.20282710 0.11778788 -0.49200171 0.06897996 -0.06215726 0.13960381 -0.07983679 -0.06557528 -0.11068160 -0.19296879 0.24277583 -0.02221612 0.31962302 0.26835015 -0.23148693 -0.10472923 -0.17845084 0.13548993 0.01931421 -0.25574812 -0.07131203 -0.08777471 -0.12173706 -0.20670386 -0.12942766 -0.01661514 0.02648009 0.06422600 0.06680383 -0.06407755 -0.01487632 0.01798426 -0.27780467 0.04529573 0.18980420 0.34030741 0.01046078 -0.04404331 -0.07531144 0.08751255 0.05360597 0.03503279 -0.02642961 0.04884580 -0.00716738 0.14553681 -0.16588497 -0.47877219 0.01309087 0.01575672 -0.01935589 -0.15359868 -0.06672183 -0.04112702 -0.06970575 -0.06300987 0.07231390 -0.05136784 0.54129642 -0.03731187 -0.08466652 -0.04696948 -0.26059923 0.23504379 0.16647930 -0.17020358 0.05906900 0.19633390 -0.06604301 -0.15981352 -0.21861187 -0.43539944 -0.14677602 -0.01740747 -0.06372134 0.11830961 -0.07979359 -0.16496009 -0.37589499 -0.26190385 -0.10224286 0.44707957 -0.29872736 -0.15953894 -0.08408446 0.23954858 -0.03979657 0.11258165 0.09571177 0.50490755 0.00781450 -0.16380811 -0.32500350 -0.68845642 0.54486549 -0.13346215 -0.04361090 0.37134647 -0.11687624 -0.39916074
-0.20748539 -0.09327745 0.02433308 0.28660938 0.53388619 0.01690459 0.06132983 0.02387354 -0.17602903 0.11655580 0.04852936 0.06436850 0.42679507 -0.24627699 -0.24747033 -0.53208798 0.17921296 0.19792373 0.06913117 -0.62204224 -0.16988562 -0.99523157 -0.13438225 -0.00048763 0.00428715 -0.57763445 0.26758605 0.10927377 0.05515394 0.09397162 0.00079781 -0.28475252 -0.12415481 0.16175325 -0.05805562 0.04799407 0.01962924 0.22622438 0.78359210 0.04817968 0.00044392 0.18348069 -0.01311188 -0.10725386 0.04025613 0.48662522 -0.05507260 0.05698730 -0.04454910 0.01068419 0.13783081 0.44887438 -0.06009090 -0.04041481 -0.05779939 -0.17718130 0.30189431 0.03238811 0.03058044 -0.11908367 0.24813111 0.04070455 -0.01275082 -0.08429678 0.00374548 -0.34710288 -0.08295181 -0.09368698 0.03775839 0.08334105 0.33399811 -0.00850666 0.10536756 -0.33726487 -0.19156238 0.04353355 -0.29672149 -0.09031112 0.04668998 -0.10592343 -0.03400666 -0.05562302 -0.00777786 0.27090231 -0.16204588 -0.06712825 -0.47270507 -0.06684035 -0.24243562 0.07926327 -0.06570134 0.06955826 0.09229530 0.13883588 -0.03786024 0.01998350 -0.13190073 -0.11306200 0.71539098 0.02532856 0.03593794 0.15655614 0.23566347 0.20976712 -0.31163761 -0.23549634 0.43072611 -0.19485554 -0.11749777 0.10704564 -0.00134915 -0.02136726 0.32162514 -0.03210616 0.26989624 -0.13637096 0.01731061 0.28935331 -0.00832531 -0.04964490 0.00879593 0.20987967 -0.27266228 -0.12211809 -0.08837109 0.25429767 0.84180719 -0.52531201
-0.00349305 -0.09594521 -0.39089954 -0.24823913 -0.04602836 0.07002684 0.01228779 -0.03576303 0.09729119 -0.26461983 -0.31786120 0.10408876 -0.42026633 0.18427867 0.62445140 0.96492815 -0.59235996 0.33836275 0.10203741 0.15604292 -0.00650179 0.68298090 0.51002604 -0.04982336 0.42201436 0.59774983 -0.27533686 0.04241056 -0.12315942 0.13104945 0.14190516 0.10751588 -0.25711307 -0.30099753 0.00184588 -0.11649895 0.15664725 -0.04291391 -0.20245926 0.19129473 -0.01323854 0.20019838 0.08143166 0.01207284 -0.09853598 -0.23794067 0.00348192 0.28147382 0.22064166 -0.21294953 -0.04287653 -0.26017118 -0.00425464 -0.07843832 0.27898201 -0.04449384 -0.07713038 0.42065036 0.20211683 0.17157748 -0.09371691 -0.49981371 0.16288644 0.49112809 -0.07586651 0.24838340 0.01040720 -0.16572821 -0.01361755 -0.27174619 -0.40741161 0.01246727 0.09912482 0.38538426 -0.06215474 0.19855735 0.11786935 -0.03917006 0.01148363 0.18883359 -0.55382651 -0.02916175 -0.10548781 -0.35492930 -0.02500612 -0.18555364 0.61087030 -0.05072257 0.22235797 0.06229138 -0.14714599 0.24086227 0.10332361 -0.21760023 -0.08886421 -0.08552772 0.05831225 0.17058292 -0.53240961 -0.63294685 0.09238899 -0.06901830 0.06365466 -0.38395813 0.04402565 0.63949043 -0.15885334 -0.28852007 0.17292634 0.11249834 0.33342114 0.36161914 -0.37013060 -0.04955034 -0.39479843 0.14084929 0.09144595 -0.03270505 0.14990929 -0.11138707 -0.11400878 -0.21445158 0.50053948 0.00947740 0.00033241 -0.14157987 -0.75758332 0.20644686
-0.25913846 0.13335316 0.31094986 0.02370917 0.92500442 0.03438129 0.04477435 -0.05894580 0.35706308 -0.27616879 -0.14120610 -0.07534650 -0.17862630 -0.16338906 -0.01393422 0.01742846 0.11208613 -0.29933026 0.03365688 -0.20873603 -0.13478915 -0.09534591 0.19646852 -0.08831225 0.00222522 0.26152661 -0.20518129 -0.10947474 -0.12090091 -0.02780085 -0.81023318 -0.09639368 0.16867246 -0.01717124 0.05908275 -0.05788461 0.15294367 -0.15200129 0.24241073 0.24215627 0.10439325 0.02919429 -0.08546868 0.04452629 -0.72813880 0.38005546 -0.06888483 -0.05063979 -0.15466094 0.08925671 -0.08353575 -0.13457467 0.08000374 0.00225739 0.08691861 0.10980291 0.04200751 -0.20037530 0.02094156 -0.25323761 0.02421828 -0.02553609 0.03798332 0.30946410 -0.06168278 0.02814218 -0.14207861 -0.14265142 -0.00145436 0.33722135 0.01501004 0.02676860 -0.03027162 -0.06570721 0.35557497 -0.60468590 0.44600186 -0.02986045 0.09050804 -0.26972502 -0.07895309 0.05989920 -0.04894762 -0.03967888 -0.14870138 0.04375141 0.21023603 0.10033267 -0.16950123 0.06089225 -0.27063525 -0.03146654 -0.00662934 -0.01751243 -0.02642226 -0.06769976 -0.00263502 0.06783015 -0.02789154 -0.30028257 0.00570644 -0.00694831 0.18813151 -0.30201963 -0.10065880 -0.64713782 -0.14683014 -0.13172406 0.00419439 0.22806555 0.02599538 0.15435009 0.22422761 -0.12657760 0.16893195 0.16444880 0.16550432 0.31058332 0.01348609 -0.24503119 -0.15596901 -1.02901566 0.20038660 0.05562505 -0.01599593 0.27944314 0.08510426 -0.40321067
0.16493031 0.08320121 -0.69757336 0.12679538 -0.65717465 -0.04144911 0.08067362 -0.07512457 -0.37655213 0.22614811 0.02365820 -0.00616018 -0.29518923 0.17615531 0.03658525 0.12175304 -0.45255646 0.44837233 0.00602088 0.11538611 0.30138850 -0.08405910 -0.38453248 0.11861889 0.52137601 -0.23515065 -0.02199618 0.27895901 -0.15369383 -0.04608162 0.36831889 -0.33402798 -0.43769428 -0.01562322 -0.06611821 0.07747644 -0.02849182 -0.04378181 0.03353744 -0.16334385 -0.13723820 0.15285090 -0.00414531 0.05509342 0.55274212 -0.45363468 -0.18811715 -0.07183305 0.34967208 0.00458881 0.12886930 0.15449890 -0.20639049 0.08806562 -0.12794365 -0.32954040 -0.13319600 0.30864650 -0.03533471 0.11109444 -0.43656895 -0.01115098 0.43338859 0.15545596 -0.04242143 0.12687847 -0.12174801 -0.01764389 0.01364881 -0.29842198 -0.51324642 0.10452903 0.01546879 -0.15946320 -0.48660013 0.73259991 -0.46923143 -0.04698291 0.09855504 -0.02364305 0.13814051 -0.09746763 -0.08432097 0.21990511 0.32036299 -0.03083607 -0.05804789 -0.03355780 0.11586919 0.10341220 0.10866471 0.08421385 -0.07445296 -0.18649220 -0.05545471 0.00937399 0.25631765 0.05167557 -0.33245340 -0.30681908 0.01072148 -0.02231203 0.02843018 0.42864153 -0.22367308 0.75151050 0.11011375 0.09305856 0.07915735 -0.14915702 -0.13018195 -0.10637387 -0.30948594 0.03019519 -0.29979205 -0.00805499 -0.43116093 -0.12595792 0.00265079 0.09519439 0.06717196 0.82792783 -0.06968711 0.09728562 0.15222535 0.22656238 -0.40219277 0.06708096
0.00887559 0.13464455 -0.22804366 -0.07157621 0.78947294 0.00916353 -0.06347799 0.12968236 -0.09032779 0.03141919 -0.23169479 0.08737075 -0.05004478 -0.11819240 0.71542823 0.49497187 -0.17034169 0.04941236 -0.05392799 -0.48987222 -0.01425705 0.21643144 0.60320568 -0.00499097 0.97287935 0.28247005 -0.08015579 0.27051517 0.20275275 -0.04203886 -0.18416104 0.13781206 0.00182518 -0.25105578 -0.06634356 0.16935670 -0.02883531 0.08518873 -0.04659317 0.12513828 0.06502561 0.20825563 0.19179273 0.08407357 -0.23800385 0.22892644 0.08263694 0.02799292 -0.15318832 -0.16780548 0.03010879 -0.26351324 -0.01438755 0.04810605 0.28694806 -0.18936428 0.00477457 0.41644073 0.11648457 -0.13564277 0.63156617 -0.46430224 0.26774004 0.86671346 0.11332492 0.37240329 -0.01801581 -0.06429429 0.03372091 0.04039100 -0.10778359 0.08181478 0.04202057 -0.15166476 -0.00611036 0.30051339 0.60396719 -0.01908627 -0.03960480 -0.10570519 -0.75942129 0.09378235 -0.05982431 -0.18700354 -0.13720892 0.00487795 0.21210107 -0.07304044 -0.11515353 -0.03353339 -0.41753945 0.15067898 -0.12572858 0.13774472 0.12391938 0.19690794 -0.24125488 0.25267160 -0.19633150 -0.70341957 0.07726986 0.13587272 0.23907864 -0.35797596 -0.02479516 -0.11149090 0.01920119 -0.74333435 -0.08450811 0.17465663 0.36245966 0.71503723 0.05538950 0.00401631 -0.28954810 0.22240002 -0.15534656 0.11374610 -0.15289357 -0.09920210 0.00315940 0.02814935 0.06302118 -0.08586252 0.19841363 0.01944707 -0.46135131 0.01100271
-0.05240126 -0.04223497 -0.30896080 0.12838876 -0.59068930 0.08571307 -0.00323693 0.10469378 -0.04565468 0.30103946 0.02866321 0.01346851 -0.31796348 0.14415897 -0.23839991 -0.18322766 -0.55476826 0.10610030 0.04302549 0.14040542 0.36660379 -0.18560651 -0.36594364 -0.00063042 -0.56529272 -0.02891579 -0.14065728 -0.10969744 -0.05857003 -0.01945389 0.01415656 -0.24867553 -0.22118546 0.35025549 -0.02601979 -0.04273802 -0.00925571 -0.13097955 0.06060000 -0.16783351 0.05404976 0.03792764 -0.16724667 -0.01976083 0.02104964 -0.29481599 0.09598598 -0.14650394 0.38979608 0.07887017 -0.09169074 -0.06113690 0.10350671 -0.07066520 -0.22053625 -0.00804724 -0.00381420 0.02746898 0.11382757 -0.00732622 -0.84478474 0.26775351 0.25613439 -0.38726398 0.06520337 -0.03148358 -0.03005006 0.10620483 0.04432113 -0.13538340 0.00834851 0.06942780 0.14883521 0.27825770 -0.02792571 0.02899075 -0.54292506 -0.01354133 -0.00886864 0.06399121 0.75930345 0.07463984 -0.00936433 -0.13883896 0.47052476 -0.09253725 -0.09951789 -0.03612499 0.07445463 -0.06170867 0.25469762 0.21159808 0.25447947 -0.19706927 0.13199313 0.01859443 0.29151425 -0.27218488 -0.34057376 0.26786670 0.08785331 -0.12789957 -0.21166576 0.40271991 -0.32574797 0.68067551 -0.10437584 0.59993440 0.10996780 0.16714573 -0.24978827 -0.54233938 0.03431516 -0.27714980 0.21907437 0.05864128 -0.17090882 0.11373921 0.03786105 0.18488605 -0.16553728 0.23026098 0.28585052 0.05008268 0.02123725 0.22967207 0.15431906 -0.06028575
-0.05192637 -0.05879090 -0.59641439 0.07220280 -0.03126062 0.13107592 0.12248270 0.00770454 -0.42494661 -0.29377457 0.24752855 -0.05016351 -0.11023422 -0.08494799 0.21523252 0.20478554 -0.29779670 0.33257350 -0.12187000 -0.13429485 0.36519963 0.23195802 -0.21252540 -0.08548152 0.81991082 0.00644845 0.15304169 0.20318225 -0.15123144 0.13188958 0.10673279 -0.56807727 -0.26663929 -0.16164380 0.00995880 -0.05154889 0.05929085 0.05001558 0.30869445 -0.32393134 -0.16604841 -0.07094926 0.03901979 0.05034860 0.50774097 -0.31813273 0.00322572 -0.02167614 0.35802802 0.04884594 -0.01343642 0.20940860 0.03888990 -0.07547235 0.02158362 -0.23771371 -0.06327761 0.38837168 -0.03730917 -0.01418437 -0.02302516 -0.18988067 0.89293075 0.80189103 -0.03720297 0.46377096 -0.05431537 0.03272033 0.02902020 -0.21981296 -0.23651414 -0.15470186 -0.00708438 -0.34353116 -0.95697004 0.51211274 -0.09273494 -0.03783310 -0.02631477 -0.40091982 -0.23230086 0.11148465 0.03684337 0.17983858 0.51795280 -0.04673060 0.09607928 0.12863114 0.04829253 -0.11104964 -0.32041591 0.10259694 0.11312295 0.08331720 -0.03687170 0.06792213 -0.14487861 0.11910864 -0.36227182 -0.56491828 0.12270582 0.02191387 0.21841793 0.13083172 -0.30084524 0.24789043 0.34729275 -0.16497435 0.01123844 0.21976779 0.04987682 0.14805000 -0.06090735 0.43293300 -0.33908361 -0.03612263 -0.49174854 0.26774892 0.00319262 -0.11656666 0.03873114 0.58637846 -0.32090971 -0.03461608 0.35085306 0.47034606 -0.22348082 0.04520958
-0.03306838 -0.14336671 0.27824363 0.00887441 -0.60538071 -0.02289307 -0.00559522 0.01155597 0.23845766 0.53627717 0.02079696 0.18500809 -0.48220980 0.23632225 -0.33693579 0.01790229 -0.35581878 -0.06994778 -0.00452800 -0.11117032 -0.27071133 -0.30963126 0.38579598 -0.11717606 -0.97685909 0.26540062 -0.15042952 -0.15346077 -0.04816893 0.10973681 0.16386078 0.20877653 -0.01305021 0.28578085 0.11836903 -0.08927706 0.07308677 -0.18359597 -0.33125809 0.46531743 -0.01852640 0.31897303 0.09795840 -0.11905637 -0.40677133 -0.25513074 -0.11405428 -0.00099763 -0.20549917 0.11779995 -0.10029508 -0.29878601 0.03202910 -0.16558100 -0.10058559 0.28258479 -0.11106567 -0.33816642 -0.07325756 0.01508009 -0.56984437 -0.11231171 -0.16447085 -0.92442417 -0.08738783 -0.33638531 -0.08213072 -0.13836321 0.04473922 0.04975657 0.01211964 0.00594492 -0.02813994 0.49629861 0.73904872 -0.50417709 -0.20712090 -0.14605147 -0.00837801 0.23906346 0.43710819 -0.02092095 -0.12646580 -0.08734034 0.16468830 -0.08267461 -0.02593461 -0.11359081 0.20780768 0.04647993 0.66895223 0.45950890 0.07927788 -0.07811654 0.10224130 0.15761277 -0.10857693 -0.14316083 -0.18495041 0.40591916 -0.02584238 0.10023920 -0.09421882 0.06080025 0.15882763 0.33414233 -0.21856390 0.40712503 0.06938972 -0.16199738 0.12690039 -0.40546066 -0.21385942 -0.77990139 0.54874671 0.02215267 0.59803528 -0.03341670 -0.04963676 0.15199924 -0.07260469 -0.30117339 0.36497885 -0.02918474 -0.33594704 -0.17921813 -0.11668667 0.07565985
-0.12136660 -0.21795990 -0.48024932 0.05501526 -0.18023349 0.12645984 -0.00392621 0.10617259 0.02370401 0.14485060 0.11986192 -0.03721158 -0.27489057 -0.00423913 -0.33592916 -0.21624458 -0.78302711 0.31927499 0.06521327 0.06343637 0.50229985 0.12500501 -0.11321155 -0.07175802 0.17980161 -0.10887893 -0.25247714 -0.13469554 0.15190557 -0.02283526 -0.39957526 -0.47687402 0.10363634 -0.00963606 0.08972487 -0.15459888 -0.03595071 0.14202709 0.15027785 0.12445229 -0.01863270 0.03574507 -0.08349732 -0.03731756 0.04182335 -0.24752021 -0.06662015 -0.21050441 0.54198104 -0.00221720 -0.02781226 0.11217368 0.06740317 -0.01583170 -0.14272776 0.19215003 0.00367726 0.03832438 0.05100780 -0.07899735 -0.76545215 0.09895112 0.92505872 0.10928794 0.05219260 0.14426628 0.08499912 -0.11709291 -0.07993843 -0.00260717 0.00808765 -0.07568222 -0.06752919 0.11029178 -0.46724680 0.03492016 -0.34349081 0.02989012 -0.04364030 -0.21092387 0.55694264 -0.04301274 -0.20694491 -0.10967434 0.93805063 0.00837240 -0.20286745 0.01027959 -0.13164295 -0.00318026 -0.28496698 0.23842900 0.08901463 0.04359497 -0.02841174 -0.07196032 0.01343940 -0.12317977 -0.49551427 -0.30304772 0.13631004 0.02881194 0.00378434 0.12718526 -0.32883474 0.34823489 0.01288976 0.63702059 0.00630361 0.18966460 -0.04268850 -0.39104822 -0.16249053 0.09865013 -0.12748486 0.21798310 -0.25220731 0.65950418 -0.02695579 0.11852266 -0.13390024 0.39236656 -0.00185717 -0.00638050 -0.02056719 0.39822754 0.04037288 -0.05623820
-0.06563895 -0.01218085 0.12472620 0.01085318 -0.25967258 0.01789783 0.08272916 0.12574346 0.02752708 0.14048956 -0.39806935 -0.08657966 0.13728772 0.26268217 0.12720250 0.10230853 -0.08920179 -0.12000311 -0.06385423 -0.01726186 -0.55168188 -0.43884167 0.13481572 0.09553076 -0.36799097 0.26028183 0.02582680 0.15881807 -0.11768115 0.00217619 0.27602810 0.43167505 -0.32190457 -0.09038655 0.03663443 0.04043805 -0.07514881 -0.15106201 -0.31748623 0.15670888 -0.09690313 0.46495065 -0.01251839 0.00650474 -0.25749484 -0.24260959 -0.03020528 0.11575896 -0.23410326 0.02977607 0.00265555 -0.09275927 -0.05194521 -0.07739954 0.12969340 0.03986939 0.04525892 -0.11541131 0.14510433 0.05092108 0.12782510 -0.08074061 -0.63255268 -0.46135026 -0.03378918 -0.38839549 0.09175535 0.17576225 -0.09784502 0.00498874 -0.20628348 0.02265293 0.00000365 0.19024791 0.50406945 -0.01563720 0.04355239 -0.02904844 -0.04723546 0.10435437 -0.11750713 0.06346164 -0.02629502 0.15230030 -0.53572583 -0.16516338 0.12410033 0.10544364 0.12285548 -0.01502612 0.50982851 0.18355516 0.12763754 -0.10387127 0.08762512 -0.08329657 -0.09093713 -0.32881343 -0.06669427 0.06793725 0.10852002 -0.02759521 -0.01469130 0.16962811 0.37604502 0.24723062 0.05816797 -0.22419997 0.02007437 -0.11869951 0.10971522 0.14683373 -0.23814481 -0.20978478 0.44432232 -0.07111201 0.53113693 -0.28464991 0.05848745 -0.00772616 -0.04085260 -0.21553726 0.20116572 0.03499122 -0.24424715 -0.63806725 0.01164515 -0.12902720
-0.14659482 -0.24477552 -0.25458887 0.05873905 -0.04021494 0.04516715 -0.07441170 0.03699584 0.19442444 0.43660557 0.12644494 0.26089153 -0.59337682 0.01967532 -0.00904745 0.14527738 -0.75169820 0.26780468 0.03102570 -0.05906198 0.21890981 -0.21028610 0.30052990 0.03778875 -0.45514041 -0.03441862 -0.27081093 0.16940236 0.34755954 0.03033504 -0.15261272 -0.05020931 0.04547432 0.20944841 0.01732633 0.18456204 0.13851514 -0.21761563 -0.06783481 0.37157208 0.12021623 -0.02305502 0.04581960 0.06321471 -0.31206578 -0.24815159 0.13641061 -0.07391848 0.16898876 0.02216355 0.07538430 -0.22217868 -0.01910759 0.11723664 0.04253451 0.26728898 0.26141900 0.11631975 -0.16900107 -0.07429962 -0.77369523 -0.08655150 0.57267898 -0.29182243 -0.01154680 0.04800573 0.10088883 -0.13634814 0.01942477 -0.05689266 -0.00219401 -0.02077065 0.10946704 0.29901108 0.37826651 -0.35539684 -0.20805134 0.06079758 -0.09984883 -0.02002437 0.27649507 0.00697218 0.00962134 -0.29590914 0.80557644 0.02110834 0.00381763 -0.04899503 -0.15392369 -0.02560999 0.32239023 0.50957978 0.16604522 -0.02297522 -0.14616801 0.09479353 -0.19801727 -0.18670207 -0.51550698 0.11126452 -0.00472645 -0.01408322 0.12761341 -0.22339097 -0.01004233 0.38468474 0.06224484 0.57276171 0.21658543 0.09030169 0.31395391 -0.29356763 0.02515993 -0.54974455 0.27293465 0.16059858 0.18860206 0.62275314 -0.07471832 0.55555993 0.09068971 0.01799563 0.27118167 -0.05819555 0.07351848 0.30912992 -0.18935589 -0.10239287
-0.03777815 0.22325565 0.21851686 0.02929765 -0.26464596 0.13379982 0.17605761 0.02212686 -0.27294701 -0.21013273 -0.40036333 -0.09264795 -0.05400287 0.01500204 -0.05357253 0.13144802 0.15539984 -0.40993080 0.00150428 -0.01379097 -0.53227502 -0.22672866 -0.04613638 0.10053924 0.15234959 0.13516340 0.37026292 -0.06554487 -0.22235344 -0.03005432 0.29112029 0.01953479 -0.31803676 -0.00409511 -0.02746850 -0.00090525 0.11241795 -0.02054153 -0.19699903 0.01229479 0.01138751 0.45715973 -0.09818462 -0.02240667 0.27225682 -0.09555068 0.13377193 -0.12982540 -0.17926878 0.07620803 0.01856871 -0.09947329 -0.10691983 -0.11082613 0.06232673 -0.25666603 -0.16594417 0.14531666 0.07689913 0.03826388 0.40489992 -0.07738277 -0.64179772 -0.18011893 0.00642646 -0.18666948 0.04730023 0.04503667 0.05521002 0.10974184 -0.00826344 0.06172604 0.21294852 0.14995189 0.01504558 0.40935174 0.14156125 0.01330585 0.01635488 0.21160330 0.13237835 -0.00944080 -0.01921649 0.26280746 -0.87063837 0.00497790 0.17682829 -0.01883623 0.11726268 -0.01130157 0.42256081 -0.23012847 0.04189012 -0.08966053 -0.09677091 0.02893046 -0.13898617 -0.06517733 0.00059680 -0.03481630 -0.01218823 0.04469534 -0.12351392 0.40951681 0.19530654 0.18799815 0.10982341 -0.26955935 -0.30679843 -0.17196466 -0.11314044 0.26223940 0.01391475 0.16678385 -0.02693301 0.03097364 0.18885233 -0.53054774 0.03377094 -0.35910985 -0.26674867 0.02024988 0.26141050 -0.07100306 -0.46392220 -0.52126598 0.20955408 0.08148540
0.15948543 -0.04208217 -0.31689999 -0.02386673 -0.18814985 0.16862120 0.02884299 0.01940863 0.04146755 0.46087110 0.09023762 0.00917382 -0.47278136 0.23588702 0.12543634 0.07402454 -0.33678290 -0.10117847 0.10006123 -0.41717488 -0.35258985 -0.33049968 0.41641253 -0.16658325 -0.47971889 0.28759575 -0.22173429 0.32597962 0.35010830 -0.12101438 -0.05553672 0.10851597 -0.12182337 0.12070446 -0.13671696 0.18024354 -0.14151821 -0.15790136 -0.26540685 0.40844882 0.13515283 0.40027937 0.09037445 -0.09684476 -0.25944498 -0.18167648 -0.13221805 0.10597269 0.07230093 -0.09254613 0.10550982 -0.20638613 0.01646092 0.22058910 0.08717424 0.21339063 0.10843772 0.15920168 0.09186456 0.18935151 0.10372618 -0.40627745 0.36840332 -0.64871532 0.00883009 -0.07761621 -0.03727099 0.06794834 -0.01360338 -0.00924247 -0.02929221 -0.14381410 -0.01439987 0.16964000 0.71404308 -0.12060998 0.07089391 0.16480467 0.00838889 -0.06272787 -0.02571829 -0.15260133 0.06193951 0.20633668 0.19392478 0.17669407 0.19809821 0.07090439 -0.20112340 -0.11020703 0.25839871 0.69873363 -0.02292259 -0.06343700 0.06633911 0.14494854 -0.26254725 -0.31456050 -0.14002205 -0.16921914 0.02674708 0.12692207 0.06971336 -0.10619183 -0.02404905 0.24552196 -0.10376430 0.44788319 0.00406136 -0.07352684 0.38371563 -0.06963036 -0.22421071 -0.40369231 0.59337395 0.21507743 0.50160390 0.10480969 -0.21215886 0.18254986 -0.36095127 0.01384403 0.22838148 0.00184916 0.01044506 -0.22080749 -0.18412507 0.12010173
0.02393274 0.09256618 0.24726777 -0.06486230 -0.23596171 0.02815870 0.01510755 0.08629265 -0.10222726 -0.05054259 -0.40471986 0.06482539 0.12884107 -0.13146473 0.05568380 0.00175608 -0.00139948 -0.26206627 0.16792217 0.05453121 -0.08078042 -0.17529069 -0.17544042 0.02977924 0.17440234 0.00022540 0.27234051 -0.21416272 -0.12076207 0.06640492 0.20416354 -0.09228007 -0.41262916 -0.07623759 0.10184552 -0.28412166 0.00589373 0.04239744 -0.03578348 -0.44453928 0.08997601 0.33208752 0.02785798 0.03361007 0.04830132 -0.05308415 -0.00343986 -0.06280641 -0.23055983 0.30538189 -0.10937215 0.20607761 0.08717287 0.14192697 0.09924974 0.03538608 -0.36069980 0.01468497 0.04836918 -0.13861467 -0.01198684 0.12144239 -0.50536305 0.20982035 0.08790968 -0.20280966 0.07005036 0.05735268 0.02589370 0.08914126 -0.00885267 -0.08883343 0.07076018 0.00115845 -0.23724702 0.35242152 0.03347432 0.06327464 -0.10059129 -0.03223745 0.12438338 0.20858894 -0.16970383 -0.05350121 -0.68918651 -0.07834002 0.17653716 -0.16387855 0.10362493 -0.06362558 0.01946522 -0.29816520 -0.00367872 -0.09590378 0.11926308 -0.04515087 -0.15101528 0.06234916 -0.10888114 0.04675462 0.06551494 -0.16608256 0.15017819 0.58803469 -0.01078482 0.00073961 0.14836374 -0.33158988 -0.07356626 0.22038871 -0.00651629 0.14813276 -0.20772316 0.25294933 -0.10483044 -0.19768503 -0.10208359 -0.42494619 0.13589209 -0.49811280 0.11616948 -0.14011106 -0.27343488 0.03758286 -0.40653709 -0.12554775 -0.07837914 -0.02850356
-0.06199609 -0.09893267 -0.27075511 0.11526624 -0.21072964 -0.18160111 0.07863030 -0.13826734 -0.32497770 0.29568213 -0.27062199 0.08540367 -0.27822593 0.17006166 0.23535909 0.25171757 -0.10044716 -0.27685848 0.04392211 -0.13343285 -0.79126126 -0.18658723 0.31545359 0.05302911 -0.17629318 -0.02717442 0.27779126 0.24914786 0.25372005 -0.09509954 -0.03631010 -0.18920401 -0.06854331 -0.13193673 -0.06321299 0.24996512 -0.05168900 0.05953513 -0.34086686 0.30182305 -0.03945382 0.71350074 0.00032103 0.01874588 0.01700633 -0.21925248 0.06708659 0.00027056 -0.05262461 -0.00143909 0.01071445 -0.01926602 -0.03365564 0.12059350 -0.08684920 -0.04098323 -0.00087603 -0.01963805 0.11251904 0.11504767 0.24634922 -0.23126698 0.07506443 -0.54354268 0.07670152 -0.04369585 -0.13483970 -0.05222047 0.06978623 -0.05845573 -0.04553907 -0.08182300 -0.09534404 0.13553894 0.54531670 0.39516610 0.15679039 0.09034574 -0.08027229 -0.09137057 0.08825641 -0.04946154 -0.18008493 0.47061157 -0.12706847 0.09657041 0.12283546 -0.03596139 -0.22502317 -0.03304109 0.49373576 0.23225859 0.07840417 0.00241926 0.04518498 0.13201196 -0.32301369 -0.36603346 -0.26504806 -0.38501191 -0.14387508 0.07703339 0.08638348 0.20278981 0.13770775 0.39171153 0.21409537 -0.01050659 -0.11542105 -0.14517383 0.10738140 -0.02826605 -0.11057313 0.08936353 0.51828015 -0.05422327 0.31069657 -0.36187437 -0.28884307 0.01248756 -0.32241964 0.10222536 0.46647394 0.03211967 -0.00057426 -0.36861542 0.05119897 -0.21041670
-0.11942086 0.17257507 0.26360482 -0.09980633 -0.25553301 0.03773066 0.01879729 0.14033660 0.25497964 -0.04491391 -0.42490262 -0.15251006 0.07930949 -0.14407094 -0.17964527 0.10091389 -0.10622631 -0.11024561 0.06977820 -0.04657201 0.31066114 -0.16212733 -0.23498054 -0.04409110 0.18055309 0.09529345 0.28652066 -0.01447042 -0.08892836 -0.03321953 -0.03470352 -0.09114210 -0.00045077 -0.07967719 0.03842562 -0.19073853 -0.12204786 0.09206852 0.01483801 -0.30082434 0.03209580 0.19728869 -0.05094519 -0.07739341 0.05380838 0.02529936 -0.06918272 0.01163852 -0.05962541 0.00557212 -0.07043665 0.14417171 0.08271290 0.08649419 0.07451174 -0.16980538 -0.41756353 0.00629435 -0.18260160 -0.08248442 -0.19644234 0.27101994 -0.55388314 0.37881655 -0.04992365 0.01025077 -0.03596827 0.04366557 0.17429626 0.12430419 -0.02506233 0.08023994 0.02426144 -0.16815174 -0.40849289 -0.13922122 0.01197325 -0.09662131 -0.07714958 0.23895805 0.24434586 -0.12286384 -0.22587134 -0.23049465 -0.55371904 0.07283550 -0.03047731 0.05591273 0.28232929 0.01304405 -0.08584414 -0.34309870 0.06243723 -0.07715346 -0.09404036 0.06107142 0.11999784 0.21183562 -0.32235160 0.04718072 0.07927294 0.12364712 -0.04395711 0.47603121 0.04857035 -0.02347672 -0.04422040 -0.16558433 0.04344268 -0.09077574 0.05243980 0.17069559 -0.11087456 0.06485251 -0.32091081 -0.02237844 -0.24850932 -0.03147049 0.06261405 -0.07575601 0.10742703 -0.17475030 -0.19658208 -0.08337056 -0.57717556 -0.12099099 0.29731277 0.07289249
-0.09531128 0.13243061 0.03426739 0.02902752 -0.30338839 -0.07459439 -0.06447113 0.04605623 -0.45819241 0.12131976 -0.47020671 0.00582070 -0.19122010 0.06526763 0.20353641 -0.03207026 -0.19879167 -0.21573299 -0.01618940 0.02964665 -0.68085283 -0.13257018 0.05411240 0.11682527 0.04494848 -0.07488357 0.10908747 -0.16087438 0.00624017 -0.01470146 -0.01565730 -0.31158802 -0.44147256 0.01005040 0.05139945 -0.03076781 0.00481006 0.06862384 -0.11066239 0.09358694 -0.08414140 0.53309017 -0.01163111 0.05085478 0.13417606 -0.19146931 -0.12287096 -0.15757409 -0.11712491 -0.10839555 0.14173234 0.14560957 0.04284812 -0.10725762 -0.22639167 -0.11343326 -0.09023742 0.12961745 0.11227046 -0.00561231 0.24210963 -0.12281490 -0.06686259 -0.16800354 0.06560291 -0.00150717 -0.12383327 -0.14520757 0.03945176 0.10933936 -0.18011434 0.10991158 -0.08300778 0.01390435 0.01730794 0.35530075 0.02231871 -0.13284364 0.03727562 -0.13484162 0.09099043 0.07658299 -0.05965600 0.39263853 -0.40940166 0.10390942 0.23721607 -0.14180444 -0.09291854 0.02449870 0.39272454 0.07162325 0.17564847 -0.11368402 0.06569361 0.08872468 -0.16112925 -0.37290719 -0.27392316 0.01477187 -0.10357122 -0.00757981 0.04994930 0.17184567 0.13937587 0.23691724 0.26700139 -0.25991166 -0.13031824 0.17331958 0.11257678 0.12541871 -0.02552517 0.34928972 0.43323755 0.05758277 0.27991748 -0.22289789 -0.07145359 -0.39714506 -0.10512904 0.09438317 -0.03663017 -0.07958703 -0.22104840 -0.28900763 -0.10944593 -0.23218670
-0.16718687 -0.09453529 0.43706843 0.05288832 -0.07779611 0.07217312 -0.12908599 -0.11317883 0.53411025 -0.01372682 -0.13341907 0.09966619 0.05667594 -0.16042046 -0.00145281 0.23865741 -0.04022769 0.09139208 -0.12369464 -0.24581763 0.55277109 -0.09105092 -0.08577636 0.01825650 0.10326000 0.17504627 0.21801661 0.07315038 0.00929087 -0.13262509 0.10417882 -0.08409150 0.14664404 -0.11021091 -0.04618678 -0.04819685 0.07357077 0.06026098 0.21312322 -0.23750967 -0.09969521 -0.18923731 -0.07034881 -0.00374128 0.04293736 0.16875818 -0.08749563 0.12027400 0.08203007 0.00353830 0.10441982 0.07718461 0.16417275 -0.06977531 0.11602376 -0.05796758 -0.43965492 -0.18883121 0.05596592 -0.00897839 -0.19389842 0.20635921 -0.28743288 0.22812423 -0.07860835 0.06380399 -0.09001584 0.13328242 -0.11846010 0.06292268 0.15659772 0.00373222 0.00787463 -0.11348911 -0.21162142 -0.21361335 -0.17375050 0.09084909 -0.04206394 0.33417374 0.13897946 -0.16573682 -0.02295952 -0.25963578 -0.31295583 -0.12142394 0.01809066 -0.04385518 0.24079245 -0.07769862 -0.16615826 -0.17142710 0.08568765 -0.16675574 0.14308453 -0.10867756 0.11237361 0.37350538 -0.10853986 0.00028520 0.21640365 -0.02758471 -0.10728674 0.22422625 0.20756292 -0.10471454 -0.24911013 0.05696938 0.02829995 0.02443990 0.08365064 0.12556410 -0.06008700 -0.11144911 -0.47265616 0.16730340 0.00292276 0.24219646 0.01665237 0.10296324 -0.18021925 -0.02629583 -0.04267623 -0.04946785 -0.32354161 0.00646839 0.35175005 0.17983857
-0.00952208 0.03450784 0.24988969 -0.18738614 -0.30215004 -0.02547260 0.00551821 -0.11510690 -0.15382053 0.19522308 -0.18282107 -0.14181207 -0.10096735 -0.23836832 0.01949216 0.15071231 -0.17473240 -0.35490218 0.14483617 0.10579309 -0.30379656 -0.20696993 0.05758830 0.35943452 0.25830773 0.06346454 0.18857138 -0.04191168 -0.06570380 -0.16159341 -0.01168742 -0.24322194 -0.27522835 0.03745640 -0.02794792 -0.09893540 0.08685093 -0.04240441 -0.11802045 -0.07928316 0.07932388 0.45677283 -0.16145821 0.09435710 0.19070588 -0.16824985 0.13330360 -0.03348114 -0.08131221 0.07889068 -0.03488661 0.03591434 0.07403430 0.15606706 0.03420735 -0.25805122 -0.26806858 -0.15449622 -0.13274089 -0.01234384 0.03404691 0.03106873 -0.14852248 -0.02763161 -0.16687858 -0.03624383 0.00975544 0.04709535 0.04641474 0.07223541 -0.04299925 -0.05921936 -0.05643360 0.24358290 -0.29754132 0.13585538 0.12483243 0.07513793 0.02627713 0.15179393 0.33433083 -0.08296679 0.17461178 0.37323591 -0.32916385 0.02713176 0.11206630 0.03690082 -0.17145668 0.02381024 0.11157715 -0.00763467 -0.13296194 -0.20885888 -0.11353741 0.13932304 -0.06260423 -0.15122880 -0.26370215 -0.21672538 -0.04003469 0.00945916 0.03874971 0.57545948 0.09297824 0.35016558 0.14781584 -0.21130696 -0.12969312 0.00728962 0.04565882 0.09966546 -0.15064937 0.20631094 0.24966215 0.04121012 0.19885299 -0.11924148 -0.14208871 -0.36517173 -0.07773152 -0.11940903 -0.09253986 -0.11031406 -0.33072793 -0.10403645 0.22307217 -0.03726103
0.12354822 -0.13666894 0.35334352 0.16189972 0.06816745 0.10785390 -0.02626526 0.10105449 0.47242442 0.10263297 0.00509618 0.09658280 -0.00510422 -0.20858464 0.15236790 0.07257620 -0.03588321 0.04051828 -0.07430863 -0.10959932 0.67541802 -0.20958710 0.01245381 -0.02056505 -0.01035313 0.29171944 0.06150445 0.30302781 -0.18960805 0.09199547 0.12629806 0.13562419 0.20527263 -0.15760331 0.01231983 -0.03098885 -0.07975712 -0.04067625 0.06858320 -0.36201990 -0.11381766 -0.16497928 0.04795833 0.05424568 -0.04448948 0.24343434 0.03290780 0.08155472 -0.03149958 -0.03488391 0.01253055 -0.03498353 0.00024608 0.00753835 0.25901166 0.03600690 -0.18506032 -0.31932864 -0.12378876 -0.09077998 -0.26077950 0.10739706 -0.15047230 0.20022026 -0.02443458 0.05064509 -0.05693550 0.30846292 0.04432609 -0.05037013 0.06449740 0.13458282 -0.01058705 0.04187611 -0.22003889 -0.31825945 -0.25678921 0.08264726 -0.06160888 0.24207853 -0.10357435 0.13030663 -0.15840268 -0.27544475 -0.10652038 0.00901012 -0.12956841 -0.15054810 0.06424172 0.01312894 -0.18706451 -0.16843805 -0.02351029 -0.03284765 0.16657574 0.14613168 -0.02490311 0.31827447 -0.04420704 0.26900020 0.06119017 -0.12473189 0.02076976 0.09246637 -0.10073611 0.00783503 -0.15643831 -0.13927703 0.01656296 -0.04522149 0.09920878 0.05255805 0.01521891 -0.47037271 -0.57746971 0.14021470 -0.17267011 0.33261570 -0.18603750 0.19262128 0.00236813 -0.14310469 -0.14403342 0.06239230 -0.29646757 0.06848494 0.15370250 0.31624365
-0.12887831 -0.12055773 0.31632605 0.04665948 0.00854047 0.08606483 0.02506942 0.02212462 0.05085529 0.13821149 -0.29591799 -0.14344469 -0.15016162 -0.17557001 0.17237993 0.18018432 -0.38259026 -0.16211690 0.02234508 -0.00111316 -0.25083238 -0.20762360 -0.08068738 0.23845036 0.16576408 -0.01931962 0.06182728 -0.25031891 0.23755710 -0.18192886 0.08372328 -0.09475465 -0.18439554 -0.04001025 0.12895474 -0.07176893 -0.13985009 -0.20646670 -0.05917053 -0.14554049 0.03680130 0.44621852 -0.22478820 0.01047225 -0.06219257 0.07692820 0.01493949 -0.12198450 -0.00105406 0.05371285 0.02942037 0.24759941 0.03160635 0.01550864 -0.04695726 -0.13593437 -0.32747760 0.02093835 0.08401522 0.08812244 -0.03248544 0.05375832 -0.04781602 0.10726589 -0.01958898 -0.09003773 0.02288067 0.03692587 -0.16629216 0.00733339 -0.16202295 -0.15379067 -0.01765051 0.14603807 -0.26340076 0.04170689 -0.06206892 0.09834750 0.08551240 0.05744800 0.15889134 -0.12510547 0.16476636 0.24159715 -0.39802206 0.05883628 -0.01575690 -0.12717667 -0.00616590 -0.01721525 -0.06477129 -0.00317395 0.11859697 -0.03949065 -0.00673087 0.02046623 -0.17262337 -0.06874236 -0.29593387 -0.05922174 0.05976454 0.18720502 -0.06619469 0.25519329 0.05522371 0.09693040 0.17514242 -0.10478633 -0.10000989 -0.00932284 0.16142385 0.01530678 -0.05616487 0.03363791 -0.05505469 0.26879171 -0.02909267 0.23950361 0.16964795 -0.27937835 0.03124334 -0.06437319 -0.20822828 0.01468094 -0.52124411 -0.29825628 0.23160946 0.09530950
0.06603275 -0.05094460 0.11167318 0.09318830 0.09052752 0.16831988 -0.03354500 0.10488389 0.15510039 0.07781708 0.14360926 0.02967404 0.15310143 -0.17120166 0.06740393 0.21942379 0.03098510 0.02258899 0.06739209 -0.01903836 0.46466672 -0.11613794 -0.08850960 -0.05015079 -0.24255311 0.12999432 -0.08687891 0.21567155 0.05589336 -0.04757057 -0.03317069 0.07248020 0.30030912 -0.04659560 -0.04288815 0.03835227 0.04887959 -0.08962506 0.01569170 -0.17888279 0.07651442 -0.28527761 0.08209019 0.18507563 0.02440238 0.11384580 0.03798461 0.14372319 0.17533730 0.02930483 -0.01655436 -0.01243128 -0.02087304 0.02711649 0.14867868 0.09541322 -0.29584104 -0.07147188 0.03193501 0.13000952 -0.14707014 0.18014076 -0.12529805 0.01318709 -0.02492309 0.08942410 0.02413750 0.10682242 0.07797384 -0.05535512 0.10523579 -0.01905001 -0.01601330 -0.13656250 0.01140454 -0.19293530 -0.02692140 -0.09702722 0.06842372 0.25851837 0.05391698 0.03021140 -0.02009154 -0.28898603 0.00405330 0.18508266 -0.04289183 -0.01495233 0.13090782 0.02372148 -0.23756891 -0.14194439 0.04268260 -0.14564103 0.08967925 0.06568224 -0.07123854 0.11001229 0.09646458 0.21701895 0.11151438 -0.15861529 0.00954093 0.03180351 0.06459578 0.03996075 -0.20271455 0.04361162 0.20865011 -0.04861084 0.09046067 0.20680626 -0.12474689 -0.45736620 -0.39928579 0.08469364 -0.03620370 0.14166555 0.04120246 0.03373972 -0.03804651 0.01012168 -0.10363177 -0.05206893 -0.13509676 0.20879719 0.12268317 0.10115655
-0.00538387 -0.13761804 0.41216290 -0.03755436 -0.24408703 0.01235014 -0.08900923 -0.11262809 0.30628088 0.58546674 -0.42697009 -0.04926040 0.01311084 -0.47965214 0.09762125 0.23417802 -0.63166434 -0.16508462 0.12066551 -0.18098052 -0.00259317 -0.34522703 -0.19303483 -0.03516211 0.34246978 0.23735456 0.12730747 0.09068678 0.14142078 -0.05491173 -0.16031052 -0.14840320 0.05043610 0.00485285 -0.05926486 -0.09956817 -0.14675306 0.09359756 -0.00031315 -0.13753106 0.13087618 0.49552536 0.16018790 0.01820434 -0.10782862 0.16094781 -0.06646018 -0.06684633 0.00626540 0.15984461 -0.01768009 0.20604859 -0.03119171 0.09703290 -0.13488628 -0.07815458 -0.41122547 0.00235493 -0.04508194 0.03958637 -0.21588089 0.19554190 -0.27731013 0.19238548 0.12206611 -0.03510278 -0.15061325 -0.00846718 0.08756979 0.00778063 -0.22576106 -0.14220397 0.01893890 0.05716370 -0.24088034 -0.04748134 -0.25695220 -0.03140023 0.00733212 0.12836921 0.29489133 0.01375844 -0.17552418 -0.20127642 -0.42502317 -0.14102523 0.08722820 0.05498770 0.10487990 -0.18613940 -0.13261856 -0.26103210 0.10841650 0.02432990 0.05251788 0.04230898 -0.38832819 0.09675442 -0.44334960 -0.04127901 0.11678570 0.03531290 0.07679188 0.30238697 -0.08390231 0.28153506 0.17032500 -0.09217775 -0.35064352 0.24480200 0.40608034 0.15872425 -0.19868131 -0.10660183 -0.21400875 -0.17450161 0.01579083 0.33949721 -0.12538874 -0.01732931 -0.10177207 -0.27569982 -0.28375876 0.10675398 -0.72116268 -0.03961068 0.28075200 0.17112269
-0.03933648 -0.03318629 -0.02398623 0.00153372 0.17794377 -0.03491472 0.17699854 -0.04654781 0.25387645 0.18204504 -0.00392013 -0.06824119 0.19102108 0.08591761 -0.13362303 0.15251108 0.04110068 0.13490732 0.11369152 -0.08463433 0.36115107 0.04008307 -0.10578226 0.06279172 -0.04731742 0.01544419 -0.12207611 0.17583807 -0.02349545 0.10001283 0.04541268 0.12478486 -0.03700227 -0.05908517 0.04389582 -0.08149391 -0.02309478 -0.04703290 -0.06893867 0.01599926 -0.07010695 -0.23144248 0.14570947 -0.09796080 -0.10861881 0.12529732 0.10767798 0.12283349 0.05001092 -0.20531599 0.00182657 -0.07980850 -0.03457995 -0.08934819 0.19798511 -0.00994296 -0.06707820 -0.20233397 -0.05283432 -0.09551076 -0.05297305 0.13697034 0.02843467 0.08451137 0.12464818 -0.15123542 0.01930499 -0.05917074 -0.11629065 -0.07612936 0.02098443 0.04362990 0.06169951 -0.00147010 0.02187702 -0.19992989 -0.15446763 0.01576866 0.03465259 0.10843388 -0.12354296 -0.03638990 -0.01433914 -0.16154712 0.01945807 -0.03463192 -0.03069228 -0.00197249 0.04313294 -0.12974980 -0.17040572 -0.04249755 0.00863459 0.17386174 0.10242172 -0.04319947 0.01255983 0.23373677 0.01303407 0.20011108 -0.13425624 0.00804208 -0.04067976 -0.11360742 -0.00531646 -0.07282412 -0.24405092 -0.09672109 -0.09239208 0.07093256 -0.09105752 0.02334196 0.06431071 -0.27302498 -0.26014522 0.01723888 -0.10054021 0.26327085 0.11888663 0.23432384 0.06022946 0.14138149 0.08619788 0.04241158 0.02872280 0.03699471 -0.03687505 0.04027182
0.01220372 -0.18094027 0.33379516 0.00967423 -0.03707780 -0.06238808 -0.06714799 -0.11172055 0.24969028 0.43886817 -0.28811324 -0.05562788 0.05718482 -0.20408943 0.00495419 0.31386232 -0.56728566 -0.33749211 -0.08030634 -0.29192981 0.16552198 -0.34156865 -0.03832652 0.00922508 0.21128565 0.30836961 0.22198796 -0.04971579 0.20303293 -0.06345665 -0.01729956 -0.11955558 0.03780408 -0.00228097 0.10299335 -0.22160630 0.12172166 -0.01961205 0.08032643 -0.15625021 -0.10549633 0.36834601 0.03742792 0.04299950 -0.16602246 0.05980485 0.01450637 0.18827288 -0.17170319 -0.04321988 -0.01892081 0.05754386 -0.07438175 -0.06968881 -0.04911903 -0.12761287 -0.40353879 -0.20495391 0.00011719 -0.04592710 -0.20316401 0.22026995 -0.08673890 0.21412748 -0.19533947 0.04752824 0.03210220 -0.00056619 0.02626090 0.03787877 0.06504007 0.06902897 -0.00656883 -0.00247122 -0.20038748 -0.14703128 -0.17398351 -0.07941531 0.02294360 0.02666942 0.15370740 -0.02060449 -0.05651689 -0.13898994 -0.34679770 -0.04944784 -0.10286745 0.04197506 -0.09537639 0.17925802 0.01339679 -0.03160594 0.08167274 -0.03932960 0.00281439 -0.01168058 -0.14851308 0.26604837 -0.41505092 -0.08865134 -0.12980397 0.16016680 0.10574836 0.44463709 0.02824066 0.25258404 -0.10316730 0.04709314 -0.09699873 -0.00813725 0.41978794 0.35989344 -0.01711215 -0.32199273 -0.25319052 0.06775933 0.01168389 0.47649845 0.03389196 0.15509740 -0.17085010 -0.10423558 -0.25657591 -0.02113792 -0.49351189 -0.25488746 0.40143245 0.21600331
-0.02087812 -0.12197004 -0.09852215 0.02891318 0.11632227 -0.03365914 0.11517930 -0.10348397 0.07858302 0.08674078 0.03183221 -0.08031791 0.14382143 0.18592308 0.01122967 0.15249971 0.12572739 0.08213244 0.10902857 -0.11232079 0.24416873 0.00723569 -0.02279687 -0.00934676 -0.10892606 -0.10626005 -0.09014798 0.14620230 -0.02656559 0.01801681 0.08830322 0.16323055 0.00551847 -0.08033051 -0.02444524 0.11225394 0.02282559 0.11011241 -0.07996306 -0.06167189 -0.06640252 -0.20248251 0.01032851 -0.01737011 -0.12480215 0.15310653 0.00023396 0.04599869 0.03118650 -0.11558046 0.07006019 -0.14703493 -0.07021541 -0.05527037 -0.09394618 0.07563900 -0.08543970 0.05721091 0.06961099 0.07199065 -0.06708946 0.09253542 -0.00107238 0.03268926 -0.07266797 -0.05091018 -0.06255274 0.04154263 0.00986684 -0.15439524 -0.09933193 0.02805741 -0.05590241 -0.18400715 0.15740174 -0.14164248 -0.18524542 -0.16504891 0.03168944 0.00593338 -0.12433527 0.08372241 -0.07639762 -0.06806163 0.00116325 -0.00485328 -0.15789647 0.10823449 -0.07268313 -0.06079694 -0.08310284 0.04132149 -0.05057389 -0.00823610 -0.13045482 -0.16185890 0.13427998 0.14813681 -0.07771749 0.17910695 -0.18041627 0.19546854 0.08384319 -0.06857221 0.07212188 -0.25217879 -0.06966897 0.04272431 0.10902712 -0.08065680 0.04283027 -0.04047668 -0.18153410 -0.04272985 -0.07056928 -0.14565207 -0.01750102 0.11616421 0.12865168 0.09530831 -0.03808070 0.04321888 -0.10631538 -0.02494489 0.03337190 0.12232044 -0.24008265 0.05503707
0.17262915 -0.11908945 0.22110997 0.02556824 -0.06800611 0.00710195 0.10272225 0.15785383 0.47876796 0.31443447 -0.14072281 -0.08648966 -0.18824792 -0.47003853 0.01582393 0.26746315 -0.37686417 -0.15527841 0.27080825 -0.01855564 0.19487448 -0.16399649 -0.04135302 0.20096552 0.07323049 0.26052812 0.21243297 0.09068637 0.19466701 -0.00584150 -0.06060570 -0.02795775 0.11008749 -0.01652616 0.02423956 -0.05017051 0.16404852 -0.04890240 0.27186602 -0.06315129 -0.10006413 0.36975738 0.20929772 -0.19062439 -0.10640863 0.01466324 -0.09092276 0.19076179 0.14073305 -0.03412151 0.02798707 0.10660419 0.07164679 0.11277768 0.19829886 -0.04350263 -0.34630504 -0.07286920 0.08178210 -0.10116636 -0.23110583 0.14986278 -0.15263136 0.03177170 0.06470791 -0.08363439 -0.06768410 0.06707951 0.17815903 -0.05459692 -0.10181003 0.06106734 0.06719381 0.07434166 -0.13046268 -0.27529794 -0.33967480 -0.05592488 0.00568194 0.18544041 0.07165920 -0.10198726 0.02038924 -0.23259149 -0.38251874 0.08614470 0.09732037 -0.00852087 0.03831958 0.01485633 -0.20174254 -0.04305273 0.05585377 0.04936673 -0.08639044 -0.12995125 -0.39652041 0.20618416 -0.17016701 -0.01578686 -0.04741637 0.07293814 0.18082958 0.30518037 0.08399411 0.14005426 -0.24540035 0.10671177 0.03425798 -0.00064980 0.38198778 0.03452626 -0.27115294 -0.33786860 -0.46596342 0.02577589 0.01771214 0.47286636 -0.03571551 0.16247912 -0.28610960 -0.03890447 -0.03177152 0.05724201 -0.49027556 -0.11382050 0.29966408 0.07131054
-0.02429613 -0.10786265 -0.12664153 0.14714150 0.12613718 0.13061126 0.09552941 0.07447009 -0.00309062 -0.10332315 -0.04112488 0.00681898 0.17513651 0.02306353 0.00317870 0.09779717 0.12786038 0.07760147 0.04971020 -0.06786902 0.13813484 0.09613539 0.01899843 0.15704359 -0.15569140 0.04816009 -0.09728473 0.07832254 -0.07276076 -0.01470520 0.09301590 0.03538667 0.14205098 -0.03178362 0.19705452 0.08902415 -0.13201733 -0.10094701 -0.01990540 0.09483090 -0.14694369 -0.13902539 -0.08864473 -0.07964060 0.01833871 0.06081733 -0.15310708 -0.01917580 0.14799942 0.07982909 -0.04850138 -0.05824063 -0.03719616 0.00403825 0.15276618 -0.08221808 0.10746193 0.12194067 -0.03994381 0.14036588 0.00020599 -0.07196077 -0.08080695 0.02891786 0.11412275 0.03040681 -0.05707518 -0.01137343 0.04163730 -0.08914150 0.11657556 0.05131147 0.16785060 0.00704278 0.11420046 -0.01419795 -0.09207169 -0.05220969 0.02435882 0.13995083 -0.09920058 -0.16088593 -0.06275237 0.06348722 0.05160840 -0.03066250 -0.02083558 0.05910527 -0.10288347 -0.01709327 -0.14761294 0.05127319 0.02952151 0.01510943 -0.07107179 -0.05635671 0.11610239 0.03226393 0.14196795 0.03994544 0.05009604 0.12386958 0.05610548 -0.14382289 0.03590297 -0.01538509 -0.16726233 0.10468925 0.07651693 -0.13604368 0.01285784 -0.06734576 0.02757850 -0.04467086 -0.10597893 -0.04829827 -0.05818897 -0.06575485 -0.01436197 -0.09123525 -0.22232285 0.03070207 0.11973030 0.05838557 0.09147348 0.08983231 0.01839363 -0.01160436
-0.06248887 -0.10904349 0.25412264 -0.04224153 0.09352767 -0.06193289 -0.01593293 -0.00052434 0.48569322 0.51717830 -0.13801582 -0.15437213 0.09636927 -0.16192995 0.00796542 0.26254502 -0.35847798 -0.06932939 -0.02936611 -0.17057781 0.23432015 -0.24236465 0.01945014 0.10388909 0.12758981 0.30333182 0.05271616 -0.03134248 0.31517953 -0.00845652 -0.04799534 -0.14987510 0.10758656 -0.01387534 -0.11387315 -0.13684069 0.02877460 -0.16237342 0.00562881 -0.12091868 -0.06134181 0.13732465 0.10809751 -0.06412090 -0.22378643 0.10131858 0.15431871 0.09031601 0.10009288 -0.01615174 -0.10891685 0.01043522 -0.03729590 -0.07848460 0.18578719 0.11380793 -0.24429187 0.07744144 -0.06308375 0.04977326 -0.24493055 0.19514243 -0.08115320 0.11363795 0.10717167 -0.09297898 0.06568469 -0.09244068 -0.02163675 -0.04119238 -0.05387976 -0.09706639 -0.04969723 0.06370836 0.05359612 -0.15282360 -0.37123907 -0.09948877 -0.08120499 0.07146443 -0.00284029 0.13238832 0.08811374 -0.26471764 -0.23679888 0.06152906 0.13496125 -0.18712415 0.02694621 -0.01703973 -0.06831313 -0.14849326 0.10163436 -0.16114770 0.02852600 0.00703157 -0.13245915 0.12553333 -0.15571986 0.05156219 -0.00039538 0.14199552 0.15619951 0.22209477 0.01297959 0.15258342 -0.00696990 -0.08739170 0.07619426 0.01668773 0.30051839 0.07160839 -0.08583380 -0.44999361 -0.21783748 -0.04097369 -0.08375800 0.55237943 -0.08232749 -0.07871643 -0.06044302 -0.14182115 -0.14772008 -0.02008650 -0.37263969 -0.10733837 0.29885581 0.30595502
0.06621578 -0.07676630 -0.01578484 -0.12328496 0.19870527 0.02375679 0.02537636 0.06180268 -0.01865366 -0.10537561 0.03006388 0.00274167 0.02557178 -0.01041837 -0.13677332 0.11777949 0.10613780 0.05770932 -0.06806759 0.01009461 -0.14718188 0.21480346 -0.05695336 0.04471626 -0.08875374 -0.17114113 -0.16478881 0.04517892 -0.13203034 -0.08195208 0.12265276 -0.00585158 -0.02083008 -0.13069536 -0.04018684 0.00063211 -0.14475471 0.08561135 -0.03535658 0.07607914 -0.12079193 -0.22368728 -0.08982548 0.19259474 0.07943112 0.09336859 0.10530952 0.07308776 -0.05668275 0.06806513 0.06837857 -0.12974900 -0.14004852 -0.13379095 0.10120431 0.11470772 -0.00189185 -0.02752656 0.03541184 -0.00775600 0.02344649 0.05878454 0.06066903 -0.02747022 0.07695104 0.09619539 -0.16408391 0.08513969 0.13377471 -0.06285212 0.05191683 0.08394846 -0.13505203 -0.00848093 0.04045236 0.03830086 -0.03782766 0.05215598 -0.07599734 -0.16256078 -0.03079808 -0.01574952 0.14612211 -0.00037420 0.10434286 -0.08359440 -0.04711511 0.06641373 -0.11090856 0.01005506 -0.01255111 0.05176705 -0.12885569 -0.19721635 -0.01315681 -0.07840335 0.06671019 0.01141415 0.22735205 -0.09723032 -0.19828643 0.09570362 -0.14024638 -0.07670665 0.08351530 -0.00029315 -0.14684239 0.07558771 0.17655435 0.10128284 -0.14940131 -0.11043936 -0.05194848 0.10741935 -0.00607637 -0.23673065 -0.08248003 -0.05219908 0.03782276 -0.08966801 0.00236430 -0.02170599 0.07504488 -0.07206272 0.24696460 0.09249488 0.04276842 0.17002335
-0.07146434 -0.05143756 0.19975540 0.19509371 -0.04449151 0.02668648 -0.10227321 -0.06752184 0.52119017 0.25421011 -0.12769215 -0.05459492 0.15319973 -0.11413383 -0.05826449 0.11224966 -0.37216887 -0.16237627 -0.06007408 -0.38153148 0.25964251 -0.20929784 -0.00519513 0.16292377 0.11554308 0.19073327 0.09589319 0.21973665 0.35411629 -0.00594571 0.16247924 0.03456340 0.02431441 -0.06737824 -0.07429810 0.08059856 -0.02424028 0.21634375 0.03891421 0.02143996 -0.00146577 0.08160114 0.01455162 0.09776933 -0.06763559 0.14689483 -0.02118100 0.07027908 0.03080844 0.06574490 0.04435790 0.00800991 0.03858960 -0.06652600 0.09743111 0.07479891 -0.28837642 -0.06846762 -0.19570544 0.13345544 -0.12499316 0.15046550 -0.01575273 0.02334415 0.09708185 0.13621379 -0.00040573 0.10012454 -0.00767405 -0.11008152 0.04677000 -0.09936851 0.00251206 -0.12525493 0.11000535 -0.19749808 -0.09302516 0.04551080 -0.01049517 0.21952559 -0.03091312 -0.10533755 0.12355877 -0.08245402 -0.04007398 0.01874089 -0.08282451 0.00730026 0.01670612 0.11601308 0.19641618 -0.24301149 0.03393012 -0.13816752 -0.08286873 -0.17120869 -0.18640758 0.28449208 -0.11398151 0.07606401 0.16605155 0.11477779 -0.02589859 0.17422312 0.11916929 0.27165937 0.08399635 0.01401479 -0.20889375 -0.04139393 0.20261799 0.06471364 -0.04171868 -0.31914833 -0.30682686 -0.12401885 -0.00506210 0.28605321 0.06301552 0.16887401 -0.12421293 -0.09711841 0.01318328 -0.11504843 -0.36221072 0.01702704 0.13023703 0.04311710
0.07188117 0.03607119 -0.04624622 -0.05532361 0.04284265 0.11937667 -0.02870809 0.11787169 -0.01276077 -0.14301765 0.06117963 0.09414569 0.05516821 0.09345538 -0.08505426 0.00325114 0.09029786 0.08791548 0.07091790 -0.00507210 -0.06434400 0.14446066 0.00391097 -0.05245186 -0.10880476 -0.10399458 -0.02933083 0.14261864 -0.13886331 0.13261308 -0.02339626 0.08221888 -0.09227025 0.03567678 0.01407342 0.06080220 -0.08016163 0.04048707 -0.00739712 0.13429642 -0.04825107 -0.14202124 -0.00849065 -0.06779257 0.02471688 0.08029944 0.03856633 -0.02618441 0.11331034 0.09605536 -0.02306940 -0.04063590 0.16834338 0.15828994 0.06979863 0.02135843 0.11460002 0.09183672 0.01778831 0.01437736 0.02090356 -0.01507626 -0.07876668 0.02461130 0.12872811 -0.06536280 0.04046894 0.14287086 0.03830251 -0.02585444 0.08864822 0.17157847 -0.06175061 -0.09868426 0.01685321 -0.03479812 -0.01438965 0.09922825 -0.01716944 0.00821017 -0.11283682 -0.10183211 -0.10403173 0.12487569 0.10658641 -0.12949312 0.02353382 -0.06138690 0.14695919 0.06400330 -0.01981178 0.06139667 -0.06242900 -0.12216685 -0.14842786 0.14849144 0.20598981 -0.06483583 0.09069210 -0.12337441 0.09931059 0.10722097 -0.01968382 -0.09724425 0.00084763 -0.12818025 -0.05441430 -0.00526181 0.16376323 -0.10775613 0.03933454 -0.16228360 0.01043329 0.17048688 0.08186481 -0.14429693 -0.08428229 -0.13781197 -0.04592477 0.12353717 -0.07462704 0.01423287 0.08066832 0.03492208 -0.07262833 0.02501157 -0.07986407 -0.05388326
0.02572885 -0.05840421 0.17074797 0.21411929 0.03415221 -0.14228208 -0.09562380 -0.02453893 0.08235550 0.45561635 -0.22654785 -0.03735439 0.06536658 -0.00218750 0.11190499 0.16583885 -0.28110847 -0.16171452 -0.07067660 -0.40923682 0.38123593 -0.27391526 -0.08300640 -0.16507463 0.08310857 0.24373333 -0.04674209 0.26745805 0.07825442 0.04297361 0.04792350 0.18366820 0.20704648 0.01279219 0.08471958 -0.07927346 -0.15365383 0.07219677 0.06126094 -0.10173934 0.17406124 0.18127628 0.17750460 -0.02436692 -0.05941816 0.27959830 0.01960794 -0.06088433 0.11337170 0.11890081 -0.11803126 0.04208319 0.02924052 -0.08445323 -0.02468807 -0.14114895 -0.21250722 -0.01698702 -0.15961099 0.12076103 -0.18983717 -0.15364794 -0.23010232 0.16338058 0.06525208 0.02865478 -0.04475725 0.05697443 0.03159853 -0.03955886 0.00656971 -0.08772932 0.21428603 0.06346082 -0.01171523 -0.05083700 -0.14180736 0.14878738 0.00364870 0.02543111 0.05765158 0.12523307 0.11120205 -0.14086781 -0.25798056 0.10167140 -0.08099125 0.03709394 0.02370928 -0.02924660 -0.14178680 0.07577111 -0.01219103 0.00204666 -0.09072054 0.18852416 -0.20902827 0.12457665 0.00520383 0.08171028 -0.06747553 0.09477719 -0.02577559 0.15357649 -0.02587400 0.20880389 -0.13481210 0.12946354 -0.13613200 -0.15063529 0.27406356 0.28175437 -0.02105722 -0.20946948 -0.17610845 0.01274441 -0.07958642 0.39329669 -0.08409002 0.16765666 -0.08349193 -0.13743824 -0.18157536 0.05443867 -0.37972784 0.02936720 0.14591993 0.15944931
0.07057299 -0.07956020 -0.21744874 -0.00385242 0.00499773 0.06785548 -0.04671055 -0.08693659 0.03512402 -0.05010986 0.15298925 -0.04146039 -0.00325620 0.09018455 -0.11420203 -0.01011868 0.31736559 0.01103029 0.08181624 0.13786574 -0.13031450 0.17976366 0.10096627 0.22874518 0.01284170 -0.05491386 -0.05959613 -0.11913954 -0.14255413 -0.06567298 0.06451915 -0.11569332 -0.01461020 -0.06822570 0.01772565 -0.04502897 0.17409249 -0.09862821 -0.03955117 0.09442763 -0.04912794 -0.20664142 0.00706224 -0.15735817 -0.05569029 -0.00233315 0.04426615 -0.02715755 0.13764554 0.06682858 0.01957378 0.03173110 0.00515342 0.04002880 0.01754918 -0.15349033 0.09565051 0.04185864 -0.00479383 -0.02593953 0.01518625 -0.03817469 -0.03840619 -0.03498570 -0.08535089 -0.13406412 -0.16577165 -0.10095225 -0.07172919 -0.04945645 -0.04373991 -0.03379862 -0.01108450 -0.01162597 0.08431891 -0.05064302 -0.07257659 0.02723636 -0.02260522 0.11103431 -0.11745404 -0.08482131 -0.07477648 0.21872382 0.12177338 -0.10099941 0.01154856 0.00568979 0.01676082 -0.19184454 -0.16267972 0.00942257 -0.17675190 -0.19559963 -0.05904314 -0.01446968 0.14630017 0.06020191 0.16355583 -0.01029930 0.02682938 -0.15685697 -0.06721821 -0.14248718 0.08246977 -0.07332624 -0.06509709 -0.02079830 0.12332188 0.02839672 -0.08028987 -0.14358045 0.08170476 0.20046508 0.01199199 -0.09954657 -0.01732101 -0.20786647 -0.00041642 0.01790549 -0.08356300 0.04667041 0.20504758 0.00109637 0.16113146 0.13591492 0.00533392 0.01788046
-0.09637226 0.06188482 0.11544009 0.16393147 0.02357147 -0.08511436 0.19771373 0.10290854 0.10527752 0.46639591 -0.01330718 -0.07650510 0.01425377 -0.07824079 0.12899245 0.22553250 -0.06506509 0.03739194 0.19050519 -0.17568083 0.23192935 -0.14128472 -0.02964861 0.04833687 0.04706501 0.07167956 -0.09474823 0.20334837 0.23818785 -0.04449910 0.07085077 0.06584936 -0.05917424 -0.00538252 -0.13151602 -0.05163119 0.02109094 0.06179259 -0.08617679 -0.07757276 0.07971151 0.07730003 0.07014542 0.00209355 -0.02458608 0.19126733 0.03116100 0.13747118 0.01996286 0.04447785 0.04353685 -0.04479751 -0.11695076 0.01117980 -0.09143385 0.06116614 -0.08574833 0.00570447 -0.01170398 -0.03972948 -0.10223507 0.01928284 -0.07316588 0.05811236 0.06676446 -0.00996350 -0.08191627 0.05665480 -0.15270998 -0.03346401 -0.09775318 -0.12534501 -0.14349766 0.03551227 -0.07262690 -0.07430561 -0.19475116 0.06909914 -0.01213672 -0.06898338 0.03337894 0.00665194 0.04031183 -0.32912040 -0.13212131 -0.00773794 0.04990001 0.09012404 -0.15581170 -0.01342332 0.00881492 -0.12780525 -0.05578228 0.14816347 -0.05111404 -0.02144570 -0.05329011 0.06100883 -0.10741238 0.10937064 -0.06343260 -0.08690589 -0.00287715 0.10354710 -0.00363936 0.13034031 0.03202019 0.01199801 -0.07015379 -0.00884984 0.18390086 0.10517822 -0.02664540 -0.14490205 -0.10303642 -0.00633467 -0.00587463 0.24192522 -0.09266755 0.12979551 0.01508094 -0.12881032 -0.19573741 0.00215071 -0.19203442 0.06118669 0.02854526 0.15898420
-0.10892968 0.01908884 -0.17748933 0.11872646 -0.04188883 -0.07532476 -0.06754604 -0.11014193 -0.15477183 -0.12767968 0.00794641 -0.04174533 0.16671099 0.04593201 -0.01404282 -0.17299429 0.24728043 0.03657103 0.18018369 0.02469080 -0.09788915 0.20051135 0.03941441 -0.05659496 -0.06996977 0.04546809 -0.15037578 0.05191993 -0.09854169 0.14724912 -0.01933289 -0.03651231 0.03641988 -0.13221061 -0.13864325 -0.01413790 -0.09426699 0.06470674 0.01519237 0.15695091 -0.09595463 -0.08382132 0.06030813 0.02600134 0.07374248 0.15589757 -0.02514789 -0.03194228 0.01161593 0.02938902 0.07238187 -0.07496867 -0.02767098 -0.03772914 -0.07161061 -0.08628567 0.11076735 -0.06328733 -0.02208925 0.01702333 0.01458901 -0.14158542 0.06818306 -0.05994241 -0.00961081 0.01454738 -0.18137084 0.19209835 0.15023299 0.14185919 -0.00872774 -0.10536947 -0.13645786 0.07653998 -0.03723168 0.08888870 0.09019060 -0.08100489 0.11941588 0.03639421 -0.15855727 -0.05697905 -0.06324866 0.04425188 0.15629175 0.04077615 0.00031536 -0.00641842 0.12378334 0.20694438 0.06514753 -0.12792903 -0.08955688 -0.10630115 -0.18631901 -0.06293028 0.28360906 -0.21275717 0.23065199 -0.01436468 -0.15553641 -0.04562487 -0.14265531 -0.33064109 -0.19683221 0.00331190 0.19855937 -0.01132220 0.11526434 -0.22315370 -0.07046868 -0.12054729 0.00215259 0.09997728 -0.07799138 -0.11240389 -0.07411120 -0.11562803 0.01190567 -0.13149039 -0.15299802 -0.05279241 0.06374504 -0.08634750 0.06599568 -0.00350052 0.02524082 -0.01773823
0.01626192 0.00031413 0.10441826 0.05334261 -0.01933589 -0.13144200 0.00353334 0.08986188 0.22177082 0.09762714 0.04208673 0.13664015 -0.16517259 -0.02797880 0.01904966 0.11486275 -0.02179755 -0.05298205 0.01786575 -0.18159655 0.19077034 -0.12162129 -0.01065307 0.11039357 -0.00487426 0.01056454 0.09888705 0.14727513 0.08380453 -0.13407739 0.03776116 -0.03154088 0.00233771 -0.05071289 -0.01889533 0.00641088 -0.01302289 -0.06042815 0.00927504 -0.03574992 0.09273165 -0.00377084 -0.00250774 0.05269497 0.04865385 0.04359173 -0.03191712 0.08304600 -0.01958372 0.01503506 -0.14383228 -0.06407106 0.06467100 0.02141844 0.08395995 0.05890590 -0.09801596 0.10184063 0.05035614 -0.06903200 -0.05072245 0.15190597 -0.04000140 -0.03287864 0.09080783 -0.01940187 0.02936337 0.13606134 -0.09974133 0.07063913 0.08696883 -0.15739956 0.08947777 0.01900132 0.06642973 -0.00982998 -0.19150645 -0.14540336 0.03119740 -0.02683648 -0.10430970 -0.08848891 0.01271139 -0.19429673 -0.01587727 -0.03876740 0.12349661 -0.07976919 0.01653584 -0.02643001 0.02531843 -0.19985998 0.04637520 0.15309528 -0.09765706 0.02143048 0.02497028 0.05691700 -0.05526194 0.04074557 0.04110463 0.07646171 -0.05599742 0.03387440 0.07066339 0.02158971 0.05880344 0.07769356 -0.09814423 0.00345675 0.06955812 0.23509051 -0.07846402 -0.05846466 -0.14205182 -0.09866355 -0.07593971 0.25811794 0.01598826 0.17531925 -0.03106886 -0.05260823 0.08399540 -0.18480083 -0.12923944 -0.06301344 0.12711404 0.09357333
-0.07774164 0.00885145 -0.08061341 -0.11202826 -0.00325815 0.19544198 -0.17265002 -0.04392049 0.10755277 -0.11541703 0.01029696 0.12486209 0.00656305 0.16774152 -0.06684243 -0.17285576 0.17178266 0.15947624 0.11417840 0.16640824 -0.14910193 0.16077289 -0.00011757 0.09172174 0.02813941 -0.17641643 -0.06746407 -0.15757205 -0.12106327 -0.05573343 -0.00174072 0.08720292 -0.09542561 -0.12725247 -0.01712674 -0.07640543 0.03449936 -0.13430917 0.00737164 0.07703044 0.02807282 -0.19661576 0.09165068 0.06459326 -0.10913500 -0.20002678 0.00227656 -0.00135085 0.11891744 -0.02819896 0.02785805 0.00871330 0.08975981 -0.01725981 -0.06735300 -0.05199189 0.06105817 0.04234493 0.01146543 0.00373254 0.12752877 0.10565144 0.04019499 -0.07661394 -0.03387168 -0.13067260 0.02106351 -0.08490804 -0.01440678 -0.10306875 -0.03346821 -0.01092035 0.03830512 -0.02420924 0.10342914 -0.01312081 0.01008974 -0.02500875 -0.10599700 -0.05079163 -0.07077792 0.02028834 0.21508677 0.15942584 0.09085303 0.01212537 0.09177513 -0.05314273 0.03779446 -0.19624552 -0.02714179 -0.03195190 0.01534110 -0.07816157 0.11074212 -0.17723845 0.24687478 -0.02373112 0.04767705 0.05807945 -0.12953673 -0.06422061 -0.01252125 -0.13531019 0.21026456 -0.14352368 -0.03848355 -0.01552709 0.16071653 -0.02823025 -0.08080188 -0.05994358 0.07391644 0.21639580 0.11003407 -0.04785728 0.02373043 -0.02116693 -0.14755945 -0.08871289 0.04840628 0.03196681 0.08140969 -0.01771083 0.15786546 0.09008875 -0.13593514 0.04764303
-0.03730557 -0.09570380 0.10957695 0.17360094 -0.07669572 0.09212151 -0.10285128 0.08860963 0.18167873 0.08609875 0.09085967 0.00735583 -0.02920907 0.02723501 0.10866982 -0.05384247 -0.14414783 -0.11138453 -0.12423938 -0.21392792 0.01841918 -0.17851722 -0.05894573 -0.03794286 0.12964770 0.17123802 -0.02516667 0.11662794 0.24428305 -0.14600952 0.07166068 -0.04420926 0.10226239 -0.14652692 0.01851021 -0.07020351 0.09888303 0.06498864 0.02883878 -0.07570417 0.13384318 0.07749711 0.05321931 -0.11716191 -0.03760257 -0.00562482 -0.03348435 -0.01473112 0.07020907 -0.25115058 0.08474678 0.13836573 -0.06480297 -0.00948838 -0.09960324 -0.00395840 -0.08277819 -0.07774227 -0.08261129 0.01222543 -0.01145468 -0.10120215 -0.00740643 -0.06198670 0.06281595 0.07617616 -0.08763458 -0.08135684 0.06161285 -0.14301206 0.09433943 0.12229661 0.00577845 0.05890746 0.08777545 0.00147083 0.02210931 -0.04234634 0.14983283 0.05017301 0.02902091 -0.04800960 0.02723761 -0.03250322 -0.05448553 -0.00656552 -0.12518917 0.01782181 0.06596680 0.01568954 -0.13154624 -0.13265800 0.07320780 0.06875765 -0.05379133 0.10876852 -0.13069007 -0.14285994 -0.04738794 -0.07349146 0.05545038 0.18146695 0.06307452 0.02034999 -0.03399752 -0.04403391 0.00879833 0.07317591 -0.14624505 0.00372167 0.11648240 0.18676317 -0.01769727 -0.21992889 -0.15249394 -0.01530893 0.08564459 0.05250240 0.12622632 0.03785421 0.18225072 -0.09684211 -0.07834527 -0.15690953 -0.06304179 0.13624641 0.11439080 0.30362135
0.02309591 -0.07639349 -0.18454461 -0.11476084 -0.06979390 -0.18938723 -0.05832132 -0.05526064 -0.12530206 -0.09665939 0.08054444 -0.04244962 -0.06749332 -0.09033015 -0.15223069 -0.01686991 0.17117848 -0.01401895 0.01291410 0.12260366 -0.11655278 0.12732565 0.11737031 0.05991343 0.06301387 -0.11283712 0.09688260 0.04100047 -0.17329633 0.00471551 0.01596578 -0.01126660 -0.06958316 0.12383500 0.02039434 0.10734143 -0.07933000 -0.10732778 -0.02604985 -0.00518897 -0.03364869 -0.09198576 -0.09198198 -0.02297906 0.08702349 0.12480868 0.00819666 -0.07558283 -0.11026134 0.01320323 -0.10336968 -0.00406044 0.01232747 0.09406913 0.15206738 0.03703377 0.20670450 -0.07093816 0.12026753 -0.00139327 -0.06796573 -0.01023088 -0.04589509 0.00483058 0.10927317 0.12948337 -0.13899933 0.06960665 0.00444134 -0.02193494 0.10682490 -0.07044692 -0.01589923 -0.12858425 0.03756918 0.00679869 0.09811266 -0.01430195 -0.04801947 -0.05446267 -0.14140567 -0.04496683 -0.07998516 0.07694271 0.19715577 -0.01496278 -0.05534594 -0.08104794 0.17089564 -0.07487340 0.08214878 -0.09345211 0.00906890 0.00664920 -0.08770560 0.15267704 0.06784333 0.08925985 0.02345049 -0.05075246 -0.05367062 0.03468654 -0.02639686 -0.16041969 0.07361695 -0.04971728 0.12584838 0.06043566 0.04400595 -0.01957544 -0.18114121 -0.19604883 0.09025423 0.20436099 0.01802971 -0.21596116 -0.19411419 -0.18233970 0.05783204 -0.07749688 -0.20467235 -0.11579849 0.00576311 0.14094906 0.13868457 0.00317740 0.02882699 -0.16257916
-0.05289015 -0.00159851 -0.03314966 -0.10034750 -0.08486295 -0.00201647 -0.14406510 0.08104939 0.09606850 0.07533110 -0.03193922 -0.15543900 0.02311332 -0.05777760 0.01354381 -0.00263445 -0.03090175 -0.10775620 0.13306014 -0.14123857 0.04252030 -0.05789209 -0.00117224 0.06436886 0.00526673 0.02754590 -0.04909398 0.03489107 -0.04216971 0.02574006 0.06942742 -0.01976418 -0.02328554 -0.04540598 -0.01097930 -0.04941753 0.01325439 0.01281352 0.00135377 0.08875470 -0.04756112 -0.00587300 0.23298109 -0.17854123 -0.04277475 0.12217671 -0.01274792 0.27557200 0.04843336 -0.02867632 -0.05531432 -0.03547740 -0.07741941 0.08912242 -0.20648797 -0.07637339 -0.18411823 -0.00060346 -0.05684780 0.01837743 -0.05165112 -0.09367139 0.01408889 -0.01325315 -0.08483797 -0.15639235 -0.21584877 -0.00543058 0.11671948 0.13796872 -0.14280334 -0.01803221 -0.08112714 -0.04616375 -0.06960540 -0.15146643 -0.01588364 -0.09356667 0.09616156 0.05729698 -0.07179354 -0.20423342 -0.14231373 0.00382285 0.01788945 0.02858549 0.01622795 0.04947292 0.05962006 -0.03444062 0.02436832 -0.08312811 -0.01605221 -0.06426326 -0.16439603 -0.20434934 -0.00643986 0.00862760 0.00258971 0.10776147 -0.05233137 0.04958855 0.02730065 -0.03620493 0.10435889 -0.10062902 -0.04704247 0.01772551 -0.02838624 -0.03752941 0.06406017 0.07802584 -0.00575280 -0.06975187 -0.09938940 0.08588821 -0.00450036 0.06010312 0.16523661 0.06956490 -0.12346791 0.10537732 0.05128771 -0.13778156 -0.03830927 0.06428640 -0.00352005 0.11573069
0.02059372 -0.01228647 -0.16792303 -0.00465582 0.01702917 -0.08811955 0.07439600 -0.07074176 -0.01602904 -0.04076766 -0.00957286 0.04327458 -0.05857443 0.06284347 -0.04392255 -0.05394265 0.34134182 0.20359167 0.01587190 0.33249038 -0.09335107 0.14146778 -0.00233459 0.00774211 -0.16144094 -0.05043887 0.05986745 0.03093322 -0.13072273 0.06444070 -0.00409372 -0.20922144 0.13823050 -0.08243298 -0.17957030 -0.07250999 -0.00369480 0.10653139 0.00792411 0.20928586 0.06396972 -0.16390893 0.04425317 -0.06131428 0.06534474 -0.02309504 -0.11657041 -0.02829730 0.16515303 0.00390519 0.08641665 0.00444919 -0.01807769 0.15684646 -0.12002361 0.00474278 0.17635377 0.11609630 -0.00346673 0.02268257 0.05003476 -0.15890445 -0.09325350 -0.04740685 0.13402407 0.01854055 -0.13520145 -0.15671255 -0.10646079 0.09105775 0.02119929 0.04964133 -0.23300426 -0.07796413 0.12392698 0.13180555 0.04315431 -0.07027130 0.06737553 0.12839274 -0.00864149 -0.12068846 -0.07327443 0.11932796 0.07615162 0.08052407 -0.07498316 0.00643047 0.06563582 -0.07018649 -0.02583390 0.04761761 -0.14141142 0.05999459 -0.02487143 -0.07660106 0.03108662 0.03367006 0.01440580 -0.04663633 -0.07634399 0.03909726 -0.01050556 0.00624660 -0.01332051 -0.04095217 -0.11919951 0.01622165 0.00053708 -0.10621194 -0.07044614 -0.30370507 -0.05959810 0.22313665 -0.11162822 -0.00789200 0.00811807 -0.18056786 0.07832402 -0.11648229 0.02101352 0.03272712 0.13035151 -0.02783228 0.20271222 0.04171460 -0.05973419 0.00241461
0.11428446 -0.07814880 0.09553698 0.02314432 -0.00190991 -0.08787075 0.07551905 0.08515316 0.17842260 0.02855355 0.06946199 0.08188923 -0.10487948 -0.04973180 0.02518302 -0.10071102 -0.01551269 -0.05952907 -0.11604822 -0.04050644 -0.01197175 -0.03910249 -0.04635011 -0.02789168 0.08599390 0.11974906 0.00990991 0.01539634 -0.07716600 0.16788058 0.13086393 0.03861812 -0.01828811 -0.01130754 -0.00153793 -0.13847394 0.10295986 -0.06203502 0.08014514 -0.12073886 -0.01810153 0.01167889 0.05590931 -0.09183498 -0.03772021 -0.00222666 -0.00411459 0.18631941 0.04407880 0.03860805 0.05285592 -0.05496235 0.00785160 -0.03544270 0.09585536 0.02837477 0.18773209 -0.00894428 0.07674095 0.09582488 -0.06747431 -0.04428849 -0.09004351 -0.00154357 0.10199842 -0.02136813 0.11141156 0.18229735 -0.07695775 -0.00599211 0.03058412 -0.08114005 -0.10178114 0.07017642 0.04952727 -0.01191297 -0.15069030 -0.01125201 -0.10034014 -0.10617590 -0.11955846 0.06770898 0.05232399 -0.03222594 -0.00355681 -0.19605134 -0.02563331 -0.06124260 0.00179861 0.01994805 -0.03781817 -0.07853215 0.08341255 0.05132420 -0.07781059 0.09253176 0.08718800 0.06757807 -0.02587386 -0.05569987 -0.20649292 -0.13529350 0.12117720 0.15894032 -0.00304120 0.05654757 -0.05141142 0.06540255 0.03015306 -0.03895073 0.12005801 -0.01127627 0.01243985 0.05606689 -0.01138974 -0.14279526 0.04230824 0.03141865 -0.09841736 -0.00605060 0.03047336 -0.14962199 -0.06410865 -0.09696879 -0.04404403 0.09714784 0.04998609 0.20713925
-0.01233464 -0.00143329 -0.02032699 -0.08776746 0.02848277 0.12774754 0.01552421 -0.02705026 -0.16938743 -0.07220370 0.07984950 -0.09276102 0.25557181 -0.03380629 -0.12737730 0.16282395 0.09773364 0.16321066 0.11148106 0.10664008 -0.09250127 0.18880357 -0.09231111 -0.09011631 -0.14676197 -0.09438569 -0.00030583 -0.07874880 -0.04536257 0.11542846 0.01970599 -0.02893975 -0.11862826 0.15059577 0.12506446 -0.04582141 -0.07928349 0.10856911 -0.07239176 -0.09351464 -0.10829646 -0.03023113 -0.11910398 0.03603069 -0.13640189 -0.13647674 0.14954405 -0.00268472 -0.13261729 -0.15679783 0.06137680 0.14310971 0.12037590 0.10383882 0.05602936 0.03047442 0.23978652 -0.03802928 -0.00233671 -0.03554689 0.13644622 -0.09593683 0.08179092 0.01097166 0.11224148 0.00383231 -0.08005233 -0.09950116 0.07840215 -0.01980997 0.00311526 0.19413884 -0.09961820 -0.17273068 0.00269368 0.04424799 0.03563025 -0.02208100 0.03822816 -0.00317235 -0.06231036 0.05872856 -0.05207206 0.05620439 0.16580951 -0.03310660 0.05411805 -0.04534030 -0.02038110 0.04410863 0.03947927 0.08814800 0.09301800 -0.03930304 0.16753323 -0.03453866 0.16764875 -0.13814744 0.05141373 0.03495570 -0.03026827 0.12058132 0.20054108 -0.01303887 0.01531217 -0.15208694 0.08504248 -0.02941280 0.08550592 -0.08041215 -0.13724008 -0.13163318 -0.05072345 0.03197502 -0.13289452 -0.12753618 -0.01519971 -0.19091178 -0.06722512 -0.02752523 0.02284932 -0.06582899 0.00163177 0.10049935 0.29118529 0.04438851 -0.05395095 -0.13968848
-0.10093151 0.11374930 0.05096925 -0.05486261 -0.01907910 -0.00540317 0.13412844 -0.02005665 -0.02397686 0.02238471 -0.04457002 -0.05538169 0.01354888 0.04521124 0.00559982 -0.03603628 -0.03564708 0.00602946 -0.12282965 -0.09088183 0.06906233 -0.03877652 0.00467094 0.05040498 0.00709923 0.09030411 -0.10338979 0.04249966 -0.10008411 -0.07705041 0.07298113 0.01220426 -0.04161013 -0.01238061 -0.12466308 0.02027995 0.04503332 0.00342076 -0.00887463 -0.06270116 -0.07322437 0.00998614 0.06738073 0.10023616 -0.06581961 0.08129911 0.02186627 -0.06608006 0.08651597 -0.09660336 -0.02687725 -0.03976633 -0.01503742 -0.15341946 -0.06549674 0.01295278 -0.09766473 -0.00259778 0.01722131 0.06465324 0.05003017 0.01258865 0.04386256 -0.10078418 -0.04164733 -0.14513682 -0.04813788 -0.04901249 -0.09865262 -0.03990080 -0.05083852 0.15321742 -0.06352849 0.04268895 -0.01511958 -0.00157833 0.01158292 -0.05504176 -0.00077434 0.03839675 0.03494514 0.04883602 0.02851649 -0.06957943 0.00096495 -0.05320921 0.01278686 0.07582121 -0.15299720 0.10980526 -0.01601583 -0.02235841 -0.11172201 0.03467469 -0.10533734 -0.07693532 0.04767055 0.08520517 -0.00839939 0.06053681 -0.00620298 -0.24427687 -0.02806869 0.02054765 0.04288388 -0.01990822 0.03330214 0.04883640 -0.11975591 0.00423921 0.10992855 0.04836914 -0.05115253 0.02145413 0.02326671 -0.02904689 0.05009740 0.01967760 -0.08911973 0.03117663 -0.06618934 0.01775854 0.07540340 0.10295205 0.01971296 0.12065131 0.02860630 0.03143368
0.07457759 0.12155295 -0.12493005 0.13110872 -0.02907591 0.15745184 0.10980237 0.07548888 -0.01584328 -0.28130928 -0.03047431 0.06503147 0.19185169 0.10183623 0.16780345 -0.21089883 0.05731447 0.02996317 -0.03239712 0.03883008 -0.03494471 0.17266648 -0.04595499 -0.15969707 -0.15229340 -0.04055779 -0.07222589 -0.14953229 -0.01669008 0.07885890 -0.04776509 -0.10079357 -0.00104708 0.07426126 0.08609099 0.09120365 -0.05926057 -0.02468453 0.08612713 -0.04798312 0.07124443 -0.08796332 0.11952956 0.00999854 0.05234729 -0.02452500 0.09447060 -0.17159498 -0.02889245 0.04321601 -0.18446507 -0.14947395 0.04649875 -0.02989123 0.04026588 0.13713014 0.07299204 -0.00116713 0.11041306 0.18593532 0.08362884 -0.08425225 -0.02865750 0.03287367 -0.10244912 -0.08363653 0.13245928 -0.04028032 -0.08728152 -0.00900413 0.17432895 -0.00364198 0.06784310 -0.13881466 0.12671313 0.21266846 0.07595585 0.04977708 -0.16165358 -0.09894300 -0.00591816 0.10091710 -0.01044550 -0.12894014 0.04000657 -0.16445255 -0.06691244 -0.13046351 0.11469012 0.02199789 0.00479080 0.02563926 -0.03901348 -0.03043978 0.04633433 0.07589344 0.03568238 -0.14814854 0.10450671 -0.01176014 0.11439229 0.02760172 0.13525203 0.01606514 -0.00651235 0.08044057 -0.11857171 -0.04449175 -0.03029364 -0.19436395 0.03987656 -0.18453020 -0.01942558 0.15432005 0.02826246 0.01234265 -0.03474472 -0.15126577 -0.18524957 -0.15621045 0.01095322 -0.07576054 0.09241848 -0.05955736 0.14358950 0.06740353 -0.00894304 -0.19234645
-0.01215043 0.03640981 -0.00056664 -0.02220351 0.06708116 0.02568603 0.10603270 0.13898492 -0.01086919 0.09195715 -0.09455392 -0.05693069 0.01149892 -0.00034472 0.05111609 -0.01180454 -0.03377556 -0.00152072 0.02654703 -0.04892537 -0.00991229 0.01212373 0.05442310 -0.01561368 0.03438880 -0.01623004 -0.07728268 -0.02346229 -0.01709177 -0.05529436 0.07166387 0.05078835 0.01859429 -0.04776543 -0.04251162 -0.04860140 -0.07528046 -0.12616944 0.03202653 -0.02040781 0.03659032 -0.01134721 0.06877249 0.09200516 -0.06572975 0.02387386 0.12506630 0.10076597 0.00857785 -0.17510006 0.05663703 -0.06247539 -0.07049221 -0.08168702 -0.10657839 -0.06424524 0.08155861 -0.05706454 0.06524037 0.05721863 -0.01068525 0.03794955 -0.01934109 -0.01907628 -0.01878252 -0.01047586 -0.14559045 -0.00013294 0.05382665 -0.04943820 0.09006010 0.05883908 -0.09462751 0.04838629 0.00186284 0.06935591 -0.08034310 0.00569484 0.05102988 -0.05237810 0.03114806 -0.01615592 -0.09509405 -0.02296830 -0.00933685 0.05451865 -0.01618100 0.23463045 -0.10858338 -0.03836248 -0.06528176 0.02611859 -0.11855152 -0.01868680 0.02217684 0.12477078 -0.02697509 0.04669956 0.03401381 -0.02520924 0.09883887 -0.05091041 -0.04007957 0.03438474 -0.09521525 0.07805594 -0.11757863 0.04825403 -0.07382470 -0.01064240 0.06691585 -0.01493985 0.06196914 0.06662525 0.01003860 0.02300083 -0.00816886 -0.01187783 -0.10638540 0.00594023 0.07244875 -0.01916169 0.03301450 -0.02012161 -0.08051769 0.03380819 0.00707803 0.09081824
0.00641084 -0.07264604 -0.02446722 0.10300623 0.03334482 -0.02118163 0.00500229 -0.04757934 -0.02627886 -0.08554532 0.02940278 0.03827072 0.00273172 -0.01136097 -0.06453250 -0.16121122 0.11712604 0.02763674 -0.19389936 0.10853056 -0.05868584 0.13041662 -0.01180342 0.08012991 0.04589187 -0.01438792 0.08389153 -0.01602842 0.06241209 0.04048610 -0.04388580 -0.09726848 -0.01930992 0.03932743 -0.14810099 0.14429799 -0.04304904 0.13029540 -0.10363620 -0.06070104 0.03231534 -0.11629482 -0.15214334 -0.00452555 -0.00478856 -0.01387860 0.04505233 -0.16173615 -0.19116285 0.20506907 -0.08186480 -0.08480481 -0.05795851 -0.23258650 0.16810186 -0.04617469 0.30302319 0.13404679 -0.05606577 0.02563421 -0.06634539 -0.03968851 -0.12031804 0.02658504 -0.01076416 0.07841526 0.11703008 0.16875951 -0.13392718 -0.04174707 0.05195154 0.03544677 0.10235123 0.05635401 -0.04742611 0.12597921 0.17370763 -0.09148902 -0.06648057 -0.12660100 0.06369127 0.08133972 -0.01479222 0.07914899 0.09525615 -0.00808097 0.08653814 0.03347422 -0.03331385 -0.12848689 -0.01787970 -0.11440711 0.09569167 -0.10634972 0.06696542 0.10839106 -0.06251533 -0.13091785 0.17257605 -0.17073421 0.13567364 -0.03971392 -0.10818909 -0.11098935 -0.01591611 0.11308428 0.03503574 0.04137412 0.10640451 0.17742567 -0.20107557 -0.07658733 0.07075430 0.09916724 -0.03675639 -0.21438494 0.04024828 -0.00381802 0.00670428 0.02372994 0.13505608 0.13834471 0.01534260 0.06982707 -0.13191298 -0.24684080 0.01464071 -0.08886869
0.01646792 -0.08831427 0.05903684 0.00113147 0.01560440 -0.08498193 0.08603176 0.00297097 -0.08676919 0.01931732 -0.09763524 -0.05637497 0.05924392 0.11923859 -0.03172619 0.08776077 -0.03608056 0.03718056 -0.01335568 -0.12236126 0.02898977 0.01754511 -0.08199775 -0.06586890 -0.02656642 0.02115571 -0.01092724 -0.04608040 -0.02851721 -0.02504092 0.06171831 -0.04204621 -0.10541115 -0.01384046 -0.16864489 -0.07935140 0.00183769 0.07085075 0.04731129 -0.14132167 -0.21933872 -0.02302877 -0.06714500 0.09904928 -0.06615993 -0.00646570 0.21496925 -0.06440087 -0.14032824 0.08351453 0.05521437 -0.15911481 -0.06922811 -0.15548928 -0.02356720 0.04636026 -0.10385045 -0.12497350 -0.02316287 0.01470542 -0.02918414 -0.06422559 0.12921377 -0.07310812 0.15898985 0.04893659 -0.11049791 0.04480816 0.00315697 -0.01066544 0.10308019 0.18195851 -0.18604620 0.13807298 0.03785390 0.09001647 -0.03855558 -0.10077388 0.19970720 0.07133403 0.06825470 0.01122341 0.14823771 -0.05395104 -0.02705557 0.09725760 0.04547766 -0.00502398 -0.10695006 0.17715991 -0.08384864 0.00513312 0.00433896 0.06669060 -0.04369958 0.06411883 -0.10161000 -0.02485253 0.03537303 -0.02143364 -0.03176342 -0.08275630 0.01837226 0.09365644 -0.08914888 0.06158737 -0.11301191 -0.08393513 -0.02927818 0.03278010 0.08244106 -0.09098182 -0.05132868 0.11476523 0.08536457 0.00561545 0.02080842 -0.01279948 0.03110984 0.08769678 -0.01507623 -0.05769180 0.00623311 -0.05532014 0.01930585 0.08690626 -0.03001766 0.13519114
-0.07596624 0.03897389 -0.29133949 -0.08611259 0.07738040 0.06308480 0.16781649 0.00933444 0.07217169 0.01906015 0.09025951 0.01749793 0.06267671 0.01611124 0.11618607 -0.09591006 0.00380602 -0.02752969 0.19268718 0.33587265 -0.00257307 0.06065190 0.03484142 -0.05247512 -0.09078064 -0.00729714 -0.01280188 -0.16932221 -0.08320944 -0.00431742 -0.12823677 -0.02694522 0.04663629 -0.06237724 0.09499864 0.08055162 0.01142459 -0.20695402 -0.00868588 0.03175576 0.02613675 -0.02577718 0.18851410 0.00669066 -0.02984191 0.01254328 -0.06807651 0.03981971 0.04877413 0.04546418 -0.05685726 0.11979291 -0.02983554 0.06607284 0.05946834 -0.01330811 0.10624205 0.04394400 0.06563526 -0.09738053 0.21799529 -0.12686940 0.13985345 -0.15433361 -0.10776915 0.07452647 -0.13599756 -0.16430373 0.21628886 0.06432109 -0.03938708 0.05495534 0.01779162 0.09043192 0.04740862 -0.04162222 -0.02857553 -0.13932714 0.09633725 0.10375090 -0.03932727 -0.06066635 0.08839800 0.09539632 0.10625878 0.06011581 0.19197735 0.02714553 -0.02957436 0.05264141 -0.18407430 -0.21687403 0.00181889 0.06613008 -0.18110751 -0.11606345 0.13767780 -0.12435082 -0.01787699 -0.06511209 -0.10028920 -0.28458706 -0.06394023 -0.10715008 0.02707417 -0.01288185 -0.09051000 -0.01482058 -0.02203304 -0.19620638 -0.01222108 -0.13572265 0.14750886 0.17954306 0.03209485 -0.11790786 0.04426302 -0.00175008 0.02715190 -0.12864684 0.07045154 -0.09244601 0.01071442 0.02011974 0.21015102 -0.04051382 0.04950726 -0.04393902
-0.07611388 0.09361296 0.02659655 -0.05251637 0.00376133 -0.14594123 -0.03213819 -0.01568589 -0.06626418 0.03180553 0.07868205 0.00401634 0.04602548 0.12204707 0.03667670 0.04147095 -0.00308146 -0.05255691 0.00554473 -0.08764967 0.01134244 -0.03069432 0.01007860 -0.16519845 -0.00051724 0.03581072 -0.09865610 0.02010291 0.00726927 -0.05298524 0.04433342 -0.03595299 -0.09762567 -0.06565949 0.04581955 0.00128378 0.06855657 0.07740036 -0.01122224 -0.00711316 0.01973698 0.02363178 -0.01401537 0.00469144 0.01299338 -0.03381458 -0.00693027 -0.08467066 0.06164552 -0.08075660 -0.03144298 -0.06316796 0.03383492 0.09067511 -0.04318776 -0.03169389 -0.05314625 -0.00083625 0.01640059 -0.04405456 0.00977223 0.09400754 0.00064768 -0.03006753 -0.07828400 -0.00228283 0.00867616 -0.03893470 0.13013414 0.03548741 0.01538612 -0.01684106 0.03137211 0.09964343 -0.03397201 0.01679255 -0.07028803 -0.04244326 0.13539420 0.07554260 -0.03325586 -0.05965340 -0.16751875 -0.00424013 -0.00243391 -0.06830899 0.01968349 0.21052650 -0.13629186 -0.02792889 -0.04915546 -0.01370941 0.09775805 0.19439679 0.16793498 0.14508617 0.05654464 0.09625079 -0.09842784 0.14597890 0.07432378 -0.07907771 -0.06113221 0.01929330 -0.07976697 0.00141293 -0.01967932 -0.00898834 -0.17634234 -0.02561412 -0.00883786 0.12288710 0.02412844 0.08869401 0.00455438 -0.09381256 -0.05250252 0.09991876 -0.08261999 0.15075865 0.03542087 0.02253301 0.09167004 0.02885493 0.00656554 -0.04161990 0.03073759 -0.10489929
-0.08505599 -0.04045036 -0.18880908 0.04931705 0.03237513 0.17649209 0.14648697 0.22096665 0.04539514 0.00800539 0.03195503 0.12147070 0.08850732 0.08469296 -0.02827302 -0.11388712 0.05146880 0.03652029 0.11759411 0.07895578 -0.05070529 0.06797265 0.24297190 -0.10302477 -0.05284734 0.03593889 0.06684433 -0.07549065 -0.18054515 -0.02808467 -0.11538241 0.08124425 -0.00736894 0.00012865 -0.01067113 -0.09727383 -0.03366794 -0.04213803 -0.03908633 0.07887509 -0.05235296 -0.04780458 0.03901390 0.03546355 0.08646717 0.07497673 -0.08281385 -0.12637435 -0.00634736 0.12445778 0.04796570 -0.13102016 -0.02909108 0.01504582 0.06516942 -0.04728028 -0.15855215 -0.01546923 0.04470631 -0.06555170 0.19260383 -0.11497819 0.04198905 -0.06195218 0.06226809 -0.01914128 -0.17813595 -0.19444194 -0.00389354 0.11074884 0.02821528 0.02821352 0.06478979 -0.10114125 -0.01308540 -0.04686217 -0.07044837 0.02425981 0.12760058 -0.03490262 -0.05353809 -0.04842989 -0.12164240 0.13036409 0.06304621 0.02270319 0.08650553 -0.05931363 -0.17208280 -0.00930140 -0.07878414 0.04566598 -0.00364632 0.11428074 -0.02133477 -0.06607311 0.03594349 -0.08590133 -0.01902916 -0.06325642 0.13364623 0.05768341 -0.05060710 0.01044606 0.09969550 -0.07755032 -0.14290500 0.02767446 -0.02660697 -0.04421246 0.07355265 -0.10484481 0.00356740 0.05792371 0.01234337 -0.09354956 -0.01894374 -0.15922910 -0.03400053 -0.09758820 -0.02782631 0.11232691 0.00328724 0.02027693 0.00920693 0.04071337 -0.02226912 -0.22864757
-0.11657352 0.04328519 0.03466081 -0.17106277 0.06263658 0.11045495 0.04375617 0.06362226 0.02413739 -0.05629778 0.08085361 0.04116210 0.15477858 0.05918775 0.03612692 0.11797757 -0.13193265 0.01632976 -0.00950168 -0.00452310 0.03264353 0.01835305 -0.00806720 -0.13322566 -0.06209616 -0.02800801 0.01262932 -0.02758380 0.01347554 -0.09723294 0.03317825 -0.11560635 0.03158470 -0.05542392 0.05897063 0.08075683 -0.07022302 -0.01102753 0.01566372 -0.10689464 -0.01360116 0.04314516 -0.09590537 0.19599065 -0.02132027 -0.03588012 0.20014130 -0.08298130 -0.08051838 0.09960803 -0.04046089 -0.04397113 0.05696097 -0.06451724 0.06854748 0.06873745 0.06697206 0.01143759 -0.03686959 -0.02281902 -0.02161026 -0.05248025 -0.03606572 -0.03280434 0.21348307 0.07196206 -0.08266430 0.04182711 -0.18425828 -0.03679138 0.09391986 0.19072062 0.05346520 -0.06376024 0.07195429 0.06360690 -0.09521458 0.10811763 0.02008123 -0.10337008 -0.02442698 0.07339168 0.15048075 -0.07087453 -0.01799487 0.06072953 0.06683692 -0.04277216 0.00783552 0.17248252 -0.03730220 0.04175900 -0.02434150 0.03109591 0.13746029 0.13815811 -0.11028749 0.03734287 -0.06398197 -0.05699411 -0.09678306 0.04415916 0.07567342 -0.00298002 -0.05522634 0.13195284 -0.01373482 0.03653621 -0.03604496 -0.03645211 -0.02209424 0.05317252 0.06143408 -0.02746906 0.01573006 -0.05575794 -0.03516037 -0.04369976 -0.16431512 -0.01222701 -0.00522996 -0.11882597 -0.01524483 -0.01842319 0.09587795 -0.02721299 0.08281244 -0.10858221
-0.04854273 0.00102582 -0.10587219 -0.14276139 -0.09122352 -0.09555428 0.11405283 -0.02928225 0.00087135 -0.04454825 0.05453249 0.18454248 0.00179103 0.05245902 -0.09712004 -0.18135010 0.11701627 -0.03045428 0.09986687 0.07143065 -0.02174607 0.12935726 -0.20834988 -0.03511581 0.14242607 -0.07252698 -0.20190163 -0.08324852 -0.05298686 -0.02713237 0.08245822 0.23455754 0.00757788 -0.02940359 0.06026973 -0.01937229 0.13705522 0.09389810 0.03020327 -0.01125795 0.10465960 -0.08855425 0.02975006 -0.16671315 0.03730806 0.13961190 0.00114332 0.04227802 -0.09965073 -0.06311439 -0.02022144 0.05810937 0.12126739 0.11572398 -0.03578594 -0.00634225 -0.00878908 0.04061947 -0.11402787 0.19393235 0.02555566 -0.02968611 -0.02822483 -0.13244699 -0.11049936 -0.09797855 0.02972529 0.08720281 0.00201542 -0.08264996 -0.02674766 0.05969854 -0.06804916 0.07802185 -0.15897055 -0.02083877 -0.05485252 -0.10807972 0.03900284 0.06172832 -0.04434188 0.16683367 -0.04473275 -0.02757980 -0.06478383 0.13496515 0.09901826 0.13444085 0.01826110 0.09715331 0.11604037 -0.05496258 -0.04854208 0.15608676 0.09964373 -0.04006194 -0.05453770 0.02121407 0.10250704 0.11511207 -0.16309260 -0.01292966 0.00915065 -0.11542325 0.04321637 -0.11954661 -0.07423838 -0.00752194 -0.05783250 -0.01667133 0.03910737 0.00333804 -0.02619600 0.01185796 -0.04215386 -0.01282454 -0.09697020 -0.03747945 0.08861491 -0.06552657 -0.04483778 0.09005322 0.00613829 -0.17165117 -0.10643412 0.07584541 -0.12885900 0.08081081
