0.64568079
0.71796757
0.60792434
0.53172046
0.51139414
0.69803041
0.69524652
0.93184960
0.85663497
0.94357479
0.94296509
1.03275037
0.94817817
0.72699863
0.80128914
1.02873552
0.90716249
1.01054060
0.80285764
0.82562608
0.92141116
1.08477855
0.75665653
0.78500789
1.02445364
0.89134008
1.07833397
0.81848156
0.74207222
0.91947985
0.81702107
0.99558103
0.91048610
0.97954184
0.78947687
0.83151823
0.89790666
0.95076293
0.90870225
1.03382468
0.67686075
0.98198605
0.94942826
1.06826389
0.90525800
0.78350186
0.77026165
0.85373908
0.88916749
0.98514926
0.77896166
0.90037733
0.93793452
0.85507542
0.93199658
0.79335386
0.83338374
0.69043231
0.94746137
0.85399145
0.96970689
0.98515439
0.93142420
0.78261572
0.90860629
0.82903373
0.94657886
0.83737671
1.09145558
0.81334645
0.99197155
0.83155203
0.67073858
0.84005618
1.05683887
0.91483080
0.90261990
1.02885234
0.79773134
0.84402257
0.82593882
0.83696395
1.02948022
0.76563609
0.85667533
1.08027518
0.92519510
0.90881717
0.97748667
0.83134711
0.89488137
0.77781045
0.97374469
0.81956685
1.04058027
0.93068272
0.85157233
0.69394451
0.76981169
0.97839695
0.82743913
0.87992078
0.70789790
0.78218645
0.98637486
0.72903836
0.88255274
0.92895144
0.89615041
0.87106639
0.81682473
0.88901007
1.02201462
0.83968031
0.75884843
0.89210194
0.99921250
0.81138778
1.05940604
0.90198779
0.89069593
0.80692697
0.83157235
0.84001529
0.95769477
0.96449888
0.84303480
0.73561335
-0.41202468
-0.57735515
-0.29447243
-0.43853262
-0.41421989
-0.28158888
-0.30015633
-0.37587890
-0.15988664
-0.33165962
-0.34264022
-0.18926533
-0.03379155
-0.28088942
-0.30743855
-0.79529124
-0.26881391
-0.47980314
-0.62436241
-0.06476572
-0.24927014
-0.42961618
-0.11864826
0.13178569
-0.48256943
-0.27261633
-0.40404004
0.37214544
-0.09967803
-0.45881093
-0.55316341
-0.99098819
-0.39694390
-0.23634781
-0.22313397
-0.39720157
0.22440079
-0.16749021
0.13805638
-0.43090540
0.25844160
-0.18282562
0.59491211
-0.13706800
0.41431138
-0.22699098
0.37017500
0.03713105
0.14272174
0.71968120
0.43502963
0.15038130
0.25542331
0.48640081
0.16824584
0.33065349
-0.25130013
0.75616503
0.20264274
0.25571701
-0.15209658
0.47820571
-0.26726654
0.39191341
-0.18000630
0.32189831
-0.42905110
0.95244718
0.09399959
0.30929014
-1.50656080
0.30618593
-0.33854887
0.44180852
-0.16168073
0.77162957
-0.21900387
1.70769405
-0.33745888
0.40635714
-0.47348562
0.27740768
-0.51537794
0.53437471
-0.46347222
1.39902294
-0.57983702
0.65535253
-0.26473606
0.47008389
-0.27434012
0.22135957
0.16971111
0.57440758
-0.35653022
0.36536449
-0.44179651
0.42356208
-0.37172252
0.60595715
-0.46843183
0.27482018
-0.09674623
0.53177851
-0.18640786
0.66965389
-0.52261472
0.48427358
-0.91259581
1.11946487
-0.28057450
0.29509336
-0.30224612
0.40053481
-0.30968487
0.37199247
-0.21065436
0.40419227
-0.77393997
0.28593722
-0.61260587
0.34913608
-0.21824704
0.35490203
-0.23873536
0.68688750
-0.31583825
0.61547256
