-0.19898805 0.48161477 -0.01216865 0.24765606 -0.52022135 -0.08111972 -0.28176698 0.10217850 -0.54739273 0.31652302 -0.03389257 0.52646500 0.40476927 0.20189570 0.27713054 -0.68094701 0.01977924 0.17903173 -0.36327443 -0.21952805 0.53155088 -0.13684192 0.02186103 0.12982289 -0.04899139 -0.23316896 0.22482340 -0.30987686 -0.34919739 -0.20798638 -0.25833476 -0.16879444 0.56092519 0.01991390 0.28826800 -0.22200848 0.16899692 -0.27176458 0.32013002 0.17296748 0.01348344 0.48114532 0.31612259 -0.07928732 -0.20249003 0.20346308 0.19590917 -0.24670930 0.30800363 -0.01404474 0.25532112 -0.30653170 0.30607024 0.14880699 -0.02131677 -0.41956094 0.29627013 -0.21980512 0.18773353 -0.39130840 0.07293738 -0.29031482 -0.06034499 -0.20378961 0.06870609 0.17894389 0.12266254 0.28490999 -0.02061871 -0.08816265 -0.16074772 -0.11034661 -0.46854761 -0.58555287 -0.14580384 0.34286973 0.53439915 0.60703504 -0.08290571 -0.08355065 -0.15668799 0.07405249 0.20997769 -0.06733294 -0.29896137 0.44482139 -0.19601025 0.16567463 0.25873318 -0.36237526 -0.03983054 -0.14593859 0.23716152 0.05240081 0.11913192 -0.22138515 0.54657161 -0.00741901 -0.00851102 -0.17598440 -0.11735074 0.36152068 0.41807297 -0.46456262 -0.18386066 0.14906867 -0.32598087 -0.60714757 -0.30088282 0.15164177 -0.46876621 -0.25312099 -0.58558881 0.23870747 -0.46330494 0.06821902 -0.08279356 -0.35979915 0.51668602 -0.29045185 0.13053416 -0.35871741 0.05385236 -0.50727457 0.15512504 0.34327883 -0.00193175 0.00973586
0.13280347 -0.06531233 -0.04235102 0.31822634 0.65401685 -0.41800699 -0.08288825 -0.73886746 -0.16238081 0.30654472 -0.28092384 -0.32203877 -0.50217700 -0.50837368 -0.58941221 0.42708543 0.04087665 0.57749265 -0.00536925 0.03583729 -0.16540883 -0.10404003 -0.37362352 0.03656121 -0.26320782 0.09279763 -0.18503886 0.47707790 0.33984917 0.02539652 -0.23756409 -0.40149492 -0.43822297 0.50077909 -0.06282036 0.12877856 0.34083471 -0.24967428 0.10704696 -0.20205630 -0.05915726 0.31039450 0.05583955 0.06135859 -0.20513827 -0.58937013 -0.10988406 -0.24601541 -0.50215870 0.27834892 0.18020858 0.20115052 -0.27563426 0.22387485 0.68209398 -0.29786515 0.11667205 -0.08694453 -0.22330248 0.34440759 0.30365172 0.51698947 0.42580172 0.15186709 0.53685248 -0.06583442 -0.17390552 0.41847658 0.14643988 -0.12407766 0.56379503 0.35233408 0.10269088 -0.01281594 -0.39745033 -0.50808728 0.03551360 -0.19089338 0.02649853 -0.22063169 0.26714677 0.09499742 -0.31663305 -0.08426198 -0.06420511 0.11651772 0.05791484 -0.22824661 -0.02173821 0.12764117 0.44693026 -0.05843535 -0.22565360 0.30776900 -0.04555628 -0.23340805 -0.01136739 0.39546505 0.24567723 -0.35922354 0.23088600 0.12128464 0.05421697 0.20074461 0.00678371 -0.14016962 0.40218788 0.33472094 0.25279215 0.57949233 -0.12259920 0.57497489 0.90716785 0.14766699 -0.41621774 -0.51944584 -0.10537619 -0.35307968 -0.64323086 -0.17128868 0.12765720 0.43334585 -0.51351362 0.33266792 0.13284096 -0.07850843 0.08742439 -0.26492754
0.29085955 -0.57864916 -0.11109971 0.38690716 -0.12910749 -0.15219645 0.40279397 0.04983920 -0.12129331 0.02718176 0.23075674 -0.31481737 0.21790367 -0.09946854 0.51554334 -0.23623495 -0.06004272 -0.11134525 0.21308900 0.59994233 -0.38225335 0.01120524 -0.30124432 0.16710639 -0.07491234 -0.11931349 -0.31899393 0.17011076 0.10102977 -0.19263178 0.17321350 0.50375116 0.03411606 -0.08315481 -0.37100202 -0.08956744 0.42241108 -0.26957622 -0.17692088 0.14475735 0.22950865 -0.19825605 0.31092280 -0.06476038 -0.22624579 -0.02630824 -0.12087249 -0.06932140 -0.12366617 -0.49300343 -0.10577554 -0.11943085 0.59290838 -0.42076772 -0.18086007 0.01951387 -0.10617208 0.01894021 -0.02742365 0.38259351 0.13890961 0.03909351 -0.23665723 -0.37414339 -0.34750801 -0.47315541 0.21366267 0.13166019 -0.13607588 -0.01790068 0.28464741 0.03417434 0.40181533 -0.33155051 -0.38283426 -0.45720062 0.29914814 -0.23750883 0.76489347 0.46260568 -0.17780495 0.11509463 -0.06329899 -0.02964647 0.10806517 -0.05140454 -0.10282093 -0.17061327 -0.10954940 0.32599974 0.40503362 0.14525205 0.13648079 -0.08748721 -0.23796836 -0.13609168 -0.02285589 0.57910615 0.43971264 0.54035550 -0.18156092 0.28490397 0.19393268 0.25768891 0.17923714 -0.32887489 -0.07966929 0.24920197 -0.30359429 -0.31912220 -0.00125110 0.15036139 -0.46867889 0.23516816 -0.08359001 -0.16289835 0.26504725 -0.32248580 -0.23577756 0.20112212 0.04318305 0.12356777 0.43023303 -0.01125014 -0.15955907 -0.39531463 0.55722767 0.06697123
1.07717645 0.18846084 0.22999983 0.00300461 -0.53636551 -0.14275040 -0.32262909 -0.03377434 0.08826799 -0.48294157 0.46151945 -0.32860535 0.02119916 -0.39379388 0.15818860 -0.17882867 0.54963636 0.41257060 0.00956877 -0.72526360 0.02271985 -0.01047733 0.14072601 0.39055467 -0.05705260 0.26808405 -0.17894280 -0.25591627 -0.19769083 -0.04700099 0.30776739 0.25678757 -0.19017857 0.12151010 -0.25459278 -0.39330840 -0.31503052 -0.19556262 -0.02895080 0.28990969 0.49141392 -0.07113767 -0.17933826 -0.16998802 0.08427348 0.84526509 0.18079650 0.07342701 -0.34071690 0.11696349 0.50561565 0.57871217 -0.33937019 0.70178050 -0.13194536 -0.32044330 -0.23588309 0.28671661 -0.13730861 0.48787677 -0.30454606 -0.14766912 0.40894246 -0.16668209 -0.03746027 -0.05165913 0.04363880 0.26133299 -0.25373730 0.09967335 -0.15098533 0.29461604 -0.05278038 0.16201150 -0.03261727 -0.23924220 0.29854214 -0.15683082 -0.35723934 -0.00207332 -0.06251645 0.36551127 0.22994004 -0.22124663 0.08644852 0.25849256 0.35282728 0.16018532 -0.02260758 0.31451234 -0.07988027 -0.16781694 -0.22032765 -0.13085133 -0.04586375 0.07599139 -0.45944199 0.38846436 0.59017146 0.04242603 -0.51451623 -0.08385979 0.19795212 -0.00234893 -0.00811116 -0.14714687 -0.49426490 0.08869263 -0.58497435 0.26559758 0.05696591 -0.33553708 0.66660464 0.15621708 -0.41240972 0.22392738 0.00335997 -0.47389653 0.00293965 -0.47100940 0.25478896 0.12343316 0.38927561 0.22458103 -0.56977141 -0.64802122 -0.34313709 0.02960734
-0.05371352 -0.11965942 0.17552747 0.10142520 -0.33459413 -0.33721751 0.61399579 -0.13473658 -0.46277624 0.13881390 -0.66562051 0.46233609 -0.56930190 0.17462975 0.31754878 0.22968319 0.09623219 -0.74387163 0.05696066 0.16783053 0.03692469 -0.23984584 -0.32712707 -0.10549816 -0.26725784 0.37953016 -0.07059785 0.00114226 -0.03802267 -0.25204945 -0.20207903 -0.30101910 0.14664836 -0.02295954 -0.29743633 0.27787507 -0.55156261 0.65021539 0.51569533 0.30526662 -0.17380689 0.05847453 -0.08898716 0.38931182 -0.28979331 -0.23004752 -0.04714238 0.30370495 0.28657708 0.34420601 -0.19697885 -0.25620219 0.09735980 -0.09481428 -0.18124083 0.39690959 -0.56198210 0.65598238 -0.19734313 -0.34530610 0.46537107 -0.12651879 0.12713981 0.07392848 -0.65441650 -0.11806882 0.63173836 0.10986797 -0.20319515 -0.53998017 0.10722238 0.23222871 -0.15461518 -0.22360033 0.47512358 0.41369408 0.13679311 0.12935866 -0.06716242 0.50693363 -0.07757983 -0.24309596 0.34134066 -0.19520979 0.21224280 0.27951270 -0.30312768 -0.02917280 0.09084596 0.40892774 0.03128659 0.06343501 -0.19151393 -0.12111086 -0.28205571 0.04547390 -0.63028991 -0.18341072 0.02479644 0.32639310 0.08642650 -0.17045778 0.11008006 -0.25926042 -0.58957309 0.04178747 0.17773500 -0.12780438 0.31491965 -0.25204638 -0.26551896 -0.11061451 0.43726468 0.00785498 0.25778502 0.00071063 -0.31245944 -0.18619917 0.27378538 0.17652480 0.28988785 0.52163577 0.26179534 0.08749632 0.12594661 0.16907728 0.01389882 0.13415341
-0.12604529 -0.16162108 0.30517024 0.50670475 0.26202226 0.16656712 0.28520969 -0.58918905 0.36839074 0.20535204 0.00352189 -0.54971820 -0.09091085 -0.51421946 -0.31014714 0.37138760 0.33604160 0.22429912 0.23750602 -0.19328426 0.49529454 -0.15604147 0.30620039 -0.06198651 -0.12227277 -0.25004274 -0.04831039 0.37123567 -0.40630853 0.12268839 -0.38979411 -0.25797075 0.15032500 0.47881746 -0.29014698 -0.13484728 -0.02335698 -0.18739329 0.23005754 -0.29882351 0.13976121 -0.02520112 0.52439600 0.01395963 0.20971689 -0.01774747 -0.40013829 -0.44944599 -0.32011810 -0.33740821 0.13823964 0.00055888 0.18709750 -0.27568322 0.41807628 -0.01015369 0.52119339 -0.69088501 -0.08162031 -0.25991279 -0.12585978 0.27728626 -0.14087598 0.38325825 0.27212483 0.49834332 0.32058308 0.28140265 0.43762448 -0.23361564 -0.08246458 -0.17694028 -0.68580621 -0.67690486 -0.26059997 -0.00534631 0.21196575 -0.13416074 0.04368307 -0.07368786 -0.32897311 0.08250823 -0.60487151 -0.15133266 -0.39818481 -0.35607564 0.40397483 -0.09356285 -0.37504467 0.43800560 0.21397413 -0.18647227 0.36416459 0.15474018 -0.17324106 -0.31178069 0.64934486 0.12253625 -0.56186515 0.42254412 0.53876770 -0.29842716 0.07008148 0.12774485 0.34646857 0.36193407 -0.22520144 0.19271758 -0.20037372 -0.32927272 0.46733266 0.48453772 0.44411853 -0.11286632 -0.11324427 -0.35471386 0.05987979 0.24346733 -0.19667234 -0.04579244 -0.10246445 -0.11127912 0.17095658 -0.80501395 0.13130417 0.03876442 -0.03958767 0.37097415
-0.26190951 -0.69819945 0.33751059 -0.07175682 0.58072203 0.35585338 0.18245941 -0.07767655 -0.25124270 0.21061461 -0.13497806 -0.02855979 -0.23563962 -0.05374813 0.01144194 -0.08864301 0.13300517 -0.25468826 0.32545868 -0.00568873 0.05257952 0.07711341 0.07582518 0.01944666 -0.18905285 -0.06868178 -0.02521432 -0.04296819 -0.03354225 -0.09680108 -0.28849179 -0.04717381 -0.17451361 -0.20709886 -0.66736871 0.19981007 -0.02524346 -0.34622449 -0.00155640 -0.05929552 -0.05731362 0.08248032 -0.05532385 -0.53417832 0.07930941 0.18152265 -0.38963604 0.10948742 0.19428247 0.17749970 0.37672657 -0.58551604 0.19937964 -0.04708144 -0.41005075 0.31520495 0.08759631 -0.37235764 0.15448408 -0.09606002 0.01613276 0.05702850 -0.08331805 0.05502731 0.05442348 -0.14806704 0.12048083 0.26457465 -0.17867225 -0.08424392 0.21360236 -0.14251244 -0.26022059 -0.05027910 0.08125637 0.14393246 -0.07872698 0.01761457 0.28852329 -0.19694023 0.48066998 -0.38716125 -0.27732730 -0.01770461 0.18743831 -0.00108482 -0.05241873 0.06924262 -0.04618086 0.02896724 0.29012230 -0.40174538 0.28557035 0.35687345 -0.00638872 0.01032135 0.04872383 -0.35737243 -0.24980691 -0.00405207 0.32465348 -0.02359361 -0.11658102 0.61881465 0.06328267 -0.38022926 0.21162510 0.08206870 0.28279769 -0.38636896 0.25217021 0.20004123 -0.02021798 -0.03271458 0.38152152 0.13975306 -0.06413832 0.36213642 -0.18862125 0.23425350 -0.34647366 0.06335267 0.12271529 0.02445477 -0.04675986 0.04539853 0.23004210 0.04734575
-0.57557893 -0.42428911 0.32813111 0.36195236 -0.30918515 0.02412083 0.09736857 -0.07584959 -0.31128103 0.37263018 -0.38227987 0.31462243 -0.14677605 -0.33231723 -0.04360169 0.21974131 -0.08068998 -0.18906845 0.44262409 0.33935434 -0.09121533 -0.20213100 0.12005341 0.72934681 -0.12103928 0.08068695 0.13875307 -0.27159643 0.36708322 -0.20462936 -0.24806532 0.22604145 0.24872187 -0.10430242 -0.08513253 -0.03153837 0.06944006 -0.18564816 0.44668540 0.02621525 0.16087523 0.06295324 0.30016482 0.09278822 -0.38996184 -0.05608625 -0.15691262 -0.23202127 0.03680767 -0.32877266 0.29920599 -0.84742188 0.42125508 0.45932052 -0.13508415 -0.22913550 -0.03449493 0.07837892 -0.39200351 -0.03000618 0.44642374 -0.26625443 -0.03423452 -0.47148904 0.33016881 -0.25889710 0.55307436 0.13196158 0.03377393 0.15150131 0.05664250 0.20745501 -0.45334059 0.05877135 -0.29428703 -0.21569367 -0.17869307 0.43400899 0.26124030 -0.34489670 0.06338078 -0.36519161 0.01295438 0.11174969 0.07362138 0.42942527 -0.22249244 -0.18567494 -0.15205039 0.20095038 0.17075710 0.07852793 -0.37224093 0.09456437 -0.17097323 0.25991789 -0.21568367 0.00672969 0.50379097 -0.12999585 0.00333428 0.35992911 0.41935381 0.12437815 -0.39303538 0.32445434 -0.11624664 -0.27928576 -0.21484527 -0.07016147 -0.40662196 0.04920214 -0.04881988 0.02694715 -0.26674086 0.35416955 -0.29727036 -0.48457664 0.22742455 -0.01488162 0.09344430 -0.22225820 -0.10557794 -0.05836451 0.19419067 0.13395594 0.13300684 0.13147835
0.29981771 -0.41210631 0.79902095 0.42382389 0.25947049 0.19896604 0.61296862 -0.03180705 0.02582618 -0.19820289 0.05404235 -0.11604670 -0.23226142 -0.00095024 -0.01158187 0.25898057 0.31498179 -0.24260786 0.21867859 -0.69484854 -0.15493791 -0.10174437 0.58137429 0.39210632 -0.12443186 0.03886475 -0.03602256 -0.33668810 -0.47818565 -0.10428249 0.13194355 0.04796208 0.00440784 -0.22736271 -0.82552665 -0.16482104 0.02373663 -0.43989897 -0.22503453 0.07809256 0.48919854 0.07239630 -0.25716531 -0.41780829 0.15275463 -0.07621772 -0.01497584 0.02920187 0.06814925 -0.26562577 0.08741620 -0.21578841 -0.07565784 -0.18413259 -0.27474320 0.10034867 -0.17754027 -0.33901104 -0.37434542 0.48957250 -0.10839023 0.20900768 0.47489887 -0.29643497 0.47503152 -0.37851670 0.46397766 0.38729674 0.15875196 -0.14226779 0.24316990 0.37615943 -0.66817790 -0.40279040 0.68712896 -0.15496367 0.11418127 0.00877103 -0.15366308 0.14106157 0.17068473 0.32708442 -0.29211465 -0.27350044 -0.23268043 -0.03734266 -0.32580015 -0.01085080 -0.64524990 -0.04407560 -0.10196929 -0.21940735 0.18790430 0.15237293 -0.17280877 0.00715037 -0.14036575 -0.15777321 0.09464539 -0.34215125 0.16137195 -0.19793992 -0.05678862 0.97134113 0.32584682 0.13956821 0.24036595 0.13388756 -0.39755863 -0.24646600 0.21276253 -0.26658729 0.62097037 0.44231570 0.37319204 -0.05887091 -0.02356301 -0.49764201 -0.21546070 0.25695053 -0.38347733 0.11311745 0.50282019 0.23455806 -0.48216349 0.03198163 -0.27670774 -0.15568265
0.21515001 0.08447973 0.40018144 0.04099542 0.02385464 0.36478221 0.05852407 0.29401520 0.34726709 -0.42540735 -0.65183467 -0.39363647 0.04955355 0.39615619 0.19557181 -0.97418821 0.03984832 0.17478135 -0.27380240 -0.07117626 0.15035625 -0.22533198 -0.37809241 -0.20101538 0.02165868 -0.29540142 0.01192392 -0.48724064 -0.64184129 -0.23138711 -0.68546295 -0.32312360 -0.04878130 0.08967302 0.44832909 0.33977661 0.27908608 -0.07806908 -0.46579400 0.19876812 -0.51019645 0.11823319 -0.37212354 0.50177842 0.22506063 0.08628425 0.21295045 0.12674302 0.26603574 0.29376522 0.04736001 0.03565710 -0.05968384 0.02292180 -0.27037615 0.16866888 -0.45414653 -0.18046016 0.76335138 -0.09196451 0.32415673 0.28326428 -0.14096390 0.39905638 -0.17143860 0.18154226 0.06283179 -0.54905510 -0.09064580 0.39186776 -0.04570792 0.01254248 0.52530503 0.46721506 0.12791426 0.20881513 0.39592880 0.07800380 0.08633295 -0.13431841 0.43778691 -0.21503048 -0.16317809 0.07224301 0.68390793 0.20701775 0.27214995 0.30411056 0.55118084 0.00508483 0.27655146 0.08744849 -0.02098828 0.05844264 -0.06863017 0.01329558 0.09603430 -0.37850347 0.27832904 -0.45010558 -0.12129568 -0.10773332 -0.06576461 -0.27434286 -0.01077332 -0.85394704 0.22101502 -0.21160465 0.21115884 0.03581975 -0.78427327 -0.46345967 -0.03314054 0.09068238 0.12866323 -0.03139141 -0.43137646 0.05875866 -0.49685022 -0.13685939 -0.05593938 0.18503518 0.45693120 0.18060574 -0.02866119 -0.40731239 0.23717673 0.32515278
-0.13080922 0.73088503 0.49286595 0.33876276 0.34680307 -0.19001819 0.23929714 -0.09893356 -0.39836311 -0.43154517 -0.33297721 -0.04901915 -0.07857797 -0.34484157 0.44540751 0.22387902 0.19735070 0.05365756 -0.18012764 -0.17061520 0.23923999 0.14127800 -0.42676479 0.22747715 0.07520103 0.10705777 -0.40783221 0.42709100 0.53560472 -0.37266374 0.11977216 0.00641200 -0.20553780 -0.09878196 -0.41580680 -0.16503187 -0.05105000 -0.08965575 -0.06183189 0.36352533 -0.23095310 -0.50297558 -0.21668261 0.33484155 0.15523832 -0.26826414 -0.64613205 -0.06857246 -0.05635694 0.49661979 -0.13567807 -0.08876058 0.12605548 -0.16653593 0.11868729 -0.21696359 0.15110865 -0.34986502 0.21441095 -0.41283417 -0.20081936 -0.16376875 -0.19957265 0.31689182 0.66563541 -0.13905886 -0.36637563 -0.06742364 0.20454420 0.25927165 0.05946949 -0.33689925 0.36674476 -0.33185709 0.07379086 -0.27728811 0.13758092 -0.17575775 -0.05741186 0.06752227 0.04335056 0.19473000 0.16302611 0.01711846 0.10115838 -0.01233748 -0.55154973 0.36050081 0.49293140 0.02311686 0.53101224 -0.05955684 0.02790335 0.10290637 0.00214562 -0.22416799 0.97904778 0.11241979 -0.16030970 0.07856829 -0.09314122 -0.15593100 -0.69139773 -0.00288875 -0.47174251 -0.54159546 0.19987330 0.25171614 -0.25847983 0.14095747 0.07935219 0.39666876 -0.01830969 -0.07342567 0.37839076 -0.33934397 0.68219304 -0.01387875 -0.45428303 0.55848712 0.07467338 0.12967850 0.16324054 0.17411590 -0.27949223 -0.10030089 0.16111882 0.36269841
-0.26494896 0.11992042 0.20779943 0.29204613 0.39855778 -0.18709752 0.08870494 -0.05459360 0.18073399 -0.12838891 -0.05591245 -0.10603949 0.16520078 -0.42331195 -0.10067540 -0.46521181 0.22974607 0.18619868 -0.38942781 0.01808699 -0.07537140 -0.07648054 -0.57828766 0.87650281 -0.28501263 0.55894673 -0.48321703 -0.01739130 -0.42903161 -0.08121805 -0.39895669 -0.12560312 -0.19971216 0.40271974 -0.19004805 0.47981495 0.64108378 0.08937104 -0.33416262 -0.13045543 -0.14925127 0.92580211 0.25277275 -0.00517750 -0.14756808 -0.09783114 -0.26356497 0.50059342 -0.17537425 0.19295122 0.06135057 0.19325525 0.14549674 -0.42570415 -0.28125423 -0.23609117 -0.58640987 -0.15189631 0.37351760 0.35582370 0.20843197 0.17366201 0.15395008 0.18611313 -0.02889488 -0.06410363 -0.29530138 0.01710246 -0.33089823 0.24253909 0.56199920 0.35663477 0.21797453 -0.10087475 -0.12634619 0.02770104 1.00028121 -0.04743685 0.06450102 -0.04255518 0.19624433 0.28679097 -0.13874634 -0.06755131 0.19193222 0.13299590 0.09138523 0.37429306 0.14221182 0.00538208 0.27091423 0.00637288 0.11146791 0.21665756 -0.08202705 -0.18986072 -0.03637285 0.19017230 0.41927662 -0.16858837 0.05529515 -0.23107737 -0.45590281 -0.03809970 0.14421844 -0.85341436 -0.03908191 0.04390987 -0.10542677 0.16824611 -0.31841874 -0.02626655 -0.06751145 -0.12597509 -0.13421838 -0.43772069 0.00545554 -0.42277318 -0.39977771 -0.42362258 0.02931633 0.28749073 -0.17562613 -0.49648547 -0.37844053 -0.44573769 -0.15865262 -0.22159648
0.08484124 -0.72863621 0.54047751 -0.71442157 -0.15578687 0.54695797 0.06279007 0.17581017 0.35320473 -0.38441110 -0.01767346 0.47836864 0.21965306 0.17252588 0.06678611 -0.47141728 -0.08748498 -0.13653083 0.22882311 0.40177187 -0.23298606 -0.04589137 0.72866368 0.60495877 0.36070296 0.41298524 0.29120466 -0.08607876 -0.46074253 0.56955582 -0.69418985 0.40282166 0.19585659 -0.21946272 0.22201408 0.02226929 0.05734639 -0.22143807 -0.34794888 -0.19325159 0.34907234 0.13925511 0.12994765 -0.48467213 -0.54850292 0.44292116 0.41159570 0.11726597 -0.32627860 -0.53818327 0.34514111 -0.55188918 0.04970491 0.10746424 -0.40232098 -0.27648705 0.07128145 0.22539866 0.10423864 0.35801649 0.23809803 -0.23291680 0.24066310 0.36175165 0.13128795 0.01282449 -0.23176937 -0.31687295 0.01675496 0.38705713 -0.15875264 0.35625380 0.07270464 0.13175473 0.14758554 0.26783472 -0.13680500 0.67580163 0.39390147 -0.54910392 -0.21820639 -0.80322224 -0.20208254 0.29392719 0.08919265 0.48628411 0.13993438 0.07406524 -0.15599899 -0.13079561 0.05349931 -0.13637656 -0.24811423 -0.38876545 -0.00638254 0.40497914 -0.06501273 0.24520405 0.56451786 -0.42358530 0.07270987 0.51687336 0.41487014 -0.03436156 -0.23258629 0.26798895 -0.42717290 -0.21128821 0.13881646 -0.19648051 -0.30770826 -0.43331015 -0.19994722 0.44134662 -0.39800999 -0.03572318 -0.05171589 -0.31729099 0.27070522 -0.28151268 -0.37644112 -0.38384047 -0.26220348 0.23363906 -0.15495095 -0.19685009 -0.35053748 -0.09302374
0.30813456 0.31463113 -0.51514363 -0.47763619 0.19334446 -0.18300660 -0.44134954 0.28067794 -0.27583554 0.06912773 0.18060188 0.24447389 -0.02863985 0.55356407 0.17520437 -0.21816920 -0.63972056 -0.19433528 -0.29547673 0.25359061 -0.34945944 -0.13999189 -0.86369562 0.16460700 0.28683239 0.23047581 -0.16659643 0.11440099 0.28251803 0.26208588 -0.54036748 0.27499175 0.03387330 0.00212851 0.31389156 0.18892717 0.17671281 -0.14318709 -0.19215189 0.03044261 -0.54841882 0.19697836 -0.11575684 -0.35592440 -0.22474042 -0.05636057 0.40758994 0.19686361 0.17039266 0.43168449 0.00031380 -0.20647122 0.28081918 -0.31088975 -0.10389119 -0.01953002 -0.07893155 0.40146846 0.11240125 0.36446849 0.22282048 0.16053446 0.22874694 0.46985343 -0.01620436 -0.22153358 -0.15850545 -0.20874587 -0.11137557 0.03745388 0.38331062 0.47445506 0.71401036 -0.01097010 0.26353469 -0.01124803 0.30946064 -0.05615225 0.49663550 0.06399954 -0.18395455 -0.07661987 -0.05275300 -0.02369034 0.11590065 0.06362665 0.00622040 -0.37732548 0.61617303 -0.54855728 -0.00258165 -0.19171387 -0.27310407 -0.17030375 0.17700471 -0.28693065 -0.40464726 0.54815298 0.09091747 0.01575237 -0.30865908 0.79774755 0.01108781 -0.36229733 0.06905836 -0.83082354 0.17436184 -0.11066072 0.02580234 0.29701617 -0.13966787 0.46785820 0.19507371 0.19640374 -0.33901933 -0.44070739 -0.57169509 -0.00840078 -0.16936836 0.24918869 -0.02175032 0.40987864 -0.41536930 0.30264196 0.20083310 -0.05705374 -0.16757977 -0.22268081
0.22885711 -0.13373367 -0.70250893 -0.23635110 0.42341688 0.29205388 0.03549283 -0.24786474 0.37740201 -0.43558016 -0.04791541 -0.13321348 0.48567685 0.26359445 0.67674774 -0.03805339 -0.41286063 -0.04841221 0.38583151 -0.28764787 0.37978554 0.16653194 0.09271925 -0.35102752 0.52163881 0.27129114 0.06554330 0.40053400 -0.12473322 -0.50520760 0.16591571 0.06070839 0.37261534 -0.35187355 0.03117731 -0.19564651 0.04186360 -0.34198496 -0.42495874 0.19269782 0.08700159 -0.22675054 0.21892452 0.04972656 -0.00929168 0.07610092 0.05021133 -0.10777185 -0.31083217 -0.05002461 -0.07288811 -0.15719855 -0.09520726 -0.18613607 -0.01748085 0.07224685 0.16952564 -0.29012969 0.23521388 0.34399989 0.05708492 0.13437380 -0.34383574 0.57601738 0.30552506 0.10818100 -0.48205069 -0.16253944 0.51112396 -0.25625455 -0.15984094 0.13922198 -0.24873658 -0.17394541 0.41474614 -0.52062011 0.04787815 0.06180263 -0.08661164 0.20385931 -0.21731983 -0.07053357 -0.16699670 -0.37271610 0.21466403 0.26549569 -0.52413636 -0.33587024 0.00628753 -0.13452765 0.09134191 -0.02662717 -0.14714807 -0.29017857 0.68303072 -0.06482216 0.39073494 0.09283574 -0.14734113 -0.62725180 -0.47973478 0.66912818 -0.10708327 0.03356226 -0.27251571 0.35626203 0.43857625 0.39774543 -0.00840365 0.16647306 0.17700858 0.17162423 -0.12847847 0.24592067 -0.17955188 -0.70839447 -0.30736458 0.05677416 -0.29068530 0.08146030 -0.20783001 0.29326630 -0.32793558 0.27304700 0.13840503 0.30113173 0.10083542 0.15676376
0.04945547 0.11954324 0.07356802 -0.01870883 0.13480090 -0.20360245 -0.06657843 -0.15782461 0.01946068 0.30816239 -0.39803237 -0.09566567 0.22609848 0.45956036 -0.04866301 -0.20665102 0.22287612 -0.11303293 -0.26319367 -0.17336740 -0.08741780 -0.12160823 0.02316426 -0.34661168 -0.13403100 -0.17955017 0.46390501 0.05261064 -0.32758671 0.18078612 -0.40807921 -0.27478039 -0.29723108 0.27885479 0.41296989 0.36654204 0.08665406 0.07018005 0.04753544 -0.06527846 -0.00474234 0.12312632 0.34779048 -0.14047959 0.18487598 -0.31922117 0.52868605 0.14378320 -0.35237339 0.12949839 -0.16115437 0.16885008 -0.01334285 -0.31445852 0.35556078 -0.10368033 -0.19960630 0.15776275 -0.09600363 0.21675675 -0.08234441 -0.30758283 0.19243163 0.31849617 -0.33099985 0.21144342 -0.28644985 -0.03809014 -0.33711118 -0.31103799 0.42963940 -0.06879124 0.14072704 -0.20345730 -0.28230020 0.04838521 0.21518509 -0.01297368 -0.30238318 0.21657780 0.21392886 0.29340917 -0.12065583 -0.22125402 0.09437646 -0.03294818 0.11210883 0.13959739 0.26781815 0.17814329 0.16381599 -0.36792803 0.61676675 -0.21344343 0.02911746 -0.53006202 0.17492284 -0.01776132 -0.07386266 0.25402632 0.22460271 -0.52347791 0.02098217 -0.17435001 0.35754570 -0.28286549 -0.37227681 -0.03889192 -0.11457668 0.40803954 -0.08547916 -0.23658222 0.08985582 0.18058951 -0.24186696 -0.40032777 0.05777755 -0.07236407 0.01619538 -0.01555809 0.07254311 0.05047099 0.04890199 -0.14813635 -0.15421203 -0.02277213 0.12611696 0.06071147
-0.72162843 0.89418662 0.10497631 -0.17541887 0.01490302 -0.63227576 -0.14069870 0.49547634 -0.24279487 0.68219185 0.69779283 0.47958055 -0.07213870 -0.29521826 -0.49541581 0.32618421 -0.00652836 -0.04355187 0.04937701 -0.56773609 0.08133721 0.06274032 -0.17884602 0.82204175 0.22060439 0.61030346 -0.11876681 -0.12665486 0.25462982 -0.18645854 -0.02484470 0.18592736 -0.19030197 -0.21911715 -0.36367857 -0.31607643 -0.63007855 0.15619959 -0.03432196 0.20126615 -0.10181659 0.07817382 -0.07117615 -0.29771256 0.38879716 -0.03957202 0.26868916 -0.22499169 -0.08130048 0.02725216 0.16370565 -0.21617958 0.06432194 0.19030245 -0.05996620 -0.35691950 0.12623423 0.47676846 -0.28651631 0.27007806 -0.31486064 -0.13132647 0.46268484 -0.02768412 0.46343085 -0.41699281 -0.59047991 -0.14060308 -0.12355997 0.23976271 -0.25537965 -0.08592249 -0.06432408 0.00905558 0.34184533 0.23231144 0.27583259 0.02310853 -0.03514732 -0.09387980 -0.24002311 0.17161296 0.11518927 -0.45034462 -0.12659799 0.04633744 -0.29346117 -0.06684432 0.47653645 -0.24964325 -0.06362224 0.20056415 -0.05796052 0.40321559 0.32810232 -0.26974127 0.16789702 0.12581776 0.34062573 -0.01626736 -0.61941320 0.28707558 -0.48723924 -0.30782801 0.15642276 0.15218662 0.18611653 0.32313803 -0.39569715 -0.04690195 0.24418049 0.35511163 0.18117167 0.13399945 -0.30951989 -0.16167541 0.09805090 -0.67965037 -0.02079483 -0.30964404 0.04386112 -0.14400832 -0.05904393 0.01040461 -0.11983699 -0.28426298 -0.30749458 0.13565797
-0.56524938 -0.16818361 0.13276507 0.26455760 0.46495900 0.00415975 0.02048426 -0.33734849 -0.19778949 -0.34466952 -0.12936509 0.20394245 0.02617600 -0.57937336 0.19293003 0.69873154 -0.21858397 -0.27742097 0.02622250 -0.16618972 -0.53861970 0.11317389 0.21321508 0.13918705 0.04964789 -0.09434672 -0.20406468 0.20063297 0.16454476 -0.05879734 0.71657896 0.16416644 0.12161640 0.11504419 -0.15155397 -0.03025978 0.31009522 0.29656243 -0.04916187 -0.39320412 0.09526314 0.23569186 0.13168995 0.43049711 -0.13598458 -0.08821701 -0.23272936 0.42030084 0.48935604 -0.44093025 -0.21986316 0.35590568 -0.39418593 -0.18157545 -0.00088783 -0.29075336 -0.25944209 -0.14804034 -0.32173309 0.20562036 0.16064677 -0.19463663 -0.20072220 -0.20305352 0.44122076 -0.70606214 0.14104010 0.15418383 -0.23665255 -0.21278067 0.11701696 0.41549468 -0.17577642 0.54277384 0.01835454 -0.33583143 0.22337209 0.17713954 0.02230916 -0.27960077 0.33125660 0.60451257 0.53944635 0.32482451 0.03920454 0.33858874 -0.48177406 -0.19499068 -0.13002470 -0.03359627 0.13975395 0.43928552 -0.34893036 0.08214924 -0.23173785 0.48439887 -0.45428258 0.18533076 0.49678126 -0.45604077 -0.29871488 0.21435720 -0.29049441 0.72438717 -0.28175479 0.02345023 0.44869503 0.03418438 -0.12863643 0.18481189 0.00616404 -0.22887312 -0.31135985 -0.55261147 0.22513524 0.45945367 0.48047468 -0.39876384 -0.24017310 0.03094293 -0.52530473 0.38775176 -0.27901393 0.28785703 0.05011305 -0.43650708 0.05001729 -0.17988189
-0.81825221 -0.44929120 0.20138215 -0.86169082 0.53850240 0.30984053 -0.05040951 0.13820387 0.42117056 0.13013910 0.07091370 0.13384084 0.39767125 0.03884147 0.19075000 0.37728620 0.18635476 -0.25824705 0.34163836 -0.13150746 -0.30355608 0.07838177 0.58329463 0.08099413 0.11712989 0.17379738 0.65454096 -0.13976786 0.30081624 -0.14810400 0.58429235 -0.06561247 0.13419241 -0.21935369 -0.14105886 0.56195432 -0.09153135 0.09334686 -0.16856104 0.10737203 0.34409693 0.09310712 0.06787938 -0.54008639 0.40916708 -0.42653543 0.44750199 0.01769256 -0.39690316 0.05899590 -0.11769322 -0.38872179 -0.25051674 0.24575263 0.06338584 0.23968704 -0.24465188 0.49098426 -0.31096873 0.48568425 -0.11521489 -0.44970933 0.24533595 0.30274290 0.16636018 -0.29760608 -0.70123309 -0.38783640 -0.56534451 -0.38259557 -0.10550427 -0.32673436 -0.31750149 0.22809757 -0.15756693 0.05728226 -0.31028977 0.07832991 -0.25996357 -0.07052539 0.10017727 -0.47441882 -0.34867081 -0.58428919 0.11423243 0.13470396 -0.15109594 -0.00943555 0.18226600 0.22928119 -0.03971918 0.06424823 0.69791418 -0.09968384 -0.01586278 -0.31762785 0.10600133 -0.43171531 0.36234385 0.00599121 0.32749552 -0.54564190 -0.18576668 0.23838231 0.20620224 0.12635224 0.05878833 0.18673882 0.02149182 -0.32149434 0.35909897 -0.05602570 0.03217195 0.41483805 0.22727156 0.12190019 -0.36203468 -0.04688160 -0.16106561 -0.04412789 -0.36854079 -0.17282777 -0.14462291 0.26660985 0.16870983 0.16149314 -0.42248666 -0.24790509
0.26039571 -0.72097594 -0.72093666 -0.57329267 -0.10160907 -0.31850073 0.29846865 -0.39087012 -0.18170828 0.11402988 -0.33240300 0.20486788 0.03133521 -0.28351703 0.58231282 -0.17566609 -0.09954836 -0.29090261 -0.26912361 -0.00261558 0.24750739 0.38360831 -0.51216912 -0.85238338 -0.00695764 0.26098531 0.01532281 0.00074904 0.20434387 -0.18530515 0.34929529 -0.31510276 0.03408491 -0.07096681 0.13298465 -0.34025922 -0.51577675 0.14542758 -0.45038405 -0.10072622 0.41236371 -0.29783487 -0.06096715 -0.66974699 -0.46059307 -0.01517350 0.03809749 0.15729925 -0.16349061 -0.37754366 1.00675285 0.22054996 -0.22651927 -0.09113489 -0.02829888 0.15066208 -0.21634045 0.52385449 0.42452356 0.30999705 -0.06956871 0.01572181 0.12182695 -0.36295903 -0.38795611 0.46534190 0.12320497 0.53132635 -0.36528963 -0.82028419 0.19007978 0.23961338 0.10128659 0.15701433 0.15963526 0.02859026 0.17541490 -0.09002948 0.41779706 0.50378674 -0.35458761 0.05112919 0.33665216 0.00718535 0.49261841 -0.03951833 -0.10976157 -0.10327920 0.03650574 0.07388786 0.13002844 0.19269510 0.31368530 0.14155847 0.26120487 0.01705038 -0.26723868 0.24384445 -0.20931809 0.24299724 -0.08050042 -0.15517093 -0.65057307 -0.23949727 -0.21594478 0.42413437 0.51932746 0.31776837 0.17339091 0.17024595 0.21141180 0.02366305 0.10195458 0.08656941 -0.21318534 0.41276237 0.25369570 -0.09801935 0.36914605 -0.77795845 0.10090346 0.36512536 0.06896991 -0.72499949 -0.07098702 -0.14253820 0.28913745 0.06842288
-0.53422827 -0.42678952 0.12721936 0.10214272 0.77918637 0.56628847 -0.08266111 0.03682617 0.22891262 -0.04894410 -0.08744508 -0.51477998 0.19969809 0.14615673 -0.17820279 0.52265483 -0.49118516 0.17917061 0.06079847 0.15314989 -0.22740430 -0.08778190 -0.37875906 0.26946518 -0.17793603 0.25373796 0.11797319 -0.28012478 0.18093532 -0.41871962 -0.20578936 -0.31439981 0.06017803 -0.30086687 0.67941129 0.26967001 -0.04887244 0.37816525 0.00468910 0.03755577 -0.47183385 -0.16881430 0.08647814 -0.02245337 0.10792695 0.06615723 -0.07313265 0.30426806 0.06275295 -0.15790573 -0.27049425 0.04131858 0.23224579 -0.10443196 -0.25362942 0.25881296 -0.26742843 -0.01256966 0.03430721 0.44617268 -0.14822815 0.24393103 -0.48193014 0.09914502 -0.22013468 -0.08192998 0.18459725 -0.52867156 0.08485787 0.19475907 -0.04091861 -0.08758883 0.33747008 0.43184012 0.05003745 -0.28001827 -0.02575861 -0.23035826 0.14709096 -0.01370942 0.10728049 -0.20698260 -0.27942097 0.14880148 0.73344630 -0.27190593 0.16030189 -0.18953444 0.48529226 0.16965893 -0.18196015 0.37332335 0.01278863 0.24991377 0.13308769 0.20537928 -0.30121568 0.24821018 -0.02006930 0.19328578 0.09276859 -0.21691279 -0.26607212 0.22046086 0.34655070 -0.16224524 0.17204271 -0.08030132 -0.01192952 -0.31782579 -0.02192555 -0.02815939 0.00295735 -0.11612204 0.56092334 0.04079452 -0.41437286 0.25604215 -0.09781755 0.01818891 -0.42569295 0.10320498 0.09987252 -0.10512716 0.32091510 0.06486480 -0.00408845 0.43215197
0.16643459 0.65821397 0.16061774 -0.47204062 -0.70667553 0.04819045 0.13166560 0.14249274 -0.58060014 -0.26639751 -0.00036410 0.28447255 -0.01080249 0.60700428 -0.09139752 0.33067688 0.07180478 0.14356205 0.10762090 0.17921354 -0.35147798 -0.13724796 -0.21651131 -0.09603368 0.01564891 -0.76726526 -0.50751448 -0.76098913 0.40296596 -0.10673673 0.24043585 0.23893757 -0.03520034 -0.04472843 -0.25586733 -0.13276313 0.01944438 -0.24201882 0.13899337 0.41049653 -0.58728153 -0.22982863 -0.38364637 -0.59501433 0.25991112 0.14559029 0.40962633 0.02374927 0.50591236 0.02643122 0.23071557 -0.14648759 0.01672855 0.00451735 -0.18697327 -0.34850937 0.01450801 0.11205254 -0.13524620 0.15248203 -0.39425606 0.32511964 0.37736174 0.20735998 0.20148149 0.05375067 0.50946468 -0.19031705 -0.42761883 0.10547215 0.15349144 -0.10012742 0.82978660 -0.24086115 0.22611317 -0.15574798 -0.08372165 -0.26366597 0.29133025 0.03801204 0.09633889 -0.19805808 0.17175268 0.41624254 -0.21139553 -0.29992041 0.25000742 -0.22674668 0.35776925 -0.29313800 -0.07285906 -0.01038056 -0.11241990 -0.19048119 0.03438075 -0.08062488 0.03886124 0.27740732 -0.07128901 0.11584543 -0.28190824 -0.02820366 -0.30417201 -0.24037598 -0.28870684 -0.55502582 -0.07810857 0.29942718 -0.12140497 -0.22451706 -0.11136095 0.38270867 0.15502006 0.37576267 0.42396039 0.19281118 0.09644829 0.17983906 0.27895719 0.46909988 -0.02104513 0.58786649 -0.06600529 0.36734086 -0.18005177 -0.38895276 -0.25558075 0.06483753
0.04337692 -0.44033009 0.27096578 -0.41652396 0.31139949 -0.08505250 0.26504585 -0.02260111 0.29882923 -0.29479879 -0.27529320 0.05904750 -0.29250759 -0.13099995 0.13477959 -0.75445968 0.30569631 -0.30884597 0.09704983 0.25741109 0.15685527 0.14505930 -0.26192617 -0.07438919 0.13689807 0.17620236 -0.21212214 -0.18199933 -0.06799226 -0.14485689 -0.06383125 -0.25245529 -0.00284008 0.21378848 -0.68828702 0.01056074 0.14736369 -0.41486028 -0.45170000 -0.03034920 0.36586285 0.09632757 -0.24129942 -0.14874376 -0.08491109 -0.22848095 -0.27330443 -0.01399315 0.13440722 0.05488594 0.45209321 -0.32657838 -0.27414513 0.12914668 -0.22388880 0.40643230 -0.24417233 -0.14828339 0.49146613 -0.34513208 0.53977245 0.25787190 0.31092376 0.41429240 0.29224271 0.26260695 0.03198234 0.23393278 -0.04903975 -0.01802400 0.18168704 0.20087481 0.00896220 -0.06500788 0.23945284 0.27799690 0.11823934 0.24149857 0.14854583 -0.29917115 0.07935891 -0.39917403 -0.07293919 0.18614566 0.14423454 0.22604777 0.27319932 0.33818263 -0.18614964 0.03891763 0.53228259 -0.07443914 -0.08296023 0.02499323 -0.24989773 0.05143127 0.23316309 -0.28340533 0.15223508 -0.29863977 0.21839759 -0.19310847 -0.34850153 0.18810648 -0.67233348 -0.32811144 0.42274848 0.17993107 0.36881399 -0.16226484 -0.24410537 0.04227142 0.24803387 0.17154427 -0.06805909 0.08160247 0.10414530 0.05438152 -0.20546052 -0.33187014 0.04654778 0.04408608 0.08266006 -0.16954933 -0.03912843 -0.06204282 0.20972367 -0.26425055
0.54155278 0.21405409 -0.33616555 0.31897050 -0.08010034 0.06764185 -0.01008801 0.26420030 0.17200015 0.02505882 0.35752976 0.02658618 -0.29405716 -0.30579084 -0.16210742 -0.01241634 0.16397072 0.43211243 -0.02968667 -0.01600476 -0.26977482 -0.01311153 -0.27694574 0.17907636 -0.14525439 0.27616662 -0.06671662 -0.21503597 -0.03475564 -0.24996740 -0.02700731 -0.32760593 -0.19173613 0.05333982 -0.38318151 -0.14353326 -0.05268413 -0.09513021 0.37521720 0.09115309 -0.13216747 0.29746777 -0.50540912 0.31082907 -0.02306835 -0.05236309 -0.49981484 -0.21580663 -0.00424115 0.42048731 -0.04062041 -0.04233382 0.29796344 0.29211718 -0.02311414 0.27316904 0.11150158 0.29308066 -0.05960356 -0.27758804 0.16496257 0.58676744 0.21433648 -0.31726000 -0.11846129 0.13576251 0.42991179 0.03259597 0.38023773 0.17054433 -0.09442873 0.37408933 -0.58109927 -0.07542384 0.23621988 0.25754029 -0.02713549 -0.23193265 -0.28445512 0.37574691 -0.27285078 -0.10777911 -0.28792262 -0.38904956 -0.41781810 -0.22761029 0.04858983 0.02625579 -0.43369728 0.32864901 -0.47311202 -0.04477801 -0.07142239 0.02356829 -0.12692304 0.12274063 -0.37967584 -0.11720663 -0.08959964 0.15467678 0.38867065 0.03502386 0.37109691 0.04057657 0.23885301 -0.07046024 -0.07584619 -0.32281578 0.26805046 -0.03230131 0.15049277 0.29365161 0.65897048 -0.10555480 -0.44346157 -0.18952574 -0.76552022 0.16615970 0.03801993 -0.38837492 0.12378273 -0.19999427 0.10698925 -0.05433200 -0.02178974 0.39963946 -0.18774237 -0.58154815
0.44490692 -0.34318170 0.19163725 -0.72041184 -0.74281001 -0.15656228 -0.02323996 -0.21734977 0.18726374 -0.26204827 0.41792959 -0.31342560 -0.10441584 -0.23904544 0.26499388 0.58075291 0.03586523 -0.04952791 0.57165378 -0.28448185 0.46790534 0.01280722 0.28842154 -0.08807608 -0.14142649 -0.10756226 -0.15805982 -0.11913497 -0.03299679 0.36540958 -0.17814554 0.14409108 0.20748311 0.40702966 -0.35303125 0.12628333 -0.10857558 0.30916107 0.46388680 -0.09031148 0.35751146 0.39152291 0.15891261 -0.15673375 0.16887547 0.99916553 0.29482839 0.36998874 -0.07514001 -0.29505619 0.18981738 -0.03434593 -0.10295451 0.13643402 0.06114659 -0.32997018 -0.26337337 0.14910352 -0.64878702 0.00435753 0.21307294 -0.19625242 -0.14415531 0.95638329 -0.41141400 0.02846823 0.29936764 -0.12332051 -0.07020065 -0.08113053 -0.10141557 0.05300788 0.02413662 0.22024567 -0.23042521 0.12751734 0.22125861 -0.14116038 0.09223808 -0.36586004 -0.06419117 -0.44588825 0.18912534 0.37873238 -0.13273187 0.06575195 0.26406047 -0.28002575 -0.30676940 0.25961953 0.17829630 -0.03226769 -0.51071167 -0.44227991 -0.23000549 0.21128492 -0.19230835 0.37508160 0.35337281 0.39655641 -0.23719811 -0.08747207 0.40188608 -0.37106064 -0.55973065 0.16141972 -0.35019940 0.40289986 -0.17287929 -0.24144065 0.20726362 0.00263644 0.34309578 -0.43493041 0.08352101 0.30091375 -0.22562946 -0.08635939 0.25282547 -0.38937509 -0.17636555 0.28626102 -0.19452015 -0.01752233 0.30478078 -0.60395253 -0.23628525 0.30084497
0.22976503 0.19451101 0.27757049 0.44464558 0.35514432 -0.11399804 -0.16522329 0.28948948 -0.29656371 -0.08195231 -0.31619069 -0.13138096 0.24294932 -0.23754044 0.24403724 0.18615635 0.06099392 -0.04355344 -0.41189072 -0.36955997 0.22886792 0.16992229 -0.32673281 0.23220336 -0.00540082 0.31925690 0.28707430 0.06110737 0.29109621 -0.29211462 -0.51295537 0.03276386 -0.11182109 0.10726956 -0.03513882 -0.10611945 -0.54238671 0.00405589 0.60981286 0.13193202 -0.08039899 -0.54357374 0.14720474 0.70929164 -0.14511363 0.47487858 -0.72005826 -0.36082152 -0.69433022 0.23641360 0.52406979 0.13455337 0.19509131 0.55422688 -0.05424175 -0.33169353 0.24526958 -0.36421403 0.21695241 -0.33557975 0.01249368 -0.44106674 -0.28382877 0.03865188 0.35171092 -0.15729468 -0.52203476 0.05296635 -0.00609862 0.25853467 -0.32136673 -0.15340203 -0.20506272 0.15508017 -0.13071632 0.11986931 0.17858455 0.40063432 -0.68884617 -0.22359516 -0.00770537 0.18676986 -0.02089781 -0.34011528 0.02847268 0.89123058 -0.37126467 0.34719527 0.34221628 -0.04207309 0.47399694 -0.29340014 -0.06798144 0.12883015 0.22029726 -0.23050237 0.14173347 0.20468962 0.17171463 -0.04223935 -0.19049957 0.10396270 -0.04272737 -0.10988969 -0.50703639 -0.09899042 -0.16818997 -0.18298483 0.18538302 0.67148721 -0.15394185 0.03890568 0.20207459 -0.53817403 -0.19151683 -0.39489120 0.23298457 -0.31462884 -0.52017236 -0.37922719 0.02947826 -0.55108982 0.22628407 0.43239123 -0.04365357 0.01491057 0.27559897 0.27656269
0.33778259 0.06555197 -0.09756789 -0.35998076 -0.18531460 -0.18719488 -0.43953726 0.32050094 -0.28572848 0.22038369 -0.20548223 0.32973951 -0.20110509 0.20484753 -0.32149553 0.04148926 -0.08923828 -0.11070743 -0.33852273 0.32460251 -0.28885919 -0.15841714 -0.47824392 0.06367897 -0.27228251 0.18296957 0.19805504 0.44365916 0.23732628 0.45854843 -0.68502563 0.29955381 -0.78360045 -0.06222033 0.43850020 -0.14677179 -0.26419860 -0.08155921 0.31174082 -0.43017712 -0.16143194 -0.36052889 0.08815393 0.16016626 -0.34591544 -0.21561673 0.21192864 -0.02118338 0.05119621 0.31365308 0.02518009 0.29095086 0.14561380 -0.18690495 0.12028180 -0.40115705 0.22701401 0.54660845 -0.13524999 -0.11088596 0.14930227 -0.39352787 0.22945237 0.19170518 0.00957231 -0.22949566 -0.25755742 -0.27380812 -0.27739781 0.26117638 0.36482173 0.23844719 0.86031747 0.42410532 -0.05988410 -0.08003428 -0.16906027 -0.05576273 -0.17414187 -0.05161311 0.19415681 -0.05441347 0.43377325 0.67804581 0.19283810 -0.00779165 0.23915221 -0.17423737 0.61833692 -0.26833808 -0.00269261 -0.18255132 -0.42793107 -0.38921317 -0.16905454 0.19767895 -0.54320389 0.31199917 0.07124459 0.28027999 -0.18901789 0.01214799 0.24230953 -0.62117708 -0.01595540 -0.16010900 -0.07807272 -0.23911333 0.06517031 0.35491508 0.16031232 -0.12877484 0.17038378 -0.10679499 -0.09961692 -0.08430466 0.46802020 -0.10997158 0.37442005 0.07301337 0.03392318 -0.01527315 -0.44631049 0.54566878 0.08523339 -0.20268542 0.05683925 -0.05085088
-0.15148622 -0.06128457 0.66002536 -0.29232916 0.22351548 0.06679582 0.28832978 0.26107177 0.72818059 -0.29306307 -0.19743554 -0.36462462 -0.09154078 0.04172416 0.07993457 0.02415059 0.10469238 0.23878710 0.40172434 -0.24371292 -0.34186727 -0.04123858 0.12652123 0.11277331 0.15816261 0.20328237 -0.02815557 -0.28292781 -0.17768182 -0.56000262 0.41300303 -0.23147151 0.12470270 -0.14847200 0.20578003 -0.61968452 -0.29809543 -0.02186885 -0.30943775 -0.05872666 0.10344818 -0.49493918 0.16979367 0.30237007 0.51477581 -0.30375686 0.45134735 -0.47101769 0.19135326 -0.38123223 -0.04211129 0.16509512 -0.52328026 -0.01483125 0.27689788 0.16733584 -0.23961899 0.40055409 -0.20989065 0.22193320 0.13226892 0.12463683 0.42593399 0.33929667 0.28539839 -0.13551037 -0.15392099 -0.32870635 -0.31236011 0.00483971 -0.40792456 0.14237680 0.11116012 0.41100806 0.44544882 -0.03710661 0.00989379 -0.13369095 -0.04302553 -0.15755761 -0.12143534 -0.11226051 -0.24002367 -0.04306036 0.19769324 -0.13061932 0.57964319 0.05005667 0.30865651 0.51373267 0.10348882 0.82966292 -0.31858662 0.10373389 -0.37230682 0.17711146 0.04702118 -0.04338561 0.51726848 0.00550282 -0.30073363 -0.72555357 -0.19610959 -0.07836159 -0.54660887 0.52483821 0.44709852 0.38744777 -0.29289383 -0.53493708 -0.02594414 -0.08355105 0.64434183 -0.22966100 -0.03057942 0.16422878 -0.11882185 -0.41020080 -0.14735456 -0.45283243 -0.01393369 -0.09247260 0.42630640 0.26270139 0.01961969 -0.62413633 -0.21824235 0.46850696
0.35556230 0.15430543 -0.48273787 -0.54665095 0.35889664 -0.00914422 -0.83446193 0.31765726 0.21096124 -0.06417135 0.87845576 -0.28182766 0.43935496 0.30120537 0.03060822 -0.15570834 -0.15971431 -0.10181340 -0.07518104 -0.35283589 0.03108900 0.29186305 -0.16580579 -0.19750179 -0.07799546 0.23952937 -0.07447817 0.21214563 0.08944257 0.28129748 0.16983427 0.36634752 -0.14296082 -0.12700514 -0.12561576 -0.14421718 0.44025126 -0.16294144 -0.03344513 -0.21739247 0.15345939 0.05504603 -0.13635147 -0.25298867 0.15457322 0.63849998 -0.04479262 0.19654955 0.28260878 0.51816678 -0.16622971 0.31109837 0.43861419 -0.16094707 -0.06809199 0.20945925 0.06010240 -0.12164316 -0.10224929 0.00470501 -0.00303561 -0.04105263 0.18549864 0.07351181 -0.24089375 -0.31402355 -0.53145707 0.03983079 -0.08098131 0.23565349 0.11601559 -0.20633841 -0.09643643 0.11886799 -0.44112089 0.27574670 0.16862991 -0.12495633 0.19093238 -0.11361460 0.40047574 0.35163209 -0.03234665 0.08751555 -0.11003660 -0.03442008 0.11147515 0.08457548 -0.01654769 -0.42810059 -0.02755342 -0.52753621 0.07108434 -0.40641883 -0.01588137 -0.15578854 -0.07219063 -0.08118584 -0.36161149 0.15552999 -0.21647513 0.27419397 0.25409204 -0.08780292 0.45091224 -0.67001772 -0.12707603 -0.19693483 0.02509785 -0.02934407 0.44412982 0.15631717 -0.09983940 -0.23555602 -0.07684346 0.07485779 -0.22246839 0.51939315 0.15371828 0.09340949 -0.19368213 -0.24780856 -0.39543968 0.31362957 -0.07122132 -0.05325818 -0.21965422 -0.51828682
-0.58012307 0.54499084 0.83033240 0.46424314 -0.25549802 0.00424099 0.42829454 0.33514562 -0.13465841 -0.10689799 0.06490474 0.08001328 -0.40737399 0.05622253 -0.26640934 0.03835354 0.15179141 0.02522136 0.03744809 -0.55124307 0.44008631 -0.02067439 0.25969687 0.05236437 -0.06421045 -0.27491105 -0.17686427 -0.55492598 -0.35025677 0.05328317 -0.24905990 -0.20208049 -0.18542233 0.25689903 -0.45435065 -0.05806503 -0.43224266 -0.06334119 -0.00969761 -0.21546198 -0.53346521 0.27036884 -0.39011669 0.12190270 0.52897644 0.15315117 -0.18196979 0.06145316 0.65452719 -0.14941394 -0.07286485 -0.16050977 0.01703807 -0.03877721 -0.19557230 -0.40384319 0.20693541 -0.36075142 -0.15694392 -0.29623190 -0.45379436 0.09524629 -0.10594981 0.25693646 0.35613668 -0.16375682 0.39536569 -0.04782489 0.20342073 0.13411939 -0.26231775 -0.17247316 -0.23043372 0.17395882 0.78847265 0.11071374 0.25639933 0.07082921 -0.28763777 -0.21426000 0.39607492 0.29881182 0.07480507 0.09566732 -0.22949274 -0.10120172 -0.06474998 0.05080211 -0.08730622 -0.29097903 -0.06926493 -0.12983356 -0.17568362 0.23662828 0.03716663 0.45401737 0.15997024 -0.58412886 -0.19891410 -0.39703545 -0.41535264 -0.09816128 -0.62592751 0.28342542 0.17677049 0.07774563 0.37259206 0.10000321 -0.26418328 -0.24545418 0.07353578 -0.00747433 0.14459746 -0.26537135 0.33690146 0.18526901 0.32184607 -0.03126204 -0.01512761 0.10086109 -0.32875931 0.22730137 0.70756358 -0.17914863 -0.16699822 -0.03988689 -0.13324070 0.68484962
0.14004698 0.52398807 -0.04785715 -0.53265285 -0.65841055 0.26303598 0.38310191 -0.68863612 0.14774795 -0.23924211 -0.04729980 0.24710174 -0.06760523 -0.16732153 -0.31057414 -0.34100384 -0.06494339 0.20548241 0.05133665 0.51034015 0.04692696 -0.15176223 0.73929155 0.56646353 0.45326829 0.01131397 -0.36453995 0.15761545 0.23400551 0.49406633 0.35765812 0.10393704 0.41930118 0.41546798 0.26823160 0.03844812 0.27231908 -0.23176347 -0.63364369 0.39222008 -0.19884910 0.38803813 -0.26641032 -0.30654711 -0.13413475 -0.25199807 0.21062614 0.24720140 -0.23808914 -0.43107751 -0.04584898 -0.03193930 -0.53122824 -0.17568286 0.12860072 -0.29332751 -0.01992067 0.25149205 0.12881775 0.07276906 -0.23325273 0.25577065 -0.07147808 0.17208454 0.16172355 0.57925093 0.19261628 -0.35021031 0.10464681 0.32757425 -0.05488466 0.08272032 0.37732807 -0.07211526 0.17033927 -0.35920936 -0.43239507 -0.18856305 0.48017853 -0.31190342 -0.47986215 -0.29298645 0.03455624 0.17892988 -0.25810918 -0.49637717 0.39787450 0.00725813 -0.03898240 -0.20395435 -0.30094057 0.30476260 0.00034807 0.08177281 0.25375026 0.10300039 0.32872134 0.01533598 -0.08302519 -0.25390297 0.06035605 0.30409306 -0.29843512 -0.00990755 0.02487973 0.51974744 -0.24872033 -0.02551179 -0.25250176 -0.40481946 -0.40574706 -0.02655993 -0.59354931 0.79946989 0.15577543 0.24718562 0.53035271 0.11531323 0.00031812 0.20560874 0.18704994 -0.00401037 0.04956957 -0.26342559 -0.25297973 -0.13486181 -0.56089449 0.13527066
0.09400313 0.49098390 0.50481993 -0.39129016 0.41591603 0.05124336 0.08675751 -0.13733956 0.07457384 -0.76880533 -0.02531326 0.28277674 0.10720351 0.09534857 0.48243329 0.46680760 0.00253031 -0.21038887 -0.31275797 0.15698984 -0.18199863 0.01976210 -0.05058691 0.34371641 0.33114997 0.44305268 -0.02401363 0.57088351 0.22612940 -0.00104481 -0.24798612 -0.48029807 0.44081950 -0.19120705 0.18909545 -0.31934604 0.17515734 0.33565027 0.10302304 -0.22149739 -0.33642107 -0.00053262 0.05370001 0.03831035 -0.25192288 -0.22013615 -0.19860274 0.27602455 0.06671804 0.63243699 -0.40730536 0.30456015 0.34025905 -0.23932812 -0.02836269 0.15675248 -0.02248781 0.03378723 0.06307989 -0.40255728 0.17659551 -0.22352864 0.04615887 0.74925798 0.24189270 0.14530143 0.23959887 -0.31978506 -0.10178524 -0.15727432 0.07433439 0.49649557 0.13580322 -0.29033962 0.74086022 0.14891949 0.31874844 0.14338273 -0.10630011 -0.05667182 -0.52194518 -0.03549871 -0.01880256 0.56897849 -0.34486136 -0.04022436 0.22051969 0.06364761 0.09487364 -0.17609841 -0.43801287 0.05551010 -0.17312285 -0.42321694 -0.44891232 0.04589223 0.18006100 0.24731496 -0.54502803 0.39859924 0.50022185 -0.12344953 -0.26457933 -0.28528434 -0.48302004 -0.06294204 0.03913110 -0.29136160 -0.00366823 -0.39702031 0.49821243 0.29740185 0.52652979 -0.50684279 0.45568943 -0.22649570 0.03824544 0.19510157 0.41042811 0.31885979 -0.34568802 -0.01073655 -0.46002945 -0.15745527 0.15265533 0.07536867 -0.95832562 -0.05498212
0.37334570 0.12132669 -0.09817352 0.62815386 -0.58819729 -0.19669923 0.25221935 0.18468292 0.18312293 0.16380297 0.01546406 -0.22225207 -0.15102206 -0.32083166 0.36399898 0.00104625 -0.01104841 0.24020614 -0.24913335 0.14549062 0.32410282 -0.27459219 -0.30214310 -0.12479882 -0.06783659 0.14252797 -0.35477227 0.07917462 0.32357129 0.44941583 -0.09044879 -0.29540914 -0.21541496 0.19584955 0.42699251 -0.06802748 0.46392140 -0.28298086 -0.11714186 -0.35740161 0.26580179 0.25304779 0.03979241 -0.38215518 -0.30827576 0.14893109 0.32689998 -0.03409715 -0.37500572 -0.29343569 -0.11169545 0.43420291 0.24718346 0.13474765 0.11580940 0.65133363 -0.18688682 0.27161807 -0.44325233 0.06292854 -0.25088760 0.51010603 -0.22044265 -0.07751422 -0.04145743 0.07095116 0.32916838 -0.09370580 -0.20591044 -0.31110275 -0.02827830 -0.08414509 -0.31012097 -0.07728848 0.05099661 0.21065345 -0.31692469 0.32068118 -0.12487776 0.09135342 0.94036257 -0.36314875 0.14951669 -0.00108426 -0.03083127 0.41416529 0.33271539 0.08205034 0.14462028 0.18125153 0.08548824 -0.29735827 -0.45418707 0.34638959 -0.20610970 -0.62603903 0.15104425 -0.81769639 0.25238547 -0.71479338 0.04090358 -0.60972375 0.12625013 0.34477326 -0.15790476 -0.03217405 -0.31850800 0.03248089 -0.07940193 0.09500080 0.51115912 -0.29559562 -0.24130380 0.34552938 0.60982406 -0.05564107 -0.18868375 -0.29970461 0.42785567 0.16202453 -0.21970615 -0.21497421 -0.19211045 -0.27965739 0.34512883 -0.14379956 -0.27271184 0.08084442
-0.38993669 0.25418761 0.20352124 -0.16655275 -0.01637727 -0.44182307 0.03451196 -0.33318689 -0.15416996 0.07921162 -0.19869584 -0.36077610 0.40175283 0.21901713 -0.41913208 0.00652712 -0.04062940 -0.22407907 -0.27893341 0.53236943 -0.16123953 0.04463998 -0.04944149 -0.37666270 0.17443898 0.10292585 -0.23879528 -0.31098351 -0.32037410 0.28733197 -0.15411387 0.37359896 -0.39593917 0.11943968 -0.37048274 0.19713777 -0.41847742 0.59701443 -0.11966603 -0.13308936 0.18506742 0.39813089 -0.25028020 -0.32995445 -0.08275977 -0.29175219 0.10555924 0.14720426 0.42293108 -0.07725759 0.03188107 0.71688437 -0.23592839 -0.32896301 -0.09147317 0.14469664 0.59971982 -0.06953778 0.06049920 0.17729005 -0.30452257 0.16700318 -0.27395949 0.13198718 0.29831141 0.12426194 -0.47573891 0.34321368 0.00176415 0.06416686 -0.32398337 0.22450289 -0.23854129 0.06852598 -0.03593849 -0.08113766 0.20163131 0.19365266 0.14757483 -0.43542415 0.53854591 0.19892342 0.46555111 0.36079621 0.24316850 0.40907443 -0.27638820 -0.62382638 0.14385119 -0.20375371 -0.02416674 0.54352212 0.08003960 -0.61695844 0.21117821 -0.16640845 -0.00184721 0.05661198 -0.03831870 -0.24839315 -0.21975131 -0.32513323 0.06115235 0.35463259 0.25460675 -0.02633722 0.11593592 0.20943853 0.00152479 0.36257100 0.02356038 -0.22556913 0.20232354 -0.48306951 -0.03329572 -0.33104175 0.02788451 -0.26376063 -0.42136964 -0.29924613 -0.65907794 -0.12341372 0.13815273 -0.12782508 -0.33035597 0.45926663 0.45951366 -0.13028528
-0.27199224 -0.10354271 0.24743813 -0.41790012 0.02973601 -0.33663049 0.04814289 0.24025932 0.13613842 -0.19338116 0.31366044 -0.07445677 -0.17621048 -0.14357229 0.09154461 0.10850584 -0.25331533 0.01819243 -0.03420364 -0.20914374 -0.36404982 0.10469298 -0.39831588 0.03428355 0.14592968 -0.19792539 -0.30066848 -0.63741416 -0.51305670 -0.21722808 0.12917431 -0.03776366 -0.02431799 -0.23245677 -0.33592433 0.49525100 0.20959572 -0.10731936 -0.11904896 0.02637706 -0.07872505 0.08282006 -0.17419909 0.11882156 0.27024919 0.17850675 -0.21741693 -0.35300529 -0.30322948 0.28152803 0.11496601 0.24120338 0.64492327 -0.14830738 0.08082657 0.19518268 0.14333038 0.22195631 -0.07026187 0.00352503 -0.04578588 -0.03389890 0.13002306 0.10220985 0.30426890 0.68414187 -0.61593837 0.10427406 -0.04563945 -0.06353766 -0.04367993 0.08060712 -0.09711412 0.07043742 0.31564981 -0.18965165 0.31935394 -0.27215928 0.26499751 -0.01140861 0.61632830 0.16404629 0.17848514 0.47248968 0.14405830 -0.42748147 0.07816258 -0.35005605 -0.29261276 0.00538697 0.10017946 0.33131614 0.04407647 0.11078686 0.35425344 -0.20339067 -0.03897284 0.23527628 -0.15007167 0.43907082 0.34476572 -0.06272379 -0.12403829 0.08970465 -0.32504547 -0.34323221 0.06852613 -0.12244762 0.21177965 -0.43909588 -0.08172980 -0.17548759 0.01359715 -0.28589836 0.24588513 0.06619027 -0.17138743 0.08594653 0.31995723 -0.30278850 0.15583667 -0.06147627 -0.17701128 -0.33768988 0.02148190 0.29125029 -0.17591701 0.24792431
0.01018976 -0.08157516 0.15591449 0.21464100 0.08747608 0.14651386 0.43849978 -0.47829306 0.39254981 0.10659371 0.27255112 -0.10608399 0.13057657 0.32229301 0.64467865 -0.26825902 0.23121491 0.23340681 -0.04276163 -0.55848360 -0.13602164 -0.21441653 0.03805239 0.28230333 -0.19177258 0.13958599 0.16497093 -0.08934555 0.07297008 -0.49044126 -0.02063481 -0.00274476 -0.25822076 0.12880771 0.52855164 -0.08045422 0.48251602 -0.10089687 0.43683577 -0.15427564 0.14491881 -0.14824212 -0.27334478 -0.20808282 -0.15568882 0.13482757 -0.03591056 0.18888608 -0.40301457 -0.17414463 0.07358791 0.41981024 0.42590645 0.36829785 -0.13937262 0.22381148 -0.65024394 0.18375218 -0.11821827 -0.51621443 -0.55953485 -0.29268205 0.21803078 -0.58902162 0.17487584 0.27374008 -0.06352097 0.35295686 0.39466843 0.00620101 -0.26204151 0.20529732 0.15709810 0.37184212 0.28457767 -0.28807816 0.05235092 -0.25771794 0.11633796 -0.67704058 0.00474324 -0.52180433 0.06133379 0.39396092 -0.09913368 0.20646755 0.50404686 0.43648604 0.49687460 0.16269360 0.02043052 0.25485647 -0.02494733 0.51627529 0.19549486 -0.55292898 -0.32619640 0.31037498 -0.21143007 -0.10036729 0.38116950 0.19529290 0.06004406 0.06651896 0.19021842 -0.18659872 0.01314502 -0.28053251 0.38458660 -0.35674000 0.00370400 0.51120460 -0.41805100 -0.24337240 0.09616361 0.35785314 0.37953007 -0.43367669 0.19317739 0.41660058 0.26707190 -0.36162642 -0.17318128 0.31826836 -0.17555967 -0.02227793 -0.47387889 -0.64407188
-0.43127626 0.00902218 -0.24585001 0.38950190 0.02413565 0.62715948 -0.42606172 0.14479147 -0.19210915 -0.31813413 0.21787021 -0.42335963 -0.58431280 -0.22169694 -0.15927687 0.21648009 0.07968557 -0.15140492 0.05328402 -0.05588680 -0.24066509 -0.79751962 -0.17902568 0.04088115 0.45281729 0.15730914 -0.14419819 -0.47590145 0.25065988 0.29593015 -0.14931560 0.23452885 -0.23767303 -0.57732773 -0.18126844 0.18274926 0.16042601 -0.10143381 -0.40999010 0.19755122 -0.03465489 0.06575450 -0.05403712 0.07661447 -0.11534149 0.12550877 -0.36288273 0.28546193 -0.31725371 0.14335255 0.27579564 0.26768601 0.46708208 -0.09961615 -0.09144852 0.02690036 0.26768509 -0.19024988 0.36159757 0.43450418 0.19442999 0.14810067 -0.52201504 0.42030600 -0.06151857 0.29481602 -0.61268288 -0.18010746 -0.26292619 -0.31147426 0.07691383 -0.40571523 0.54530650 -0.33260089 0.25795341 0.08665039 0.01104421 -0.03236841 0.79461581 0.19315326 0.50349569 -0.15073699 0.03321008 0.33372265 -0.19376165 -0.28067350 -0.03769708 -0.56225067 -0.25434378 -0.36511844 -0.35947832 0.46790904 0.47290611 0.02798407 0.04567969 -0.09596322 -0.35709241 -0.21919514 0.53522503 0.42895323 -0.13706584 0.12266753 -0.10122770 0.10801928 0.01816884 -0.11263674 0.12891918 -0.43576822 -0.15777837 0.15978271 0.49797559 -0.03531370 0.27265882 -0.26229843 -0.05704164 0.08344737 0.42838556 0.05806692 0.54484743 0.08087752 -0.19211343 0.17215839 0.37855643 -0.05945465 0.08771651 -0.22400089 0.15838793 0.57290155
-0.21392213 0.01532964 -0.03169968 0.22797434 -0.14175574 0.29568061 -1.13122141 -0.09866589 -0.10311534 0.55376184 0.04322647 0.18758672 -0.11466219 0.07532969 -0.16950722 -0.41275957 0.10157946 -0.34111893 0.24366105 0.47543818 0.34902227 0.36522770 -0.23146184 -0.13852854 0.18285711 0.03410671 -0.76997709 -0.07459047 -0.44966015 -0.24685669 -0.05175706 0.30260628 0.01130278 -0.11500081 0.51245046 0.13074037 -0.03294050 0.47273305 -0.02954793 0.29054591 0.13969791 -0.37110701 0.34142146 -0.02611420 -0.54338729 0.22205134 -0.01528218 0.21902749 0.07426140 -0.30864507 0.14662975 -0.05617466 0.38299462 -0.02464023 0.36753038 0.06716024 0.03972812 -0.28460479 0.06648716 0.07665626 0.18266386 0.03781974 0.15741895 0.30616117 -0.03546959 -0.10257208 0.14802144 -0.66397005 0.06225678 -0.14270714 0.45891759 -0.42222568 -0.28571954 -0.29316795 0.19548106 0.03914151 0.14036936 0.01918948 -0.00021541 -0.17069072 -0.48285279 0.52722055 0.21173692 -0.17825647 0.20236343 0.07547538 -0.30988061 0.26652572 0.05399472 -0.40533483 -0.33181229 0.12653652 0.08128812 -0.34282285 0.18695948 0.34986967 -0.39347297 -0.12880057 0.13406594 0.16956331 -0.33372098 0.09911504 0.00420361 0.35697842 0.31474042 0.12825799 0.17291074 0.29576042 0.06486661 -0.21203858 -0.39512360 -0.15864484 -0.40945685 0.05832244 -0.08866241 0.15189920 -0.07379248 0.02046961 -0.02724999 -0.26357761 -0.24490608 0.35654452 0.02287984 0.02919562 -0.05322467 -0.07455248 -0.52269113 0.22082563
-0.11432181 -0.10142283 -0.08966753 0.18989016 -0.12546383 0.25579059 -0.09886356 -0.07201789 0.17201491 -0.17483306 0.32430065 0.01522641 -0.40026098 0.16090871 0.36348081 0.06249195 -0.04206327 -0.05062976 -0.52540857 -0.56144005 0.37913892 -0.12689663 -0.49549872 0.07642622 0.31489927 0.69505602 -0.50971693 -0.80987847 -0.30956456 -0.06582309 -0.04353604 0.05240131 0.64212012 -0.39594719 -0.03475925 -0.20151238 0.22202012 -0.26980194 0.32343051 0.09333778 -0.43274966 0.28393301 -0.36935908 -0.44799954 0.02695158 0.13320936 0.24325904 -0.07338452 0.34592664 0.17143840 -0.24643768 0.11754511 -0.14081469 0.44658482 -0.00302227 0.08579326 0.03484649 -0.37745106 0.65525478 0.37238520 -0.40552098 -0.22294901 0.05104371 0.23644340 0.10198247 0.08803519 -0.04441066 -0.11379591 -0.05510750 0.29421401 -0.13298711 0.16732177 -0.01844364 0.03338544 0.24603570 -0.01001567 0.44926861 0.20449622 -0.20178005 -0.00555696 -0.10332320 0.24228543 -0.35903600 -0.68320340 0.51694202 0.18481794 0.03099919 -0.01737619 -0.32572761 -0.04929980 -0.10467049 0.28508982 0.01326734 -0.04899514 -0.27875164 0.38856292 0.01121077 0.06143599 0.08604043 0.43254188 -0.14278391 0.09036556 -0.00670304 -0.10614379 -0.54675925 -0.28997150 0.17066526 -0.07142241 0.21463950 0.41071638 0.18914413 -0.31942883 -0.32033491 -0.21841840 0.30788437 -0.28278476 0.30176839 -0.26900107 0.39468244 0.54223084 0.23567905 -0.15809953 -0.43381494 -0.21771459 -0.32427508 -0.27575600 -0.21007563 0.24850091
0.15715651 0.24408956 0.14590462 -0.10550149 0.20101687 -0.60722190 -0.13909298 0.11950336 -0.01042455 0.24566604 0.12895390 -0.29164878 -0.17013125 -0.46647412 -0.11635660 -0.11069293 0.43532684 0.19350967 0.42294022 0.38673633 -0.38076904 0.20005381 -0.14253128 0.26160303 -0.04928399 -0.02117638 -0.15433562 0.61483204 0.07278334 0.05887688 -0.24445580 -0.48639980 -0.08293412 -0.48500669 0.51075441 0.00640524 0.26941538 0.00259224 -0.20473786 -0.51182896 0.05311095 -0.08198686 0.09056351 -0.43834543 -0.01986340 0.01216323 0.13183053 0.24968213 -0.08673890 -0.04954857 -0.29049769 0.49589187 0.04390747 -0.37716120 -0.41799280 0.26602945 -0.05215009 0.41860622 -0.13366458 -0.03007721 0.00694770 0.44303575 0.06770410 0.21501307 0.25049981 0.53381515 0.27235937 0.02309151 0.01698262 0.38059089 0.14951418 -0.16787635 0.16866408 0.05197070 0.00687324 -0.23276018 -0.26045501 -0.19541328 0.38977557 -0.04882443 0.40647504 0.09613217 0.38705918 0.37311122 -0.17002249 0.25819674 -0.31412631 -0.07224087 -0.16790442 0.19078009 -0.12361319 0.03604184 -0.33709866 0.10248191 0.10877933 -0.55832207 0.01427977 -0.82369816 0.29253429 -0.05779351 -0.11343964 -0.48972309 0.53509980 0.02162442 -0.08782445 0.03832049 -0.08797374 0.48911110 -0.01877270 -0.08738541 -0.15757486 -0.41410860 0.13110690 -0.13567728 0.16086587 -0.63231915 0.02317601 -0.43069410 0.05217563 -0.00004075 -0.04129054 -0.09752789 0.22389373 -0.00600935 -0.03560720 0.26500535 -0.24467809 -0.44857538
0.34448850 0.51453489 -0.54433012 -0.22318357 -0.66375536 -0.33229858 -0.49458328 -0.06537639 0.08794195 -0.51276553 0.00243498 -0.08551639 -0.28441682 0.04288715 0.10384250 0.36748800 0.12487432 -0.07725310 -0.33514804 -0.00923858 -0.01156353 -0.11737414 0.12842487 0.85596150 0.50619602 0.29511878 -0.44703019 -0.03756116 0.51228428 0.29984421 0.13835052 0.19472986 0.24428679 -0.04216086 0.28839448 0.14677507 -0.23061977 -0.32470596 0.14669217 0.26135373 -0.81385773 -0.15015532 -0.16481814 -0.30754086 0.04590083 0.09287009 0.21112505 -0.13991311 0.35571721 -0.30348608 0.28295872 0.12702392 0.11956944 0.01671327 -0.09215882 0.04102473 0.02238459 -0.22544195 -0.04458386 0.47141787 0.56436592 0.13824311 0.28198239 0.05638038 0.13352434 0.02003564 0.06894802 -0.37603939 -0.35041958 -0.03010940 0.25200874 -0.23118952 -0.38278076 0.02923631 -0.15436801 0.05277945 -0.07376474 -0.03553970 0.55926311 0.61615908 -0.02072788 -0.01090330 -0.01907876 -0.17734417 0.54352301 -0.03232643 -0.46961460 -0.35392523 -0.61365879 0.26181358 -0.02667288 -0.36637437 0.02250728 0.40731913 -0.88588375 0.34066641 0.26487330 -0.16586177 -0.68171436 -0.00799190 0.85703605 0.02262641 0.21863316 0.17133045 -0.29898247 -0.16798051 -0.30127910 -0.51191121 -0.17150666 0.40845114 -0.25159928 0.12130177 0.32837778 0.47877172 -0.25933072 0.20604338 0.24831195 0.10775885 0.40341026 0.10263374 0.22204834 -0.15134677 0.34661379 -0.05006064 -0.16244778 -0.30989817 -0.57278550 0.52258188
-0.07622122 0.03232344 0.53167671 -0.68497115 0.22599851 0.06611814 0.31512809 -0.08414233 0.16537383 0.11153494 0.82142204 0.15833598 0.38717496 0.34023514 0.04798635 -0.21564555 -0.33674145 0.13470384 0.33973980 -0.33870357 0.21995761 -0.17702679 0.28434920 -0.02365299 0.07922301 0.50763226 0.32935190 0.17510137 0.06098690 0.50016344 -0.10784238 -0.28847131 -0.30022097 -0.14547217 0.16850981 -0.28510445 -0.15523435 0.06246875 0.44922811 0.13220091 0.21847212 -0.21304797 -0.32365960 -0.30221784 -0.14366578 0.04679515 -0.09031224 0.11094460 -0.10659233 -0.26767176 -0.07423881 0.02800357 -0.35394353 -0.09099964 -0.07328824 -0.13934346 -0.22502975 -0.09245515 0.00097726 -0.24666542 -0.14011110 0.14391984 0.30669010 0.03750610 -0.02671094 0.06265357 0.11742526 0.16743235 0.50738829 -0.21100689 0.47565144 -0.22771603 0.21663186 -0.00926685 -0.15600707 0.02034549 0.08899285 0.21667896 -0.15991479 0.27873921 -0.19019590 -0.16729623 -0.41852057 0.41989225 -0.14202462 0.03220000 -0.17149495 0.16403264 0.11476833 -0.22113989 -0.21689241 0.06007633 0.09457663 0.03625084 -0.05743951 0.12099190 0.18710317 -0.25458553 -0.10610641 0.10082724 -0.25194263 0.25868168 -0.31108722 0.10788043 -0.21141161 0.03577716 0.09069618 0.10105692 0.00417436 0.17984030 0.06465659 0.47136959 -0.12434439 -0.52636296 -0.30154541 0.66100830 0.02144382 -0.13005422 -0.05689623 0.20490228 0.16331834 -0.17069453 -0.62022412 -0.11452961 -0.00821892 -0.23494515 -0.30634898 -0.32319772
0.09152355 -0.95342237 0.40504298 0.32242489 -0.13561006 0.33806634 0.18180014 -0.06594186 -0.00986629 0.36449608 -0.24143484 0.14615589 0.41079813 -0.40056726 0.07093940 -0.16522248 0.41931731 -0.30358899 -0.17192088 -0.06597044 0.07539056 0.04128158 -0.34067062 -0.42087331 -0.01011362 0.42647585 0.32126221 0.14435057 -0.67429674 0.35374314 0.15162887 0.41200110 -0.03255998 0.06692959 -0.28055403 -0.21212851 0.36970496 -0.19365878 0.13355455 0.02915097 0.69966358 -0.24641080 -0.20959714 0.06513552 0.22116394 -0.13896444 -0.23429948 -0.31377709 -0.24299556 0.03446233 0.15230514 -0.43589887 -0.22103904 -0.02648366 0.33384156 0.98748863 0.13191408 0.15399756 -0.03903710 0.00193624 0.12888005 0.24019393 0.01062857 -0.08292163 -0.26659232 -0.09154709 0.00378394 -0.01347094 0.24124697 -0.15224802 0.27268898 -0.14975782 -0.30653289 -0.52196348 -0.06801602 -0.09748065 0.09152035 0.21341100 -0.27415708 -0.05294614 0.03890857 0.28203079 -0.32828325 0.00176333 -0.04661542 -0.21190141 0.30436248 -0.36370733 0.33182019 -0.35503465 0.55673867 0.19367644 -0.16450709 -0.30804861 -0.15796100 0.21889292 0.08729012 -0.44022754 -0.29479060 0.06652079 -0.76652628 -0.24143972 0.06923340 -0.03453428 -0.06919488 -0.32316351 0.40028638 0.01671955 -0.28707734 0.16065647 0.17197213 -0.59251934 -0.32421336 0.44766748 0.65314561 0.03403082 -0.48109549 0.46301895 0.26549950 0.29278043 -0.24048682 -0.20270920 0.16500835 -0.13968544 0.49861452 -0.40629461 0.07880910 0.51488674
-0.19331665 -0.53882515 0.05397416 -0.36525682 -0.18459700 -0.09065801 -0.12944910 0.09757898 -0.00528390 -0.22577462 -0.33032909 0.40067413 0.01342068 0.17419040 -0.09497835 -0.04919740 0.41279981 -0.25793135 -0.15561026 0.19173232 -0.73654038 -0.66954178 0.04743738 -0.21795443 0.79744399 -0.06365095 0.30333608 0.14771478 0.22628707 -0.04499290 0.39972347 0.45497328 0.38544789 -0.08402534 0.35759622 0.50562787 -0.31406727 0.24245517 0.19447242 -0.09371419 -0.13467704 -0.05475205 0.06273881 0.03455466 -0.00883091 -0.06067122 -0.20275645 0.08009043 -0.16064543 0.32785195 0.23051906 -0.12126397 0.61855894 0.13491587 -0.21292472 0.28507200 0.10824543 -0.12943056 0.47896549 0.35409835 0.23859762 0.38288707 0.24557881 0.32496360 -0.26777256 -0.16960691 0.27694497 -0.18950355 -0.01474306 -0.09252758 0.04664738 -0.27052477 -0.26126352 -0.04556330 -0.08253189 -0.34162009 -0.24045573 -0.21784419 0.09307412 -0.15415354 0.00615267 0.61450481 0.18069439 0.02524346 -0.22701578 -0.04790385 -0.10386653 -0.20603880 -0.33448493 -0.17882220 0.24376954 0.31757855 0.25773966 -0.28322205 -0.14465231 0.06912602 -0.05955517 -0.31969267 -0.40251803 0.34760657 -0.07539198 -0.18975341 -0.03063396 0.16421652 -0.32645097 -0.47519901 0.40153670 0.30721551 0.01668322 0.13296100 0.36947057 -0.29741204 -0.34031755 -0.09906369 -0.23889269 -0.38966498 -0.01745726 -0.05810209 0.35354513 -0.02734414 -0.45773792 -0.47487959 0.32583693 0.25670457 -0.04005117 0.06124677 -0.20072265 0.22286749
0.15761143 0.38615862 -0.30325502 0.30347288 -0.19335505 0.24626262 0.33303800 0.70421278 0.02113648 0.04711885 -0.07643619 -0.22414635 -0.56287038 -0.05422413 -0.06125833 0.20826125 0.19542849 0.44210061 -0.44375861 0.12762941 0.58076352 -0.02863003 0.64289331 -0.38604620 -0.49344420 -0.22190069 0.36747175 0.28302985 0.13090570 -0.12444943 0.01867700 -0.27057630 -0.01993928 -0.02658775 0.24618806 -0.37040249 0.15486190 -0.20494558 0.04602019 -0.16003205 0.08537142 -0.31727001 0.11782916 0.24988742 -0.16573532 0.11284407 -0.00605883 -0.18662277 0.13986975 0.49407798 -0.36799571 0.28984949 0.15776075 -0.25914046 -0.50109273 -0.42448214 -0.08463242 0.33915225 -0.33119047 0.48836756 -0.07632007 0.20473807 -0.35621598 0.21090764 -0.32461882 -0.06666570 -0.17319089 -0.03547595 -0.06991089 0.05574051 -0.05183553 -0.43193108 -0.08363348 -0.19634254 0.35734639 -0.11668783 -0.52544659 0.38889846 -0.29402381 -0.08334745 0.16122872 -0.28305286 0.13189523 -0.25774312 0.22720125 -0.01665786 -0.28249130 0.16162077 -0.75351804 -0.01181066 0.23495935 -0.72676057 -0.50025451 -0.07546967 -0.63682669 0.48693016 -0.29086253 0.31411579 -0.02850977 -0.15275636 0.03172794 -0.01459043 -0.04521221 -0.55003238 0.36450893 -0.27765876 0.23574129 0.16180693 0.24787523 -0.05705308 0.23634820 -0.05298993 -0.01437702 0.85050094 -0.03105331 -0.11523343 0.08096202 0.43374452 -0.14744316 0.13571182 -0.12155423 0.46073821 -0.07338745 -0.37784937 0.01124680 0.00674502 0.84199172 -0.26496470
0.34919381 -0.26626727 -0.01856259 -0.40751457 0.36749661 -0.48967090 0.26500368 -0.52913922 -0.41594008 -0.23249330 -0.46437740 0.19076508 -0.13942303 -1.00675356 0.23377240 0.23245846 -0.08103240 -0.10014125 0.11633199 0.30201232 -0.35583487 0.63868493 -0.55236912 0.42869163 0.01694776 -0.33126399 0.17003740 0.16147830 -0.08249703 0.59572113 -0.05776678 -0.41175026 0.22637883 0.15174100 -0.53954172 -0.25410154 0.06588426 -0.33734185 -0.54643673 -0.29272676 -0.17595309 -0.04059409 0.35333380 -0.12707947 0.49071193 0.08541470 0.29760659 -0.15078801 -0.08806257 -0.11091553 0.03026166 -0.35594696 0.01046328 -0.11780478 0.26384243 0.18026511 0.25195673 -0.02614957 0.15666801 -0.20369744 -0.29730204 -0.28746435 0.32354954 -0.27578467 0.14412253 -0.12958620 0.28455961 0.05324984 -0.38083136 0.04556844 -0.13507748 0.58400995 -0.33154231 0.64572817 -0.40491664 -0.09872060 0.48125064 -0.07406253 -0.30482969 0.01824220 0.55210745 -0.18670963 0.22623214 -0.39449593 0.42540985 0.05436859 0.18481152 -0.32001248 0.06125570 0.24426846 0.15712172 0.09621043 -0.01471127 0.38380942 0.04581332 -0.18705505 0.45756260 -0.07019410 0.08580138 0.22659545 0.41687191 0.44763887 -0.26932469 -0.00477108 -0.00196450 -0.00062781 -0.59101427 -0.07623111 -0.40804720 -0.45717579 -0.33977333 -0.11192446 0.54704428 -0.15470815 0.63920009 -0.44077441 -0.42375323 -0.27259073 0.16287787 -0.15634778 0.05024000 -0.00606048 0.30728382 0.28089273 0.01828498 -0.03335179 -0.03034592 -0.19520925
0.15086038 0.45869172 -0.51376635 0.53018069 -0.25682774 -0.42386314 0.35905463 -0.17823872 0.23605353 -0.30831072 0.04800488 -0.52881283 0.65699244 0.34308809 0.26748201 -0.05652398 0.01358104 -0.15289558 -0.20293841 -0.21368602 0.17603096 -0.16276309 -0.11086585 0.19551159 0.36407009 0.25410807 0.07049718 -0.18039781 -0.08417328 -0.12554409 -0.28221539 0.10014720 0.25024083 0.56679451 -0.26808840 0.28323695 0.25590235 -0.03031677 0.41176841 -0.28288865 0.35902292 -0.15849370 -0.48523155 -0.47823608 0.11789736 -0.44721261 0.36256284 -0.28593725 0.18041275 0.03902000 -0.15898839 0.15860774 0.09150463 0.02361374 0.25159571 -0.08861846 0.30607107 0.62124139 0.06228752 0.11327387 -0.63432944 0.04142712 -0.25442404 -0.80456460 0.04464169 0.06860406 -0.41202778 0.13025047 0.26966727 0.07237004 0.13714868 -0.16720907 -0.32484624 0.38368279 0.21934888 -0.53391683 0.18193211 -0.01043655 0.01767439 -0.23243204 0.13267930 -0.09102731 0.09979136 0.31325942 0.05706323 0.15935694 0.14992721 0.00627180 0.15041916 -0.03047279 -0.25514540 0.32620394 -0.10066002 -0.25473928 -0.31937072 0.16425462 -0.06902862 0.12421998 -0.07701801 -0.52615362 -0.11943030 -0.40700695 0.33577785 -0.26570025 -0.20315558 -0.38985446 0.52113509 -0.32445937 0.56917465 0.28903204 0.59095114 -0.04214762 -0.04336608 -0.02191868 -0.12740159 0.00377821 0.10975369 0.18012485 -0.36208194 0.32630074 -0.38230535 -0.37122419 0.02439578 -0.14492087 -0.33401138 0.18429729 0.25237721 0.04855305
-0.57271004 -0.04404412 0.62355357 -0.75747967 0.67896122 -0.12772560 0.16655034 -0.07730618 0.09800173 -0.25941569 -0.26296002 0.32387835 0.46366048 -0.05985891 -0.25946429 0.11290130 -0.00171833 -0.14045358 0.09726550 0.03821608 -0.01086264 0.32125515 0.04637124 0.01089032 -0.49118379 0.19846399 0.40354183 -0.02022441 0.27654669 0.26217678 0.00247901 -0.20041308 -0.17831416 -0.44999704 0.38824427 -0.26631171 0.05473901 -0.49725968 0.06112021 0.24043825 0.48682433 -0.08889992 0.03587778 0.48682696 0.30154845 0.20303096 -0.01092539 -0.06740518 -0.41813436 -0.05067428 -0.31639832 -0.06314106 -0.28511304 -0.23138605 -0.10560665 -0.23495100 0.38674381 0.37596786 0.11049452 -0.10147882 -0.28495601 0.04886034 0.24969660 -0.07659201 -0.29095945 -0.24916856 0.09198152 0.15715882 0.14991485 -0.30042416 0.65723300 -0.45794579 0.42523924 -0.19279312 -0.32156205 -0.13898604 0.24758285 0.24337561 -0.14559332 -0.16748543 -0.18899077 -0.44397628 -0.18292241 0.05204925 0.50051177 0.02387269 -0.20148954 0.21454000 -0.61040181 -0.19680721 -0.10066890 0.30791461 -0.03088653 0.00593010 0.14972983 0.13295162 -0.05893109 0.25616366 0.19014533 0.40636835 -0.21255755 -0.01010079 -0.36361483 -0.02432480 0.18755166 0.35649854 0.28990868 0.01310332 0.05060915 0.27183262 -0.14907917 0.39057508 0.09272870 -0.77929878 -0.24641477 0.18286638 -0.23133919 0.24953963 0.14723909 0.21576546 -0.20660318 0.48368090 -0.05636388 0.23434131 -0.17199878 0.21557918 0.20859940 -0.57951534
-0.00272932 -0.30191579 0.30916664 -0.37833631 -0.31430700 -0.36597723 -0.06532128 -0.17075950 -0.31001806 -0.35959655 -0.63868016 -0.34241891 -0.21827953 -0.30260536 0.26559767 -0.03494454 0.10734656 -0.29504094 -0.22613244 0.36875466 -0.12759173 0.03815888 0.13323410 0.02342843 0.22838044 0.22159462 0.11212517 -0.01192391 0.08464524 -0.06882026 0.28509128 0.19258142 0.06843445 -0.41796395 0.34976304 -0.44275254 0.01432101 0.08339362 0.34108698 0.52462053 0.27839002 0.20776021 -0.20716989 -0.23372522 0.19990431 -0.28228009 -0.01255221 0.53675914 0.25918439 0.16900171 0.18067706 0.92824095 -0.17809981 -0.30775750 -0.38858402 0.17093766 -0.26702806 0.31988925 0.31291938 -0.09971228 -0.21387103 -0.23027024 -0.26415929 -0.19814329 0.36774784 -0.22917736 -0.21596459 0.03617503 0.18234712 0.04099078 0.23852150 -0.02179933 -0.50303811 0.12337047 0.20517203 -0.20671928 0.21462825 0.09109060 0.06861844 -0.68573421 0.34894910 -0.44271755 0.21049286 -0.33254427 0.98676586 0.30541176 -0.18170017 -0.05089898 0.04355115 0.09271115 0.32826933 0.38377354 -0.21113242 0.01493917 -0.45208138 -0.20510980 -0.20638640 0.07568160 -0.00670322 0.42960808 0.17018841 0.02835364 0.27899686 -0.06034257 0.27117920 -0.25690913 0.23208688 -0.20558147 -0.78606701 0.21671964 -0.08589378 0.04541211 0.28873712 -0.23061474 0.09509964 -0.21522249 -0.07046336 0.19148932 0.16881371 0.46810991 0.02522797 0.04289398 0.70798832 0.30983782 -0.40914276 0.05516387 -0.25433892 -0.54982609
0.17975147 -0.52993554 0.40923378 0.09481768 -0.01827993 -0.53527981 0.27604067 0.37310833 -0.07156918 -0.26232791 -0.75538999 0.12212536 0.52482677 0.13373812 -0.42867470 0.07824294 -0.31594810 0.01876704 -0.14115682 0.01084237 -0.50484377 0.22835386 0.09548236 -0.28426313 -0.31579155 -0.23359601 0.69145358 0.41787851 -0.07301424 -0.64619702 0.21797118 -0.05640348 0.19842020 -0.07643431 -0.20598473 -0.55103761 -0.02507878 0.29878137 0.17054942 0.27350852 0.31057838 0.03073310 0.04425345 0.13389583 0.19452912 -0.08974372 -0.31896213 0.06334525 0.08070087 0.42794374 0.31575987 0.01574120 0.14688712 -0.73269230 -0.03986035 -0.15590601 -0.12784156 0.28443480 -0.05839366 -0.21334766 0.13705948 0.00257223 -0.13338648 -0.51014835 -0.02500964 -0.27606848 0.04950436 0.33093044 0.13179457 0.02634639 -0.29038233 0.52868533 -0.33274764 -0.05080860 0.12800291 0.03010307 -0.05583808 -0.13644782 -0.08319776 -0.36884391 0.10611590 -0.31766573 -0.12620932 -0.14447252 0.27266553 -0.25755620 0.38014260 0.11969564 0.16948052 0.13558608 0.43469909 -0.11776676 0.13533251 -0.16536227 -0.06921650 -0.16079621 -0.26629391 0.52298474 -0.14374030 0.09596635 0.22787030 -0.18604322 0.01169527 -0.27755922 -0.15292473 -0.26261950 0.26985466 0.05241304 -0.63189644 -0.01165003 0.17686754 -0.26801786 0.24633761 0.35316548 0.28396225 -0.13758397 -0.02135284 0.47592926 -0.37061188 -0.26451614 0.21486056 0.06487290 0.53179449 0.28917757 0.11215901 0.06194505 0.06178124 -0.19579378
-0.01202145 0.10741910 0.18851301 -0.21426964 -0.24853106 -0.60565275 0.05833031 0.41980335 0.29691574 0.22227971 0.12466219 -0.00343035 -0.54948366 -0.12926075 0.01740944 -0.20460020 0.25882640 -0.28479066 -0.25420788 -0.70112872 0.43529230 0.28643307 0.17153043 -0.13782525 -0.01148300 0.64697433 -0.24113570 -0.09551580 -0.21699038 -0.36378199 0.04716169 0.24676172 -0.22637013 0.51121920 -0.53923124 0.64391357 -0.30699658 -0.09867069 -0.44502118 -0.10459483 -0.18063129 -0.06420777 0.04611203 0.36086339 0.36148235 0.20996939 0.11129729 -0.21576726 -0.13227564 0.01093831 0.14203271 0.07164947 -0.22128402 0.39547467 -0.16542017 0.76262802 -0.21978439 0.41431233 -0.25060704 -0.48768800 0.04043856 -0.28699806 -0.03458654 0.28697547 0.16404064 0.24561411 -0.18600702 -0.02831142 -0.13428198 0.15392634 -0.46701539 -0.13423392 -0.15578358 0.01196067 0.12394049 0.19051889 0.01007529 0.02775097 -0.00029473 -0.24628016 0.10328069 0.22153859 0.15981011 0.14869255 -0.11263361 -0.23962584 0.08653775 0.18450496 -0.16278535 0.04527935 0.27382690 -0.36810341 -0.64054275 0.15405528 0.39754212 -0.18584846 0.31286418 -0.09698363 0.11289867 -0.15464902 0.26269245 -0.02934135 0.34526521 -0.29902825 0.05809857 0.22308117 -0.22497377 -0.08931049 1.02073562 -0.02273926 -0.07101234 -0.12239738 -0.14397876 -0.06525818 0.05253745 -0.18178797 -0.37229645 0.35631970 -0.10983425 -0.07491536 0.08225311 0.03953697 -0.33303964 -0.01424784 -0.00309630 0.37051645 0.32318050 -0.25181940
-0.02309512 -0.35147455 0.08956100 -0.24406371 0.10544766 0.41939768 0.61257982 -0.08586359 -0.16820934 0.09165906 0.00348073 -0.25827286 0.15312563 -0.23206022 0.34313732 0.20801932 0.21772245 0.30449226 0.01137198 -0.69254661 -0.17024332 -0.31066051 -0.03058556 0.00313192 -0.42843863 -0.10507056 0.19490975 -0.10475739 -0.17020178 -0.00464888 0.30664679 0.07310539 -0.15930939 -0.44743994 -0.22032827 -0.02300187 -0.08765906 -0.07980573 0.07759956 0.07772378 -0.05263301 0.41941726 -0.71744633 -0.00573017 0.42634621 0.16659337 -0.27267763 0.03105230 0.21833456 0.56354874 -0.04953425 0.00461826 -0.42709127 0.41286409 -0.57518697 0.48336759 -0.19530067 -0.28478020 -0.03099231 -0.08074031 0.43858007 0.11651234 0.13845533 0.33870304 0.23716094 0.43576792 -0.21211763 0.59853947 0.03806064 0.25403452 -0.54884458 0.22963685 0.37085080 -0.40931743 0.01677505 -0.11597735 -0.04949957 -0.31983209 0.07399775 0.23923060 0.24942118 0.23091099 -0.22690928 -0.04073324 -0.36683556 0.07360073 -0.15574232 -0.37167192 0.18315372 0.08373500 0.53647280 0.38195756 -0.16863824 -0.15327576 -0.04794925 -0.05152267 0.24033836 0.16518795 -0.37974238 0.51992583 -0.42335325 -0.06321907 0.13744721 0.09081302 0.00453996 -0.13670783 -0.27720904 -0.07100654 -0.38076359 0.24549510 -0.09817436 -0.12381757 -0.19397666 0.14606164 0.32242799 -0.18510139 0.06181775 -0.17124489 0.38987896 0.40187600 0.23693545 -0.23206516 -0.12662736 -0.43153274 0.13520457 0.03745482 0.30461189 0.14756638
0.24255455 0.17999460 -0.07401481 -0.04869044 -0.01642399 -0.58831525 0.25577119 -0.27765524 -0.19939573 -0.12802456 -0.14114162 -0.08264218 -0.02797701 -0.25032195 0.25668082 0.05053685 0.03584985 -0.27143162 0.26394850 -0.22546746 -0.12317971 -0.00615338 -0.03143446 -0.27116996 0.12784837 -0.26426837 -0.21488532 0.04366989 -0.04070339 0.06304022 0.05881215 0.52290553 0.00371996 0.16541830 -0.41554722 0.62775016 0.06523395 -0.17917551 -0.32524672 -0.13934442 -0.13505270 0.10057796 -0.40125802 0.66890848 0.23367205 0.33297929 0.02253551 -0.65971208 -0.29599103 0.57059395 -0.30671448 -0.03093562 0.39327878 0.10256474 0.01826515 0.39901173 0.29897648 0.30382127 0.22823890 -0.35127124 -0.00475714 -0.12845713 -0.02812420 -0.13753963 0.15647145 0.19615154 -0.64932787 0.10151934 0.05646874 0.13345091 -0.36224937 -0.00929024 -0.31315893 0.19287804 -0.08738124 -0.26328728 -0.12717234 -0.07606542 0.02727082 -0.26790157 0.31896493 0.08651152 0.10730525 0.07977986 0.07945289 -0.02499732 0.04668754 0.04250180 -0.36450535 -0.06483256 0.10547532 0.17297308 0.25636801 -0.04311656 0.22711177 0.15246549 -0.21165316 0.76427698 -0.27881145 0.29156831 0.09925158 -0.21789081 -0.50368679 -0.07018850 -0.02406839 -0.34265766 -0.13563375 -0.16285525 0.59853530 -0.33195427 -0.12910019 0.11834101 -0.26002586 0.18640925 0.38596091 0.26258522 -0.10552064 -0.03362745 0.11178281 0.14308612 -0.40479693 -0.01893832 0.12706463 -0.50876677 0.07128195 0.31010383 0.41371840 0.05668327
-0.00293315 0.26591408 -0.01784157 0.85217190 0.48580366 0.15369770 0.03859097 -0.35988575 -0.33253166 -0.62035370 -0.30456486 -0.27562767 0.09629329 0.34295958 -0.29717824 0.06575304 -0.59802085 0.14317870 -0.13656482 -0.15677261 -0.04115054 -0.85417217 0.19751410 0.09536766 0.04949901 0.00764607 0.60349506 -0.02086098 0.22237453 0.08517320 -0.05771797 -0.20668648 -0.00565576 0.03959044 -0.23914683 -0.14783604 0.39810956 0.32204622 -0.11359576 0.08899340 0.91547012 -0.16179061 0.24156526 -0.02878892 0.38069257 0.08420172 -0.58968461 0.24425906 -0.39904714 0.37808290 0.14374360 -0.22453937 0.37678000 0.10950439 0.19072953 0.05897885 0.08777841 0.11446136 -0.40380418 0.21636045 0.03419899 0.30012259 -0.17122038 -0.23256445 -0.78910446 -0.26523831 -0.00482951 0.10941550 0.04683305 -0.73576534 -0.06175425 -0.66570491 0.12760048 -0.32193175 -0.29045957 -0.07628961 -0.51188231 0.03965394 0.42189816 0.45497569 0.13983315 -0.47142842 -0.03951458 0.82275826 -0.01839377 -0.18465170 -0.06373957 -0.23538263 0.19981265 -0.42999125 -0.11374240 0.27910402 0.72945708 0.28474265 0.29980665 -0.28705156 -0.11395403 0.13955268 -0.09063851 -0.47072554 0.17063610 -0.01431433 -0.25313038 -0.11370260 0.04390977 0.04261305 -0.46602029 -0.26896209 -0.08636766 -0.14583406 0.14106499 -0.00765835 -0.04624705 0.30366513 0.22793110 0.52157742 -0.40967339 0.29067788 0.38678828 0.01866529 -0.22627027 0.19913928 0.05046957 0.09594392 0.42576575 -0.11897731 0.45387417 0.78234601
-0.13354923 0.28008753 0.26133513 -0.13324691 0.10557331 -0.01043169 -0.57747918 -0.00661843 0.10723004 0.21591777 0.23713475 0.12308044 -0.15537353 -0.12606531 0.18899630 -0.01439241 0.19559695 -0.16687639 0.18836035 0.49030438 0.01846668 0.35271952 -0.07822122 -0.24944818 -0.39166081 -0.49232441 -0.29702485 -0.12631933 0.22679803 -0.13977131 0.17112169 0.10887539 -0.07454766 -0.32317472 0.60319835 0.06960281 0.36885092 -0.53748298 -0.07261865 -0.20745203 0.05506740 -0.31226960 0.10296899 0.71553081 -0.08857507 0.12481188 0.10809480 -0.30300662 -0.44858909 -0.42419109 -0.30782595 0.15466851 0.10375644 -0.04824594 0.15633413 0.35874352 -0.22655345 0.29471025 0.10411482 -0.44430718 0.05204487 -0.40735689 0.40959686 0.00720382 0.12270370 0.10532815 0.03143475 -0.33637348 0.34977618 -0.17699848 0.58217049 -0.68563467 0.10609535 -0.08265492 -0.32561216 0.03152619 0.12131990 -0.01686675 0.20007917 -0.59452224 -0.63482732 -0.20738932 0.00893988 -0.01257254 -0.16412517 -0.19801655 -0.35759455 0.54680729 -0.27247319 -0.16366117 -0.22877960 -0.00498165 0.17209023 0.06366465 0.10979584 0.23196684 -0.56116509 0.39382944 0.11294766 0.11468706 -0.22393708 0.18138848 -0.05816524 0.03589578 0.33198544 -0.04916254 0.42500630 0.10555456 0.22078431 -0.28963044 -0.75463349 0.18589303 -0.29440776 -0.14706980 -0.13800573 0.46631822 -0.05036118 0.01514823 -0.03720796 0.06403892 -0.05335530 0.18939202 0.53167307 0.22723755 -0.10182263 -0.11037786 -0.43580022 -0.69023860
0.33247706 0.26307192 0.04476666 -0.10864439 0.26637679 -0.04821194 0.11995555 -0.13079898 -0.44851926 0.31908390 0.48366097 -0.42382425 0.16537908 -0.34522107 0.14155024 0.08380027 -0.18637398 0.03978338 0.42566764 0.28894022 0.39835224 0.10255123 -0.15018629 -0.54721856 0.30215463 -0.24975076 0.13177092 0.00687893 -0.23624623 0.86756545 -0.09606949 -0.72830594 0.39731333 0.19083601 -0.19117874 -0.14035945 0.40752974 -0.10423648 -0.04079905 -0.06833199 -0.06427707 -0.20394069 0.27503854 -0.33187801 -0.14869054 0.12991752 0.33927849 -0.19703120 -0.14960425 -0.11124150 -0.35527974 0.21822652 -0.08924761 -0.40662464 0.23459373 -0.30625108 0.08305268 0.17542720 0.01239759 0.30742633 -0.46897763 0.18508516 -0.05195604 -0.33333993 -0.20161189 -0.11111894 -0.02358863 -0.08697364 -0.02833342 -0.00386419 0.53534466 -0.23495995 -0.05138277 0.34745356 -0.05268375 -0.06276152 0.17515965 0.45908695 -0.66564649 -0.13440561 0.43427265 -0.17262791 0.05360328 -0.27448159 0.11148153 0.32866958 -0.04529201 -0.29038015 -0.02204341 -0.06646711 -0.15752631 -0.06983185 -0.13910559 0.23394696 -0.32120290 0.40654087 0.31645194 -0.42422387 0.71233743 -0.10372736 -0.29870370 0.32915601 -0.17392801 0.08640442 -0.33557019 -0.11907279 0.26564324 -0.04812856 0.06593762 -0.05811778 -0.01943236 0.21810523 0.16030000 0.11032441 0.33625194 0.05561093 -0.53721124 0.30141863 -0.19717850 0.27114722 -0.32671213 0.44356412 -0.29142401 -0.24366489 0.28793326 -0.34782603 0.23918642 -0.35673001
-0.04204918 -0.34908229 -0.16817890 0.05806012 0.02729501 0.10014279 0.19719650 0.39402956 0.37582129 0.27203080 0.16370456 0.10160459 0.12153828 0.08060321 0.27168506 -0.07133006 -0.07843611 -0.10392340 0.18436782 -0.32874697 -0.27228752 -0.46057171 0.07027156 -0.17115463 0.37604439 -0.21231359 0.26658076 0.02153937 0.23965116 0.23079748 0.07240721 -0.40936416 0.46026182 0.04295569 -0.03710797 0.40800071 0.10116906 -0.18753263 0.38877016 -0.04504732 -0.13370371 -0.18519534 0.18527970 -0.34458560 0.07215434 -0.00638472 -0.27447873 0.19485779 -0.25369453 -0.42188066 0.18598528 -0.13155657 -0.20698194 -0.35048559 0.07078896 -0.23699936 -0.37735653 0.18478817 -0.04131153 0.27971134 -0.01570318 0.12926830 0.19111532 -0.37744319 -0.11664766 0.16419712 0.27371570 0.08341641 0.04903848 -0.06668265 0.77308613 -0.20874882 0.13072939 0.21997105 -0.29204452 0.07293046 0.20474401 0.01580165 -0.39612958 -0.14635774 -0.27939683 0.28968111 0.01368703 0.10014178 -0.55781430 -0.15896864 0.10106689 0.15588553 0.45096189 0.34248179 -0.06988998 0.17046437 0.02237378 0.52932757 -0.09948741 -0.05890452 0.41340753 -0.72038907 0.18726394 -0.08504581 0.09431297 0.06906045 0.50630760 -0.32740998 -0.64690560 -0.25497437 0.50450575 -0.00303914 0.13147356 0.12694943 0.13055432 -0.19849519 -0.30464187 -0.11569770 -0.25590599 -0.06155224 -0.32975596 0.15800965 -0.09507837 0.28505617 -0.09472003 -0.29790989 -0.22754483 0.14296412 0.11837928 -0.27950621 -0.05908161 -0.26294628
-0.00716431 -0.19687079 0.67265260 -0.88195211 -0.03701221 0.25834003 0.16208816 -0.01400350 -0.60770625 0.35390890 0.44087404 -0.23663682 0.48108006 0.24913581 -0.11337042 0.09855442 0.30086878 -0.08889113 0.69721735 0.31419599 -0.14965333 -0.23948461 0.21017128 -0.52074224 0.08156703 -0.44647115 0.20026721 0.31778529 -0.24928412 0.26110202 0.43035433 -0.14026164 -0.32852894 -0.08867503 0.37039977 -0.30905554 -0.25984013 0.33704856 0.28848243 0.44120842 -0.27931890 -0.00226828 -0.55962318 -0.20670103 -0.21128038 0.23800400 0.00724597 -0.06170031 -0.22869408 0.44715473 0.05887358 0.73382038 -0.38810965 -0.43164992 -0.66490293 0.42765698 -0.32316232 -0.12039790 -0.07411910 0.15797372 0.45424074 0.40620536 0.13495070 0.34161502 0.25706872 -0.02125374 -0.27273822 0.13308537 0.14241134 0.16901678 -0.13725941 -0.18505418 -0.27906340 -0.42927259 0.40346172 -0.34665254 -0.17215340 -0.12197653 -0.14214139 0.24633770 0.51473570 0.31378609 -0.24030559 0.03095808 -0.21255204 0.50670385 -0.24545453 -0.46290091 -0.02576963 0.00276281 0.16180177 -0.08444466 -0.49871215 0.11007729 -0.44221762 0.21127853 0.15951502 -0.25993463 -0.43810505 0.16566625 -0.43195084 0.02436006 -0.26475546 0.40805709 -0.29749200 -0.25189525 0.03446137 0.05205722 -0.69077522 -0.13928804 -0.28910133 0.45276612 -0.10704765 0.18633039 -0.13100176 -0.06583356 -0.25457662 -0.05166099 0.08387431 0.01573484 -0.03940961 0.02665939 -0.14135747 -0.37714490 0.41714182 0.05241168 -0.32276526 -0.16556348
0.27179146 0.37691364 0.25048819 0.15478833 -0.18759340 -0.46503785 -0.47700056 -0.06000928 0.08449844 -0.18462758 0.14996091 0.00048729 0.30289572 -0.18249723 -0.07659081 -0.02997917 -0.21271384 -0.02281662 0.47214258 0.50094956 -0.35970178 -0.06740344 -0.23675153 -0.07608384 0.14177802 -0.42993286 -0.34439594 0.28086305 0.04797224 -0.10820500 0.23612207 0.00501981 -0.35078895 0.07200462 0.09197851 -0.20401037 0.27133030 0.04491549 -0.09740538 -0.23242982 0.08301345 -0.02455137 -0.09268898 0.07474719 -0.49572372 0.13773008 0.11791047 -0.44637305 -0.29407784 0.11319154 0.22321966 0.20538817 0.66321206 -0.54412907 0.64664608 0.07717064 -0.01891875 0.21901628 -0.19311081 -0.12327656 0.11329885 -0.02213445 -0.13703904 -0.29213840 0.26878801 0.11618704 -0.30953473 -0.50731498 0.24471827 -0.30183789 0.23632191 -0.00084152 -0.47376579 0.14239433 0.15649778 0.17980757 -0.36026394 -0.14208984 0.62888712 0.12906951 0.39251226 -0.62057525 0.03876537 0.40373927 0.02186601 -0.25600585 0.06048833 0.09999331 -0.02193512 -0.16712244 -0.05460512 -0.38447168 0.45896313 0.09887838 0.13964401 0.06497461 -0.35416517 0.35029805 0.20178002 -0.25881082 0.39023575 -0.33608717 -0.26653719 0.05045065 -0.12763171 0.09255236 -0.29360849 -0.03714625 -0.10207562 -0.28891617 0.05751139 0.26129565 0.42013943 0.17436469 0.23358518 0.59855527 0.04750893 0.27377227 -0.11349612 -0.45138231 0.02200053 0.02053594 0.22735879 -0.31189591 0.37092638 0.09850322 -0.74073076 -0.03014780
0.11972893 -0.02494770 0.01938648 -0.05924635 0.08306000 -0.39985359 0.04072401 -0.12039352 0.28126803 -0.39440334 -0.11507362 0.45832333 0.54625607 -0.17456087 0.04256897 0.05035312 0.30498838 -0.08654951 0.17933898 -0.28389743 -0.27152771 -0.08557454 -0.05929857 0.23628657 -0.24332227 0.62222749 -0.32365763 0.28861552 0.62140954 0.23248735 0.04220665 0.28265116 0.37769726 -0.19229278 -0.09842287 -0.07981666 -0.00262922 -0.75653988 0.03953281 -0.29331821 0.20965081 0.49206415 -0.41799721 0.39867517 0.36377543 0.24853379 0.43993923 -0.34309292 0.00633025 0.13220444 -0.58452994 -0.30256531 -0.22003599 0.08325408 0.33249363 0.48849627 0.38843346 0.30873659 0.56780279 -0.13030757 0.05947516 -0.11486941 -0.13740256 -0.02178393 -0.02115253 -0.24037752 0.37338376 -0.02347960 0.11524784 -0.24707687 0.14192505 0.28254995 0.27658495 -0.22551550 -0.45668760 0.28212523 -0.43267924 0.14838374 0.14960524 0.49842247 -0.31685022 -0.52102154 -0.45269781 -0.24921629 0.24311149 -0.08631378 -0.07209975 0.24829854 -0.22531892 -0.06488709 -0.14805108 0.07006911 0.41752142 -0.27849790 -0.01430700 -0.07996637 -0.16469744 -0.19148235 0.28800368 -0.16321665 -0.13782997 -0.92268395 0.04856354 0.12862031 -0.34906060 0.48105651 -0.39368042 -0.05453859 0.19869375 0.60904646 0.04215244 -0.33368278 0.11362405 -0.29505503 0.16411072 0.10043625 -0.02596104 -0.02161775 0.07890770 0.15311284 0.29062408 -0.00042391 0.07724798 -0.14667156 0.23433198 0.13345058 -0.08329818 0.00876384
-0.17478347 0.13817565 0.15906629 0.51756942 0.46044803 -0.05672299 -0.51096028 0.26833960 -0.20549715 0.24065392 0.37624082 -0.46422210 -0.11653668 -0.20408487 -0.12336857 -0.25426242 0.02400845 -0.24548899 0.20944194 0.10502362 -0.21974561 0.27360216 -0.20647682 -0.45748177 0.36029705 -0.08707537 0.05815545 -0.03858657 -0.19648659 -0.48028702 0.21601833 -0.34853235 0.04113645 -0.55564600 -0.45463285 0.07557108 0.32088038 0.30271575 -0.30154175 -0.11741883 0.11780731 0.04823450 0.05020925 -0.09715335 0.13215166 -0.38320008 0.10168432 0.51524740 -0.07957452 0.14460778 0.21147169 0.27862260 -0.06046879 -0.13459764 -0.06620333 0.08393073 -0.23417960 0.14299622 0.00798309 -0.27681968 0.03224057 -0.06984132 -0.37796479 -0.20824267 0.41076973 0.44663703 -0.13624454 0.16782716 0.22482158 0.38550606 0.20527306 -0.21415469 0.46631140 -0.11968619 0.08046531 0.35139048 0.06351160 -0.11389945 0.59430790 -0.48935187 -0.16848235 0.01663978 0.23012267 -0.14443450 -0.85032511 -0.13442270 0.10010763 0.16680625 0.32323536 0.10733686 -0.46161777 0.17546096 0.21641910 -0.34361747 0.53345728 -0.24330880 -0.30059707 -0.34187192 0.80558139 -0.16496828 -0.28907263 0.09562921 0.82047284 -0.46265742 -0.12986453 -0.24333762 0.78146833 0.08248956 -0.04903074 -0.13439383 -0.04613781 -0.42377213 0.40076023 -0.28307852 -0.15961555 0.02466508 -0.15437686 0.56613082 -0.71371084 0.00547762 0.19666807 0.28024775 0.46186617 0.43944624 0.35094288 0.20103759 -0.23928638 -0.38338283
-0.17828935 0.53297961 0.11092736 -0.41682565 0.45169285 -0.76458627 -0.01197973 0.12004071 0.20786931 -0.04613354 0.06934849 -0.16015634 -0.24462818 0.06293559 -0.12730718 -0.23818950 -0.35540596 -0.12939224 0.60401112 -0.23025873 0.19157812 -0.23407009 0.39306989 0.11143242 0.33596212 -0.08428878 0.16524094 0.55495417 -0.03655928 -0.03063441 -0.18755093 -0.42186910 0.24812363 -0.15903462 0.19025201 0.62948209 -0.08952796 0.29904106 0.11251903 -0.37512907 0.02391882 -0.48428950 0.45360497 0.05195890 -0.22501399 0.33502102 -0.30869624 0.31579390 -0.18059921 0.22719198 -0.34683579 -0.19414845 0.53666431 -0.61222935 -0.04379471 -0.79215717 0.13705133 0.42216879 0.25449151 0.05252686 -0.34470943 -0.28105643 0.46959817 -0.02125678 -0.29956791 0.09248170 -0.04851504 0.14650278 0.05190255 0.08116531 0.28831193 -0.45119619 0.10636704 0.32652137 -0.03288472 -0.42269635 -0.13942885 -0.12994576 -0.10681164 -0.50944656 -0.03879431 0.11516724 0.52133846 0.49119282 0.27575433 -0.21143430 -0.24192390 0.38419253 -0.46272233 -0.07802487 -0.53897649 0.02050555 0.03122690 0.66175699 0.43792328 0.41212004 -0.03183326 0.35942197 0.05882298 0.59230763 0.68642384 0.33687183 -0.25354072 -0.37305236 -0.31815082 -0.44696563 0.25239658 0.53883487 0.80863625 -0.53887743 -0.17486548 0.10190233 0.07601371 -0.45129216 -0.33581480 0.08059470 -0.10651959 -0.05025033 -0.12024742 0.03571832 -0.06776887 0.26724505 -0.59354347 -0.07211670 -0.38392982 0.50689089 -0.03027296 -0.58977878
0.25422075 -0.46508533 0.08299928 0.22575304 -0.05689945 0.08212239 -0.00643610 0.34384534 0.13414271 -0.07648503 0.18839903 0.26951554 -0.15706675 -0.21543103 0.17327814 -0.20562136 -0.30192265 0.00184236 0.20325710 0.05677203 0.02909108 -0.34258342 -0.27603659 -0.27114764 0.07710199 0.07811824 -0.28503034 0.41836661 0.34237573 0.30730787 -0.06604514 -0.16373040 0.38060281 -0.58350259 0.12910485 -0.16779371 -0.12638652 -0.07945877 0.06346900 -0.25848877 -0.08741373 0.57473671 0.05669580 0.12096719 -0.69981116 -0.01843344 0.16118635 0.26204917 0.08936376 0.20326000 -0.36183843 -0.32654700 0.63786125 -0.35367927 0.16342746 -0.51929897 -0.23204920 -0.12923892 0.54160351 0.02849727 -0.14409241 -0.31951019 -0.26726186 0.18423773 -0.02534808 -0.07253556 0.39220816 -0.26208994 0.25034139 0.04546769 -0.09723294 0.62347186 0.10953675 0.31817847 0.05462034 0.13652521 -0.03151202 0.12640953 -0.12260284 -0.01861339 0.08293979 -0.41260138 -0.16375610 -0.64588308 -0.18881211 -0.17494613 0.23250589 0.27116463 0.13697232 0.10209660 -0.22130193 -0.13959101 0.35745642 0.07802051 0.17543764 0.16040955 -0.37012768 -0.17990257 0.65813357 0.61166131 -0.02079733 0.06406809 -0.30906799 0.06860708 -0.35494196 -0.04586312 0.08829377 0.32329121 -0.21570520 -0.15698542 0.52380258 -0.37267321 0.24975994 0.30207989 0.34572771 -0.31895292 0.53118438 -0.23923410 -0.06416521 -0.00093841 0.28250143 -0.22296040 0.00751356 -0.15343323 0.05932324 -0.07758674 -0.28341162 -0.22815044
-0.14117517 -0.01076644 0.08961380 -0.47961181 -0.27399352 -0.38986689 0.10107417 0.68081731 0.57448447 0.09563474 -0.34793285 -0.43167108 0.42688945 0.08970308 0.14042029 -0.30397663 -0.21206643 -0.25637078 0.72408444 -0.07702328 0.15013774 -0.36105439 0.61930943 -0.48036480 -0.39131147 -0.01256836 -0.43733406 0.38672239 0.34642392 0.58678150 0.21362378 0.22306752 -0.18596554 -0.15800162 -0.05578730 0.53050399 -0.58736217 -0.23767644 0.53163624 0.29741159 -0.23639111 0.15825713 -0.42287320 0.45993066 -0.56278485 0.30403933 -0.06718566 0.08472674 0.11234467 -0.58955210 -0.30125850 0.74394494 -0.24920674 -1.04844511 -0.18457796 -0.29727468 0.04707139 0.55915052 -0.14380263 -0.17516579 0.38870105 0.01631711 -0.09584477 -0.32224196 0.24004348 -0.12809089 -0.33252802 0.42689803 -0.15121025 -0.24992250 0.50921601 0.07142694 0.00934913 -0.24825306 0.01908931 0.14581548 0.14110190 0.32328483 0.18918823 0.18658480 -0.09980482 -0.17831817 -0.07200938 0.12602258 -0.12715849 -0.12433247 -0.24240734 0.02367590 0.45781386 0.38051942 -0.13685697 -0.14458638 0.12898804 0.27633151 -0.65096265 0.00920235 0.15556595 -0.05979265 0.30539167 0.24006186 0.35576615 -0.44327173 0.11505425 0.17251608 -0.34463823 -0.07973907 0.05564611 0.06206034 -0.28586555 0.50518078 -0.10652728 0.23033248 0.12082393 0.05769650 -0.32782871 0.21263570 -0.10192238 0.27746084 -0.15873195 -0.03147184 -0.12296866 0.21335909 0.05364558 -0.48823866 -0.11657240 -0.15800869 0.19036692 -0.32381529
0.35925749 -0.55180180 -0.27297822 -0.14390649 -0.08829331 -0.11101592 -0.14667261 0.36468977 -0.32761863 0.54914385 -0.48631689 -0.01752304 0.03750148 0.62128669 0.15498696 0.38988632 0.10494515 0.36535636 0.31075063 0.02424572 0.28322998 -0.00807710 -0.16477330 0.08412942 -0.02733788 -0.22340828 -0.37339720 0.53759211 0.09994662 -0.06868877 0.36944592 0.23645326 -0.60780221 -0.02334016 -0.32677612 -0.44203547 -0.17650834 0.04789870 0.15660223 0.08491891 0.25074598 -0.19666737 0.10483280 0.05712000 0.25666550 0.05529782 -0.02597218 0.34742913 -0.13955346 -0.26870531 -0.04696738 -0.20685309 0.13850549 0.29614967 -0.11646832 0.35014960 -0.18825355 -0.02157877 0.40657607 0.57990927 -0.43211153 -0.10245069 -0.10568856 0.23499194 0.23005503 0.23020577 0.11074939 -0.01884185 0.27925190 0.21090645 0.57118863 -0.13942410 0.10250346 0.67112684 0.32925487 0.19819053 0.05513213 -0.00970252 -0.15498948 0.01294212 -0.19798379 -0.23439556 0.35216022 -0.08000316 -0.26502639 -0.16804987 0.08273729 -0.29282829 -0.28126049 -0.26934716 -0.36934868 -0.14822708 0.36712608 0.11545693 -0.20071124 -0.24519844 -0.20223832 -0.02404515 -0.20859744 0.25262445 0.34901273 -0.32999229 -0.04769424 0.17781296 -0.02237708 -0.06438625 0.08938038 -0.60862350 0.32330114 -0.18290605 -0.28755307 -0.57246524 0.07152689 -0.08319977 -0.37581113 -0.13140275 -0.01403956 0.02976178 -0.36623228 -0.40460604 -0.61883575 -0.28345329 -0.57967216 0.06786467 -0.77367157 0.26780102 0.05276245 0.33179381
-0.36771795 -0.49215710 -0.07096800 0.58336312 0.37417507 -0.18449691 0.18266959 -0.34119999 -0.03521985 0.03229734 0.00966277 -0.01545191 -0.37146321 -0.03940805 -0.53596991 -0.15394336 -0.10245374 0.19125365 -0.03536028 0.20372374 0.50513542 0.00181030 0.29999337 0.28307429 0.02570569 -0.30811647 0.01938089 -0.21807057 0.53640079 -0.36245266 0.08436916 -0.01449220 0.36673546 -0.40596297 -0.26789173 0.08126348 0.49442059 -0.01215268 -0.30252627 -0.56029457 -0.11112493 -0.32349384 -0.54801673 0.17880501 -0.01720941 0.40662873 -0.40061212 -0.42706576 0.07786751 -0.38027623 0.41012096 0.02027217 -0.14837991 -0.27988070 -0.13271703 -0.04039343 -0.22343007 0.34490684 0.45430934 0.27820402 0.56454873 0.23620041 0.44490591 0.12425598 -0.13743667 -0.62910819 -0.00106896 -0.30538040 -0.16332971 0.01214159 -0.39493328 0.12517639 -0.10720542 0.12424020 0.06323870 -0.04339635 0.14811662 0.29202300 -0.41369882 0.06588231 -0.29202759 0.00233634 0.45365119 0.48902282 0.57532686 0.02609146 -0.52199405 0.07001346 0.75445610 -0.18076764 -0.28901818 -0.13297258 -0.09349223 -0.46628681 0.31436074 -0.46386701 0.41382343 0.23020591 -0.22465846 0.19211814 0.29626197 -0.17010984 -0.02652639 0.28736135 0.71113938 -0.19636653 -0.02814243 0.87815922 -0.45503643 0.38493839 0.44615310 -0.24769492 -0.11438029 -0.06848856 -0.65838903 0.65278631 -0.09283847 -0.17919992 0.39489710 0.31227008 0.40852466 -0.39216259 0.02685687 -0.55364573 -0.00842506 0.53212613 -0.04649427 -0.19205998
0.01452733 0.26398087 -0.19753884 -0.41165233 -0.18098351 0.51678008 0.18610352 -0.18561986 0.65609825 -0.48894045 0.11220114 -0.03321585 0.23313794 0.00670122 -0.16642287 0.27967766 0.02977783 -0.21519843 -0.03312343 0.38112116 -0.23706351 0.19804101 0.16618462 0.04033286 -0.42783555 0.47926766 -0.00424065 0.46699813 -0.04747866 -0.04281383 -0.14706108 -0.25265366 0.48497391 0.00168586 -0.30518818 -0.04798372 0.34556377 0.04913318 0.01034159 -0.04867716 -0.33110806 0.15912968 -0.14296292 -0.10568059 -0.01849975 -0.34498182 -0.13845727 -0.22242363 0.00134168 -0.00902250 0.00816390 0.08326571 0.57339001 0.31912380 0.12966660 -0.28447232 -0.27633029 0.24933821 0.19118966 -0.13836233 0.43063796 -0.18360224 -0.07639541 -0.19532597 0.15702672 -0.18438321 0.07492491 0.01260071 0.27730140 -0.18880093 -0.52525061 -0.78243548 0.35612044 -0.01429349 0.29849696 -0.13930586 -0.43549624 -0.10917468 -0.24115261 -0.45975122 -0.28682941 0.21935220 0.37922204 0.10997536 0.11402915 0.19274923 -0.03136736 0.11347564 -0.09840259 0.11404483 -0.25944537 -0.17398950 0.26178658 0.19885421 0.33564538 -0.01659956 -0.10116245 -0.28615713 -0.31573403 -0.17737409 -0.10072485 -0.12317912 0.26279408 -0.30731013 -0.22738221 0.09564339 -0.17742880 0.31211063 -0.09387711 0.27571273 -0.18146308 0.33471790 0.06309016 -0.31984270 -0.08024929 0.28453434 0.18059936 -0.11471672 -0.15498799 -0.49020633 -0.29605505 -0.17021243 0.07842016 -0.05909836 0.36035258 -0.28072518 0.02809830 0.02629866
