0.03998522 0.05156763 -0.23425944 -0.03880605 0.14851192 -0.05487673 -0.02232868 0.05173496 -0.12620914 0.14455611 -0.16123439 -0.10445721 -0.07333097 0.18887845 0.09688407 -0.06302331 -0.05923594 -0.01571150 0.15350832 -0.30762818 0.02675142 -0.00063768 -0.16927934 -0.11883387 -0.02269516 -0.10130917 0.15981497 -0.16572624 0.03885662 0.03749010 0.08007139 0.19403058 0.11422644 0.04039199 0.03554422 0.33599931 -0.05396187 -0.11913713 0.07461212 -0.02717445 -0.16201484 -0.16622937 -0.15325721 0.14635541 0.27419430 0.19732675 -0.06207722 0.01395935 0.05201973 -0.15437521 0.10192905 0.00123611 -0.01405253 0.08861265 0.06171069 0.03279009 -0.00480456 0.01823586 0.02538302 0.18769491 -0.06487612 0.19004695 -0.11983963 -0.07662055 -0.06581622 -0.12656842 0.02277943 0.25276092 0.01026884 -0.06440371 0.15992217 -0.10060106 0.01753985 0.08333060 0.07118944 0.17844446 0.12818618 0.06225475 0.06439366 0.17300810 -0.08740456 0.07255522 0.05431993 -0.18728006 0.01573642 0.04142880 0.01320421 -0.32465416 -0.02559875 0.03434399 0.16437308 -0.07789204 -0.11762287 0.14595369 0.10600685 -0.15688406 0.06259982 -0.54124719 0.31054151 0.05912551 -0.07329130 -0.07321848 -0.11678511 0.17716634 -0.02918169 0.08688051 -0.01087522 -0.10781081 0.28029847 0.19019544 -0.22370321 0.23837642 -0.23606095 -0.11289424 -0.31480265 -0.00386872 0.00352320 -0.11182166 0.21349904 0.21395960 -0.28696784 -0.00184965 0.25777736 0.43429393 -0.36971036 0.13936637 -0.34657687 -0.03836210
0.41098452 -0.00641785 -0.04624546 -0.07897983 0.03945743 0.06071981 -0.00436488 -0.00368214 -0.00604103 0.00881296 0.03227239 0.04773080 0.00124127 -0.16534041 -0.09029955 -0.27506152 -0.09833955 -0.06436227 -0.00011310 -0.09771565 0.01698775 0.06963942 0.04762408 0.17297661 -0.09945980 0.31107530 0.03786713 -0.12840362 0.03304724 0.07690560 0.00667218 0.00037941 0.04593160 0.00653023 -0.00678951 -0.35619569 -0.07165603 -0.16565129 -0.09919255 0.28212523 -0.12674743 -0.17368482 -0.22009805 -0.00445907 0.10123574 0.07448233 -0.02638674 -0.21713896 -0.05194403 -0.09170360 0.20296228 -0.00184487 -0.00623493 -0.00810769 -0.12653434 0.10187070 0.04317217 -0.06300624 0.15055065 -0.33947375 -0.10193763 0.02196277 -0.04096415 0.07637638 -0.01732652 -0.16026838 -0.09856438 0.03128077 -0.02683922 0.29313827 0.01644553 0.01714460 0.04784802 0.06676791 0.00201871 0.00684275 0.03770674 -0.00090469 0.05356193 0.00710965 0.00568077 -0.06335548 0.00137806 0.13782497 0.13945843 -0.01499290 0.18091366 -0.14399098 0.13627334 -0.02662233 -0.09716774 -0.11869512 0.15922707 -0.13989663 -0.19623268 0.09131905 -0.20068020 -0.22643311 -0.13373889 0.29269025 0.16088018 -0.09369775 0.32211235 -0.08015709 -0.67130756 -0.22235867 0.38658494 0.18206620 -0.09717397 -0.28611970 0.18752797 0.29352522 0.12629667 -0.03436657 0.06303992 0.05054706 0.10126907 -0.14233574 -0.00035349 0.32548034 0.00883957 0.04048866 -0.29486042 -0.17514381 -0.03471857 -0.04511280 -0.26054016 0.26336956
0.17036343 0.27631161 -0.00822628 0.14640661 0.17603599 0.03051089 -0.13149637 0.06603623 -0.24701747 0.23838924 -0.03637069 -0.06481614 0.13408108 -0.03123878 -0.09433122 -0.42851582 -0.17600125 0.18345274 0.30693582 -0.25662503 -0.03507547 -0.03570625 -0.10884551 0.00435952 -0.12518324 0.33714443 0.06710102 0.35771215 0.09158938 0.00903093 0.00763979 -0.16361690 0.19355100 0.06496444 -0.17363565 0.26959100 0.00443155 0.00589253 -0.06491195 0.07478220 -0.04859173 -0.13309449 0.06326079 0.12937632 0.09594209 -0.13954867 -0.01831525 -0.04670684 -0.21963838 -0.11636088 0.06823739 0.05323170 0.03811653 0.01123845 0.15902911 0.21127857 -0.10566268 -0.02437656 -0.34200189 0.13528767 -0.08005646 -0.01861673 -0.12151815 -0.04972597 -0.06601413 -0.10849302 0.32043844 -0.15405042 0.02028134 -0.27485466 0.03954794 -0.14223760 -0.00758587 -0.14240874 0.00608249 -0.00993365 0.30309162 0.08786583 0.02550329 -0.19907847 0.08868209 0.10066163 0.00612690 -0.10991336 -0.11304969 0.02003632 -0.02511153 0.14124301 -0.05415629 0.02625061 0.09517574 -0.10773885 0.06027172 -0.04763968 -0.08258004 -0.04868966 0.28082332 -0.02067223 -0.04255007 -0.21236095 -0.45377451 -0.03780964 -0.10264328 0.19788469 0.07239381 0.02013704 -0.00329017 0.00019403 -0.07642790 0.08622178 -0.16088474 0.10446984 0.06054666 -0.10358949 0.20730343 0.08739585 -0.19688982 -0.39697483 0.18588437 0.50782484 -0.53786886 -0.13879736 0.04207349 0.30967280 -0.11474794 0.16647078 0.12778822 -0.06389821
0.04585453 -0.00868764 0.45144209 -0.21727759 0.27123654 0.10529643 -0.00061809 0.09190677 -0.30002862 0.17328238 0.11953809 -0.00314169 0.52937281 0.22684181 -0.11802975 0.04573963 -0.09484098 0.10708749 -0.02028469 0.41797000 -0.16579266 0.04367207 -0.07935960 0.11888072 -0.12165024 0.49964172 -0.09243202 -0.10696972 0.34881780 0.02674653 -0.11000011 -0.25878042 -0.09775972 0.03542387 -0.06979785 -0.23020892 0.04262297 0.08728685 -0.10526364 0.07240092 -0.24742115 -0.11314185 -0.15420802 0.22835891 0.35282522 0.36049443 0.00774605 -0.11716954 -0.17933814 -0.09502002 -0.09037162 0.34694153 0.01231166 0.03983585 0.17887148 -0.14805841 0.10346250 -0.00850294 0.16967027 -0.20022865 -0.57475358 -0.24714471 -0.05247961 -0.28708470 -0.00822155 0.09232999 -0.01258686 -0.04592247 0.00203655 -0.06893530 -0.27683198 0.03075171 0.04830562 0.25145251 0.17888553 0.11317534 0.30854952 0.02745971 0.00416319 -0.24766923 0.07889034 -0.13463934 0.03527582 -0.30920020 0.02683773 0.09544845 -0.14995360 -0.23634887 -0.04332951 0.04763735 -0.03364245 -0.18505824 -0.05010622 -0.21176042 0.16367164 -0.03826417 -0.59989941 -0.20289992 -0.01974089 0.14631991 0.01815290 -0.15855969 0.24365315 0.00232975 0.06374173 0.11987752 0.18575640 0.25311220 0.47912943 -0.61006641 0.26375613 0.38153204 0.32930893 0.26367137 -0.13549769 0.06854089 0.03997359 0.09023989 0.14146739 0.04322670 -0.13945729 0.00750545 -0.29152942 0.03789751 0.08761755 0.32859117 -0.14172989 -0.28095651
-0.18626955 0.10823520 -0.08075997 -0.46294606 0.09952103 0.31471759 -0.05955406 0.15456872 0.05464768 0.17771557 -0.18763821 0.11810708 -0.02739006 -0.15214019 0.11185000 -0.25052744 -0.08249513 -0.09148255 0.12562692 0.01339776 0.17323302 -0.24712875 0.34477797 -0.05279533 -0.12046504 -0.23273465 0.06972232 0.04367801 0.01428672 0.05807106 0.43528935 0.06394315 0.14674580 -0.18142809 0.02962693 -0.08543287 -0.05949861 0.21112750 -0.10585916 -0.30633280 -0.18597449 0.18053341 -0.16751041 0.19973740 -0.04838309 0.05914940 -0.01289984 -0.05489450 -0.08315467 -0.06212054 0.02238275 -0.52993023 0.00723234 -0.00385170 -0.27782881 0.02063282 0.16637802 0.25491950 -0.36022407 -0.25588799 -0.06869686 0.11104540 -0.03419671 -0.25391820 -0.00126095 -0.11960514 0.13242657 0.08404241 -0.04682682 -0.04793065 -0.01642296 -0.03855046 -0.09272198 0.08560755 0.07933514 0.01272833 0.22195143 0.00384713 0.01813923 0.17824203 0.02838307 0.05102527 0.03365824 -0.00119274 0.11282353 -0.00860140 0.30380365 -0.05248339 0.18579729 -0.01460930 -0.15851229 -0.19381483 -0.17330843 0.12144261 0.03004911 -0.15466350 0.13109083 -0.04904265 0.02226460 0.06082503 -0.03660866 -0.02495098 0.30974755 -0.30235559 -0.21552621 0.04399180 -0.37224746 -0.41263759 -0.20408705 -0.59006202 -0.42828199 0.02854525 -0.70210409 -0.29118243 -0.04143404 0.07282770 0.20732869 -0.03893473 -0.03955797 -0.15527023 0.40402618 0.14989261 0.09864013 -0.00366727 -0.33551493 0.09908741 0.01694585 -0.21765587
0.32574892 -0.12462410 0.14329916 -0.20177802 -0.01964061 -0.06076746 0.02273779 0.00885857 0.08597714 -0.43233073 -0.33072457 0.01535280 -0.10447997 0.07821566 -0.35699803 -0.20749065 -0.04535470 -0.05740676 0.19406159 0.64050990 0.12391772 -0.19587259 0.29772812 -0.09046170 0.23375633 0.13815324 -0.24107982 -0.01500021 0.51046973 -0.08617985 0.07840005 -0.16634457 -0.13773429 0.21730229 0.00607366 0.49432158 -0.06080184 0.34276545 0.39236277 0.31327057 0.33243340 -0.24844430 -0.17526974 0.06058126 0.20023181 -0.45949212 0.00662838 -0.20244007 -0.01914051 0.01171486 -0.03067357 -0.16092876 -0.03848469 0.07344218 -0.17819320 -0.04220911 -0.23139092 -0.51543081 0.35429171 0.21879916 -0.17500238 -0.30041233 -0.27276450 0.34446332 -0.05763575 0.02679777 0.06871644 0.03934648 0.05115299 0.11931040 -0.13356596 -0.01418527 0.06911813 -0.07852327 0.07162450 0.00409084 -0.14585552 -0.03123637 0.01149464 -0.09953971 0.31161964 -0.04733321 0.06161772 0.17731579 0.03950459 0.12367667 0.18716149 0.05632724 0.10663145 0.03793422 -0.23667879 0.02346162 0.06417049 0.08117037 -0.02878989 0.02480327 -0.15715463 -0.30315369 0.06116136 -0.09587021 -0.22558725 -0.21425998 0.05039027 -0.20408538 0.16310246 0.03462708 -0.19291180 -0.30656523 0.06586216 0.12549759 0.28162435 -0.01277235 -0.30939588 -0.14251781 -0.19262360 -0.02970028 -0.24583736 -0.07518535 -0.04565450 0.28917328 -0.16768642 0.33491278 -0.26803905 -0.13663298 0.04661859 -0.14086127 0.37729821 -0.19611382
-0.10108107 -0.23066865 -0.02623297 -0.47052142 0.35353509 0.07965176 -0.08146448 0.14360179 -0.00331175 0.15430959 -0.16026410 0.00566421 -0.06113246 -0.04060816 0.31868678 -0.09297796 -0.11115027 0.07491503 0.14943627 -0.30420533 -0.13330869 0.05417365 -0.02160432 -0.16693696 -0.04847540 0.16712856 0.06063453 -0.24188665 -0.19748433 -0.01935297 0.00193063 -0.04394042 0.09657563 0.11474030 0.02595572 -0.56207937 -0.12379935 0.32474053 -0.00827828 0.00371008 0.20930827 -0.39219332 -0.19574150 0.03881161 0.18120979 -0.19672966 -0.06534695 -0.32051444 -0.33527479 -0.02344911 -0.07205299 0.53279775 0.02009351 0.08068184 -0.42692038 0.43821466 -0.29185826 -0.03846403 -0.10344677 0.38563398 0.01027517 0.08689675 0.06356818 -0.02420346 -0.01898823 -0.11120117 -0.00385658 0.23514888 -0.02723771 0.28050372 0.09769569 -0.02470393 0.02000879 -0.04206710 0.10515926 0.12674512 -0.13799731 -0.02097761 0.10397494 0.10019626 -0.02097602 0.02893141 0.06813445 0.20255806 -0.13847640 0.05747282 0.24175386 0.01669178 0.18145120 0.09878662 -0.14695936 -0.07831957 -0.05375147 0.25021282 0.00733876 -0.19313677 -0.19512330 0.29757267 0.31193140 0.06354531 0.07813626 -0.11968578 -0.00218537 0.45881170 0.19608141 -0.10037050 0.13700725 0.12143640 0.41119805 -0.12446957 -0.17417085 0.18442221 -0.02522872 -0.25525573 0.25209430 0.23934424 -0.16712964 -0.00834221 -0.05159754 0.28655410 -0.31734130 -0.11155847 -0.02134810 -0.10342144 0.08662574 -0.16565518 -0.22829694 0.06177318
-0.20528805 0.09173650 0.13637352 -0.18357198 -0.35322794 -0.06459974 0.15066379 -0.02242068 -0.06781647 0.03425547 -0.18978935 -0.08847707 -0.02621158 -0.47576600 0.37833014 -0.35181341 0.01372302 0.22225040 0.03001371 -0.08143736 0.03725571 0.44956559 0.06703283 0.01325407 -0.14083599 -0.14486584 -0.13315323 -0.16925733 0.18024555 -0.09962169 -0.01135253 -0.15787622 0.37999392 0.07527047 -0.04637863 0.27151576 -0.05823864 -0.15255238 -0.28689623 -0.40236586 -0.06385582 0.22987685 0.16819021 -0.17920959 0.30575767 0.10641442 -0.00661144 -0.10396450 0.12565920 0.01095002 -0.00891822 -0.21176507 -0.03422365 0.02071235 -0.24425039 0.16981420 0.13091059 0.17814030 -0.05796675 -0.19472541 0.09669665 0.04789900 -0.12805802 0.18842863 0.02885216 0.21665612 -0.03733411 -0.08819768 0.01351692 -0.16957898 -0.19611645 -0.06529749 -0.02928708 -0.10797821 -0.19487667 -0.11734143 -0.00268631 -0.05114077 0.03982903 0.10813140 0.18112019 -0.03263647 0.04655569 0.11083223 -0.09734460 0.09649610 0.05408981 -0.04209528 -0.17726360 -0.00454936 -0.25029892 0.18889216 -0.01348611 0.02423515 -0.02606128 0.06353574 0.24803381 0.33609959 0.02722472 -0.01174334 -0.05629986 -0.08033979 0.09020179 -0.42811880 -0.03461481 0.06131174 0.16523214 0.27748534 0.15287231 0.24886654 0.26762366 0.11295623 -0.08259982 0.15003879 0.24744949 -0.06764354 -0.11578977 -0.03289511 0.00929408 -0.12248164 0.34904110 0.13835084 0.13169679 0.14331900 -0.50013483 -0.01472438 0.15986159 -0.18743186
-0.01920627 0.04617917 0.05595239 0.25704339 0.20005049 0.17585811 0.12766196 0.01538719 -0.04979465 0.16664913 -0.02873362 -0.09960329 -0.20178747 0.24145468 0.09307879 0.00436811 -0.12500715 -0.73193634 0.06024165 0.08498050 -0.08220493 0.21755107 -0.28612155 -0.07853719 -0.11937933 -0.18427075 0.16987213 0.29289389 -0.25022212 -0.02884367 -0.23247203 -0.40801525 -0.16796425 -0.08589064 -0.11426920 -0.01065754 -0.10071418 -0.09745874 0.10143213 -0.13031282 0.03650190 0.07836601 0.04725576 -0.04505783 0.04532969 0.18092240 -0.07033827 0.07068302 0.12307617 0.07220796 0.08416653 -0.15756796 -0.00990351 0.06224876 0.17836170 0.00339520 -0.03933071 0.07523099 -0.29274291 0.25438368 0.42092481 0.37088436 0.23161845 -0.18105870 -0.03355294 -0.01145960 -0.13508679 0.04459485 0.06855808 -0.42919043 0.22303113 -0.04243479 -0.05530355 0.06868179 -0.09826916 0.00558611 0.00912792 0.01313082 0.03728563 0.28126940 -0.35518926 -0.02157487 0.10710321 -0.36148742 -0.02778602 0.10462265 -0.05991117 0.02276727 -0.05519094 -0.03605725 0.66071004 -0.07349049 0.04882049 0.18101586 -0.06481194 -0.24318914 0.38761643 -0.11927366 -0.19172837 -0.04728571 0.19129501 -0.04640700 -0.10198177 0.07508886 -0.07577267 0.11946474 -0.48282465 -0.11543748 -0.28997257 0.14643010 -0.06541640 -0.07261416 0.24885798 -0.11951611 0.21182863 0.08727235 0.00197573 -0.08299638 0.11585576 -0.29873168 -0.31256971 -0.14436872 -0.07795045 0.02270937 -0.20899443 0.06576235 -0.21717072 0.07398517
-0.04848177 -0.03746551 -0.47176456 -0.27741945 0.42332438 0.06281748 0.09838757 -0.09886382 -0.36499241 0.24069780 0.13931872 0.13665602 -0.04754420 0.04547965 0.10302711 -0.40357575 0.25188294 -0.30138093 -0.01893041 -0.10036513 -0.05486567 -0.15723449 -0.43827930 0.06930314 -0.02110084 0.49189022 0.33445272 0.28728852 0.09081149 -0.00267275 0.11298768 0.09609274 -0.07600694 -0.04058903 0.01223463 -0.10089631 0.09888352 0.38164037 0.15219340 0.03420030 -0.12920417 -0.14102672 0.18602549 0.19293518 -0.10240704 0.09918860 0.02151820 0.16510253 -0.36013964 -0.15036653 0.04236086 0.17942899 -0.05424909 -0.00236724 0.23472600 -0.20941234 0.00398899 0.38009602 -0.10142249 0.42057461 -0.21756069 -0.06774145 -0.01907755 -0.16043162 0.03075041 0.05348532 -0.14406025 -0.14339705 -0.00159719 0.27138022 -0.20591913 0.01115200 -0.05591164 -0.06530889 0.13639161 0.32952127 0.38727149 0.04440883 0.00056695 0.09528014 0.24333782 0.01431303 -0.04306954 -0.30626738 0.17637976 0.01166538 0.08814909 0.02381348 0.05162164 -0.04607083 -0.15253574 0.12904090 0.36086857 -0.09950396 0.02388438 0.05641164 -0.22382769 -0.11754912 -0.10208640 -0.25327307 0.02714510 0.03264683 -0.19056682 0.21959697 -0.23734155 -0.29467493 -0.06417727 0.06650901 0.05328744 -0.03743242 -0.66515380 0.11642998 0.07338408 0.02542656 0.17599791 -0.09435445 0.06751647 0.10376205 -0.04977113 0.09701394 -0.41901341 -0.01166529 -0.21114790 0.15693416 -0.12703927 0.17483853 0.04060116 -0.12841325
0.13822122 0.04835129 -0.00356726 -0.01329696 -0.01605978 0.15430136 0.00910764 -0.06288739 -0.05944537 -0.00603466 0.00679964 -0.03658041 0.08329634 0.13543029 0.05959648 0.08945211 0.13210693 0.51978558 0.13566867 -0.32898793 -0.18948473 -0.49517944 0.51358265 -0.16009702 0.47959095 -0.21060888 -0.15758546 -0.24682216 -0.18139645 0.08739191 0.16035132 -0.19469981 0.26975983 0.02753951 0.01131049 0.03752090 0.00039136 0.14659683 -0.35610577 0.09812254 -0.09049270 -0.22822469 -0.05671311 0.05859368 -0.05045944 -0.13563693 -0.07253099 0.02035379 0.05359188 0.10549271 0.06614462 0.15327005 -0.02182343 0.07298838 0.08238366 0.27046329 -0.20912375 -0.20527141 0.24430479 -0.11325976 0.07932554 -0.03106410 0.10034151 -0.06152229 0.00585401 0.10975500 0.07496566 -0.11748719 0.02018072 -0.11437998 0.15595564 -0.01827792 -0.15060697 0.33196151 -0.01399066 -0.16201384 -0.03856371 0.09634882 0.05515312 -0.18528542 0.17025706 0.01116357 0.07035967 0.25229108 -0.00240752 0.05605201 0.32781225 -0.11634593 0.22078596 -0.06555708 0.08547488 -0.25956491 -0.27800372 0.16609195 -0.02042896 -0.40496022 -0.04991975 0.05539630 0.30630377 -0.23091291 0.06341886 -0.02041735 0.03315035 0.15188208 -0.00402783 0.19563955 0.20597242 -0.15659691 0.08522639 0.11486223 0.11023186 -0.12493100 -0.19762793 -0.16114153 -0.06006327 0.15889578 0.00662802 0.14980559 0.11432718 -0.06885192 0.00283118 0.07986979 0.32272506 -0.14028317 0.26536575 0.02178316 0.21641581 -0.29319045
0.22941926 -0.06751870 0.42670393 0.00219900 -0.15669864 -0.08934468 -0.10666820 0.08959155 0.02321601 0.33912218 0.23685279 -0.07004635 0.06172312 0.00743637 0.20593390 -0.23459621 -0.01260045 -0.57867748 0.10487524 0.12654455 0.13341081 0.84475368 0.18963131 -0.00547867 -0.13527475 -0.09104223 -0.22662455 -0.21710266 -0.03000034 0.04112555 -0.32454658 -0.09112038 -0.03369601 0.18565036 0.05974137 -0.08618683 0.06508278 -0.04486540 -0.44464687 -0.02867095 0.03269123 -0.25471413 -0.18130116 0.06515552 0.04161020 -0.25447327 0.11977536 -0.10292820 0.09897380 0.00824760 -0.11525651 -0.11366016 -0.04772376 -0.07313839 -0.21992354 0.15819421 0.08714874 -0.31469366 -0.30598682 0.18405969 -0.13349436 0.21294372 -0.10262048 0.24507812 -0.01856056 -0.07062971 -0.15469085 -0.01963105 -0.06360859 -0.35230193 0.13427272 0.03484670 0.00071882 -0.18805322 -0.28787220 0.02717864 -0.26639274 0.07674729 0.02271558 -0.04563068 -0.27550429 0.04486557 -0.06462024 0.10246771 -0.01427448 0.01398161 0.42010626 -0.05243243 -0.02108049 0.04942020 0.26242843 0.03909605 0.06736949 0.01727071 -0.03989428 0.23587859 0.12694345 0.09332755 0.30381918 -0.12249409 0.00967249 0.00648624 0.62686163 -0.24162509 -0.08749407 0.10834609 0.12891467 0.00940838 -0.02910422 0.02874823 0.24747320 0.13095564 0.12627243 0.03204495 0.15171021 0.15927476 0.01289500 -0.15820925 -0.13062721 0.23102640 0.10118905 -0.03486739 -0.07718979 0.20985107 0.15045378 -0.07423258 0.28121448 0.17364500
-0.38367757 0.07019422 -0.43889019 0.01557198 0.32344872 -0.00448461 -0.11914638 0.06186351 0.13369252 -0.28666708 -0.15557604 -0.14531414 -0.08842808 -0.00328740 -0.21842609 0.01760339 0.01348343 0.08493423 0.12396264 -0.08197851 -0.34987426 -0.44485644 -0.28813970 0.15162098 -0.01528287 0.04967713 -0.10901973 -0.18202116 -0.07369349 0.19905600 -0.28259379 -0.08041549 -0.09696586 0.04909103 -0.02192135 0.18333706 0.00128691 0.08795267 0.46866876 -0.11881430 -0.11725146 0.06581698 0.04502682 0.14876659 -0.12531769 0.24938881 0.05486125 -0.11927002 0.02836992 0.01997007 0.03281207 0.33332410 -0.03005950 -0.02660305 0.01577040 0.05256305 0.15224105 -0.08312021 -0.18508558 -0.18655011 0.11541136 0.11163805 -0.00118307 -0.01208529 -0.05530100 0.14099701 -0.04288387 0.15254711 -0.00829622 0.07843774 -0.02251017 0.06486604 0.10023627 -0.13473684 -0.11304220 0.04049523 0.16416317 0.02922290 0.01463448 0.20446195 -0.11700881 0.04189893 0.05853238 -0.07464707 -0.11312444 0.02919934 -0.14247298 -0.12092326 0.22908281 0.02795924 0.27512759 0.09033714 -0.11003615 0.08733261 -0.06170478 -0.12084683 0.20244354 0.03523822 -0.29244968 -0.15084033 -0.06741376 -0.10697265 -0.22177729 -0.02592131 0.07561394 0.05740095 -0.34548306 0.01147336 -0.04791397 0.07911425 -0.22214749 -0.03256394 -0.29519412 0.07927017 0.02080468 0.18655935 0.14225250 -0.01509065 0.03151204 -0.12988703 -0.02076559 -0.61719143 0.31941292 -0.02691920 0.11417265 0.09091860 -0.37529230 -0.07021609
0.14317432 -0.16461036 -0.03900083 0.17989931 0.33323738 -0.13143130 0.07086380 0.02454301 -0.07313800 0.07486367 0.07133985 0.01305016 0.50397384 -0.10819710 -0.15030691 -0.38387927 -0.02372242 0.10631556 -0.07958297 -0.33480480 -0.03708098 -0.63357610 -0.08893641 -0.08426674 0.15585099 -0.38974729 0.24422531 0.20539245 0.10025912 -0.09885485 0.12537161 -0.11468568 0.17286721 0.05515260 0.01694403 0.21559659 0.00966526 0.13594188 -0.20605209 0.08179323 -0.19435641 -0.12919047 0.25262567 0.30020770 0.14860375 -0.08543992 0.01040493 0.21273564 0.17823267 0.02868501 0.03422290 0.06058929 0.05924570 -0.05812496 0.11409622 -0.11057027 -0.05418197 0.05670270 -0.05512602 0.03744385 0.29911515 0.00262993 -0.25509343 -0.12245831 0.02111007 0.28666201 -0.03390332 0.04525078 -0.11958185 -0.08017442 -0.15264761 0.08652585 0.10641456 0.16072917 -0.07521039 -0.25134966 0.07482882 -0.13924129 0.01401764 -0.16456412 -0.00349054 0.04228026 -0.02142181 -0.16733536 0.09007003 -0.02797913 0.44923192 0.08043226 -0.08493855 -0.02655432 -0.00723183 0.17313755 0.17862621 -0.10835167 0.05955498 0.09488468 -0.06420601 -0.12339335 0.12099234 -0.08736523 -0.01311975 -0.06353425 0.28335473 0.19530100 -0.27858293 -0.06436628 0.13343959 -0.15708244 -0.16766068 0.34826672 -0.26407993 -0.00708690 0.25416875 0.27670202 0.29528806 -0.21626353 -0.02733523 0.46185616 -0.01191264 -0.20537116 -0.31078160 -0.13641216 0.11184053 -0.14053750 -0.21131773 0.33441249 0.30290544 -0.27879474
-0.08102445 -0.09589303 -0.16780479 -0.09925486 0.06795093 0.00928174 0.07717609 0.01496199 0.13611071 -0.14320886 -0.20759197 0.11911954 -0.31250960 0.07617502 0.11544215 0.44269067 -0.18375565 0.18491350 0.14012530 0.07883933 0.03740213 0.36183730 0.24364957 0.00017864 0.46461597 0.33882362 -0.18426338 0.06379440 -0.21376722 -0.01782899 -0.05652402 0.14744902 0.16337000 0.05147794 0.00947004 0.07940400 -0.05540478 -0.00221408 0.12110110 0.17195459 0.19591132 0.04250964 -0.13411890 0.15590829 -0.33887017 0.00247262 -0.08315666 -0.10135911 0.02992880 0.07200942 -0.01932169 -0.13632548 0.13712958 -0.07994189 0.02537842 0.11055980 -0.21186170 -0.10610481 -0.03254132 -0.12263891 0.16104995 -0.02003057 0.24571157 0.36333030 -0.02163617 -0.04165916 0.07154142 0.00975133 -0.12612914 -0.21142757 0.15593971 -0.00579443 -0.04753441 0.02560278 -0.14485797 0.49906501 -0.29849344 -0.01562694 0.06731641 -0.04341645 0.15925875 -0.01117061 0.02399181 0.19683637 0.13164507 0.07225087 -0.41892010 0.04768577 0.11492669 0.01479795 0.15181310 -0.07390965 -0.03731973 0.17657529 0.06066672 -0.16642934 0.05600169 0.18404160 -0.19676097 0.00912233 0.07744148 -0.23565131 -0.09133773 -0.03899136 -0.00985764 0.44629103 0.01232196 0.00758446 0.23970732 -0.09720442 0.14526683 0.18292913 -0.25495923 -0.07180859 -0.16282621 0.35460499 0.08335911 -0.31122494 0.11106464 0.01400779 -0.10268318 0.27594963 0.21918824 -0.09415875 0.11572433 -0.06876975 -0.25499249 0.34262589
-0.13009384 -0.02854638 0.23273140 0.00498078 0.73644412 -0.02387261 0.06419052 -0.02674715 0.24183266 0.12274329 -0.02358436 0.08532584 -0.00946251 -0.19945459 -0.14123750 -0.16794978 0.10297816 -0.20925723 0.13623336 -0.14465918 0.01680764 -0.19989380 0.13777684 -0.06210652 -0.06946007 -0.02211100 -0.20147589 -0.12794453 -0.00374177 -0.07489299 -0.50398761 -0.12968895 0.16581987 0.06060988 0.09621774 -0.18848339 0.01792322 0.13973890 0.33945552 -0.04283755 0.05143799 -0.01872411 -0.19551946 -0.10738876 -0.01090942 0.23231599 0.01538955 -0.12212399 -0.07282641 -0.06179098 -0.09544599 0.08502937 0.00536449 -0.03539501 -0.20518069 0.06820820 0.10878333 -0.26600912 0.05326815 0.05173150 0.07614022 0.26527923 -0.04542627 -0.39213687 0.03672960 0.20892425 -0.01599373 -0.07752004 -0.07140426 -0.21372618 -0.42593819 -0.08398646 -0.14079706 0.19691867 -0.08013138 0.28595296 -0.09032362 -0.01951103 0.03048047 0.14923336 -0.22453083 -0.03699795 -0.11495606 -0.21247979 -0.03724685 0.06223970 0.27888367 0.08839614 -0.00566513 0.05397779 0.10946935 0.06904975 -0.05649753 0.04992177 -0.05737745 0.11248982 -0.07697141 0.10075163 -0.13444604 -0.34044683 0.02105947 0.13141027 0.25493234 -0.30472425 -0.11877728 -0.08703120 -0.08656602 -0.23703086 0.20328200 0.07574293 0.21012622 0.16094919 -0.01170207 0.02198795 -0.10168290 0.02647459 0.05153079 0.30876830 -0.03435943 -0.04281303 -0.07359098 -0.63184911 0.18737157 -0.00171485 0.12167201 -0.06834420 -0.18051490 -0.04893960
0.14868203 -0.02878502 -0.57312727 -0.02928363 -0.29358494 -0.06851899 0.06586444 -0.01596499 -0.09588421 0.03191867 -0.09185046 0.01389818 0.06659719 0.00222054 0.24572262 0.20153740 -0.15311816 0.23253095 0.16812839 -0.12930232 0.11346832 -0.05654847 -0.17871302 -0.15421467 0.21606608 -0.12338945 -0.07207160 0.13628271 0.03881928 -0.04399066 0.15518627 -0.16856617 -0.04235197 -0.18830137 0.04744960 0.00780920 0.00614203 -0.00412358 0.10477241 0.01179255 0.00502140 0.08740963 0.18052591 0.13553925 -0.18262582 0.05277943 0.18204215 -0.01256174 0.02527242 -0.13389863 -0.03655464 -0.15233530 -0.03522577 -0.01692720 0.26848400 -0.01830615 -0.03006828 0.24301229 0.09990057 0.07566658 0.21434037 -0.09563677 0.23212780 0.28657463 -0.04791918 -0.17935513 -0.03467458 0.02172154 -0.03535853 0.20119651 0.01053240 0.02799570 -0.10986087 0.05013836 0.05584573 -0.22410420 -0.14611878 0.02901126 0.07185134 -0.04908830 0.35753843 0.03963908 0.08550080 0.14808875 0.07043620 0.15288199 -0.19388951 0.02002806 -0.01161323 0.05396967 0.34684050 -0.14451312 0.10200968 0.02414963 0.00329807 -0.13488339 0.14450783 -0.07853351 -0.11771769 0.05769382 0.02217161 0.19235831 -0.14578523 0.25819069 -0.09576607 0.33429834 0.00630466 -0.00720390 -0.04919039 0.02806081 -0.05835356 -0.07538647 -0.09036378 0.03700425 0.08078489 -0.21328180 0.05132921 0.10547968 0.06471457 -0.06774056 -0.03266754 0.41801330 -0.07830975 -0.00820447 -0.02796285 -0.14514206 -0.13704580 -0.06739262
0.10914242 0.12915801 0.04381559 0.03689158 0.57531571 0.06064424 -0.08782370 0.04172601 -0.12408910 -0.06214973 0.06280921 -0.09998877 0.05827878 0.01315892 0.27843246 0.13906029 -0.08795116 -0.04979746 -0.03755645 -0.05242019 -0.08847502 0.22928432 0.32196876 -0.07860693 0.46611091 0.21542576 0.01577617 -0.07918412 0.12287690 0.06961505 -0.10012616 0.08156673 0.25646445 -0.11665092 -0.01317789 0.06613785 -0.02116303 0.00180437 -0.15256260 0.16040683 0.03740314 0.11040115 0.20090023 0.04006193 -0.44632173 0.41113329 -0.05614443 0.13609770 -0.20406078 0.04823825 0.03556016 -0.02248831 0.01187074 0.08162655 0.12192850 0.05853312 0.26058912 -0.00229482 0.01454968 0.07823551 0.28693622 -0.04817613 -0.32533184 0.14484480 -0.00258930 0.09240580 0.06623124 0.07097553 0.10684008 -0.27880055 -0.07747132 0.08023155 0.13951394 -0.13653186 -0.13273308 0.48834604 -0.40832266 0.02136598 0.01613138 -0.10968355 0.21287647 -0.00310820 0.01263388 0.05747946 0.28637475 -0.12748629 0.10755383 -0.16107769 0.12167307 -0.04630650 0.06800401 -0.13873579 0.07756524 -0.15383677 0.07750522 0.03392017 -0.13269660 -0.10816772 -0.22927581 -0.48009336 -0.01760376 0.06259491 0.21617335 -0.05490915 0.10397431 0.23622303 0.04027978 -0.27459309 -0.27567750 0.19369051 -0.09503103 0.17814282 -0.07111727 0.13331912 -0.18780267 -0.18758768 -0.22388288 0.14464992 -0.08974864 -0.01608549 -0.10709113 0.23148619 0.09477334 -0.04276164 0.01788142 0.01485957 -0.35603195 -0.00402850
0.10266112 0.01641878 -0.11278988 0.03388246 -0.17750140 0.20644413 -0.06686663 0.00484461 0.01065497 0.02287935 -0.02271458 -0.06800510 -0.20849411 0.07772616 -0.17261343 -0.23219003 -0.26326594 0.09341525 0.25314593 0.22124182 0.15927167 -0.10834193 -0.12467975 0.04994049 -0.07372750 0.11127792 -0.14373691 -0.21705832 -0.11768971 0.02843159 0.02007017 -0.24126624 -0.13157474 -0.17081314 -0.04642143 0.08596524 -0.07184319 0.11310636 0.02296072 -0.20034955 0.10310788 0.04004711 -0.15749680 0.07643662 0.25149971 -0.19075267 -0.14832626 -0.17993045 0.18902604 0.10037909 0.02391672 0.22528443 0.04980248 -0.01298923 -0.21291694 0.05922716 0.02762123 0.07175003 0.07322317 0.00341006 -0.25032052 0.09591736 0.41777840 0.23312378 -0.00515278 -0.01728707 0.05536062 -0.08451425 0.01944376 0.12052016 0.23760507 0.06100590 0.03855172 0.04184392 0.35988119 -0.44750249 0.12021936 -0.04486704 0.00915196 0.10430445 0.23251463 0.00333690 -0.04670515 -0.09951188 -0.38828802 -0.00206001 -0.01911576 -0.19495784 0.03582185 0.09502175 0.35193142 -0.02667578 -0.27397826 0.20480780 0.01805507 -0.06618451 0.00117844 -0.22038352 -0.06398842 0.23797488 0.05571091 -0.15095115 0.06037148 0.23525703 0.14721695 0.20619491 -0.14536436 0.34067446 0.13399503 -0.07261389 -0.20004499 -0.09643342 -0.28405198 -0.08980899 0.09937238 0.08056986 -0.16948745 -0.23691580 0.05676084 0.13208124 -0.08670199 -0.07701050 0.07830476 0.06725132 0.20442095 0.03787493 0.17581695 0.12678030
-0.00128775 -0.05721118 -0.27406585 -0.09111162 0.24263513 0.06918135 0.04225405 0.08524910 -0.04294335 -0.06690798 -0.07284339 0.06502298 -0.08209211 0.02694108 0.09235413 0.12572502 -0.21444581 0.20948343 -0.06060664 0.17160399 -0.13020274 0.18955235 -0.08954034 0.12103877 0.25598702 -0.01124343 0.04162806 -0.05796993 -0.08462052 0.03581086 0.08713590 -0.29875189 0.05738184 -0.30956352 -0.04689621 -0.05474197 0.10599919 -0.00713248 -0.08056190 -0.09662425 -0.10399964 0.11902847 0.01022734 -0.02212863 0.09348110 0.07429495 -0.05737616 0.07014532 0.12566654 -0.19736739 -0.06242332 0.15115848 -0.07661989 -0.08000201 -0.00190842 -0.12758623 0.00412872 0.12828495 -0.09249300 -0.09776711 0.38910270 -0.22367752 0.06503207 0.50598407 -0.00263111 0.04046862 -0.04457657 -0.16524366 0.03270284 0.00853801 -0.17577192 -0.03347469 -0.00575353 0.19237863 -0.04918943 0.00954384 -0.33363390 -0.05431337 -0.05203105 0.01891237 0.53191108 0.06902140 -0.12697004 -0.11750494 0.29590908 -0.07912523 -0.00301564 -0.08431593 -0.12498042 0.08098475 0.15631014 0.07747186 0.02851020 -0.11588505 -0.01252019 0.15295616 0.00340295 0.02827936 -0.05527404 -0.21252073 -0.03563984 0.05670640 0.15921043 0.00181647 -0.18186970 0.27534032 0.06640925 0.12755886 -0.00796077 -0.01640897 -0.19075066 -0.05575684 0.08313183 0.18490325 -0.19059242 -0.27099338 -0.25329846 0.21077715 0.01970314 0.03065042 0.06278117 0.27304330 -0.05127443 0.02743628 -0.01802100 0.27249566 -0.15503202 -0.06197225
-0.00221518 -0.00687296 -0.02369688 -0.10676076 -0.14677270 0.05080501 -0.04247048 0.13137025 -0.06479334 0.15498012 0.02359333 0.02413407 -0.20302443 0.18537216 -0.10386018 0.06235363 -0.22572723 0.13041133 0.08579689 0.25595027 -0.14998926 0.03905509 0.02767998 -0.03263326 -0.44505653 0.04481618 -0.06905370 -0.16066036 -0.08207063 0.21097611 0.04961162 0.16845541 0.10510709 -0.10364464 -0.05429064 -0.11095210 0.14809266 -0.18530141 -0.00226993 -0.04311016 0.10776012 -0.03061646 0.03062177 0.09640738 -0.10112107 0.02521612 -0.07955534 -0.11856969 0.12124138 -0.04740703 0.01543074 0.08437636 0.07279567 0.05185400 -0.12245886 0.10040057 -0.09323348 0.01065051 -0.05428078 -0.06808200 -0.41077811 -0.00708703 0.22630362 -0.27109107 0.00607226 -0.00202287 0.17803425 -0.00561122 0.00106945 0.01485874 0.04306094 0.03156979 -0.08702500 -0.06839743 0.41143039 0.00663224 0.07980537 0.02909472 0.14333676 0.02623795 -0.31058612 -0.02348817 0.12442855 0.06681814 -0.33939365 0.09142178 0.08664621 -0.06238294 0.05356972 0.01386488 0.10100599 -0.14751083 -0.06842020 0.01471094 0.10485584 -0.07503027 0.03353781 -0.04733844 0.13379712 0.00976082 -0.01000962 0.15483938 -0.05560506 -0.14550446 0.17023759 -0.06167503 -0.05991248 0.24434236 -0.00387937 -0.18681780 -0.11746366 -0.03981857 -0.07638800 -0.18410063 0.10010812 0.08900843 0.26887056 0.08919900 0.07051573 0.01062258 0.03826920 -0.07219965 0.05596592 0.07415955 -0.19057392 -0.04578146 -0.12629196 -0.08741663
-0.15440235 0.02283419 -0.12187564 0.02179878 -0.22272225 -0.12463969 0.00588065 0.10747461 -0.07589597 0.11913190 0.23581408 0.14781918 -0.03398449 -0.03558493 -0.19404715 -0.08202866 -0.10097229 0.10826527 -0.07351456 -0.03349416 0.33380291 0.14647560 0.04975911 0.01353908 0.40659317 -0.17433476 0.00912418 0.06299432 0.02997606 0.11535789 -0.10389247 -0.06943190 -0.02509863 -0.10334171 0.02722262 0.01216349 -0.04628232 0.08049675 0.20293610 0.02042043 -0.12838478 -0.14808264 -0.09793854 -0.03302658 0.11166714 -0.01593876 0.08831377 0.02072317 0.11487603 0.10395897 0.01696158 0.17422733 -0.05434218 0.05992732 -0.11233473 -0.08288061 -0.02755647 0.16618320 -0.03252409 0.04580001 -0.00002221 -0.05992334 0.41196156 0.40100357 -0.01613799 -0.09091694 0.02257488 0.15766376 -0.00053833 -0.05119365 0.05823142 -0.09669642 0.10860404 0.06038985 0.33595663 -0.25336042 -0.15581337 0.00915906 0.00748565 0.07217058 0.31884983 -0.07970827 0.03233062 -0.05103262 0.18284124 -0.02241121 -0.13071647 0.14609244 -0.09630708 -0.11106885 0.20865709 0.15921682 0.03592108 0.01691786 0.01204965 0.08157852 -0.01853784 0.09414744 -0.13668485 -0.14484283 0.11991628 -0.06908355 -0.07468281 0.19017541 -0.24754208 0.27799812 -0.02787233 0.34745875 0.17518507 0.07312108 0.12542687 -0.30662712 0.01614125 -0.24731278 -0.06183479 0.19490464 0.01155142 0.16079219 -0.05856240 0.07876206 0.00979770 0.05135948 -0.04057976 -0.10297596 0.13071875 0.08761506 0.01387896 0.11880947
0.01267349 -0.02722346 0.01022794 -0.00312626 -0.06568170 -0.03819201 0.08099994 0.01711105 0.11684734 -0.00463217 -0.18788686 0.10819799 0.12332922 -0.00407954 -0.04621171 -0.02282540 0.09688196 0.05994214 0.08329804 -0.13870890 -0.22828762 -0.12151834 -0.05262011 -0.08009484 -0.23793025 -0.02012380 0.08130896 0.09653091 0.00630137 0.05079147 0.19011013 -0.09855059 0.11029152 -0.22522458 -0.01798635 -0.00249655 -0.02310601 -0.00897731 -0.12035883 0.03215058 -0.06982753 0.20678265 0.04855729 0.19253482 -0.20172387 -0.18744263 0.12564506 0.09142624 0.09182625 -0.15023743 -0.12194107 -0.01081843 -0.12515883 -0.08970648 0.10196029 0.01257878 -0.11861417 0.12919249 0.01100115 -0.02153734 -0.25433597 -0.12167940 -0.04710884 -0.39443052 -0.08687079 -0.06630509 -0.04799248 0.10157611 0.03824474 0.05571533 0.14556095 0.00419202 0.06179998 -0.05298947 0.14188699 0.22930120 0.13832836 0.02710285 -0.05286486 -0.15612049 -0.06178938 0.16116054 -0.04552921 0.02852246 -0.35304111 -0.07307035 -0.13858408 0.00272761 -0.00051655 -0.10177454 -0.10130823 -0.26236808 -0.05389563 -0.02314606 0.04136426 -0.05177337 0.01618562 0.08431629 0.22561082 -0.02883420 0.11711833 -0.12134080 -0.03460274 0.19093725 -0.11644712 0.20042162 0.07110947 -0.21294580 -0.09117661 0.12597254 -0.03837842 0.12684812 0.09518216 -0.09428356 -0.03494283 -0.20963748 0.26899216 -0.27350250 0.06352029 -0.08026972 -0.09961423 -0.03508347 -0.02377960 -0.18201140 -0.00439295 -0.09231746 -0.04733921 -0.07076020
0.01667382 -0.05016410 0.09274000 0.00808580 -0.10295431 0.10359316 -0.03447890 -0.05688199 0.03913182 0.28024265 0.02069681 -0.05298844 -0.26748785 0.01539875 0.03524559 0.08390206 -0.39354181 -0.01807292 -0.04479442 -0.04747769 0.13845965 -0.08829749 -0.01504841 -0.07068695 -0.09858675 -0.03988208 -0.09941338 -0.07054818 0.22708963 -0.05135928 -0.06292880 -0.06670750 -0.00201582 0.23150617 0.15540639 -0.04441027 -0.13567621 0.00246208 0.08731869 -0.01048470 0.09149493 0.00330047 -0.00426977 -0.08910657 -0.05077229 -0.03830805 0.00342806 -0.06583875 0.18630666 -0.06295742 0.10780804 0.02819156 0.06946862 0.01892031 0.11504684 0.04423345 -0.02967713 0.01204476 -0.07253030 0.06034058 -0.21775492 0.08479870 0.35874721 0.21084894 0.08665146 -0.10529757 -0.11378067 0.02829225 -0.08576502 -0.19160767 0.08308672 0.03180471 0.04914637 0.05438523 0.39753491 -0.14618526 -0.05653416 0.05094280 0.10431069 0.01050513 -0.06396317 0.02262888 -0.02400795 0.05111171 -0.03659489 -0.02781765 0.14770861 -0.15352103 0.12434529 -0.00318339 0.08681431 0.06643455 0.09166774 -0.06482604 -0.05821809 0.09677183 -0.17982249 -0.09365158 -0.04971809 0.19162546 -0.15190805 -0.07441372 0.11333373 -0.12620732 -0.02269829 0.24254921 -0.07683001 0.02365420 0.05161197 0.13307047 0.05197254 -0.14948861 0.08949938 -0.03277640 0.11785472 -0.03592198 0.16155910 0.22935250 -0.09912303 0.14385940 -0.04434882 0.10931671 0.23410036 -0.12314501 -0.12873147 -0.01191121 -0.04023465 -0.05757925
0.02310850 0.09470011 0.14098532 -0.09883939 -0.03783465 -0.01174185 -0.01370073 0.06944264 -0.17166343 0.17128986 0.12375763 0.05211743 -0.03130707 0.07955074 0.12159698 0.02676336 0.01698154 -0.05822463 0.17168212 0.01197759 -0.26867360 -0.12636994 -0.06340703 0.05895454 0.04970692 -0.06343364 -0.14575391 0.01751460 -0.05922582 0.04903950 0.07991093 0.11113313 -0.20924689 -0.08292426 0.13509612 0.05548117 -0.07401776 -0.04778584 -0.04587350 0.15178369 0.03070772 0.21035895 0.02999306 -0.11395370 -0.07833822 -0.05816748 0.01000136 -0.18653142 0.04350730 -0.02312874 -0.04713717 0.06237753 -0.07736072 0.07649297 0.02587611 0.00657066 -0.10853097 0.19839147 -0.10029075 0.06751926 0.08409777 0.14165711 -0.07843944 -0.16103542 0.03893255 -0.00576439 -0.12257788 -0.10228873 -0.03313809 -0.04458626 0.09054372 -0.01101894 0.03368705 -0.09327164 -0.23444778 0.04013567 0.08941136 -0.11639722 0.16860151 0.02585901 0.02622203 -0.04422229 0.01137049 0.03866359 -0.13076398 -0.07366607 -0.00627053 -0.09370244 -0.01278573 0.02130529 -0.09669501 -0.17425315 0.06291436 0.19665582 -0.15190919 -0.02387665 -0.04263895 -0.07599774 0.03018170 -0.01945205 -0.16572128 -0.01981845 -0.05073342 0.16741438 0.00022731 0.16297838 -0.13292442 -0.01999989 0.05448094 0.01672604 0.08902659 0.02923547 0.06854462 0.10111868 0.11998321 -0.16241910 -0.15437101 -0.13585572 -0.01181192 -0.10368734 0.05959340 0.02443859 -0.05237974 -0.04052207 -0.04201580 -0.07391164 0.07977184 0.17723145
-0.03298807 0.01653646 -0.18180867 0.10945625 -0.01879728 -0.10621069 0.14267668 -0.18314882 -0.18392055 0.01584684 0.12556170 -0.10624549 -0.13489358 0.14115810 0.05458219 -0.10330188 0.04094166 0.03935093 -0.12384789 0.03633339 -0.01394564 -0.15500957 0.22484316 0.12394778 -0.21313122 0.07261947 -0.08103691 0.11665343 0.00784145 -0.11553018 -0.05542748 -0.01355830 0.00723541 0.06924581 0.04310720 0.02291812 0.06448752 0.01148317 -0.00537292 0.28900343 -0.11492497 0.09694580 0.04615334 -0.19159327 -0.04306249 -0.01429348 -0.07582182 0.14195392 0.03169711 -0.08874123 0.09783726 -0.16124032 -0.06362802 -0.05234717 0.14660171 0.02390672 0.11481660 -0.07720658 -0.09640975 0.13422734 -0.00223801 -0.15788847 0.20367283 -0.14159958 -0.03616724 -0.08745088 -0.00043649 -0.15412197 0.00369885 -0.10639196 -0.14342882 0.07667311 0.01887805 0.14187771 0.30159760 0.31805876 -0.09816884 -0.09799797 -0.11699174 0.02888754 0.12028039 -0.03021173 -0.03735424 0.03945826 -0.21523166 -0.04819307 0.17895600 0.07607280 -0.08403178 0.10272380 0.17953628 -0.05466958 0.17160739 -0.20795083 -0.05111602 0.03389380 -0.17403942 -0.07847383 -0.10806005 -0.06811634 0.07130723 -0.04787310 -0.02309693 -0.12255091 0.04394616 0.27658355 0.00441589 -0.00602224 -0.13067496 -0.08409522 0.12636894 -0.03032948 0.00557379 -0.10399587 0.28225499 -0.25134400 -0.08197843 -0.00213863 -0.09930063 0.09897753 -0.07706922 -0.06871836 0.22624852 0.08637317 -0.11806589 -0.15043306 0.02324681 0.14330995
-0.12590280 0.03972222 0.09464518 -0.05396711 -0.25534442 0.15175582 -0.13154615 0.05814247 -0.07346253 0.06047692 -0.25469202 -0.10667203 0.04878540 0.12519450 -0.06499895 -0.08241781 0.06206725 -0.14104770 -0.00341316 0.19655991 0.06167487 -0.09700906 0.05548811 -0.13970904 0.11700921 0.07432943 0.05787970 -0.18826401 0.00353030 0.15748827 0.09940708 -0.12039671 -0.13724564 -0.02083842 -0.03683908 -0.08642080 0.00653878 -0.08562977 0.12061067 -0.21552938 -0.04860259 0.09785283 -0.22826827 0.19421950 0.01066341 -0.15103807 0.10515327 -0.17727681 0.01089768 -0.02601365 0.14586021 -0.02495623 0.05365789 0.07763807 0.02494796 0.17413981 0.02990848 -0.13060509 -0.06124193 0.02111700 0.07238944 -0.12253304 -0.03569384 -0.09700689 -0.06835545 -0.04160652 0.09128463 0.06587616 -0.02587478 0.01327862 -0.01904744 0.06014267 0.08582827 -0.20969777 -0.29603723 -0.20119607 0.22310817 -0.05465991 0.00154103 0.06703533 -0.09829161 -0.00585727 -0.00800534 -0.05064162 -0.10108546 0.13779983 -0.15864103 -0.23749050 0.00088604 0.03199419 0.04555149 -0.24835287 -0.14316453 -0.00401976 0.07630774 0.01207907 0.01814353 -0.00167553 0.17772861 -0.07696059 0.10146905 -0.09360135 0.02582382 0.11309497 -0.06138060 0.03847009 -0.09549546 -0.06411964 0.03928605 -0.15843217 -0.10812560 0.09970169 -0.24412028 -0.00209523 -0.06576021 0.16994515 0.06224715 -0.10770694 0.04038152 0.04177646 0.06663126 0.13732579 -0.18715905 0.09734536 -0.05756868 0.10339678 0.10387313 -0.08250696
-0.09859923 -0.00422407 0.00719372 -0.03603476 -0.17759193 0.00032010 0.01708133 -0.01617902 0.10642266 0.09814849 0.09958515 0.02443673 -0.14810912 -0.07840117 -0.09091870 0.13394578 -0.04064714 -0.08936851 -0.29054391 -0.19293462 -0.21292832 0.01503216 0.15875082 0.15963815 -0.05181266 0.15580294 0.02431616 0.16427822 0.08217122 -0.03070242 0.01354637 0.01453433 -0.07698118 -0.01158472 0.03327737 0.17025346 0.03608015 0.06242967 -0.21871643 -0.02222426 -0.01871397 0.18124431 0.19569024 -0.08304276 -0.19544171 0.01982123 0.03305079 -0.03618423 0.05685761 0.05813586 -0.04506994 -0.08502010 0.04456048 -0.05628260 -0.04926163 -0.05470330 0.03790743 -0.04146148 0.06295930 0.07127681 0.08035637 -0.21960762 0.07420036 -0.13261145 0.14378966 -0.03359776 -0.09596009 -0.08197866 -0.04380275 0.03110287 -0.13739139 -0.13604580 -0.01072222 0.05415918 -0.10201848 0.11019254 -0.06475126 0.02110870 -0.08184982 0.03117591 0.10573394 -0.08257160 -0.08812674 0.05525079 -0.22529364 0.09052365 -0.04855856 0.19720052 0.04878235 0.06310126 0.19472419 -0.06228985 -0.02143420 0.03979949 -0.08640118 -0.00322005 0.02348143 -0.01954032 -0.09292167 0.07925660 -0.07833090 0.18548511 0.16585489 0.11019110 -0.00232640 0.15667298 0.00068159 -0.19476125 0.10607018 0.08245314 -0.05171992 -0.02884652 -0.03122874 0.04457038 0.26278850 -0.01449637 -0.08866465 -0.08699462 -0.00322990 -0.21974480 -0.14040692 -0.20383522 0.09637917 -0.06165707 0.07558620 -0.07064833 0.10631159 -0.09864885
-0.07308879 -0.05513149 0.25725183 -0.09162598 -0.16064008 0.04281219 0.03281705 -0.04887809 -0.11766032 0.00445204 0.07402272 -0.16860640 -0.02684150 -0.03779817 -0.01862496 0.01284839 0.04394494 0.08701646 -0.07304239 0.18626544 0.11813122 -0.09375180 0.04361289 0.17591740 0.18670300 0.00397474 0.10546946 -0.15049727 -0.10884964 -0.06939358 -0.01103974 0.06929387 -0.22145554 -0.20424241 0.16180420 -0.11298766 0.01773061 0.10313293 -0.00587016 -0.10506722 0.16019417 0.15791397 -0.06380085 -0.13488145 0.08942625 -0.06383444 -0.08491460 -0.11058010 0.00267077 -0.05138028 0.02571353 0.19570990 -0.09835692 -0.10052803 -0.03075716 -0.06132066 -0.19395113 0.09966814 -0.00135178 0.05851034 0.03915018 0.04192806 -0.16551219 0.01365667 0.16158476 0.01597546 0.02246699 0.07993452 -0.14028756 -0.12545252 0.27918828 0.02406915 -0.05766785 -0.08189531 -0.15384908 -0.15596312 -0.03504359 0.07734302 0.04862626 0.18653141 0.08419263 0.06179896 -0.02686124 -0.04319623 0.14474390 0.04505215 -0.08343077 0.07552259 0.20178434 0.08911055 -0.07354954 -0.05753226 0.05956298 0.07385057 0.02791353 -0.22094689 -0.15845972 0.06278778 -0.06009730 0.26526460 -0.08237807 0.00073138 0.12220603 -0.00144381 -0.07719626 0.11041790 -0.09428299 -0.06936434 0.13005821 -0.00455596 -0.12254319 -0.09782050 -0.05607809 -0.02121656 -0.22111696 -0.03475362 -0.04789697 -0.13919400 -0.12229849 -0.02798948 -0.06959844 -0.06366930 0.14539005 -0.00625524 -0.07001379 -0.09317818 0.01615173 0.15375486
-0.01230119 0.00900548 0.02214814 -0.04758118 -0.03697874 -0.04433582 -0.02166074 0.10501789 0.03768316 0.03014914 -0.13266076 0.01467906 -0.05904646 -0.05034936 0.08380925 0.09333207 -0.04138324 -0.04670086 0.06214472 0.06986252 -0.09345026 -0.14789219 0.09659086 0.06818391 -0.03460948 -0.02323476 0.16008711 -0.07652545 0.08388837 -0.18269050 0.07002065 -0.02746376 -0.04711911 -0.09764510 -0.04216925 0.11588151 -0.15719743 -0.07272252 -0.16963796 0.20615590 -0.12719922 0.14260033 -0.05284843 0.01297894 -0.01984662 0.01429416 -0.18211097 0.10974236 -0.01355646 0.03963917 0.11571588 0.18134880 0.00327879 -0.08022105 -0.13406299 -0.02412909 -0.01374805 0.02056194 0.11762996 0.01703854 0.13677186 -0.18825370 0.14710458 0.01071199 -0.13705793 -0.01490882 0.07259121 0.16285643 -0.01632911 0.09256952 -0.05935625 0.10337858 0.13737237 -0.00123386 -0.04078486 0.03528973 0.05450594 0.07231373 -0.09986100 0.11104608 0.08220826 -0.04240297 0.02251164 0.15092671 -0.29963800 0.02040411 0.09944027 -0.19388847 0.08694152 -0.08789124 -0.02955298 0.00821636 0.11706907 -0.06773446 0.10739807 0.00348608 -0.23830774 -0.05983528 -0.16261074 -0.00738130 -0.14118110 -0.20311549 0.04531131 0.10149257 -0.05591701 -0.06366941 0.17620218 -0.02163077 -0.07353859 -0.10651468 0.14951035 -0.17556290 0.03014365 0.00759556 -0.09377014 -0.02479891 -0.01016076 0.01747969 0.00849200 -0.16377889 -0.06038675 0.10879102 -0.06481455 0.11846877 -0.10893838 -0.13381581 0.02586214 0.12288687
0.09463175 0.19536060 0.19119114 -0.02911756 0.07252910 0.11034033 0.17630213 0.12577251 0.03818333 0.21715829 0.14578722 -0.09109032 -0.09491219 -0.02627738 -0.13823853 0.04850148 0.08967837 -0.16215415 0.12279578 -0.09518810 0.15094687 -0.10771712 -0.11967337 0.05778211 0.17626378 -0.07397167 -0.01236745 0.00029957 -0.00307606 -0.01764241 -0.01666119 0.13561130 0.05024364 -0.13914840 0.13274190 0.09580934 -0.17140894 0.03503515 -0.13469587 -0.12661998 0.05015977 -0.01870260 0.07224354 -0.11944675 -0.12973091 0.08461135 -0.11153208 -0.09663798 0.13582315 0.06148008 -0.02749320 0.13632087 0.17242593 -0.07936652 -0.07563177 -0.03653111 -0.31115353 -0.04059261 -0.02562724 0.12087023 -0.06643146 -0.09060740 -0.17331181 0.06486775 -0.01661154 0.05657828 -0.06555745 -0.02870601 -0.13135363 -0.08620866 0.12228504 0.03531240 0.06228943 0.16902469 0.05806124 -0.01519414 -0.11935315 0.03614495 -0.07963988 0.03950507 0.01865433 -0.15576032 0.02875471 -0.21208219 -0.11371013 0.07246102 0.06376930 0.05743000 -0.01312053 0.01197396 -0.14634344 0.05534089 0.08492603 0.02149347 0.03056940 -0.07445901 -0.11672074 0.28472090 -0.07876280 0.07799147 -0.03960709 -0.08043192 0.02387555 0.03052276 0.10145292 -0.03379108 0.01280813 -0.15806706 -0.13791655 -0.14259176 -0.01724532 -0.04912120 -0.01417019 -0.08959600 -0.09372747 0.22927006 -0.13091327 0.03080872 0.00751237 0.01800655 -0.01256503 -0.00837815 -0.02205719 -0.07674330 -0.07482755 -0.03967493 0.13329904 0.17439064
0.08411875 -0.05507733 -0.08659676 0.02868307 -0.19028868 0.00017226 0.02194809 0.00728053 0.00500020 -0.02451756 -0.17196529 0.00543005 -0.04931458 0.21711217 -0.01035786 -0.05260525 -0.01027117 -0.26179129 -0.07872784 0.05940923 -0.12915733 -0.06723201 -0.01660816 0.03255050 0.01427033 0.11952577 -0.01752895 -0.17859305 -0.05209395 0.08186704 -0.02843727 -0.21176699 -0.16097677 0.10963352 0.05203126 -0.02784552 0.01296148 0.16907750 0.08901365 -0.01673505 0.19215161 0.18273886 -0.00525906 -0.11235788 0.04744991 -0.03934034 0.04098307 0.08887835 -0.16809727 -0.01743091 -0.03845014 -0.02331414 0.00244901 0.03130542 0.06845998 -0.06996821 -0.13304520 -0.02195809 -0.10156875 -0.04856924 -0.04210716 0.05986559 0.02871038 -0.03979950 0.05329629 0.11234118 0.09004471 -0.05927622 0.08244193 0.20434821 -0.07970464 0.02164797 -0.12278634 -0.08946829 -0.13280489 -0.08053570 -0.04401132 0.04882205 -0.07151100 0.04029869 0.13472708 0.06587366 0.05968606 0.03899530 -0.17819613 -0.19364069 0.02289184 -0.02006469 -0.09759236 0.13429600 -0.07907493 0.01021079 -0.00382897 -0.16196610 -0.09386344 -0.05335895 0.07391563 0.00818647 0.03072406 -0.04838667 0.14245415 0.04998878 -0.02873510 0.01674547 0.09254901 0.15072070 0.13194883 -0.08508805 -0.07967599 0.13106301 -0.03554315 -0.00434840 -0.11191190 0.06486320 0.11738800 0.06916539 0.03187533 -0.13682166 -0.04999960 -0.04760910 0.04692071 -0.17745453 -0.02262199 -0.12697950 -0.00800498 -0.17054762 -0.08342480 -0.10736293
-0.07369812 -0.04746827 0.09107218 -0.08545043 0.05353530 -0.01927888 0.01890097 0.14941281 0.15839143 0.00342313 0.09648046 0.15258336 -0.01130450 0.09634880 0.04335522 0.09378954 0.04460437 0.03998262 -0.05161982 -0.06568920 -0.08296479 0.12672201 -0.17630388 0.00884854 -0.18331465 0.15931346 -0.12662227 0.00657509 0.06927686 0.10544902 0.03661449 -0.15968932 0.21089126 0.00321824 0.08356361 -0.15853943 -0.07122642 0.10958949 -0.07664868 -0.07434054 -0.13339601 0.01636189 0.02995215 -0.05582947 -0.05699702 0.03848417 0.19685031 -0.12912631 0.13873073 0.01470369 0.08308972 -0.02733919 -0.06452580 0.04446252 0.11360312 0.02801129 -0.27968940 -0.12875685 -0.17822203 -0.05634698 -0.10430751 -0.01709441 -0.07831794 0.07963607 0.02235703 -0.06145015 0.14081211 0.12788866 0.05544335 0.08869570 -0.07842536 0.20564316 0.17706878 -0.06962468 0.11658578 0.01266731 -0.16395725 -0.04035667 -0.00570593 0.00993348 -0.11130047 0.12873009 0.12336480 -0.07459009 0.08011964 -0.14879893 -0.00525387 -0.05014991 0.11487938 0.15099752 -0.12068851 -0.16909538 -0.11906569 -0.08465122 -0.05580958 0.04032079 0.07579193 0.16555136 0.13514018 -0.07024211 -0.01361865 -0.02505647 0.05509365 -0.09337131 -0.10406885 0.03664500 0.09417199 0.04056684 0.07661106 0.01203157 0.08848921 -0.15935063 -0.06947669 -0.19753718 -0.03839482 0.00250348 0.09071834 0.06727577 0.18065146 0.10630767 0.04182837 -0.00944678 -0.14103909 -0.01219965 0.04566979 0.07812215 -0.00962003 0.10001678
-0.01362177 0.05592741 0.07148340 0.04150596 0.00007758 -0.04765086 0.10346119 -0.08150332 0.12901245 0.02372310 -0.14453001 -0.12830140 -0.05920536 -0.09006455 -0.08807316 -0.14444327 -0.06897156 0.02984283 0.07787213 -0.01943985 -0.00311514 0.12018961 -0.05847099 0.21239658 -0.03391818 0.01444774 -0.04429782 0.05108332 0.08617768 -0.04241839 -0.11785442 -0.13139373 -0.06236938 -0.02985884 -0.00127103 -0.08667824 0.03012479 -0.10562689 0.07458791 -0.03303624 -0.13770603 0.20624514 0.00886383 -0.02539769 0.11147150 0.00320396 0.10824478 -0.08026463 0.08555605 0.01870880 0.11305512 0.15271547 0.05014193 -0.03875364 -0.16288580 -0.15303434 -0.03179762 -0.10553508 -0.02089142 -0.04774740 0.02397870 -0.12624419 -0.17715508 0.17340516 0.02412652 0.16089395 -0.15403239 -0.04098830 0.04470076 -0.03798830 -0.14975116 -0.07697332 0.00273090 0.08076159 -0.18444106 0.12683885 -0.13306168 0.02498433 0.04363336 0.03314751 0.13447548 -0.15063293 0.07687254 -0.14881982 -0.21521871 0.01915646 0.01638345 0.10291416 -0.11900948 -0.12495012 0.10567510 -0.02453729 -0.19185436 0.02043261 -0.01281124 0.18290633 0.00808309 0.07082058 -0.14339107 -0.03160242 0.07708064 -0.11933213 -0.02875763 0.07869695 0.07879928 -0.07597534 0.02140054 0.07671320 -0.01753619 0.07883988 0.02949915 -0.17594151 -0.02130828 0.07225930 -0.11444470 0.15699856 -0.04260089 0.18913880 0.14023161 0.01426700 0.10250861 -0.06525320 0.20071843 -0.06457359 -0.22637881 0.05838250 0.13183883 0.03000409
-0.04058064 0.07845105 0.01269716 0.11436262 0.21728860 0.09997777 0.03966195 -0.06196247 0.07487215 -0.00720603 -0.00719508 0.01827308 -0.07668449 0.01016515 0.00322665 -0.07528625 0.07558352 0.15911837 0.00390375 0.02945405 0.19490828 -0.15052254 -0.11730516 0.04123211 -0.00592164 0.13712125 -0.17481130 0.05521982 -0.04160702 -0.11060101 0.21505986 -0.10831803 -0.08500783 -0.14753515 -0.10119286 -0.04321392 0.03929684 -0.12703718 0.08343721 0.03947129 0.00853222 -0.09345197 0.06276012 0.09149906 0.02465703 -0.14097525 -0.07570607 0.06214429 -0.00953658 -0.07051548 0.19020134 0.07862824 0.09200629 0.04930989 -0.08567737 -0.05150997 -0.16209093 -0.03278298 0.02487941 -0.02670492 -0.08727492 -0.08413461 -0.00939142 -0.10755488 -0.15556887 -0.11482585 0.01138699 -0.21176600 -0.00364284 -0.20904626 -0.04296232 -0.02732088 -0.17215109 -0.07076839 0.18970133 -0.08993251 -0.07179786 -0.03144441 -0.06898098 -0.00100734 -0.04556007 -0.00222325 0.06437770 -0.12641713 0.00159488 0.01312703 -0.13836272 -0.13086909 -0.10958721 -0.07018802 -0.08059894 -0.14464523 -0.08338895 -0.01364410 0.10678305 -0.03821680 -0.10536264 -0.02179228 -0.01395031 -0.07233118 -0.01824315 0.01257628 -0.09604032 0.03646674 -0.09756967 0.15591161 -0.06034199 -0.02106534 0.07046073 0.07395695 -0.17715012 -0.20392919 -0.03569510 -0.04055878 -0.01231785 -0.02679612 -0.10895185 0.05838059 0.14192669 -0.18524139 -0.06143138 -0.03712715 -0.15236183 0.06104175 -0.03684222 0.05179562 0.01074901 -0.03164735
-0.01671937 0.05471227 0.15489265 -0.01759913 -0.00426348 -0.03087545 0.13696000 -0.08435363 0.01115295 0.04432596 0.09980083 -0.04403983 0.07791651 -0.14024203 0.03325466 0.03155278 -0.16633250 0.03416096 0.05307357 0.00660868 -0.12899023 -0.14667469 -0.09691439 -0.10509015 0.17310366 0.02762979 0.08534610 -0.03984003 0.07261117 -0.11977419 -0.02948504 -0.00689695 -0.18815471 0.03820981 0.06493367 0.08139250 0.08089864 0.07753345 0.09951470 0.08958227 -0.17144990 0.05396807 -0.08822606 -0.05932391 0.10932386 -0.11379645 -0.11858129 0.14181730 -0.08753972 -0.02056834 0.04855100 -0.05519357 0.04471086 -0.12037358 -0.02959784 -0.22083643 -0.00348880 0.10635804 0.06165260 0.04915942 -0.10135888 0.01504721 -0.13739382 -0.03851920 -0.06841771 0.00707593 0.16259488 0.08135197 0.13109127 0.00825364 0.08938834 0.00279455 0.16461255 -0.04419632 -0.16724123 0.08750016 -0.15175253 0.02469909 0.08332157 -0.03262476 -0.06866156 0.01793269 -0.03209449 -0.08514246 0.02319179 -0.11164082 -0.04440552 0.01524355 0.02717727 -0.10533244 0.07626193 -0.09924558 0.05705055 -0.02442017 0.00180994 0.15559058 0.14004052 -0.06502835 -0.12392592 0.05560723 0.05691918 -0.06161084 -0.05609525 -0.03150035 0.07277622 0.11730500 0.01143755 -0.03210788 -0.09822135 -0.00938410 0.03071498 0.08488342 -0.02899616 0.03085418 -0.05603061 0.06215844 -0.03989275 0.11392082 -0.09449760 -0.09199907 -0.00818808 0.06061668 -0.07167228 -0.13282873 -0.02320202 -0.15404125 0.17927301 0.02049767
0.04932120 0.01498330 -0.04217517 -0.02699918 -0.02556926 0.11357092 0.06434685 0.14147089 0.12953073 -0.11428169 -0.08766897 -0.26660010 0.09726425 0.07828614 0.09732321 -0.10866420 -0.02994029 0.08261649 0.14587732 0.03764807 -0.11348063 -0.08161899 -0.06767809 -0.13595052 -0.11539695 0.14745490 0.12083822 0.01188713 0.14170800 -0.03505140 0.15910664 -0.15292658 -0.09060145 -0.17747474 0.05277633 -0.01063221 0.16319986 -0.03982038 0.02931363 -0.07283020 -0.07475515 -0.01548808 0.05212832 0.12127594 -0.12527733 0.09733858 0.02380881 0.04928205 0.00982306 0.01958273 -0.00488244 0.01191395 -0.15006204 0.05689699 0.07111847 -0.07635219 0.13280274 0.10580901 -0.02679789 -0.00058427 -0.09365609 -0.07146556 -0.15814944 0.14352430 0.00861532 0.03620670 0.02711049 0.01112558 -0.05147501 0.14127053 -0.07804188 -0.06541499 -0.07312498 0.05900017 0.07765920 -0.00079642 -0.04528554 0.00427158 0.09126972 -0.02280651 -0.06953068 -0.13273588 0.11184314 0.02091992 0.09869920 0.01779521 -0.05938998 -0.18244910 0.01493436 -0.05143787 -0.20864268 -0.14796531 0.12324356 0.12241936 -0.11766769 -0.18897539 -0.07949363 0.05898839 0.04108208 0.15292792 -0.00847234 -0.04915192 0.01211712 0.08614630 -0.07387964 -0.03442761 0.06695239 -0.01824654 -0.20768271 0.10328493 -0.13173936 -0.12891638 -0.09982930 -0.09982079 -0.07988548 -0.03541337 -0.03546043 -0.01733186 0.11573956 -0.03855240 -0.07524504 0.03198033 0.02038899 -0.01543765 0.01650953 0.15745720 -0.04421981 -0.03715874
-0.14579743 0.03956101 -0.01109758 0.15529753 -0.20137654 0.03392905 -0.05998300 -0.05842771 0.12205400 -0.01179074 -0.12850982 -0.00208221 0.08297449 -0.12671995 -0.03843144 0.02201952 -0.03485259 0.02573117 -0.10365295 -0.10191058 0.24840154 -0.18740539 -0.05095651 -0.07813656 0.04631392 0.10009324 0.02218846 -0.02482123 0.07766309 -0.01065102 -0.07685059 0.17145614 0.16026770 0.14028816 -0.08053038 -0.14778651 -0.08515407 -0.07696875 -0.04753000 -0.16765809 0.10069598 0.19791795 -0.08324584 -0.06480042 0.01724272 -0.14927493 -0.07013111 0.06164743 -0.15060885 -0.07579080 0.06113058 0.07857866 0.00907051 0.02490396 0.09749519 0.04814467 0.03627713 0.04253765 -0.02557207 0.09754659 -0.07581916 0.00587757 0.00977815 0.06132924 0.10175863 -0.15576065 -0.09635940 0.06721539 0.02641333 -0.02031530 -0.15423374 -0.09471909 -0.06761713 0.16469671 -0.00818307 -0.09593532 -0.11856118 -0.08811186 0.03475180 -0.03394741 0.11377423 -0.05429853 0.01015894 -0.15548655 0.01247430 0.09233280 -0.11571463 -0.02668369 0.06255218 0.15219799 0.02659398 -0.04575568 0.12619074 -0.07534555 -0.06146796 0.05219961 0.00862631 -0.00815782 -0.14339407 0.04592336 -0.07076995 -0.05447327 -0.02434163 0.19292489 0.12277238 0.00102560 0.13034992 -0.02658176 0.02622448 -0.04656265 0.02511740 0.20574443 -0.05206294 -0.04396308 -0.05308508 -0.08368868 0.05290445 0.23833497 0.06996282 0.12649009 0.02092850 -0.00886509 -0.15976259 -0.05633929 -0.13119598 -0.15157643 0.13299549 0.03019567
0.05341504 0.07148806 -0.04946267 -0.04209831 0.01336526 -0.05533359 0.06337111 0.00396287 0.21406218 0.05506653 -0.07125359 0.03660517 -0.01682467 0.14763841 0.09727658 -0.01908873 0.01028865 0.17187235 0.00347444 -0.03072853 0.04739389 0.01317914 0.10902447 0.04239787 -0.02646851 -0.00730503 0.20862232 -0.11091575 -0.02976074 -0.12500538 0.13974203 -0.04038940 -0.06793626 -0.03219520 0.07837815 -0.04309740 -0.01441774 -0.03951259 -0.03562837 -0.00604410 0.12158297 -0.02427389 0.15210456 -0.05850872 -0.07716533 -0.03531180 0.11655372 0.12903677 0.04686454 -0.11369307 0.16537113 0.02119490 -0.15016632 -0.08681108 0.04901152 -0.16450548 0.01468760 0.18191065 0.19003424 0.06893473 0.01296849 0.02694902 0.08605765 0.10905421 0.05100083 0.00816482 0.01073434 0.17926845 -0.04445309 0.09093677 0.11384798 0.00202077 0.19377001 0.05259310 0.04439418 0.05578333 0.10819791 -0.03312140 -0.05401403 -0.05274405 0.04073308 0.10584261 -0.01663002 0.05910376 0.12930229 -0.09959640 0.06339204 -0.08656449 -0.04130740 0.07444742 -0.11934301 -0.08016619 0.03735476 -0.10158627 -0.11051960 -0.17588997 0.13586020 -0.16220076 0.07063453 0.08240733 -0.04499470 -0.15876077 -0.19435440 0.03916028 0.05283457 0.05900689 -0.08445547 -0.04311934 -0.07944591 -0.05832583 0.01458084 0.01044399 0.02506058 -0.06999171 -0.01571599 -0.13791615 -0.11146086 0.09991560 0.00595424 -0.02126151 0.12294034 0.16449638 -0.03542766 0.01728100 -0.08259306 0.11159310 -0.16537748 -0.16282603
-0.03292372 -0.08831493 0.04917599 0.08327024 -0.22868392 0.06381498 -0.19648162 0.03728164 -0.01053593 0.05325827 -0.23345970 0.21758318 0.00212661 -0.08052235 0.05017833 0.23197290 -0.10267457 -0.22837175 -0.09107286 -0.20922004 -0.04932074 0.02414600 0.08374480 -0.06046845 -0.03523619 0.20198019 0.17794079 0.20392980 -0.12898424 0.05557629 0.05486895 0.09003881 0.05344504 0.24513131 0.18566260 0.10140290 0.10881104 -0.20874363 0.02841182 0.12788568 0.23825777 0.04320243 0.17833853 0.20806539 -0.04021159 0.18305665 -0.10547806 0.06881364 -0.11804997 0.29049802 -0.16617240 0.07753732 0.14733981 -0.04489912 -0.15236445 0.07427354 -0.24293599 0.23807400 -0.14129139 0.01694943 0.07141636 0.04414856 0.16944015 0.01144662 0.04654699 -0.11383258 0.15059257 -0.18294863 0.15192917 0.09365569 0.05090230 0.08650902 -0.05660497 0.09756618 0.11735744 0.01408772 -0.00723689 0.10179374 -0.00419216 0.12136491 0.09125205 -0.10642977 -0.09713979 0.00490509 -0.01729360 0.05155572 0.03400189 0.23770656 -0.01194717 -0.07844039 -0.15351485 -0.01084183 0.00835156 0.00611571 -0.17862321 -0.07222411 0.01402733 0.12178397 -0.12045816 0.03052348 -0.01962855 0.07292878 -0.04566642 -0.00217137 0.07531388 0.22076367 -0.23670815 -0.01723250 -0.03121448 -0.02745439 0.07884179 0.03561940 0.13336082 -0.17353012 0.03375225 -0.04074297 -0.01537147 0.09044998 0.10720472 0.06772153 -0.09584405 -0.14639550 -0.08695934 -0.06619571 -0.13720229 -0.01556193 0.13957471 0.23091957
0.06626444 0.00807435 -0.00496019 0.03750065 -0.11189902 0.01353297 0.14967749 0.00790892 -0.06781837 -0.11086304 -0.15990047 0.04782172 0.01769746 -0.06007333 0.02002154 -0.13513674 0.02695094 -0.05624313 0.01675594 -0.15299368 -0.00745572 0.01464803 0.11794691 0.17829283 0.05958743 -0.03159002 0.04078894 0.14421807 -0.05946038 0.03910379 0.04814932 -0.19696826 -0.11767722 -0.08727869 0.12179507 -0.07707570 0.02257661 0.08293343 0.01030539 0.06121470 -0.05612874 -0.07636665 -0.12252405 -0.01763249 -0.12604146 0.08942407 -0.18404461 -0.01103384 0.00663328 -0.02938946 0.00648791 -0.12072533 -0.17321658 -0.06206122 0.08953001 -0.08777466 -0.11587839 0.15556209 0.02438458 -0.02429047 -0.08266890 -0.15886299 -0.05141613 -0.01151694 0.10481570 0.03207170 0.05360682 -0.11643602 0.05286708 -0.06241228 -0.01069661 0.10932782 0.12046123 -0.10393598 0.09435634 -0.02772155 0.16545601 0.03980527 0.07855970 0.10244495 0.00356747 -0.11735282 -0.02789138 0.04716327 0.02589633 -0.05996927 -0.14806545 -0.04028215 -0.09322298 -0.09060583 -0.08130143 -0.11452238 -0.12115292 0.09327596 0.05513465 0.04317146 0.17673355 -0.04286308 -0.02011061 -0.04677164 -0.06803442 -0.10806553 -0.04188904 -0.09039834 -0.03539956 0.17564762 0.14383492 0.14479831 -0.04299009 0.13386905 -0.13393050 0.06477574 0.06014132 0.16556461 0.09425877 -0.19014561 -0.09757898 -0.06390778 -0.03839348 -0.22552504 0.09466622 -0.09497180 -0.07338905 0.02594538 0.17785428 -0.10274874 -0.08528060 -0.02708556
0.01006129 -0.00941831 -0.00492752 0.01967669 -0.06120965 -0.08707622 0.00518636 -0.05147580 0.14573605 -0.15157798 -0.13485374 0.05247056 -0.00412002 -0.04207671 0.07111253 0.06449022 -0.16611628 -0.07662515 -0.12326562 -0.01812531 0.14824253 -0.12926932 -0.12373140 0.06809278 -0.04249050 -0.00492556 -0.07449955 0.08893993 0.15192230 -0.02577200 -0.02615234 -0.06190083 -0.00145333 -0.08643360 -0.00111989 0.12888230 0.10892262 0.04502780 -0.09927147 0.15753992 0.03961205 0.13984184 -0.05115554 0.12933761 0.11972687 0.14889519 0.08596542 0.08917438 0.15152785 0.04218714 -0.10363762 -0.15015635 0.04614827 -0.01948605 -0.11647944 -0.07649926 0.11048914 -0.05797785 0.04603635 -0.03590714 -0.06310514 0.12236264 0.05592661 0.12146025 0.01309754 0.03995879 0.00627089 -0.00893590 -0.06681440 0.05046093 0.01482170 0.07970975 0.09319510 -0.05577875 0.10423388 0.04895832 -0.01370092 0.08495154 -0.13859624 -0.07065594 0.09929743 0.13398936 -0.11558215 -0.11079074 -0.14350262 -0.06757647 -0.00874814 0.06810395 0.16030721 0.08540528 -0.10382397 0.01652182 -0.11593586 0.10747685 0.13349801 0.12423942 0.03346532 -0.01279811 -0.08357234 0.03611181 -0.02522266 -0.01696949 0.09072212 0.11757884 -0.09077522 -0.15309480 -0.12985745 0.01857882 0.09368052 -0.05341486 0.11602645 0.01546600 0.07208592 0.08392743 -0.18262520 -0.06191669 -0.03698752 -0.03700449 -0.10670019 -0.06145262 0.08563799 -0.06477300 0.12064746 -0.10828644 0.08571557 -0.16197838 0.00164137 -0.09430334
-0.07850640 0.03798077 -0.06444423 0.12853241 -0.09691031 0.08182355 0.09318566 -0.00100053 0.02308222 0.01715381 -0.19695707 -0.05284612 0.10346992 -0.02562488 -0.08717748 -0.05069895 0.28150159 -0.13917784 0.03802912 0.11492230 0.15229134 -0.05674434 -0.00350637 -0.08183333 0.01659567 -0.00847070 -0.09524024 -0.14707415 -0.09286626 -0.02569257 -0.07359058 -0.14353482 -0.03423160 -0.02530336 0.15581414 0.07375752 -0.07157239 -0.07982691 0.06841998 -0.10973597 0.08773603 -0.05908437 0.22806847 -0.07181893 -0.13047059 0.03352576 -0.08757320 0.11616759 -0.03675607 -0.00626040 -0.16107877 0.06577119 0.00055017 -0.19118449 0.04183798 0.05805684 -0.14776264 -0.01760138 -0.08788441 -0.00996152 0.11457092 -0.18929085 0.06020522 0.07559565 0.04029081 0.05893090 -0.22374988 0.11746731 0.07243764 0.21774073 0.09810198 -0.08962219 -0.03252723 -0.18018229 -0.14905919 -0.12168132 -0.04633826 0.21215676 0.01108563 -0.03818186 -0.08048556 0.06749900 -0.13534701 0.12242171 0.16539501 0.09175185 -0.05576221 -0.15959063 0.08284497 0.08221628 0.16565071 0.00073215 -0.17618655 0.11148625 0.01447893 -0.02294355 0.04896096 0.12187124 -0.01299204 -0.03034432 -0.06820722 -0.11726373 -0.09008013 -0.00755695 0.11213632 -0.01794971 0.13240881 -0.05291644 0.16922735 0.01959208 -0.12666117 -0.13031612 -0.07413921 -0.08580717 -0.04276831 0.03006258 0.13420245 0.05759457 0.15903454 -0.04395697 0.19979484 -0.00018152 -0.13160533 -0.06043660 0.04525281 -0.02694328 -0.09244393 0.04845806
-0.02010331 -0.06472361 -0.05927043 -0.00076338 -0.07034278 -0.01471731 -0.02926594 -0.16572063 0.12773906 0.09670479 -0.11823600 -0.23631158 0.09001746 -0.00825392 -0.28070283 0.12296214 -0.03792357 0.02428023 -0.03302051 -0.01991607 -0.07014517 0.07408130 0.07398081 0.00236424 0.06621856 0.09175569 0.08891721 0.00848486 0.05437077 0.05363413 -0.10934632 -0.09220571 0.00593126 -0.05761105 -0.12498502 0.03562205 -0.08097139 -0.11084182 -0.04839161 -0.01316753 0.03530028 0.07124385 -0.00095687 -0.00574922 -0.08820821 0.01595982 -0.10314015 0.10712732 -0.02822532 -0.12441226 -0.14966542 0.04818688 -0.13734643 -0.11902432 0.07999852 0.05921077 -0.03796957 -0.10857438 0.06216476 -0.17145327 -0.12264851 0.01154752 0.06934884 0.14652112 0.03644070 -0.05179033 -0.20382543 0.03130802 0.04282164 -0.00751747 -0.09638122 -0.04921745 -0.08048140 0.22576989 -0.04135126 -0.10282740 -0.11955277 -0.13900034 0.11589753 0.01875668 -0.06661386 -0.03048192 -0.11693335 0.09370214 -0.06120069 -0.01207749 0.07004055 0.00142459 -0.06247189 -0.03104092 0.01134020 -0.08375224 0.04351737 0.03954659 -0.07865781 0.21123806 0.03093278 0.02618857 0.15379862 -0.00415002 0.22440486 0.18149929 -0.02613608 -0.16066864 -0.04869894 0.09602901 0.06511294 0.03139416 -0.16231634 0.10315280 -0.05917640 0.15738156 -0.03087653 0.03148443 -0.08434869 -0.07796724 -0.06954916 -0.12653451 -0.09693153 0.05105898 -0.09342375 -0.08150072 0.06282160 0.08660345 -0.08107756 0.14760397 0.00176844 -0.06151334
0.03963081 -0.08378664 -0.00384921 -0.08946372 -0.11212061 0.06971639 0.02533433 -0.04675847 0.08778811 0.03866660 0.02598877 0.07576171 -0.04966989 -0.13490218 -0.09023158 0.09612471 -0.04371028 0.07907049 -0.10368785 0.09795440 -0.01119492 0.00760668 -0.03679504 0.05214209 -0.11810103 -0.07984380 -0.05432438 0.15477207 0.10660167 0.09058964 -0.09592029 0.09173847 0.00410130 -0.19819327 -0.01859236 -0.04398249 0.00157971 -0.16654992 0.15165868 0.06248021 0.12434096 -0.11720693 -0.13810131 0.02863685 0.08527941 -0.03354803 -0.11810308 -0.11278969 -0.07140578 0.11899494 -0.03977564 0.00995610 0.16165927 -0.11268651 -0.02079229 -0.03072198 -0.21893443 0.21568902 -0.02565903 0.10554931 -0.05773759 -0.07462985 -0.16125669 -0.00394362 0.10319731 -0.04974817 0.11243745 0.20727731 0.09414358 -0.00984536 -0.06812643 0.15787996 0.11511812 0.07115859 -0.08844157 0.06956962 -0.02813194 -0.17266345 0.03415861 0.07249013 -0.05727072 -0.02849349 -0.04505084 -0.03489177 0.04329731 -0.12452088 -0.05618758 0.04096441 0.10212202 0.00376790 0.03413670 -0.20910430 0.10224215 0.07767093 -0.02992861 0.20405801 0.05674797 0.12014054 0.01246931 -0.03181148 -0.00352439 -0.13821346 -0.14586115 -0.02724799 -0.02260292 0.02869212 -0.07093159 -0.01840279 0.00639247 0.00969983 -0.15489428 -0.10721993 -0.07637705 0.13386914 0.14390424 -0.09057290 -0.02564071 -0.04662788 -0.03257138 -0.07213724 0.03536059 0.02493070 0.02794022 -0.14345182 0.12738445 0.12058140 -0.01309830 0.14354193
-0.12256401 -0.07239053 -0.23139492 0.11154454 0.11443949 0.05929352 0.11326446 -0.17053518 -0.16393928 -0.02275187 -0.09419410 0.03265661 0.19401377 0.08966153 0.12090152 -0.11500680 0.05711413 -0.17829406 0.01003523 -0.16283600 0.06597007 0.00632740 0.10751018 0.16249821 -0.01034237 -0.12324992 -0.08755012 -0.06389995 0.02408477 -0.02416097 -0.04616409 0.01825839 -0.01128027 0.08721786 -0.13976896 -0.03305195 0.00664098 -0.03787522 -0.01046905 -0.07999194 0.00945700 0.12439438 -0.03381618 -0.01439245 -0.13410075 0.00307735 -0.04915870 0.01450745 0.02322194 -0.10227987 -0.01051760 -0.01612814 -0.07716865 0.05622293 0.12184171 0.12020198 0.01384749 0.08743384 -0.14113328 -0.04361232 0.05468117 0.10619019 0.00011895 -0.02353816 -0.04814438 0.08412205 0.01275467 -0.11397339 0.03782663 0.10310549 -0.07279644 -0.05768316 -0.06061306 -0.12551641 0.03570436 -0.02606297 0.16928035 -0.08819395 0.11454897 0.00542295 -0.11632535 0.18935406 0.01680427 -0.07360954 0.09395118 -0.15863083 0.15315841 -0.03376696 -0.02587545 0.01519092 0.00436073 -0.17567474 -0.01499006 -0.09694380 -0.01562448 -0.13384542 -0.02274652 -0.14989293 -0.08084241 -0.18041986 -0.14983635 0.08383644 -0.03846435 -0.02983633 -0.14342450 -0.02241897 0.10044602 0.16819209 0.03375366 0.07563525 0.10899375 -0.03954925 -0.06003795 0.02121611 0.00498178 -0.29085955 -0.00151753 -0.15618779 -0.08412708 0.00377191 0.00026295 -0.13878830 0.11375995 0.09447139 0.12466524 0.03962819 -0.06681897 0.10412379
-0.08594730 -0.08613147 -0.12466541 -0.01459205 -0.02853187 -0.00176811 0.10092618 -0.01855846 -0.00864968 -0.02657010 -0.01002554 0.01964366 -0.02761644 0.19773184 0.10024135 -0.06296688 0.10525632 -0.10716543 -0.00733328 0.08044697 0.02298229 0.03954064 0.07786235 0.13715595 -0.00244751 0.07228822 0.04778073 0.00124057 -0.11410242 0.10719404 -0.03092216 -0.05282468 -0.16760281 -0.23746133 0.01225217 0.05413500 -0.02965106 -0.00818192 -0.11773816 -0.06085299 0.21121398 0.14007559 0.09439989 -0.15533239 0.07927331 0.10557552 -0.15915264 -0.25169161 0.01568933 0.04574400 0.00784234 0.13754357 0.01557455 0.13019434 0.02626491 -0.00523223 -0.04794843 0.00539569 -0.05219025 -0.06189353 0.07912590 -0.01636794 0.07426101 -0.07880509 -0.06351883 0.05144611 -0.11721391 0.10446199 0.11198696 -0.08305541 0.00204023 -0.08202901 0.14898761 -0.13691771 0.03365994 0.05609613 0.07019696 -0.12040249 -0.10420772 0.00353205 0.10201374 -0.14373480 -0.01806402 -0.00003335 0.01699168 0.03927523 -0.10435026 0.08560981 0.07193998 -0.00080711 0.07364585 0.03556439 -0.16127728 -0.08443435 -0.13012244 -0.11062472 0.06582983 0.14798082 0.09864834 -0.05698688 0.01956602 -0.04523281 -0.15064235 -0.07940114 -0.11080710 0.07578952 -0.23670812 0.04045375 -0.09525634 0.02557847 -0.06699415 -0.11491729 -0.13632722 -0.06465121 -0.16749594 -0.05198543 -0.05125723 -0.10837778 -0.10738821 0.19023208 0.06330703 -0.02136050 -0.01262652 0.00654753 0.21214366 -0.15182570 0.18789892 -0.09916236
0.13919301 -0.11861796 -0.00441867 -0.03987562 0.19495438 0.00966185 0.03685008 -0.02214215 0.00595990 -0.11727991 -0.10651107 0.02832739 0.05512317 0.07934082 -0.06584724 0.18840098 -0.02521569 0.05270894 -0.04295707 0.09235197 0.14644691 0.01221922 -0.03350496 -0.05905394 -0.20569329 -0.04706428 0.17370382 0.03568025 -0.04457515 0.02793624 -0.06789286 0.12606964 0.09101026 -0.10986339 -0.10731176 0.06270272 -0.09337172 -0.05042464 0.10979814 0.05217229 -0.17776439 0.09281912 0.03670080 0.05603394 -0.07602759 -0.12064555 0.07121503 0.06067781 -0.10337857 0.04123187 -0.06866417 -0.21437226 -0.19702597 0.09592533 -0.02159742 0.07471075 0.05662690 -0.16651705 0.12786147 -0.04120194 -0.05527721 0.02890964 -0.03105002 -0.02531110 -0.09431743 0.20807242 0.07077332 -0.09495603 0.09092657 -0.04808212 -0.08408222 -0.15222377 -0.01236072 -0.05089449 0.07814950 0.06893143 0.02624176 -0.10485812 -0.06114751 0.00272496 -0.05994650 -0.03605065 -0.06013479 0.03065664 -0.06310394 0.10647092 -0.06745674 0.16554539 -0.00109471 0.05662832 0.03832191 -0.09315905 -0.01323306 0.06602600 0.04885838 -0.11731190 -0.08347287 0.03166813 0.00060145 0.01151303 0.12321077 0.13074072 0.02389685 -0.08801132 0.14349990 0.02772389 -0.10615871 -0.12123997 -0.14928134 0.11069319 -0.06675970 0.06142345 0.13554825 -0.02262957 0.03294976 -0.19312587 0.00127162 0.17910919 -0.00759336 0.13122706 0.03997128 0.03770000 -0.02134130 0.00471126 0.08535902 -0.04679361 0.00397936 -0.13767153
-0.12346905 -0.17901869 -0.26686096 0.00625518 0.13171087 0.05776774 0.04440813 0.03048298 0.11099691 0.09940321 -0.04153199 -0.09769780 0.14883670 0.03679451 -0.05047106 0.02764292 -0.01300459 0.00242588 0.12817620 -0.09398987 0.03219221 -0.09630378 0.05873346 0.12685572 -0.12427398 -0.11079295 0.02776391 0.09680203 0.12499329 -0.08523785 -0.00899413 0.00261907 -0.08227850 -0.20686358 -0.07390594 -0.06846512 -0.11371369 -0.19394256 0.04948875 -0.14643134 0.13936606 -0.15018265 0.08202285 0.14413176 -0.00061982 -0.09686975 -0.02105808 0.03997534 0.01794558 0.05702370 0.03674677 0.18542787 0.15714230 0.09436884 -0.00905118 0.08990845 0.02343656 0.08461450 -0.08089761 -0.00506188 0.04225650 -0.11193085 -0.06393545 -0.06115264 0.05987503 -0.13825916 0.10540726 -0.00230206 -0.03708523 0.10207278 -0.01550262 -0.02813842 0.03750827 -0.06297306 0.05241320 -0.10291724 0.19707528 -0.03497850 -0.04727117 0.06297523 -0.09181692 0.00741314 -0.00903231 0.03702489 -0.04129192 0.03092514 -0.11840653 0.09644535 0.03057861 0.02829660 0.10050361 -0.13825862 -0.11920048 0.01297219 -0.04427234 -0.09329385 0.22583993 0.05313760 0.10414205 0.17212640 0.03421273 0.04845501 0.08330107 -0.04184771 0.04199596 0.03183055 -0.12658860 -0.00265967 0.14011212 -0.04169041 -0.00896159 0.20029964 0.01108198 -0.10093544 -0.07055748 -0.21875949 -0.21919031 0.08307444 -0.08229903 -0.21274887 -0.13332416 -0.04954064 0.01757703 -0.04267038 -0.08434960 -0.11794945 0.12218206 -0.02775933
0.05295267 0.13839298 -0.06132572 0.13476081 -0.00861532 -0.07066648 -0.06303434 0.11268920 0.00577654 0.01136615 -0.11226469 -0.14296405 -0.06114710 0.07564548 -0.05010930 0.12452725 0.05650910 0.02876672 -0.18094036 0.14688902 0.07233834 -0.11035885 -0.00085475 0.13469353 -0.02751799 -0.11828256 0.04214197 -0.04909892 -0.14331506 -0.07874478 -0.00027864 -0.15211129 -0.07953840 -0.10960083 -0.09572617 0.01480678 0.02048659 0.00832640 0.02121446 0.05113516 -0.05417196 0.08367817 0.09412082 -0.06854475 -0.05689178 0.03147263 -0.11669631 0.06719687 0.04128738 0.15170470 -0.10400106 0.07337792 0.03860085 0.14404860 -0.17460449 -0.16005298 -0.02286103 -0.14207612 -0.19357423 -0.07492644 -0.03745307 0.09306143 0.06429232 -0.00616873 -0.00822489 0.04764438 0.07424764 -0.08368516 -0.01319449 -0.12491273 0.08946144 -0.03361648 -0.03383745 0.03586015 0.16816524 0.07871249 -0.02377911 0.07458764 -0.09464789 0.03560255 -0.02748466 -0.02629032 -0.05773966 0.07566997 -0.02326737 -0.05395641 0.04029415 -0.03068311 0.02908511 -0.14972201 -0.04516353 -0.02006044 0.07722848 -0.07127409 0.00245210 0.10629717 -0.11762328 0.08532798 -0.03729286 -0.01681233 0.02382197 0.03457906 -0.09913293 0.06366376 0.13823628 0.14791124 0.09256537 -0.09232185 -0.00746211 0.08535612 -0.17098528 -0.14933261 0.04921066 0.09200115 -0.05783585 -0.15182205 -0.13866879 0.07237329 -0.04794142 0.14985579 0.15183264 -0.19934769 -0.11027872 0.02681702 0.22418162 -0.00125933 -0.08329625 -0.10983769
-0.01020942 -0.09831268 -0.02495457 -0.06034635 -0.00357091 0.01268968 0.00480394 0.07734853 0.22781469 -0.05054667 -0.09927030 -0.06047167 -0.08575065 -0.01063004 -0.06043896 0.03924636 -0.09116913 0.11882782 0.09897906 0.13132623 0.11913372 -0.04064390 0.06831816 0.07894863 0.09273374 -0.03505067 0.16434582 -0.01810138 0.05741030 0.24532381 -0.12118360 -0.01886941 -0.04483857 0.00710971 0.16499355 0.08499382 0.09275921 0.08113577 0.06170067 0.02514313 0.01630577 -0.09381183 0.05645465 0.11110353 -0.13627392 -0.04615437 0.05394453 -0.02924602 -0.04745667 -0.15580478 0.09066022 0.11590370 0.05646183 0.08678493 -0.12002690 0.16791871 -0.28547263 -0.10097232 -0.05943057 -0.14378454 0.07002743 0.07923055 0.17937501 -0.07503655 0.02941638 0.12001324 -0.05194111 -0.02610665 0.04136091 -0.06057994 0.16197480 0.13283767 0.05049662 0.07600974 0.02576717 0.05316407 0.06251542 0.05803058 -0.07415479 0.03743421 0.08080220 0.05017846 0.01579048 -0.03327325 0.18099478 0.03923038 -0.13210580 0.06859466 0.08806361 0.08431254 -0.11079565 0.00819957 0.10395074 -0.00998170 -0.15924588 0.13252629 -0.08334758 0.07874711 -0.11580829 -0.04262239 0.00388670 0.00000282 0.10304994 -0.01452500 0.03125047 -0.05747951 0.12419782 -0.10837318 0.21725380 -0.12795703 -0.02246346 -0.04758795 -0.16270348 -0.09415901 -0.19107038 -0.07783210 0.18704090 -0.12030275 0.05471851 0.12918827 -0.07167446 -0.20976469 0.07674929 0.04185688 0.27403274 -0.10689560 0.10942861 0.10707464
0.13625467 -0.19127849 -0.06951981 -0.07351323 0.17628413 -0.15587568 0.15616076 0.04295996 0.09823938 -0.14137942 0.10217336 -0.12620479 0.07080583 0.01382294 -0.01710951 0.09294558 -0.08600961 0.04838384 -0.08211846 0.06459223 -0.01242148 0.02707023 0.11883258 0.17416663 -0.12438456 0.11175311 0.18687652 0.06363121 0.03014514 0.11280760 0.14757434 -0.10852443 0.06565676 -0.22165808 0.00821768 0.12550071 -0.09140814 0.01382384 0.05121179 -0.08969391 -0.13691382 0.04833732 -0.19181246 0.05201497 -0.02657385 0.09905654 0.14308104 0.17521521 0.10828723 -0.11397941 -0.04743809 0.06129719 -0.01992507 0.03683886 0.17532240 -0.11238223 0.10597242 -0.01340302 -0.14897309 0.06598648 -0.15845972 -0.16745104 0.02043411 -0.14614442 0.15823744 0.10533793 -0.12282337 0.25923744 -0.11724950 -0.03649114 -0.24475648 -0.02499717 -0.07595568 -0.16609211 0.01256892 -0.07877492 0.19558458 0.09242173 0.01810844 -0.04975978 -0.10680588 -0.10387969 -0.08821641 -0.05958518 0.20677947 0.09651537 0.10004105 -0.07038894 -0.21351105 0.09249148 -0.01329931 -0.28983381 0.16264138 0.06578916 -0.11449641 0.02120517 -0.16955905 -0.03981606 -0.04346058 0.18259633 0.01867962 0.08735345 0.20518222 -0.08628242 -0.01298025 -0.16525847 0.11609838 0.11236287 0.10927662 -0.18197565 -0.02367063 0.18887742 0.21944727 -0.03360793 -0.11350502 -0.45794141 -0.15772536 0.00985995 -0.05023384 -0.18400009 0.02532944 0.09639863 0.31434914 -0.00631548 -0.17734812 0.13825564 -0.04501039 -0.14688464
-0.04189533 0.12978925 -0.08050819 -0.01638767 -0.21453370 0.08823038 -0.10389711 0.06276372 0.08992044 -0.11662527 -0.23577966 0.15582655 0.04269302 0.01443354 -0.02363778 0.02684851 0.11139658 -0.12440211 -0.07913584 0.01647731 0.09929166 0.11232898 -0.00578931 0.05075578 0.12249365 0.07300978 0.06520889 0.07475833 -0.07625113 0.09468396 -0.29749176 -0.03391986 0.08948339 -0.10088446 0.04576527 -0.03111100 0.07474738 -0.06659968 -0.09087071 0.10812674 0.11601580 -0.04223020 0.10719910 -0.18156819 -0.07969470 -0.08215712 -0.07953124 0.00282781 0.07471951 0.07801662 -0.11029468 0.13172036 0.04655118 -0.10798526 -0.20029210 -0.13034852 -0.12542026 0.12197218 -0.22061415 -0.05497053 0.06051926 -0.03487880 0.08880961 -0.08097646 -0.08974759 0.01520470 0.18185070 -0.17016293 0.07669889 0.13383286 -0.02140267 0.02494158 0.02143388 0.00565503 0.05628345 -0.01283981 0.01252174 0.13610724 -0.00175676 0.11381084 -0.08657847 -0.02805647 -0.04128701 0.08536120 0.03060205 0.05474312 -0.01824847 0.17019750 0.06406063 -0.00951079 0.21035378 -0.00649629 -0.01002602 0.10766809 0.09885374 0.12442081 0.15059444 0.12229426 0.02774453 -0.00717224 0.09020524 0.01836651 -0.24689735 -0.16758588 0.11099053 0.04099941 -0.06329399 0.19153169 -0.00644850 -0.04294251 -0.16023137 -0.06653339 -0.05765907 0.01558299 0.17105570 -0.00672729 -0.15088578 0.01135559 0.01683102 0.01024754 -0.06469775 0.01211163 -0.19443423 -0.10024945 0.00917453 -0.01658191 0.10034691 0.10359433
0.06803989 -0.01760010 0.04616353 0.00171962 -0.07240379 -0.15116499 0.19164968 -0.04920535 -0.05031887 0.05984455 -0.10112728 0.06287885 -0.04043595 -0.03032366 0.12905838 -0.10165255 -0.03166495 0.04372241 0.07756092 0.05215492 0.13843654 -0.15904619 0.12370296 -0.07020424 -0.14884663 0.03388258 -0.00849086 0.17906187 0.06508120 0.04089276 -0.04173449 0.04984624 -0.19476278 -0.10877875 -0.03953752 0.14095193 -0.14131151 -0.11514311 -0.04625851 -0.09854839 -0.12351146 -0.06728236 0.16503385 0.06266628 -0.20451659 0.08873586 -0.01796105 0.09243701 -0.15837461 -0.02398288 -0.05322583 -0.01834008 -0.02662083 0.01124536 0.01105860 0.09420460 -0.01352503 0.04062337 0.06580735 0.02218242 -0.10539126 0.00663248 -0.06193645 0.09834272 0.07712112 0.20856744 -0.00118522 0.17730975 -0.08973996 0.02843916 -0.02074031 0.00811773 -0.01145821 -0.20878190 0.12448334 -0.05250952 -0.04717578 -0.03291873 -0.04517748 0.05096587 -0.00136546 -0.10431180 -0.09825393 -0.00835418 0.07925075 0.03215492 0.03286354 0.20078734 -0.16880947 -0.21666661 -0.03049576 -0.03647320 0.02090522 -0.11970397 0.00617293 0.00002942 0.19276099 -0.06752137 0.01657320 0.15364242 0.01582482 -0.12570661 -0.08963802 0.08633059 -0.12357529 -0.01732283 -0.00645169 -0.01592923 -0.15695435 -0.00695648 0.05922133 0.24074227 0.06160811 0.15124087 0.01603498 -0.10888884 -0.06939540 0.06368435 -0.14698058 0.00296228 -0.06155636 0.13944446 0.12779193 0.04257039 -0.15431646 -0.14698310 0.08354013 0.10552383
0.07314566 0.12033209 0.08268990 0.00702417 -0.00731109 -0.16763061 -0.17202561 -0.03835746 0.11961787 0.00742596 -0.05778802 -0.25258812 -0.14662495 -0.06703737 0.03550879 -0.01959817 0.06148944 0.07980061 -0.05584669 0.21794163 -0.00275744 0.00328154 0.00070366 0.02375469 0.01473794 0.03019512 0.06341516 0.02198642 0.06668638 0.04411047 0.04285113 -0.19034322 -0.28899702 -0.10938682 -0.13755925 0.04797201 -0.07712172 -0.10797745 -0.01169780 -0.09255000 -0.02582439 -0.08494375 -0.13441366 0.06674296 -0.11886808 -0.07417589 0.15640579 0.06753895 -0.07798073 0.15469766 -0.13929012 0.01359349 -0.06512478 0.01527661 -0.18918677 0.02864601 0.00777357 0.10844579 -0.04020961 -0.02652851 -0.05243498 0.14865960 0.13793282 0.07205465 0.15334485 0.17523362 0.05582624 -0.06782541 -0.08917706 -0.07134743 -0.15564212 -0.13046616 -0.01686639 0.11419064 0.11606959 0.09084409 0.15430008 0.01001938 0.05864649 -0.00575412 -0.00923547 -0.06468330 -0.06644380 -0.10039391 0.10317634 -0.10011031 -0.14686020 0.24439831 -0.18052636 -0.11737385 0.06409058 -0.07114895 0.07913060 0.00779315 -0.11444927 0.11940689 -0.00792551 0.03753998 -0.02549310 0.22148611 -0.02445747 -0.02166922 0.02147021 0.08686495 0.21294598 0.10040175 0.01031902 -0.03324821 -0.21707319 0.11625460 -0.04029847 0.09144950 -0.05966017 0.12532948 0.08277476 0.02353518 -0.27075168 0.11955830 -0.01349904 -0.02413507 0.18554896 -0.07615831 0.12555414 -0.13187070 0.14984985 -0.05070591 0.02152530 -0.08136303
-0.09302668 0.04405766 -0.20739166 0.15533859 -0.13878700 -0.14225130 -0.13458711 -0.05233304 0.19995470 0.04117846 0.06616367 0.11589894 0.08494727 -0.00794312 0.03943108 0.06619648 0.16577196 -0.03521214 -0.09648509 0.05705525 -0.03259782 -0.02367351 -0.02691686 -0.04961728 -0.01067326 0.07465628 -0.12777290 -0.10474633 0.03713738 -0.07488704 0.02837742 -0.10595452 -0.05148574 0.00894384 0.03062322 0.07055058 0.02122782 0.16190106 0.03936950 0.10498103 -0.11108800 -0.04762328 0.19359526 -0.14029083 0.06891329 0.07851284 -0.06941014 0.08907045 0.11663419 -0.12941520 0.03298317 -0.01666777 0.15386455 -0.05319398 0.08871476 0.10453016 -0.05369849 -0.13056470 0.03353652 0.05250287 0.09161811 -0.17482081 0.05074058 -0.12681311 -0.06521019 0.18759926 -0.01808492 -0.14695796 0.00221600 0.00163018 0.02934702 0.01613811 0.11792789 0.02716230 0.19342126 -0.00307948 -0.07075448 0.05741082 -0.13445204 -0.08656327 -0.03001259 0.12226108 0.14407602 0.23786655 0.08647782 0.13837349 0.02785291 0.04785497 -0.01839911 -0.19226107 -0.08900532 -0.18548827 -0.05503746 -0.05766322 0.04063529 0.09040197 0.21952809 0.13218403 -0.02940765 -0.09934853 0.00904564 0.06763397 -0.11024610 0.03637307 0.07084464 0.16965166 0.05920322 0.03324271 0.06843831 -0.09044406 -0.01400419 -0.12671776 0.16293818 -0.03626026 0.08063701 -0.18049464 0.03709770 -0.12729082 0.13070174 0.00777178 -0.06240926 -0.12657177 -0.20184927 -0.00374204 0.01231154 -0.02319895 0.00125365 -0.03192935
-0.10367388 -0.07437410 -0.13785054 0.08120094 -0.06677355 0.12539995 0.01915357 -0.07290633 0.11039923 -0.13226688 -0.13005555 -0.05914197 -0.01381883 -0.13803549 -0.01850027 0.14478433 0.00210887 0.06410631 0.04132659 0.23674220 0.04338503 0.18196212 0.09389479 -0.18027796 -0.16246712 0.09871964 0.23853071 -0.01161298 0.04096310 -0.14106411 0.06173968 -0.08523890 -0.03207970 -0.28822297 0.11815840 0.05896948 -0.07180335 -0.01133034 -0.09672467 0.03872886 0.02225446 -0.08770648 -0.22759308 -0.05639780 0.25360245 -0.17154337 -0.03015992 -0.05405110 -0.06391346 -0.08427653 -0.18502344 0.09400658 -0.00008015 -0.07437221 0.04859890 0.14773200 -0.00383928 -0.09892947 0.01070608 0.07821819 0.03594426 -0.05931263 0.00132034 -0.09765492 -0.06693938 0.03521477 0.10046232 0.12428414 0.02816641 -0.00920534 -0.02328702 -0.14292987 -0.01171336 -0.08193605 0.03766381 0.12679373 -0.02503444 0.03294935 0.06633012 0.03864302 0.01203898 0.12394942 0.11538039 0.07699159 -0.06407719 -0.03569553 0.09208145 0.14752424 0.05658177 0.06505590 0.10888814 -0.24469040 0.03858121 0.13547941 -0.13867986 0.03476379 -0.18910202 -0.00796967 0.10912142 0.20189479 0.21133339 0.18775848 0.12558077 0.19498263 0.06514455 -0.07384907 0.04962898 -0.10568812 -0.05499966 0.07957737 -0.16470215 -0.01911775 0.07969715 -0.07899084 -0.00825084 0.15817069 -0.04857419 0.00067918 0.09854545 0.16606759 0.09538668 0.14910360 0.08979629 -0.07337251 -0.15156837 0.03873224 -0.22959296 -0.18698230
-0.00484877 0.08037494 -0.07886692 0.03817434 0.08650218 0.03869929 0.14069207 0.09941671 -0.13854165 -0.05396317 0.09966969 0.01977779 0.05430666 -0.01686316 -0.01733987 0.05150710 0.02110050 0.11208849 0.00784049 0.11976331 -0.02071426 -0.01506360 0.08671176 0.08676441 -0.06697993 -0.06272854 0.11730438 -0.03398379 -0.08871897 -0.07591026 -0.09830377 0.07218551 0.05912742 -0.16240443 0.00418712 0.13439012 -0.15075648 0.07138979 -0.03857343 0.11895397 -0.10560987 0.03245394 0.03782088 -0.13045275 -0.14949191 0.08285358 -0.06093507 -0.14219421 -0.16194297 0.08188613 0.13918392 -0.02003212 -0.06029001 0.01199530 0.02624911 0.00401955 -0.11823979 0.13116807 -0.08141461 0.02169622 -0.05619265 0.01293894 0.09905615 -0.05474620 0.11460596 -0.00431836 0.04857332 0.06177352 0.05295569 -0.08198017 -0.11229047 0.03309508 -0.09775911 0.06671007 -0.01953868 -0.01964214 0.14385620 0.02470289 -0.15803260 0.05179530 -0.00749838 0.01785673 -0.06254920 -0.02583613 0.08309307 0.12728961 0.00534192 0.15104222 -0.09417717 -0.11244463 0.01382054 -0.13411637 0.12384681 -0.06323004 -0.06572246 0.02278689 0.10926964 0.09338889 -0.15245928 0.19699374 -0.09872125 0.09798060 0.05369583 0.10701621 0.01883760 0.07701097 -0.08215725 -0.13596810 -0.08810689 0.06432567 0.14683291 0.08805528 -0.07276161 0.17408688 0.11846662 -0.19373700 -0.03677961 -0.15992670 0.08077697 0.15721214 -0.10027244 -0.04990462 0.01083150 0.00926871 -0.00496570 0.17324893 0.04693046 0.03300056
-0.00806955 -0.00689333 0.13256118 0.02862531 -0.07787342 0.27041125 0.02658065 -0.14161414 -0.11689141 0.05815211 -0.12045113 -0.09406421 0.02064892 0.06342939 -0.09024021 -0.08989978 -0.02981441 -0.17250660 0.02833852 -0.11818217 -0.05171764 0.01469660 -0.11085594 -0.03849462 0.16594246 0.10595224 -0.23198277 0.03513549 0.01698062 0.09738170 0.09646474 0.04920791 -0.06449445 0.00239473 -0.01446970 -0.03305890 -0.19964221 0.01328493 -0.02611430 -0.00149004 0.30745664 -0.13230413 -0.34154519 0.10687486 0.27982113 0.18510497 0.00150401 -0.01501171 0.12794377 -0.09118620 0.08036291 0.03777891 0.07391696 -0.15147948 -0.00424586 0.22813043 0.04624122 0.18239942 -0.08767226 0.00772537 -0.20336886 0.02745701 -0.19109949 0.01937749 -0.01839669 -0.10827092 0.08051740 -0.19957753 0.10182378 0.18515991 -0.07272350 0.13792282 0.12352257 -0.03678397 0.01509407 0.01699960 -0.02211041 0.11123054 0.20344540 0.08707474 0.01136910 0.16314158 0.17371719 -0.18059424 0.06759363 0.10205977 0.16546652 -0.34362736 0.04887968 -0.09513505 -0.02992206 -0.14426321 -0.08238623 0.16082701 -0.06119774 -0.14899987 -0.15673612 -0.01563672 0.21696235 -0.13399844 0.03368409 0.03763033 -0.01801920 -0.08641113 -0.20004261 -0.04830428 -0.10668227 0.25493714 0.08577827 -0.35112500 0.16040505 0.03975846 -0.09917814 0.01297687 -0.19998716 0.00167734 0.00983542 -0.07178337 0.19446349 -0.08993721 -0.14524740 -0.06659187 0.01424401 -0.08455466 -0.07796524 -0.07085405 0.14919792 0.13633351
0.04510260 -0.04456060 -0.08697219 0.08440404 -0.08386182 -0.07921656 0.14534983 -0.07867431 0.05321972 -0.13856131 0.09081986 -0.11751294 0.16569135 -0.01013789 0.01711021 0.03221334 0.12619320 -0.06438749 0.12429429 0.08704802 -0.11349411 -0.00894061 0.04251722 0.11991859 0.04303418 0.08794298 0.07477713 -0.07770230 0.07680052 0.14574911 -0.00691873 -0.01845847 0.08826546 0.07831375 0.06940177 -0.11443818 -0.12248167 -0.01573085 0.14898643 0.09095710 -0.09052203 0.10177324 -0.02422588 -0.03504178 0.02319574 -0.05183045 0.01984096 -0.06658240 0.07356307 -0.19623987 -0.07326682 -0.06198931 -0.02593970 0.12593210 -0.12077459 0.04226410 -0.07220648 -0.03490042 0.11595920 -0.04019715 0.04696471 0.06318259 -0.11260692 0.04781565 -0.02032361 -0.01827216 0.04909952 -0.07379526 -0.10819949 -0.10085703 -0.13659689 -0.02775949 0.13551931 -0.11200155 0.11859860 0.01016951 0.15873104 0.10060038 -0.06985971 0.10134213 0.08830095 0.04015324 0.13100629 -0.03485106 0.11912581 0.02160247 -0.04395753 -0.02591633 -0.17317772 -0.02969178 -0.10867138 -0.00341894 0.06074595 0.07491553 0.01215109 -0.09185775 0.05156359 0.06207718 0.04917232 0.10870214 0.00678180 -0.00777936 -0.02137386 0.11461513 -0.04162765 0.08888707 0.04440016 -0.17512545 0.05381104 -0.01378132 0.04742160 0.04730779 0.08571169 -0.08075710 -0.00598655 -0.13927931 0.13189127 0.05530373 -0.01937656 0.03453270 0.02513410 0.02432725 -0.09777835 0.04485936 0.03560853 0.06369952 -0.05885593 0.04885782
-0.12646502 -0.04637166 0.06663471 0.08903012 0.04242153 0.03329675 -0.05316019 -0.09538210 -0.16727929 -0.10550717 0.03769492 -0.04385434 -0.33184972 0.08817851 -0.18486620 0.05033346 0.24808323 0.03698077 -0.11519920 -0.01353024 -0.18100698 0.17109585 0.01200375 -0.05668420 0.13417725 0.13983813 0.16731253 -0.16185440 0.04429547 -0.19431119 0.03351579 -0.08089583 -0.03763556 -0.12210875 -0.10417851 0.04838970 0.11504541 0.22241895 -0.06976956 -0.00445610 0.18408199 0.10073470 -0.01164180 0.00869799 -0.14292721 -0.00590709 0.06384243 -0.26109245 0.00144778 0.14267699 -0.01658094 0.02552830 0.04973877 -0.14933854 0.15055141 0.09406737 0.03811903 -0.12041008 0.16429694 -0.09965125 0.01852207 0.06893501 -0.04504329 -0.06657959 -0.02256884 0.15068276 0.01982379 -0.30859905 -0.12587583 0.23314667 0.03463895 0.03619124 -0.08410919 0.12428609 -0.05443507 0.03341221 0.00678206 -0.13744161 0.19461899 0.01313057 -0.07538079 -0.11935195 0.04068107 0.10961098 -0.07017934 -0.07736512 0.19089016 -0.13619149 -0.08728059 0.03593742 0.08669843 0.08448616 -0.02311102 0.15029544 0.04085952 0.05917485 -0.06732083 0.03376034 -0.05331681 -0.03581224 -0.05542332 0.00153513 0.09059179 -0.01182680 -0.15987884 -0.00008496 -0.08340658 -0.01360153 0.03448086 0.22052309 -0.05602138 0.04830521 0.05304038 -0.09465211 0.18760218 0.12465155 -0.07292090 -0.14916277 -0.05854835 -0.30541080 0.17613293 0.14531466 -0.12222578 0.04130549 0.31143016 0.08769370 0.07388452 -0.17018276
-0.00595005 -0.15915164 -0.16029488 -0.01142309 -0.09165289 -0.09967301 0.06436716 0.08063019 0.05754660 -0.09194697 0.09953190 -0.20616829 0.01223653 -0.07754076 0.09003626 -0.06377330 0.03707845 -0.17847516 -0.03745344 -0.03767760 0.04252699 0.00474053 0.21041170 0.19456504 -0.01754657 -0.13378116 0.16848841 0.01713383 0.11237356 0.11410557 -0.08597164 -0.02273642 0.14935295 -0.26350981 -0.05506516 0.10292289 -0.06556921 0.09496824 -0.01527544 -0.03294514 -0.00852703 -0.11402877 -0.13181604 -0.14013195 -0.09236512 -0.01735984 -0.02651460 0.00293691 0.10465621 -0.13254282 -0.10729662 0.18579015 0.05622798 -0.04426163 0.10176673 -0.12002314 0.13623245 0.14175731 -0.00063218 0.00897083 -0.09699910 -0.13844016 -0.13261741 -0.15791140 0.05294724 0.06768603 -0.10587256 0.13912731 -0.02059436 0.00266924 -0.22795619 -0.02697208 0.03210361 -0.06131438 0.16815795 0.03433030 -0.02863307 0.10029567 0.00186904 -0.00785539 -0.05574220 -0.04882577 -0.05001795 0.00559187 -0.02754289 -0.00922667 0.06519155 0.08242574 -0.07453003 -0.02978944 0.05336637 -0.15497988 -0.06921802 0.08325189 0.14971095 -0.09262765 -0.01947304 0.03135290 0.01023558 -0.08627669 0.04475538 -0.18193905 0.07201993 0.21055152 0.00396476 -0.02035240 -0.13480660 -0.12262965 0.06803519 0.03530498 0.13409136 0.13790119 -0.02707246 0.03115754 -0.04018055 -0.34420642 0.12671438 0.07830860 -0.17559297 0.04204351 0.21493994 0.04534106 -0.00570282 -0.00004405 0.04144909 -0.03786874 -0.03143447 0.05402617
-0.13231035 -0.11675820 -0.04286026 0.10913494 0.11301921 0.21656208 -0.00139526 0.07924340 -0.14340188 -0.16900951 -0.18276854 -0.08789641 0.19105542 -0.01611417 0.05979749 0.00074446 -0.28563696 -0.12041569 0.01824084 -0.00619005 0.04355629 0.04716355 0.02993168 -0.08843112 -0.01831825 -0.04380335 0.01784224 -0.05895284 0.19822277 -0.05284503 -0.15407042 -0.13256833 -0.02732076 0.10863860 -0.05491078 0.02545172 0.08035743 -0.04896735 -0.15457304 0.14137505 0.01142483 -0.06018888 -0.14031740 -0.03796788 0.04779225 -0.08227900 0.01656876 -0.07184877 0.06918101 0.09170534 -0.07838339 0.06607424 0.02642698 0.07740604 -0.18338929 0.01646808 0.07347364 0.14584410 -0.03399049 0.07585716 -0.10612942 -0.02100930 -0.04935903 -0.00044331 0.03108077 0.05438830 0.13114285 -0.06154271 -0.16784845 -0.13085297 -0.06160783 0.10661545 -0.14557375 -0.02193132 -0.14462997 -0.03576260 0.02095845 -0.05607330 0.03320669 0.20934679 0.03776575 0.05415937 -0.00550770 0.10309891 0.11411443 0.20331779 0.14966393 0.11895315 0.09292337 0.08435808 0.23869205 -0.00421348 0.06545606 -0.01015735 -0.00946054 0.02711067 -0.15832548 -0.13301221 -0.06973954 -0.15841614 0.02163461 0.00902548 0.09214416 -0.06882584 -0.00713971 0.09419356 -0.08810227 0.06045252 0.00228516 -0.15142129 0.04185195 0.31971535 0.01924903 -0.00654205 0.03011184 0.21588022 0.04041151 0.01526100 0.09306779 0.05753220 0.04880489 0.02275321 0.13677485 -0.06020838 -0.08084641 -0.12408074 0.30426726 -0.04902185
0.17160623 0.12954783 -0.11810290 -0.07110870 0.08783814 -0.11401375 0.11280938 0.05935387 -0.10361407 -0.11381929 -0.10566913 -0.08418141 0.01589044 -0.00864315 0.05626547 -0.12030063 -0.01580785 0.04967156 -0.07178999 -0.08432049 -0.11711883 0.07998237 -0.01940775 0.09105914 -0.12611252 -0.06541336 -0.00055354 -0.19764046 0.00263133 0.04968688 -0.09936719 0.15702842 -0.07400903 0.03532557 0.11235497 -0.05085916 0.06162018 -0.01307407 -0.00726254 -0.05421833 -0.08515501 0.10993123 0.17136785 0.01583287 0.03135916 -0.09827103 -0.01552627 0.00395749 -0.01656440 -0.02947949 0.03219729 0.00667737 -0.10608996 0.03565540 -0.02095671 0.03592595 0.08208975 -0.06320170 -0.05164914 -0.07543842 -0.05471515 -0.08620824 -0.11508150 0.06301101 0.03079797 0.02903062 -0.01213391 -0.05586642 -0.15220954 0.00451368 -0.04784876 -0.17359518 0.12937257 0.01496770 0.04620643 0.14425302 -0.06579565 -0.00640872 -0.16540588 0.11604913 -0.05338803 -0.08498964 0.07906210 0.22227225 0.06932147 -0.14324482 0.07354728 0.01580696 0.02979954 -0.04541887 -0.02791400 0.05040715 -0.02853375 0.03399260 0.06139271 -0.07947730 0.13206385 -0.00879177 0.11227661 0.13601403 -0.04100133 -0.13291533 -0.03793742 0.07933663 -0.08447246 -0.01324131 -0.02990252 -0.06991885 0.00440300 -0.11460122 0.05074779 0.02209372 0.07561710 -0.03958424 0.06640042 -0.03313674 -0.05451809 0.07080680 -0.03070775 0.07979596 0.07862678 -0.03144676 0.01442342 -0.14481626 -0.00782654 -0.02430735 -0.10171454 0.04003468
-0.10096743 0.03332791 -0.11294658 -0.13104455 -0.17030464 -0.01994387 0.08838464 -0.04018466 -0.19811010 -0.04444860 0.13728589 -0.16980654 0.04588703 -0.02585680 -0.14603518 -0.08967266 -0.27061906 -0.13704841 -0.00325094 -0.01673348 -0.05097706 0.00243088 0.05061974 0.01644201 0.10197701 0.07628694 0.03653693 -0.00004816 0.19967745 -0.11202311 -0.06557833 0.13393980 -0.07268437 -0.11943409 0.10787546 -0.15348522 -0.02931808 0.02468508 0.08585306 0.13753816 -0.02541753 0.01257469 -0.07121674 -0.08602367 0.05145410 -0.05715248 -0.08409205 0.22671568 0.18660940 0.02261943 0.05092292 0.12425679 -0.06479564 -0.03367384 -0.01985510 -0.05843406 -0.07216278 0.01737489 0.21832839 0.03719005 0.06769062 0.00986400 -0.04409136 0.01222988 -0.04520634 -0.05851467 0.20220675 0.13832615 0.06889488 0.08107942 0.13632162 -0.07042272 -0.08087389 0.10609704 -0.17816339 -0.17893291 0.22133236 -0.07499349 0.02678031 0.20720682 -0.06427301 -0.08907282 0.08560450 -0.11114103 0.17623068 0.11025486 0.05833695 -0.00367080 0.08125533 -0.04201524 0.17118870 -0.02422325 -0.28945598 0.09744254 0.07675073 -0.00596024 0.03541730 0.05429586 -0.20599526 -0.02410125 0.08871718 0.02309953 0.00873890 0.13496825 -0.09388334 0.05064555 -0.09388155 0.05068351 -0.01639665 -0.02945219 -0.01027793 0.13079874 0.00359603 0.16598228 -0.03192262 0.02420816 -0.06670586 0.24175084 0.02962456 0.07945878 -0.06378946 0.11145118 0.11171194 0.23004723 0.03014746 -0.18534544 0.15782098 0.15204105
-0.24291138 0.07645721 -0.02111311 0.13097595 -0.07815693 -0.09474696 -0.13779290 0.03681747 0.02281601 -0.09770726 -0.03482486 -0.13583915 0.09377086 -0.07019210 0.04634314 -0.17474297 -0.13492709 -0.16169900 -0.02572712 0.01216646 0.10394930 0.13143967 0.04973966 0.07215941 0.02484803 0.01434490 -0.00651450 -0.13180162 -0.10211416 0.06698413 0.06773891 -0.16756257 0.07960919 -0.31176910 -0.19853167 0.01571753 -0.07342972 0.03975127 0.06454419 -0.01484747 0.10781981 0.07758987 -0.06080677 0.02887770 0.10497455 -0.01213195 0.06674993 -0.02633906 0.03762112 -0.06291214 0.16352388 0.11380497 0.19260480 -0.14144987 -0.06188712 0.12715702 0.08614746 0.07749916 0.01499769 -0.06225495 -0.04236945 -0.03297324 -0.06410921 -0.09079104 -0.10109079 0.13633478 0.13277869 -0.12503767 0.12561519 0.09977513 -0.05458989 0.11087810 0.04084164 0.01473416 -0.02032114 -0.08944261 -0.06378142 0.14859304 -0.01331011 -0.01509982 -0.12123045 0.07003394 -0.04175840 0.16571821 0.07249030 -0.04855887 0.22536686 -0.05032125 -0.07042895 0.07404111 0.07776584 -0.29613605 0.10637768 0.23264475 -0.09666158 -0.01842069 -0.05464959 -0.04352076 -0.02121329 0.01143901 -0.05149693 -0.15293594 0.08513291 0.08689554 -0.08076847 -0.05175545 -0.03195856 -0.08231719 0.10210881 0.09535548 -0.03847249 0.09264664 0.07859159 -0.08844883 -0.09145194 -0.33212018 0.09603808 0.03823140 0.04162203 0.08036299 0.20635842 -0.04627195 0.07329171 0.12463401 0.11893999 0.11120788 -0.05466824 -0.00966974
-0.03742116 0.03272364 -0.19396137 -0.12198230 -0.14786647 0.07654779 0.09928803 -0.12527080 -0.19724970 -0.15773265 -0.06938366 -0.13992883 -0.00251808 -0.16926113 -0.01793870 -0.20592995 -0.07021985 -0.07038460 0.03407408 0.00748445 0.13627101 -0.09032047 -0.12601228 -0.09011303 -0.00278245 -0.07886849 -0.04955569 -0.10125121 -0.06811822 0.02378472 -0.23933689 0.45102838 -0.07309879 0.18915017 0.07241738 0.19352891 -0.02673134 -0.13173333 -0.07622320 -0.20789273 0.06259921 -0.02779348 -0.14002682 -0.08563823 -0.11592709 0.05897703 -0.11232265 0.02056063 0.02108342 0.14749913 0.16509798 0.24375412 0.10483915 0.09224794 -0.19660491 -0.12894443 0.10372303 -0.03550474 0.00464477 -0.28184023 -0.11297181 0.14638583 -0.17158437 0.15675654 -0.04586636 0.21528253 0.03928388 0.22554921 0.00485028 0.03156025 0.16683570 -0.11218195 -0.19247630 -0.02214454 0.00587214 -0.08089475 0.11151484 -0.07908905 0.16243580 0.04512984 0.09893037 0.06068369 -0.01502528 0.11770713 -0.01035709 0.07250930 -0.17122509 0.01611385 0.06390995 -0.02787678 0.03136724 0.13868780 -0.03934408 -0.05217813 0.15642942 -0.11277104 -0.07166038 -0.02826984 -0.01427347 -0.05698997 -0.02992770 -0.21364540 0.03377408 0.05771898 0.01585327 -0.03416444 -0.05136720 0.07541319 -0.04508957 0.05009405 0.05047626 0.01242069 0.02304436 -0.03549425 -0.20708305 0.12087940 0.15802874 -0.14760663 -0.06794361 0.04314847 -0.13794081 0.02310639 0.06424136 -0.10534669 -0.21031033 -0.00961581 -0.05192156 -0.04156547
