0.38764003 0.05849241 0.17437987 0.28595215 0.33063617 0.16187143 0.35793576 0.07296567 0.69218677 0.47312751 -0.13165496 0.13122743 0.09524669 -0.09476704 0.70218766 0.30749470 0.65555274 -0.13395604 0.56361043 0.01444513 0.81277531 -0.27875042 0.35383391 0.76076710 0.37270501 -0.21531714 0.31669676 0.13392690 0.66623372 0.32444072 0.57133031 -0.24089104 -0.11976424 0.30700919 -0.01465454 0.14157775 -0.31156328 0.59743756 -0.26589915 -0.46636933 0.63671339 0.80207646 0.18610410 0.49834198 0.64517969 0.43177059 -0.32176560 -0.15328385 0.43968889 -0.20930839 0.16663386 0.69990695 0.09937396 0.08025406 0.50581264 -0.21290851 -0.36646697 0.16956867 -0.07200139 0.85975540 0.40707171 0.99657291 0.07934935 0.78269744 0.65677875 -0.29301423 -0.20235245 -0.24823001 -0.19301888 0.65887827 -0.08490145 0.71803093 0.14076258 0.19389118 0.18398339 0.15536757 0.01201163 0.20158090 0.21803397 0.40552488 0.05089382 0.35048082 0.17048812 -0.01713246 -0.31493637 -0.21532273 -0.08110355 -0.36200449 0.32480940 -0.00948599 0.43687615 -0.34636882 0.81646442 -0.09353174 -0.28638640 0.43595365 0.13624360 -0.28943843 -0.08250653 0.61793494 -0.14700828 -0.39143112 0.44290349 0.03593621 0.24122959 -0.15082701 0.34614667 -0.00247255 0.79511476 -0.13709363 0.07629335 0.28997052 0.34680912 0.13835700 0.05239748 -0.05026424 0.42334315 -0.07876658 0.19808644 0.33666191 -0.39347917 0.19536036 0.20806509 0.04750009 0.28356549 -0.17477550 0.32766250 0.64585000 0.28412041 0.15075225 0.32646716 0.15551163 0.16010253 0.34977311 0.26832002 -0.24174979 0.25280863 -0.27616075 -0.25426391 0.98025680 0.23745941 0.16768828 -0.07334103 0.00098882 -0.17228539 0.55166209 0.06880943 -0.02049535 -0.40348324 0.76101202 0.00136216 0.22008243 0.46171671 -0.21692649 -0.04660729 0.52316600 0.19947386 0.02172177 0.03999304 0.10377203 0.05443517 0.53766310 0.04408852 0.83571929 0.38975909 -0.04368218 0.42730036 -0.43490827 -0.23616068 0.19149585 0.08440865 0.36871460 0.59068215 -0.34972534 0.41219205 0.24809396 0.72451907 -0.21952109 -0.16297272 -0.27956805 0.43297771 0.04370748 -0.09436452 0.15721011 0.64055920 0.42783540 -0.22119854 0.09461039 0.28328803 0.20956291 0.39888895 0.57198876 0.38488936 -0.47669980 -0.16997214 0.30369288 0.02717485 0.59222203 -0.34174120 -0.13047338 0.38728708 -0.23907408 0.03957764 -0.03491287 0.16794430 -0.02966144 0.00246116 0.22144805 0.34358126 0.15408319 0.26991117 -0.09645209 -0.29027134 0.26716268 -0.29642653 0.48773426 0.27629250 -0.08072700 0.11153660 -0.19486645 0.46005815 -0.06485932 -0.01576281 0.74964762 -0.04315899 0.20077357 0.14427193 0.52661479 -0.34412673 -0.22450411 0.24560374 0.28662217 0.44974688 -0.23333065 -0.27635023 0.16599466 -0.06291679 0.65798444 0.17401007 0.63235486 0.07971448 0.55650610 0.36510339 0.23132861 0.16164698 -0.20109195 0.21752043 -0.12041882 0.60662401 -0.30514988 -0.28208393 -0.03888914 0.00453908 0.29574117 -0.05058183 0.11390880
0.44764593 -0.08850110 0.61273754 0.02070648 0.51667374 0.37560853 -0.44031489 0.08153471 0.17533137 0.35309014 0.15138821 0.05215671 0.53256255 -0.10305397 -0.10213582 0.68517292 -0.08581425 0.78241521 1.02798259 0.41104928 -0.14512144 -0.11088146 0.38615105 -0.04190780 0.75780237 -0.13060702 0.28097153 -0.22685170 0.57252455 -0.12990619 0.60146409 0.37442029 0.00097497 0.10939227 -0.06838605 0.22215016 0.06182318 -0.12306450 0.40989256 0.44731054 0.55181456 -0.31301031 0.12511070 0.65791786 -0.12599847 -0.06973721 0.81314433 0.33862120 0.55696326 0.85076761 -0.11602540 0.15693223 -0.03726596 0.21099485 0.31902623 -0.04147761 0.23565933 0.12460634 0.03348217 -0.10358220 0.06438644 0.14563245 -0.11766826 0.24760610 -0.11654723 0.14046527 0.00900076 -0.15914501 0.83366489 0.57031858 0.14589825 -0.04043565 -0.06064852 -0.05394084 0.15540077 0.11094466 0.17975406 0.33364546 0.03426953 0.03690589 0.11546050 0.22820501 0.10748521 0.36780024 -0.04330028 0.32814899 0.14602078 0.46480459 0.10284680 0.10370792 0.16326009 0.15180252 0.28987455 0.31776288 0.99704260 -0.43549153 -0.03958198 0.55291814 0.27600172 0.07650141 0.51132601 -0.18085669 -0.26394913 0.52397472 -0.16243348 0.38439697 -0.27571341 0.40954512 0.17741756 0.38774192 0.04972180 0.27586645 -0.20850369 0.37519521 -0.20464233 0.15907615 0.36243823 0.08815898 0.33947659 0.69697082 -0.04389108 0.02502538 0.32991278 0.66018981 0.29983345 0.27286547 0.07434052 0.36121902 -0.39445099 0.19491412 0.15396813 -0.03326377 -0.01094312 -0.04972962 -0.17104477 0.62417215 0.14235957 -0.07012721 -0.26230416 0.56150812 0.12982534 0.07610057 0.36940324 0.30503583 0.24712628 0.10837483 0.81511927 0.08805522 0.03508912 0.16222252 0.17762972 0.77640313 0.66386372 0.64856720 0.34525028 0.48299706 0.24130310 0.21665995 -0.28232813 0.60882062 0.66053647 0.01215663 0.10967062 -0.23031862 0.63084871 -0.28426024 -0.12384719 0.26247880 0.57124805 0.24039696 0.19977301 -0.06750041 0.02247669 0.16597830 0.26528487 0.27780887 -0.02601210 0.36955461 -0.00847239 0.28108838 -0.14307734 0.37084526 0.26953238 0.03130125 0.42401031 -0.06938333 0.14341418 0.28436625 -0.06921345 0.04283414 0.81698817 0.27946818 0.27970222 0.41815889 0.10833151 0.13264343 -0.09960546 0.10018845 -0.03892987 0.32576370 0.34801361 0.70396703 0.20599462 -0.24728669 0.35704425 -0.15041621 0.46232772 0.70756465 0.25058576 -0.25742695 0.35408935 -0.02001651 0.85430092 -0.05436087 -0.18637244 0.09751196 -0.13252074 0.16795668 0.22094977 0.22844456 -0.12504332 0.74251360 -0.04371000 0.46136847 0.11066720 0.01621510 0.55863440 0.14197479 0.25227353 -0.01028418 0.58592147 0.41221645 0.39333174 0.24240033 0.05772220 -0.04442747 -0.07091159 0.05077058 0.07465582 0.33207440 0.11044075 0.18938582 -0.10574529 0.34413418 0.25482538 -0.14005266 0.39379027 -0.11429045 0.06896356 -0.01025719 0.22267240 0.78528404 0.31688398 0.10023712 0.06033592 0.13578095
0.00151214 0.29452538 0.44699055 0.21601087 -0.24081038 -0.00725411 0.09972885 0.03893586 0.33088246 -0.23144738 -0.11833167 0.12061720 0.74195355 0.42491487 0.00589467 -0.01868843 0.80610144 0.09516425 0.40780723 0.03875237 0.33534297 0.08815319 0.84768492 -0.00014927 -0.11937240 -0.22034575 0.75636184 0.28149897 0.33348858 0.07880464 0.36343351 0.09050813 0.09357651 -0.12661824 -0.09104967 0.93674272 0.58929336 0.60830009 0.49315667 0.71382070 0.45402849 -0.20968620 0.40727416 -0.24174415 0.03450556 0.58332431 -0.34006387 0.01255444 -0.06945772 -0.00613013 0.30166960 -0.19168296 -0.24165344 0.68943536 -0.00704385 0.07642933 0.07285892 0.52785981 0.03676084 0.18245617 -0.31075215 0.66199535 0.10746121 0.54904580 0.02515731 -0.40525264 0.21671413 -0.07950617 0.23788615 0.46474332 -0.26332390 -0.25536424 0.25523940 -0.24369308 0.34005910 0.50237006 0.50927824 -0.29997233 -0.08866365 -0.10190739 -0.00181262 0.21236986 -0.01049922 0.19676626 0.35037437 0.37895420 -0.27836686 -0.48180294 0.11629211 0.23142044 0.24651745 0.43068588 0.21610586 -0.10112312 -0.51356775 0.27151519 -0.06008863 0.08059516 0.42574659 0.01877095 -0.28896043 0.45432195 -0.26736182 -0.09930032 0.36450511 -0.17025262 -0.01566962 0.15087630 0.64397442 -0.18182696 0.47900003 -0.17253356 0.21132424 -0.02126251 0.18106474 -0.35287973 -0.27483910 -0.17122425 0.19641429 -0.10689925 0.00697850 0.14373738 -0.19500887 0.40291452 0.69382787 0.27715683 -0.29146793 0.01841324 0.09518576 0.46210435 -0.13041534 0.50407845 0.20580600 -0.42287236 -0.16970141 -0.09803038 0.39283630 -0.09875062 -0.31357390 -0.02058639 0.04688456 -0.11311015 -0.18178390 -0.07765661 0.40362489 0.48014176 -0.21319477 0.15719229 0.41586348 -0.04747539 -0.41006625 -0.46322164 0.31281713 0.32247874 -0.08273970 0.77700543 0.63155836 -0.08632512 -0.31098482 -0.06484847 0.71403742 0.14351597 0.17894532 0.41977561 -0.34598425 0.39775559 0.38803142 0.37554857 0.73942024 0.32363665 0.11457207 -0.02180912 -0.12714367 0.02805733 -0.19884951 -0.52816969 0.50379819 0.20568936 0.29945269 0.15393248 0.32303596 0.06462628 -0.03743796 0.24593182 0.01827768 0.66285467 0.31294996 0.20193596 0.40929323 -0.05489278 0.42626446 0.38861713 0.12188986 -0.21547811 -0.28398144 -0.12036978 0.44438410 0.08494382 -0.18180189 0.50977266 -0.04753094 -0.04204602 0.15243891 0.56983876 0.64930981 0.24072151 0.12865971 0.60795712 -0.07287192 0.78203744 0.04576125 0.12721428 0.36536306 0.30220482 0.90135032 -0.08598591 -0.03220146 0.08225777 0.03814580 0.03923180 -0.15534227 0.06862029 0.43840465 -0.32925993 -0.03337556 0.30019590 0.14087589 0.09946193 0.02328096 0.15184018 0.18785822 -0.08760364 0.44270545 0.08108294 -0.11158258 -0.53120583 0.02758630 0.61506218 0.21874844 0.21128441 0.02461893 -0.29071096 0.72306681 0.28547245 0.09429462 0.50500911 0.46623006 -0.12433562 0.60644537 -0.19923034 -0.23219806 -0.21229465 0.43171942 -0.41920438 0.07002722 -0.04633976
0.15355481 -0.30079755 -0.05470388 0.43170938 -0.11768448 -0.21511409 -0.02991004 -0.06372371 0.31838304 0.31533688 0.09206138 -0.23491275 -0.07394549 -0.16092633 0.58243543 0.13750260 0.51265329 0.01181142 -0.01792285 0.09070867 0.52390051 -0.16967733 -0.11025792 0.07780892 0.04900463 0.44009578 0.00908164 0.52233398 -0.04866975 0.25880823 0.31017363 -0.48438671 0.23822412 0.08265600 0.18544291 -0.39366597 0.95037442 0.13396999 0.31305534 0.05644124 0.04018893 0.80479956 0.32968768 0.17262359 0.64268947 0.26269597 0.16116552 0.27746856 0.05878138 0.19927473 -0.27312115 0.76202875 0.86538464 0.02607461 0.39210907 -0.24786302 0.33659008 0.04309982 -0.16299538 0.68173730 0.85320330 0.55406344 0.05440103 0.13472718 0.26243716 0.01902366 0.09124837 -0.35988244 -0.19585447 0.30328727 -0.10844827 0.33124349 -0.41144589 0.33482325 0.48340952 -0.21818753 -0.05136636 -0.24273868 0.04906926 -0.08122678 0.05672381 0.37706429 0.12559810 -0.22270925 -0.40317184 0.82651514 0.28496271 -0.07710989 0.35002449 0.01943976 0.87433308 0.20014782 0.35148993 0.14600399 -0.13254704 0.69442528 0.01591374 -0.07014921 0.08966915 0.62584078 0.43639565 -0.14422338 0.30733803 -0.19799441 0.58414412 -0.24675755 0.26405326 0.01223046 0.51877105 -0.30631042 0.07389963 0.55175608 0.22847797 0.21594185 -0.01081716 -0.32306525 0.23424944 -0.20164518 0.14856666 -0.08575423 0.03361078 0.20273609 0.15748480 0.00445151 0.31140548 0.30066133 0.03018731 0.12541792 0.53600812 0.02791213 -0.07332558 0.23703013 0.00382488 -0.25502732 -0.04639993 -0.18783981 0.55366266 0.10250295 -0.06997939 0.40080965 -0.03769170 0.37146094 0.46191013 0.20758447 0.13186128 0.13285846 -0.13935754 0.70560843 -0.10964881 0.10376601 -0.07087699 -0.30808079 0.05113865 0.01437600 0.36416411 0.20526630 -0.11695616 0.09190317 0.22116685 0.40191028 -0.06312099 0.57893384 -0.23746401 0.46474957 0.20814544 0.20520081 0.26549828 0.61476266 0.20108268 0.60452980 0.93958932 0.63303041 0.39666095 0.17984514 0.00054407 0.04892147 0.18197896 -0.09396259 0.47414428 -0.42101282 0.17631164 0.42686832 0.14713798 -0.05715029 -0.19236231 -0.19645959 -0.42135575 -0.18183982 0.19535987 -0.15097618 0.03777859 0.51774639 0.30527905 0.40515900 0.86817789 0.22096714 -0.26614207 -0.13421004 -0.28248715 0.13490441 -0.15523455 0.12482362 0.06068054 0.23457840 0.36504266 0.22848748 -0.07697435 -0.05165309 -0.16904838 0.66844690 0.17773099 0.30487305 0.35069671 0.06262950 0.17416447 -0.23486733 -0.09762599 -0.23815238 0.41184691 0.14766900 0.18108338 -0.35390961 0.66738635 0.00191902 -0.08664559 -0.03670105 -0.07177830 0.33201671 0.18314303 0.29421344 0.38062820 0.25989923 0.42682523 0.24729934 0.01586632 -0.12613413 0.66544282 0.11752427 0.46789005 -0.05010400 0.13773213 -0.05102726 0.10689683 0.18824953 0.10763545 0.15188430 0.40660882 -0.27389312 0.42505440 0.04468818 0.38106772 0.80987096 0.04631696 0.29298487 0.01252090 0.05053035
-0.28520560 0.08241840 0.28358516 0.14470357 -0.00814998 -0.00773942 0.04606904 -0.05144455 -0.19201733 0.03226389 -0.05296541 -0.31072968 -0.17643388 -0.15632561 0.20677215 0.11191877 0.31164095 -0.07768606 0.09435690 -0.29173544 0.52005386 0.24078511 -0.18325031 0.07013448 -0.00484687 0.53410441 0.19365004 0.04340888 -0.41292349 0.11062916 0.42986071 -0.19886567 -0.14912660 0.49621010 0.34209993 -0.32676902 0.54717749 -0.08288009 0.24998738 0.25732076 -0.08669940 0.68525296 -0.04679510 -0.56868625 0.33455732 -0.07944074 0.22801970 -0.20927417 0.35134426 0.08202888 0.03554396 -0.01951570 0.03614409 0.01348124 -0.14060640 -0.13087149 0.62956601 -0.31069478 -0.15560052 0.04265707 0.23165266 0.58031362 -0.14404869 0.28341663 0.21670729 0.14486858 0.29432130 -0.05698925 0.42050382 0.37777200 -0.09091409 0.61432821 0.21852176 -0.04100940 0.42861578 -0.02043618 0.20690316 0.38949728 0.56420940 0.40187064 -0.06163897 -0.28586003 -0.06385789 0.08002587 0.05048934 0.51068842 0.89027184 -0.07527038 0.04456421 -0.12875445 0.19967344 0.48225325 0.06818102 0.24832842 -0.02301378 0.42242149 0.56933683 0.18324354 -0.21655476 -0.04446353 0.66520625 0.78466833 0.26229426 0.50258064 0.24345668 -0.26020327 -0.10675079 0.41417640 -0.45747066 -0.13614880 0.22398916 0.24201939 0.05453167 0.09388158 -0.26749691 -0.14617504 -0.37520495 0.15949406 -0.05997044 -0.23179242 -0.15306000 0.44543782 -0.20914811 -0.16822240 -0.16112524 0.43111625 0.14365554 -0.45311221 0.68519312 0.18155479 0.04002775 0.09885046 -0.30016094 0.33491781 0.69611788 0.13734822 0.59838980 0.86099935 -0.08334141 0.25812182 -0.18360125 -0.10554486 -0.06124583 0.55856299 -0.04205478 -0.05025906 0.26231879 0.50454110 0.69519514 0.30887872 0.05886923 -0.15945823 -0.03770276 0.19864863 0.64077765 0.11172881 -0.23279142 -0.06727194 0.28683251 0.34381419 -0.35815939 0.66648090 0.01459364 -0.01192012 0.23090537 0.45363215 -0.09762552 0.70755970 0.11948442 -0.11927234 0.47085273 -0.05677278 0.51767582 0.11404591 -0.08181071 0.55311382 0.82989997 0.09597678 0.58496273 0.13873632 0.02700036 0.14211096 0.01343624 -0.23466560 0.74921364 -0.04661238 0.18723471 -0.02750044 0.06029359 -0.24383582 -0.35440129 0.37332138 -0.06398325 0.66198808 0.37057590 0.10453685 -0.11782881 -0.14079034 0.24601640 0.88395745 -0.14715704 0.18383746 0.31569347 0.48828575 0.34814960 0.18869476 -0.18540551 0.37960139 0.78257138 0.57650524 0.08169029 0.28828260 0.23241755 0.33227205 0.60669357 0.01416650 0.05170205 -0.16008504 0.07244109 0.05589052 -0.27609044 -0.25439644 0.31343138 -0.11073864 -0.04944881 0.27888530 -0.12754762 0.94639981 0.37821507 0.44293228 0.39228463 0.79778349 0.29666024 0.97743624 0.14019603 -0.11992505 0.11578072 0.22446093 0.55909127 -0.10065828 -0.16956542 -0.29361737 -0.08694714 0.48281050 0.09445625 0.17730446 0.50552362 0.47733471 -0.46890685 0.89569998 0.13619213 0.32091466 -0.38767755 0.15847170 0.04349793 0.03664753
-0.53644139 0.44925207 -0.02379620 -0.06203091 0.11669019 0.05414530 0.23665166 0.05020833 0.10398265 -0.01635110 0.47318062 0.58078927 -0.35210150 -0.15753356 0.15436591 0.10626572 0.37595248 0.74168408 0.68110347 -0.01661824 0.36197466 0.43203431 -0.19598851 0.21885605 0.41190711 -0.02713305 0.44520080 -0.39179283 0.11512007 -0.19532166 0.27222550 -0.11921485 -0.24766183 0.26752156 0.26680636 -0.13675760 -0.01181035 0.51301265 0.26758027 0.21398179 0.29493624 0.04262296 0.61601937 0.41466054 0.33846059 0.25321501 0.53223598 0.05733694 0.11812524 0.85496742 -0.18173718 0.01984137 -0.18041582 -0.04363480 0.79834509 0.52843457 0.00079688 0.31206617 -0.33196273 0.60141575 -0.10470176 0.65882975 -0.16757296 0.50705153 0.54421431 -0.13013819 0.40166086 -0.26500320 0.09965139 0.76826012 -0.45353362 -0.65359354 0.09320004 -0.20235254 0.01724970 -0.17970473 -0.39216644 0.16491161 -0.38866720 -0.14720875 -0.02735836 0.05729345 0.12758452 0.49729547 0.17367098 0.15995497 -0.05219212 0.47375178 0.37462336 0.22726865 0.25075355 0.00793209 -0.23148794 -0.12927912 0.37027919 0.38751411 -0.29799461 0.29663494 0.18762659 0.16894816 -0.07021742 -0.03512865 0.15636532 -0.13456455 -0.29328761 -0.17195310 0.30240101 -0.11094375 0.24647838 0.17009400 0.13290411 0.14513034 0.15333687 -0.13445842 -0.28395075 -0.06349772 0.28538415 0.70441455 0.07771633 0.03598819 0.45402706 -0.17432627 0.28380603 0.16739988 0.29760188 0.34346536 -0.19781086 0.26830813 0.00216753 -0.44056603 0.36164629 0.26117119 0.51114452 0.16709201 -0.32832041 0.30727705 -0.07721215 0.05127253 -0.17963420 -0.18984956 0.57530266 -0.21466361 -0.06795071 -0.58501995 0.06497305 -0.05388362 -0.29603782 -0.08742201 0.12588035 0.12080105 -0.23878701 -0.07956316 0.51973975 0.29305166 -0.15986356 0.12407626 -0.27123839 -0.10513712 -0.05156531 0.26893035 0.44385490 0.01995695 0.01791251 0.25869292 -0.19763012 0.44478700 -0.53446859 0.67673451 0.39093614 -0.03073938 -0.36801508 -0.23070438 0.44188809 0.02719894 -0.26435781 -0.19009244 -0.23396330 0.02481031 0.14942311 0.09792806 0.30718812 -0.03367233 0.38876256 -0.49395177 0.14671732 0.45848134 0.26687649 -0.26226246 -0.15513517 0.12092195 0.48279428 0.34596974 -0.12282445 0.31029648 -0.41563243 0.64162862 -0.37173715 0.20178525 0.37682581 -0.25558162 0.46490115 0.22814891 0.45054480 0.12824492 0.59269089 0.27887335 0.04126757 0.87506580 -0.41267309 0.48851883 0.52580702 -0.23667060 0.11296147 0.03039570 0.19326074 -0.29050434 -0.13475442 -0.14861892 0.41119716 0.07844098 0.52858663 0.09031270 -0.02388518 -0.20755051 0.03715260 -0.00813783 -0.13079017 0.09065529 0.44883466 -0.04344129 -0.36598623 0.01044713 0.22647983 -0.04949116 -0.33126196 0.05475727 -0.14643495 0.28484380 -0.08866023 0.42344049 0.40507737 -0.09097870 -0.33412236 0.28053504 0.51548618 0.30290315 -0.18106279 0.14706102 0.48977304 -0.36805198 -0.30312008 0.94430119 -0.04212184 0.08937814 0.05578365 -0.00067583
-0.20019902 0.20773350 0.18206201 -0.14412603 -0.04689659 0.02598369 0.19439274 0.04619880 -0.00705385 0.05305323 0.09493496 -0.05458853 0.22291827 -0.12611498 0.32544261 -0.11098972 0.79280698 -0.39407393 -0.10166427 0.66740054 0.37441367 0.19626495 0.41661438 0.23896360 -0.48234642 0.28315368 -0.04367328 0.46589467 0.26111653 0.46412629 0.18873586 -0.01168531 0.19808047 -0.18349594 0.13404821 0.24987826 -0.13358980 -0.00206367 0.47921354 0.34956798 -0.37176263 -0.03038919 0.37616667 -0.03819760 0.62509000 0.33247676 -0.01113019 0.15590163 -0.19135997 0.78839296 0.03806651 0.03721948 0.27195638 0.31790844 -0.15550815 0.42811331 0.11614706 0.75994337 -0.23638414 0.54234153 -0.37912062 0.84174448 -0.25583732 0.43924412 -0.21568097 -0.16947754 0.00499566 -0.01070959 -0.12500384 -0.11816153 -0.06328725 0.58481252 0.18002106 0.14027312 0.28522056 0.59459400 -0.04740425 -0.25453934 -0.10116425 0.05603201 -0.01994337 0.71224385 0.24333318 0.07288889 0.41166049 0.02420487 0.25539583 0.29709074 0.43647063 0.82433510 0.16638574 -0.11138163 -0.06114681 0.51705050 -0.16800599 -0.10187980 -0.13482323 0.02126724 -0.06126782 0.06814444 -0.14031681 0.14966300 0.17958574 0.25886571 0.22573023 0.05229352 -0.15526219 0.07343338 0.21202973 -0.19036436 -0.16651480 -0.31985825 0.33630937 -0.34142646 -0.20195046 0.20769112 -0.14984581 -0.15595309 0.05315158 0.21618649 0.18166818 -0.32888740 -0.03652528 -0.29827482 0.17329933 -0.13883209 -0.05988379 0.03758349 0.82164288 -0.13799648 -0.42971042 0.36555564 0.17423506 -0.36483124 0.15065476 -0.21704459 0.52616417 0.24233194 -0.01686965 -0.20386435 0.11506381 0.05616387 0.18879527 -0.21587859 -0.17886819 -0.23789221 0.14634156 0.28913870 0.20787743 0.44795993 0.21954860 0.01695112 0.11359069 0.02572392 0.22781996 0.12639286 0.45441231 0.35552591 -0.03474393 -0.07878003 -0.32115826 0.65651423 -0.51073027 0.08721443 -0.33266538 0.44197166 0.01653187 0.59019226 0.76279449 0.11360248 0.46275803 -0.27266976 0.01077109 -0.26640618 -0.21471786 -0.21803969 -0.29871812 0.26598936 0.88547832 -0.28432772 0.68061805 -0.20528212 0.53621316 -0.09897605 -0.16422951 0.03258495 0.13686818 -0.16042376 0.33823383 -0.15223418 0.34650347 0.28745568 -0.30161512 0.05709606 -0.11791169 0.42708299 0.64848697 -0.15414330 0.13733196 0.11804343 -0.49185860 -0.08196439 -0.01220773 0.55360675 0.59162807 0.21172245 -0.08034401 -0.29535198 -0.22720766 0.31267464 -0.21552505 -0.01278793 0.99777621 0.25577930 0.38954520 0.18286875 -0.00054610 0.22328018 0.43131629 -0.15672036 -0.22173633 0.58493328 0.25998741 -0.22179268 -0.04427164 -0.01104546 -0.22903262 -0.34656814 0.49669367 0.42993331 0.19913295 -0.32006419 0.29909593 0.24845833 0.17264108 -0.10418430 0.26633209 0.05618790 -0.30866915 -0.17798603 0.31572503 0.24389257 0.18869960 0.43818617 0.41740662 0.16216284 -0.49702215 0.06683668 0.47731474 0.67208612 0.49990189 -0.36962414 0.05377872 0.24912342 0.13801645 0.04699290
0.39611506 0.03893099 0.52691972 -0.25180149 0.28348234 0.51305670 -0.27251542 -0.05158770 0.18033677 0.29019919 0.42752576 0.40822813 0.45720854 0.16414134 0.32392535 0.06536346 0.23612589 0.61034369 0.50208068 0.06486201 0.03184374 -0.01167111 0.33804592 0.38646632 1.12951076 -0.17353992 0.12302319 -0.26815334 0.09639920 -0.18486464 0.12727500 0.45762369 0.01697784 0.18223941 0.15325534 0.13991326 -0.39690623 0.55698913 -0.09944120 -0.30445910 0.44156700 0.21661641 -0.18036582 -0.12752457 0.03799820 0.16918699 -0.20239125 -0.14612021 -0.01614609 0.40370634 0.16419111 -0.02795995 -0.14149722 0.32656246 -0.34902316 0.00329499 -0.29120171 -0.17934322 0.01081748 0.02747892 0.65570313 -0.01034970 -0.06430281 -0.36589769 -0.32408270 0.34556243 -0.37946063 0.00669988 0.78109682 0.36859223 -0.01795952 0.01288115 0.55558616 -0.26006410 -0.22588246 0.57495618 -0.01316057 0.67034572 -0.04818409 0.49290857 0.06223081 0.10525445 -0.15971455 -0.02299822 0.24068338 0.16888003 -0.11306977 0.60358983 -0.13943574 0.02752547 0.11965491 0.55896777 0.12540211 0.15011321 0.24310538 0.33871034 0.06627425 0.74874032 0.25529575 -0.00661798 0.11762852 -0.19281255 0.06038166 0.75240940 -0.38677511 0.75762296 0.03396187 0.36596102 -0.02559195 0.76196784 -0.10372275 0.08814032 -0.38395256 0.09321297 0.04363235 0.49921104 -0.63656473 0.37970245 -0.32653534 0.70763648 0.41894692 -0.27381843 0.41541284 -0.07855061 0.15558794 0.41160646 -0.02084384 -0.14061517 -0.31416941 0.55404568 0.11297058 0.59358442 -0.20240837 0.19833083 0.39633948 0.51603806 -0.23409225 -0.05991015 -0.27130371 0.46443862 -0.27482292 0.14911486 -0.08059761 0.51620817 0.21561787 0.66188902 0.17761534 0.18055467 -0.09946942 0.23627239 0.20117825 0.83381474 0.42726922 -0.02013582 -0.20320576 0.07863997 -0.26591092 -0.24981764 0.10909272 -0.29849648 0.38182884 -0.02992673 0.90235734 -0.14586800 -0.09618393 -0.35166690 0.20099878 0.04489245 0.09635491 -0.05582001 0.38839445 0.54763007 -0.22915854 0.42572483 0.69829094 0.16515681 0.39167139 0.20738693 0.02885329 0.34595543 -0.02888915 0.04259905 -0.13027622 0.36000913 0.06169759 0.56729490 0.48778331 0.95473468 -0.03871277 -0.02454611 0.59113550 0.10981077 -0.10888948 0.52030671 -0.19459800 -0.12970756 0.76924819 0.25683531 0.00248411 0.50432009 0.19559006 -0.12464320 0.01545938 0.26292300 0.30292755 0.35615778 0.05274139 0.35988939 0.61119628 0.19669023 0.34289765 0.21259506 0.33582175 -0.07101758 0.26634187 0.30019066 0.67520869 -0.03979558 -0.08167127 0.17088324 0.56192976 0.36249077 -0.47954544 0.00545993 -0.08940756 0.29533625 -0.24572609 0.21259980 -0.34191096 -0.01292933 0.08096195 0.27805176 -0.27994668 -0.34901011 0.53024268 0.12184192 -0.38268051 -0.14144589 0.60102719 0.38001475 0.08339418 0.16856657 0.24369630 -0.18131089 -0.24572819 0.14324395 0.19669554 -0.01422685 0.71804082 -0.07882826 0.07405304 0.93684894 0.72602355 0.07519448 0.05947892 0.02489140
0.00411183 -0.35969737 0.45649153 0.05155367 -0.27172327 0.00812312 -0.00182474 -0.02017799 0.05695445 0.00574632 0.28730416 -0.16649245 -0.35777807 -0.41177908 0.31612825 0.07132448 0.48097387 0.35090217 -0.22112477 0.38533384 0.23380998 -0.03035747 -0.27530983 -0.34662971 0.03389384 -0.35088974 0.05182884 -0.37322295 -0.03284955 0.27167901 0.00272373 -0.20956716 -0.10075045 -0.13907771 -0.32392246 -0.53200972 0.43180332 0.24402992 -0.25471783 0.57857221 0.21405330 0.16198003 0.47295758 -0.19649100 0.37856048 -0.23872504 -0.08156797 -0.13621989 0.27030411 -0.02592890 -0.25668788 -0.45170179 0.44860128 0.51441699 -0.35714877 -0.09885285 0.23499884 0.05458957 0.11267041 0.08870070 -0.22629152 0.51385701 -0.07045678 0.33139959 -0.01372297 -0.46865490 -0.02150045 -0.26865467 -0.10989338 -0.22012512 0.22791952 0.51043630 0.29162487 -0.42712522 0.52856189 0.04012752 -0.62016612 -0.32279119 0.05815819 0.19916168 0.06017799 0.14233108 -0.27351549 -0.08026246 -0.14982225 0.18397547 0.02990590 -0.12955870 -0.08467594 -0.19065188 -0.39574650 0.15273039 -0.48827553 -0.20981762 0.08860380 0.59092116 -0.31418252 -0.06002690 0.03192383 -0.48735252 0.11534375 0.72391164 0.40448400 0.57992661 0.46259186 -0.01238585 -0.06852774 0.51598680 0.55772305 0.56271523 0.59871727 0.09132786 -0.14085378 -0.11915876 -0.02860949 -0.01468107 0.48356226 0.13078688 -0.41904876 0.27020726 0.24424787 0.83210117 0.12135269 -0.24382597 0.36049834 -0.54318696 0.09725417 0.36645967 0.38613018 -0.32230327 -0.27777818 -0.49333754 -0.20898484 0.14244153 -0.05270730 -0.31002754 -0.21386817 0.02543333 -0.02908415 -0.30674845 0.36492410 -0.04659631 0.27049187 0.33764040 0.10664998 0.61788219 0.68661380 0.40543008 0.07339633 0.25055373 -0.16118817 0.11412188 -0.03898004 -0.10836782 0.00867415 0.56575114 -0.19599140 -0.18587014 -0.30298898 -0.31974083 -0.38734737 0.26678705 -0.03296293 -0.13988365 0.42368227 0.24168088 0.13676111 -0.02519708 0.17487715 -0.05698821 -0.39508674 0.04124684 0.09457544 -0.23501995 0.05869325 -0.38462400 0.95602888 -0.00622433 0.57152754 0.01923728 0.08331952 0.23945445 0.04866887 -0.07964844 0.35687941 0.53602976 0.39484888 0.60116452 0.33351946 0.27133566 -0.50494069 -0.50281513 0.41258138 -0.05512847 0.21625136 -0.46528789 0.43763527 -0.08237120 0.20805581 0.50564313 -0.38492790 -0.47306120 -0.36880797 0.52236718 -0.07174413 0.32321343 -0.32856950 -0.27686659 0.66336465 0.06277043 -0.20755425 0.10750967 0.08678792 1.06255436 0.42266360 0.22849570 -0.06861467 -0.34147671 -0.02732743 0.02792867 0.05844057 -0.33066916 0.48077771 -0.13629381 0.42751840 0.81340784 -0.39795563 0.42792073 0.21690935 0.70568603 0.80321968 0.45400062 0.05637411 0.03899013 -0.42621839 -0.41241086 -0.19312204 -0.06716451 0.37769595 -0.05402306 -0.41586038 -0.15332833 -0.47983795 -0.17060533 -0.36361453 0.59754717 -0.34841949 -0.01746280 0.21730246 0.09395272 0.25444695 -0.19891708 0.18203990 0.47745150 -0.03818530 0.11284833
0.72452521 0.13361056 0.20862097 0.05718369 -0.17356752 -0.12352470 0.27015251 0.07212410 -0.25949001 0.28877667 0.34123781 0.17292346 0.32783136 -0.05732021 0.19119012 -0.02692939 0.05762276 0.69869012 0.06329826 0.65450913 -0.35584247 -0.08458082 -0.23440646 -0.63905036 0.27112669 0.03194807 -0.15754960 0.08063248 -0.03411526 -0.13520195 -0.02219746 0.39297983 0.50345188 -0.02926518 0.46569243 0.37462708 0.32700539 0.20006295 0.03726337 -0.11840311 0.26105604 0.47812033 -0.18579003 -0.03713746 0.37564075 -0.09260366 -0.08111189 0.39573514 0.35162982 -0.17936134 0.82130474 -0.19469745 0.04760480 0.35853094 -0.04105227 -0.16912304 0.76924366 0.53476202 0.47170645 -0.13053367 0.62546074 -0.34863308 0.09630001 0.19488086 0.10845440 0.58130920 -0.12195887 0.28826538 0.45728895 -0.26263145 -0.20557040 0.73671657 0.06506865 0.19233377 0.30030566 -0.30137259 0.58489972 -0.01701383 -0.02990100 0.51126802 0.14952159 0.06884576 -0.10447124 0.31316945 0.53311360 0.37676260 -0.12093309 0.90228826 -0.21237843 -0.11231480 0.20965846 -0.43746680 0.62048614 -0.10231194 -0.06901587 -0.38574004 -0.13474406 0.08414315 0.72743458 0.27896121 0.18785766 0.52657813 0.29664114 0.01867372 0.13065913 0.92051184 0.28173855 0.63932621 -0.20415673 0.11998408 0.28063396 -0.03102114 -0.11414695 -0.18874486 0.31378946 0.21280208 0.29831678 0.07472269 -0.12564635 0.00755884 0.24653697 0.33315903 0.27066976 0.43603432 -0.16433647 0.01368925 -0.03881873 0.49133229 -0.20126036 0.18464510 0.03419677 -0.12012154 0.57346916 0.70485348 0.10157531 0.79620218 0.19698435 -0.12438609 0.40332457 -0.19877306 0.56577319 0.44735479 0.47762877 0.43889144 0.45611030 0.26362190 0.06501447 0.27335787 0.02718269 -0.27041945 0.71634316 0.59077799 0.45862234 -0.04458570 0.15665191 0.09212730 -0.14900507 -0.06681310 0.45666713 -0.35042626 0.36296335 0.03423310 1.01930392 -0.21146110 0.60422927 0.33740175 0.42303529 0.50762588 0.30415177 -0.00651620 0.61704111 0.31415921 -0.18900944 0.43019229 0.21028069 0.13577089 0.20745763 0.36280915 0.43500081 0.06221656 -0.43267637 -0.18095694 0.35136080 0.39637440 0.17196018 0.37158769 0.81840765 0.49247944 -0.05574153 0.37529096 0.04377063 0.45197618 -0.24399357 0.52079922 0.59681988 0.16570741 0.71299219 0.13409105 -0.08117133 0.38620803 -0.06027539 0.36610991 -0.15219697 -0.17555773 -0.03925623 0.00046624 -0.17159149 0.25300014 0.18450128 -0.37190908 0.24785493 0.00815535 0.34146222 -0.13363041 -0.10539800 0.51557690 0.27828023 0.48664874 -0.12135205 0.15642157 0.14152607 0.26604581 0.43931445 0.26728556 -0.11369999 0.11897437 0.24697356 -0.09309272 -0.27493134 -0.34008348 0.54665935 0.24045675 -0.36318329 0.04264970 0.31580240 0.53914082 0.36871439 -0.33997241 0.17209195 -0.10308114 0.36237279 -0.26338002 0.73346847 0.32917091 -0.02936311 -0.15199472 0.58613449 0.16838400 0.25903457 -0.05310906 0.67757261 0.29648924 0.00112663 -0.08753034 0.09037141 0.04978810
0.67005914 0.01292320 0.19558604 -0.08098377 0.05780750 0.08799832 -0.32762831 -0.04744355 -0.07311947 0.17970581 0.38281474 0.68593818 0.33309767 -0.06012404 -0.19206339 0.60232806 -0.27042621 0.58953416 0.32056120 0.16820878 -0.07528756 0.09255614 -0.28204530 -0.28151143 0.04013181 0.02699850 0.28242144 -0.32725441 -0.07377908 -0.39729398 -0.05838642 0.16801932 -0.03831682 0.39363983 0.16469996 -0.24518616 -0.26082164 0.09140418 0.63612622 0.48491299 0.27139878 -0.31264350 -0.18243401 -0.23515226 -0.24888098 0.21835062 0.15129121 -0.16587099 0.37016982 -0.04678110 -0.21090473 -0.12888569 0.48560700 0.56004959 0.57045954 0.26750076 0.37469041 -0.30762962 -0.05025030 0.33041134 -0.37473333 -0.00056269 -0.13647485 -0.22058354 0.04835723 0.35152447 0.05560752 0.02301041 0.38420740 -0.37288323 -0.01294305 0.41627601 0.46143153 -0.02324017 -0.15238588 -0.30598849 0.32074702 0.19250107 -0.52631599 0.13542087 0.08781114 -0.13882481 0.07122809 0.37871683 0.03663886 0.29576308 -0.39674291 0.01055694 -0.18427677 -0.07864358 -0.08397558 0.48585933 0.18789943 0.44665015 0.43267846 0.09697135 -0.15753061 0.08659644 0.17576790 0.27978736 0.64554161 0.11134664 -0.21013331 0.50567001 0.02163525 -0.40321732 0.21409959 0.56079656 -0.34833199 0.20192535 0.10381789 0.25376895 0.20144890 0.34353641 -0.35139734 -0.15974012 0.53121895 0.08057665 -0.24776605 -0.10713170 -0.31780380 -0.01325675 0.39419386 0.00381250 -0.13280995 0.52639514 0.51728040 0.58519953 -0.24339879 -0.31097785 0.39670059 -0.43026420 0.73249668 0.65289158 0.72605777 0.18046354 0.53863531 0.25158009 -0.13050587 -0.50169384 0.48989317 0.01943122 0.45012364 0.32667395 0.18482661 0.71755773 0.52267522 0.50414026 -0.28079501 0.10439564 0.12990597 0.95664501 0.70193022 0.34077328 0.14661466 -0.01121010 0.01587390 0.18164968 -0.04781209 0.16756208 0.28895453 -0.40931520 0.68187535 0.34872675 0.77571476 -0.24281077 -0.10906387 0.49756488 0.19246806 0.28021052 -0.07973745 0.00064199 0.69706756 0.12266115 -0.10617148 0.65864497 -0.12132668 0.38160351 0.36523569 -0.04724733 -0.20920777 -0.44310808 -0.18649139 0.24135877 0.67415154 0.06387187 0.39255551 0.75637442 -0.02084981 0.47908077 0.32924566 -0.04927632 -0.19715552 0.12875293 0.13637836 0.06054648 -0.11291435 -0.03580450 0.14930768 0.65210819 0.51195592 0.05640116 0.22269915 0.14610152 -0.26834503 -0.32754171 0.18116412 -0.25166622 0.52386820 -0.40880945 0.30238757 -0.12410170 -0.24235995 0.14027716 0.07952843 0.01869000 -0.37488440 0.26800141 -0.47072396 0.11528341 -0.01117552 0.00765945 0.09491804 0.29378548 0.42389348 0.10440190 0.06592995 -0.00777018 0.35725880 -0.12482319 0.34222853 0.48286340 -0.49418014 0.34580755 -0.52109915 0.29358792 0.47467569 0.16644688 0.10757937 0.35455644 0.11988346 -0.09935668 -0.38858238 0.25022671 -0.00451392 0.23340534 -0.12064671 -0.00575165 -0.12976988 -0.24468040 0.27355215 1.00038922 -0.33723620 0.05533232 -0.07188491 0.08800852
0.39122790 0.51043290 0.04324204 0.17407060 0.96058822 0.18684673 0.53895450 0.06183405 0.41975701 0.13346440 -0.06130998 0.50719535 -0.18397926 0.36060473 -0.40388569 -0.11199692 -0.24135195 0.53627604 0.37735739 -0.21186234 -0.16279148 -0.24407163 0.09774063 0.91388595 0.65173286 0.00102520 0.09255083 -0.18264650 0.29786700 0.40924466 -0.17911932 0.12905568 0.04366820 1.05100501 -0.19473974 0.50736660 0.85736632 0.43972102 0.42721877 -0.30037889 -0.02471814 -0.19601870 -0.13254869 -0.34212604 -0.22941457 0.31520349 -0.02913680 0.07512856 -0.33769473 0.33804658 0.65479583 -0.20286751 -0.17624846 -0.04945795 -0.22000214 0.26894507 -0.30884394 0.03130904 0.82633322 0.11704850 0.84858930 -0.07677372 0.30495533 0.03707284 0.93762642 0.59940565 0.39975634 0.14913201 0.53979516 0.18191457 0.09631470 0.07680774 -0.02966320 0.40067750 -0.27248135 0.13092226 0.29840046 0.00525987 -0.15546007 0.56033003 -0.02607662 -0.37557998 0.72796315 0.12696815 0.14207274 -0.10524800 0.22933273 0.22414671 -0.16128454 -0.13298087 0.12638544 -0.28345680 -0.17890893 0.23398817 -0.08429524 0.05724343 0.07637642 -0.31698200 -0.07610928 0.05046970 0.81213570 0.11958169 -0.40641984 -0.39754403 -0.24635075 0.16566125 -0.08948721 -0.27513960 -0.19344050 0.49456778 0.30867001 0.39859655 0.52293390 -0.39242178 0.08617758 -0.39898190 0.28425804 0.53720903 0.25115672 0.28288728 -0.19644399 -0.20807090 0.11673126 -0.08265171 0.41758674 0.02209690 0.49772167 -0.00469403 -0.25243941 0.54357415 0.52293950 -0.11122230 -0.04897325 0.69577008 0.08882513 0.30842364 -0.07943290 -0.00116367 0.33221030 -0.17528543 0.07113402 0.29271272 0.26629639 0.03323027 0.30050680 0.93232179 -0.32711834 0.07068899 -0.06823515 0.07473460 -0.12315587 0.22023462 0.07557547 -0.30273730 -0.22929084 0.15857543 0.01376474 0.28155732 0.34898525 0.01463249 -0.05550572 -0.41244221 0.41541931 0.49109480 -0.37294227 -0.23232007 0.38141736 -0.19956416 0.37808043 0.45663777 -0.35231438 0.11736129 0.34648505 0.47875118 -0.13671127 0.20925887 -0.00184269 -0.03918344 -0.41340315 0.18791623 -0.49508980 -0.06485505 -0.16423191 0.42374277 1.01854002 -0.18909034 0.71623421 0.09345325 -0.06484398 0.80834228 0.27094203 0.24632946 -0.28899193 0.37158731 -0.04620910 0.21615121 0.05153130 0.52738523 -0.36479867 0.15609895 0.89178735 0.26078898 0.11883972 -0.39256734 0.09295540 -0.05963731 0.05418814 0.20651875 0.40289611 0.09497826 0.41105446 0.27923906 0.44538319 -0.18556601 -0.06207271 0.15859814 0.31671005 0.35210401 -0.09422443 0.04079273 0.46451154 0.60123086 -0.20935234 0.76414537 -0.46946922 0.12668206 0.24940906 -0.14048743 -0.11310448 -0.26441070 0.16899998 0.43967232 0.75017565 -0.00721331 0.64144182 0.59147650 -0.06300001 0.16961642 -0.01138393 0.40922353 0.20308371 0.26014867 0.83784831 0.03787966 0.43381494 -0.15940607 -0.16820972 0.02241269 -0.58789164 0.52161688 -0.12002040 0.23395233 -0.14388596 -0.44022661 -0.02961760 -0.00003137
-0.15515129 0.30978227 0.12473497 -0.27043715 0.31128469 -0.19109757 -0.43981740 -0.00429646 -0.57728994 0.51347107 0.02774762 -0.01333212 0.26527110 -0.11152030 0.06755599 -0.29485536 -0.50883186 0.04573401 -0.46467748 -0.30443951 -0.30480790 0.41422257 0.20317182 0.23561458 0.38128379 0.16974157 0.04721108 -0.00523965 -0.26636511 0.25293222 0.26842654 0.53597194 -0.51185304 0.28927875 -0.23666282 -0.04947295 0.11157712 -0.07608736 0.02543210 -0.06702587 -0.03809520 -0.13473473 -0.08365002 0.28170875 -0.15313540 -0.16218629 0.40234360 0.04377570 0.17290796 -0.01677182 0.75334525 0.38030243 -0.26922134 0.17137441 0.36330628 0.11364380 -0.09820512 0.16265668 0.23911110 -0.63961488 0.38307601 0.05834102 -0.09865827 -0.12606011 0.33156672 0.12567545 -0.46476892 0.59513116 -0.14720061 0.69099885 -0.07078251 0.18407367 0.53165394 -0.66815555 -0.05966912 -0.41680726 -0.03780836 0.61790252 -0.18256089 0.61333174 0.01862597 -0.40640572 0.52799809 0.29954013 0.38098511 -0.24677221 -0.40219167 0.17611364 -0.19022921 -0.18209945 0.32839736 0.47415563 0.25777408 0.02966838 0.33670738 -0.42243242 -0.03504083 0.37870330 -0.58091277 0.94417268 -0.02431520 0.07051112 0.10710263 -0.26709947 -0.24094975 0.13032177 -0.56019557 0.16618754 -0.71812850 0.42125005 -0.04056906 -0.05880252 -0.43189010 0.23555787 -0.45510471 -0.33393958 -0.06145199 0.67452824 0.61889809 0.27859613 -0.08150298 -0.30962628 -0.38906342 0.36558649 -0.24517924 0.81618595 0.21929204 0.47950980 -0.31675768 -0.11834211 -0.66298372 -0.38520807 0.04826271 0.29225442 0.01521001 0.59065753 -0.11755818 0.09104723 0.13003269 -0.03097345 0.40929025 0.03618979 -0.15135562 0.25002435 -0.37582067 -0.28670722 0.28485760 -0.22462843 -0.44457287 0.27429059 0.28145996 0.02143043 0.10411020 -0.01808713 0.55309868 -0.17478660 -0.36377031 0.37134716 0.28790227 -0.12222625 -0.27748489 0.03340324 -0.05778224 -0.43425429 0.00709065 -0.37549868 -0.07585827 -0.16398156 -0.35693240 0.33351797 -0.24274057 -0.21497579 -0.64993173 -0.09088169 -0.01444618 0.26188052 0.13048217 -0.29201937 -0.06630131 0.13712503 -0.21481127 -0.49307650 -0.63647610 -0.02379400 0.12682700 -0.05028567 -0.17207375 -0.26820263 -0.29931259 0.16507889 -0.03774754 0.38551602 0.61623389 -0.50665700 -0.34297475 0.08257084 0.25504592 0.44094718 -0.03164621 -0.01192833 -0.12415613 0.06916120 -0.56983387 -0.18225969 -0.15813272 0.23787855 -0.31760660 0.20344876 0.46936715 -0.36573371 0.11866218 0.04851669 0.12908201 -0.00693442 -0.30909732 0.13375850 0.10571471 0.12694736 0.26101163 0.13908553 -0.06078336 0.68952656 -0.03904706 0.40347803 0.12730689 -0.05771021 0.05266153 -0.27904767 0.07892928 -0.22891876 -0.47545636 0.22595856 -0.43819439 0.14713323 0.03363415 0.52210885 -0.32390794 -0.45646214 0.37577549 0.06024344 -0.26178998 0.48801720 -0.54417229 0.11527183 0.25910407 -0.49551901 -0.29585037 -0.01299541 -0.32097101 0.09617466 0.27155423 0.60139179 -0.26556471 -0.02649907 -0.01203083 0.02746324
0.20035601 0.23832022 -0.41066283 -0.35825539 0.07689729 -0.12019601 0.42777541 0.07602976 0.04353044 0.16103636 0.36325207 0.47896272 0.33447117 0.52128875 0.14055315 -0.32859063 -0.38688806 0.30265966 -0.07619511 -0.21664707 0.15040722 -0.12783669 -0.24274236 -0.08987764 0.20685978 -0.44314200 0.45151541 -0.00195958 0.20319626 0.15901467 -0.32676059 0.25940934 0.21561863 -0.10117514 0.44926205 0.28390774 -0.05097510 0.44906726 -0.01942730 0.21004124 0.04350154 -0.14752616 0.23247816 -0.35995507 0.55015343 0.14976662 -0.24350007 -0.28478420 0.01863881 -0.07356110 0.46266279 0.13867030 -0.20444325 -0.27298573 -0.46358293 -0.27008662 0.13302015 -0.28399920 -0.06239355 0.03504853 0.55888319 0.39126909 0.51679027 -0.25895482 0.41774881 0.49585959 0.13977098 0.62358499 0.75135195 0.27793044 -0.08937726 -0.06221648 -0.17489031 -0.00884505 0.04108093 0.75778109 -0.14052252 -0.61920547 0.34726170 0.46114463 0.00892368 0.34825197 -0.41951656 -0.07505930 0.09622756 -0.34744671 0.31937933 0.39576441 -0.33976582 0.23593269 -0.10653313 -0.10595016 -0.16256759 0.45000142 0.27434301 0.16182484 0.25029516 0.27547306 0.20608819 -0.53632224 -0.34150836 0.15624170 -0.00665205 0.18535773 -0.16929133 0.49993184 0.13312744 -0.06266578 0.12231231 0.20863526 -0.06993974 0.26580235 0.14448506 -0.44823101 -0.12304873 0.50073177 0.03329590 0.09305530 -0.57744360 -0.14483640 0.81409419 -0.22511159 0.69043636 -0.13648254 0.35917050 0.04806291 0.19394577 -0.07151060 -0.35778219 0.23008539 0.24911404 0.05628804 0.09026395 0.73258185 0.02795782 0.71542031 -0.18276949 -0.44446114 0.18703744 0.24509418 0.09022882 0.34027204 0.28399527 -0.16610807 0.15873265 -0.17783761 -0.22560260 0.24591456 -0.18055850 -0.00229885 0.50046563 -0.03033781 0.16816382 -0.57730997 -0.03673568 -0.23833005 0.22872862 0.16894308 0.27640167 -0.21324055 0.07680427 0.62010521 0.76539302 1.01494873 -0.04859864 0.24400039 -0.05974980 -0.16289154 -0.34169042 0.29745260 -0.02397220 0.42952782 -0.18830450 0.04950349 0.49122548 0.25030008 0.23226069 -0.28037614 -0.44032630 0.17283562 0.42086858 -0.12987636 0.05656416 0.06012818 -0.23307925 0.44138610 -0.12570012 0.23976544 -0.42240378 0.07072265 -0.10248246 0.00801315 0.15852918 0.13175122 -0.32376829 -0.03529502 0.47696570 0.65370077 0.37437496 0.42452538 0.13661936 -0.19736345 -0.12915242 0.74669015 -0.19134089 0.16370730 0.17202188 0.01793710 0.40124673 0.02578912 -0.13200399 0.52594000 0.19120100 0.09653323 0.12483390 -0.08347830 0.07309937 0.57479274 -0.33803120 -0.30316254 0.54954195 0.04873159 0.44642508 0.08086389 0.13847154 0.33413497 -0.07193212 -0.33722538 -0.20377408 0.22235981 0.37362024 0.12755843 0.59924030 -0.12244541 0.42937478 0.26890504 0.41269583 -0.05105431 0.08516502 -0.20155519 0.14604412 -0.26494256 0.54528689 -0.12987688 -0.40958923 0.39498723 -0.20541050 0.39901012 0.84471977 0.67784226 -0.30505386 0.39872056 0.57968235 0.11051259 0.05758521 0.11949385
0.21295598 0.16408899 0.21066432 -0.09474322 0.28527787 0.12810734 0.34656835 0.08770208 -0.16789934 0.23360625 -0.45758787 0.04084608 0.11407790 0.17476098 0.10970131 0.05195942 0.11931309 0.59638226 0.34053051 -0.09659116 0.21249565 0.24621640 0.32856405 0.27340621 -0.07103443 0.34088081 0.15919261 0.23149630 0.06538723 0.07099172 0.31623867 0.34234548 -0.08114078 0.07016138 0.70324939 -0.20876342 -0.04173146 -0.30038333 0.18128070 0.49959531 0.38678378 -0.20991746 -0.10930219 0.81546092 0.11237471 -0.24922350 0.21541709 0.04735341 0.38250202 0.18634039 0.58311749 -0.35462987 0.14030077 -0.05040621 -0.21880630 0.19092391 -0.06874845 -0.15869288 -0.07788510 -0.23262559 0.03957672 0.71966916 -0.25771362 0.06917644 -0.03561113 0.47089174 -0.14235704 0.17461698 0.14530259 0.57436585 -0.22123896 -0.43241388 0.25369683 -0.11074185 -0.16960947 0.26439819 0.36089140 0.09562574 0.27307752 0.10822092 0.05790273 0.32715282 0.04463958 0.28569037 -0.04101726 0.51712883 0.19975944 0.26893783 0.00144407 -0.14485475 0.25199687 -0.00162745 0.07937843 0.17079055 0.44559318 0.02381488 -0.21882877 0.33280107 0.15999591 -0.30156261 -0.55933106 0.19455136 -0.22063310 0.77491409 -0.41269314 0.49054360 0.26648185 -0.22541101 0.39262855 0.24767579 0.92548674 0.04901880 -0.20246316 0.20935774 -0.25315762 0.05166034 0.61257577 0.38933656 0.20187779 -0.11346866 -0.03351320 0.39903417 0.29713696 -0.11126364 -0.09967875 0.58136982 0.11467742 0.07938936 -0.21097068 0.09556349 0.02551213 0.26316193 0.35376239 0.46248212 -0.21872056 1.07913470 -0.42319077 -0.18935300 0.72388005 0.25869974 0.29614368 0.35237253 0.38023308 0.10029057 0.37128544 0.32926810 0.44773474 -0.25608864 0.34334606 0.13647655 0.55778497 0.54305440 -0.22614878 0.21937931 0.68493712 0.39051932 -0.26456872 -0.40673393 0.20129785 -0.08429616 0.60046059 0.46545881 0.25804746 -0.12346035 0.44934848 -0.09222388 0.22247492 -0.03074526 -0.17159079 0.46450731 0.57611835 0.15171979 0.02052808 0.37506810 0.66351664 -0.21061260 -0.35599655 -0.21759707 0.83013332 0.12276191 0.49681452 0.62542230 0.16695008 0.48908448 0.49127614 0.14575264 0.08109792 0.46279886 0.08201939 -0.21062669 -0.00960173 0.05015162 0.05602882 -0.16080680 -0.10455802 -0.27315202 -0.02931614 -0.16133554 -0.20560209 0.43922704 -0.04403046 0.08457618 -0.15093808 -0.20177962 -0.26669240 -0.16826610 0.41606840 0.16830669 0.38629678 -0.38945350 0.07682844 0.25610355 -0.19009957 0.68942529 0.00390303 0.67724222 0.71755195 -0.24739042 -0.28135043 0.00545228 0.09233193 0.17683946 0.36065093 0.25259343 -0.17896092 0.03979218 -0.44007587 0.03056006 0.10012978 0.29662424 -0.35975507 -0.30881631 0.46192420 0.17801642 0.90278435 0.04926482 -0.49220589 -0.17762367 -0.51533210 -0.09389511 -0.14496291 0.74315590 0.55838841 0.26251242 -0.17017782 -0.44182733 -0.17564730 0.19008546 -0.28927782 0.36312178 -0.07820919 0.74767351 0.75154603 -0.46101046 -0.04568108 0.03151659
0.50383836 0.26096421 0.51783180 -0.04852242 0.14521728 -0.22876610 0.51853234 0.14149645 -0.08514376 0.44249651 1.08532882 0.33114317 0.11304687 0.01034269 0.34001797 0.86733812 0.68485355 0.06007618 0.65462536 0.23608182 0.38783291 0.23427396 0.21964765 0.07074286 -0.02854450 0.20588119 -0.21099305 0.07939783 -0.13363588 0.05923150 0.68452317 0.55339080 0.11015392 -0.05474310 0.05768282 -0.14490834 -0.07526141 0.31738201 0.11868279 0.55466807 0.17093426 0.38824889 0.41942567 -0.14426289 0.10269703 -0.03572890 0.12304913 -0.07125517 0.28286505 0.53018272 0.00689801 0.33168811 0.45193130 0.35729757 -0.11341199 0.13087638 0.34345955 0.06634789 -0.08265456 0.92640924 -0.15651414 -0.07862039 0.18223841 0.47515216 -0.45620286 -0.16180868 -0.11798916 -0.01963045 0.72858018 -0.08182558 0.17476679 0.26293558 0.19078428 0.67329729 -0.04654997 0.15912960 0.28752920 0.11503009 -0.02460860 -0.08938037 -0.00048303 0.11637570 0.24961793 -0.12738632 -0.03295096 -0.04532396 0.12673892 0.55174541 0.59051752 0.45042735 0.32109192 -0.11672513 0.22223927 0.55679518 0.24229169 -0.22261073 0.06983394 -0.06187375 -0.16452463 0.17160395 0.01153796 0.05726684 0.37690502 1.17676687 0.03848159 0.29837197 0.10684219 -0.06657556 0.27664062 0.00897101 -0.21672867 -0.14101213 -0.10531790 0.12403801 0.42233050 0.46351227 -0.13430922 0.02538913 0.00639225 0.33822665 0.58210880 0.75079018 -0.18997665 0.03070172 0.20592719 0.21157593 -0.12472673 0.01742242 0.57014871 -0.05491281 -0.11106560 0.02975846 0.94871986 0.25260073 -0.06409619 0.12321220 -0.04049309 -0.24466507 0.17401502 0.48692778 0.14933501 0.07352486 -0.27695036 -0.22453618 -0.03257615 1.00303292 0.06138095 0.36911634 0.18632987 0.56136739 0.31640741 0.07029726 0.29476970 1.09653878 -0.06919476 0.01417841 0.61536217 -0.09543378 -0.21426080 0.17768022 0.70758837 0.31351799 0.11763731 -0.22926070 0.17017344 1.19088852 0.01883369 0.64941055 0.18329710 -0.06170987 0.11887313 0.35630664 1.03567326 -0.19519107 -0.12247348 -0.09157891 -0.32354420 0.41641477 0.38726267 0.01501122 1.06649458 0.35886890 0.61458695 -0.19100720 0.15405060 0.72560173 0.35722566 0.05279407 0.49259850 0.04296398 0.55939776 0.20216326 0.07080433 0.13461578 0.25293833 0.14164500 0.10299902 -0.21111839 0.09704670 0.11510637 -0.12390719 0.11952923 0.72411495 0.13104101 0.37112615 -0.27840367 0.01730383 0.49601033 0.47689679 0.61367780 0.08048145 -0.19987352 0.96504498 0.09601297 -0.06210897 0.36925733 -0.07000907 0.21500815 0.21835172 0.65178251 -0.08639558 0.71896195 -0.08373056 -0.19635114 0.06851882 0.05431713 0.11633234 0.82533169 0.25124922 -0.01467470 -0.03953724 -0.27831784 0.82614744 -0.07120679 -0.14454955 -0.15294458 -0.01809038 -0.00379428 0.05260686 0.44081917 0.28128386 0.31935200 1.02012658 0.16934027 0.06215442 0.34452423 0.20728251 0.04177562 0.69850701 0.75360799 0.40929681 1.21941221 0.37742642 0.25224221 0.12828511 0.09979642
-0.13830827 -0.09814334 0.16577920 0.60044062 0.48094660 -0.07245096 -0.31413862 0.07938331 -0.16378839 0.29846346 -0.12792303 -0.35934231 -0.03453223 -0.15463381 0.52586842 0.17684437 0.68917239 -0.19827908 -0.37626529 0.56975788 0.35684904 0.04777445 0.17399415 -0.33313453 -0.13389200 -0.17853378 0.12058640 0.33612561 0.39346740 0.18353771 0.65023124 0.51894909 0.64601028 -0.16962180 -0.03832651 0.11686394 0.05577668 0.23529023 -0.47477821 -0.00557462 -0.08179242 0.37932539 0.59542251 0.12005623 0.67424226 0.00055777 -0.15213354 0.04318526 -0.18711312 0.60295457 -0.29305464 -0.21467716 0.23118737 0.36669928 0.14750201 0.02313487 -0.12697735 0.00998963 -0.16073029 0.47618490 -0.06375048 0.27385652 -0.16299120 0.52241695 -0.30053273 -0.08114953 0.39973876 -0.14719786 0.11917304 -0.00159816 0.12216049 0.81150109 -0.31911466 -0.25245723 0.08770922 0.71316332 0.70174336 0.04712263 -0.05147159 0.06460292 0.06953083 0.56382990 -0.15640043 -0.10530068 -0.19883247 0.21691838 0.27567422 -0.21004991 0.39689043 0.05299360 0.67259061 0.04769959 0.11004939 -0.09720558 -0.21886873 0.49598417 -0.33543977 -0.19782870 0.43997559 0.06119414 -0.02238910 0.43800741 0.23912165 0.63121581 0.38377449 -0.42737812 0.00498689 0.01884271 0.29734489 -0.42431855 0.47880173 0.25888973 0.35972857 0.07837049 0.41175330 0.05527741 -0.27860299 -0.22093055 -0.17336950 0.43939504 0.18563494 0.39604619 -0.50736493 -0.00394606 0.17766167 -0.44971412 0.19964622 0.58830833 0.33070347 0.08400530 0.17812629 0.35362124 -0.30513552 -0.21507558 0.24381970 0.23071492 0.36900571 0.28712183 -0.09730791 0.13506457 0.10679775 -0.19223027 0.01688863 0.07445580 0.00630680 0.49292403 -0.22696933 0.34933078 0.01450772 0.28468290 -0.20207250 -0.17038870 0.42653590 0.51942307 -0.26854119 -0.08483182 0.46868584 -0.26758838 -0.12430863 -0.47773698 0.35059771 0.59833026 -0.12094880 0.45907027 0.02205230 0.66089815 -0.03937953 0.50633281 0.65396553 -0.02688588 0.48353729 0.73544574 0.73359263 -0.38035381 0.06769081 -0.24509302 -0.16955867 0.36194381 0.72286147 0.03607880 0.53901136 0.54354501 0.74622923 -0.05846170 0.04816042 0.01848450 0.00075486 -0.03994785 0.38075790 -0.48839232 0.31379879 0.23709172 0.78475171 -0.31335250 -0.31540501 -0.03168351 -0.21296833 -0.15342085 -0.20366089 0.04372535 -0.11863573 -0.33750403 0.07350040 -0.20018695 0.32320890 0.51945490 -0.25477394 0.18470910 0.11518744 0.56677467 0.30406469 -0.14668499 0.44242078 0.05929544 0.41893807 0.43499455 0.01297174 0.57182783 0.24675791 0.02652230 -0.61374199 -0.20286894 -0.25625324 -0.01813861 0.00760715 0.29074168 0.05285164 0.12982845 -0.66059279 0.23380217 0.62029737 -0.35624063 0.17858745 0.14589676 0.48418128 -0.36294928 -0.20570356 -0.48502061 0.05273485 0.49130732 0.27423680 0.45200753 0.45257810 0.51246160 0.06736954 0.70355237 0.06637479 0.13674279 0.37044740 0.67911893 0.24252482 -0.53717583 0.23832758 0.41702852 0.06689408 0.01737901
0.21579823 0.59948641 0.27332950 -0.16193961 0.14712867 0.35699478 -0.02836791 0.02831592 -0.49954841 0.13459341 0.95678467 0.02060396 0.80923027 -0.04490478 0.15037559 0.45411974 -0.51311481 -0.19644779 -0.04328683 0.41096920 0.09898702 0.22806036 0.29874235 -0.16881843 -0.40622333 0.50349337 0.28821242 0.30153292 0.30947393 -0.31847236 0.26388261 -0.12633847 -0.00593341 0.24248439 0.35271001 0.27642682 0.35669094 -0.02212366 -0.19808449 0.16299869 -0.27551636 0.36567813 0.03744563 0.10696604 0.30120227 0.53136420 -0.17628855 -0.20213084 0.63415158 -0.02680796 0.20734720 0.02801797 -0.09228711 -0.10376005 0.50208855 0.17516197 0.36196190 -0.46538827 -0.17964154 0.46980840 0.42494029 0.23729721 0.24502526 -0.24893607 -0.24128808 -0.13633050 -0.05991738 0.19955879 0.02123125 -0.13252722 -0.17650267 -0.08038797 -0.16086268 0.29099020 0.30702931 -0.03572854 -0.00999128 -0.21956024 0.06745381 -0.33078995 -0.00721576 0.04939295 -0.00243351 -0.37344229 0.43390745 0.05468684 0.15083751 -0.12225236 -0.26349363 0.56990194 -0.14479819 0.21135251 0.51121223 0.80972630 0.15637058 0.16005665 0.28680065 0.15420364 -0.26038983 -0.45225403 0.63831925 0.58369827 0.00442906 0.17348203 0.06436542 0.01897507 0.43534273 -0.26540715 -0.04408953 -0.33746281 0.01475639 0.40807244 0.64603394 0.19195363 0.06328408 0.35087210 0.59554559 -0.06173003 -0.11443792 -0.05661046 0.10587472 0.47253528 0.13423994 0.12913270 0.27330685 -0.23148359 0.00028264 0.53392947 0.30690226 -0.17684413 0.44251010 -0.23592770 0.84627587 -0.11030899 0.41156965 0.38023227 0.14753234 0.32348201 0.59140021 0.13734084 -0.01827982 -0.18781365 0.42537251 0.06368423 0.26367402 0.20772617 0.49834505 -0.21198291 0.10185899 0.05007970 -0.07364789 0.75890243 0.54726928 0.06163754 0.22446394 0.29186040 -0.19887446 0.58326638 0.80526865 0.36354095 -0.14448230 -0.02385293 0.03210513 0.58030927 0.30581665 0.52436590 0.20157331 0.02109523 -0.22146395 0.62208307 0.64557362 -0.08201417 0.62416047 0.22962619 0.43907171 0.11444007 0.14181451 0.37624791 0.54408693 -0.14617674 0.04197554 0.26747489 -0.06882500 -0.32331026 -0.18672512 0.49404550 0.53874588 -0.06516485 -0.26275790 0.05962820 -0.05409331 0.17536885 0.11789136 0.27859721 0.17805764 0.57891631 0.29238862 -0.06236624 1.01459813 0.13217303 -0.22816348 0.28305304 0.67127031 0.46299973 -0.48373663 -0.20764734 0.13236971 -0.21711533 0.15452096 -0.09129272 0.12262205 0.88042539 -0.18007973 -0.17263210 0.06530782 -0.11933562 0.21281840 0.07927977 0.43214479 -0.01823716 -0.24256480 -0.20234093 -0.16606763 -0.29546961 0.17955090 0.04128509 0.03862617 0.13146347 0.23366533 0.28113270 -0.30206442 0.58495075 0.10442984 0.24700613 0.28237268 0.01617178 0.09535637 -0.03886724 0.55609673 -0.30340591 0.31252399 0.36764491 -0.19821766 0.11205657 0.19343665 0.09540051 0.09603645 0.53597057 -0.40342072 -0.08201156 -0.31297135 0.42195341 -0.09692436 0.28433582 0.03899914 0.13478692
0.75255674 -0.02537055 0.46557707 0.24136108 -0.32757410 0.39981881 0.18681028 -0.00749009 0.08020706 -0.35462677 0.02348611 0.39071685 0.28634858 0.04311366 0.47760761 0.38217270 0.19786565 0.64458853 0.39640215 0.42643338 -0.01244587 -0.05418833 -0.05056282 0.04375533 -0.05044604 0.18594524 0.16869690 0.19375362 0.46224785 0.14706698 0.11471501 0.51300538 0.06557928 -0.03977174 -0.16873479 0.55459994 0.51880807 0.21504882 0.48244807 0.45208752 0.52264822 0.10404824 0.70136875 -0.00128579 -0.16701286 0.54430139 0.10360317 -0.16596982 0.24834920 -0.01367921 0.06186720 0.06943095 0.03540276 0.53511912 0.25016817 0.00008766 0.29047143 -0.04372635 0.40779677 0.01209625 -0.01375128 -0.14810425 0.18225375 -0.10382213 -0.02301868 0.38977155 -0.11570738 0.24303713 0.13392898 0.14023034 -0.40126339 0.12479350 0.35616913 0.07697065 0.15993442 0.21229541 0.56162709 -0.09503812 -0.10792892 0.45734590 0.03720761 -0.15219794 -0.25825873 0.40444157 0.32962379 0.31993458 -0.05198806 -0.04924431 0.06463224 -0.03940268 -0.21281694 0.45933989 0.07393686 0.04954377 0.08703570 0.76118004 0.50850421 0.09976763 0.69821733 0.04679365 0.02346515 0.64891255 -0.32307816 -0.04790564 0.36095780 -0.12554345 0.26674604 0.59448361 -0.04297648 0.28967190 -0.01014449 0.17869703 0.08338784 -0.18427150 -0.12309184 0.02707053 -0.05278330 0.03977620 -0.22319116 -0.06583855 0.11038797 0.16952279 0.16604722 0.37132132 0.06645744 -0.16519611 0.16033393 -0.09182034 0.43440288 0.13049179 -0.02286994 0.52364761 0.66780287 0.47074538 0.39138386 0.12958595 0.39085934 0.18280168 0.04288143 -0.27370006 0.48902655 -0.20186454 0.09697260 0.20447247 0.31015453 0.43877217 0.01987081 0.17380950 0.56239682 -0.13668504 0.08907056 0.09923173 0.68480694 0.33362302 0.31286305 0.38224971 0.24727434 0.32933408 -0.03412529 0.27706099 0.06756712 -0.00162092 0.40846044 0.79532802 0.42221454 0.21691924 0.12207306 0.32486692 -0.21563862 0.46402797 -0.12223139 -0.20568930 0.50881022 0.02446195 -0.28690544 -0.34510070 0.76171869 0.79895884 0.53171343 0.49831864 -0.08945618 -0.17051144 0.36060801 0.58887631 0.13285093 0.53767401 0.38806024 0.20345503 0.15294206 -0.01282851 -0.20407020 -0.21017013 1.15521622 -0.05218076 0.71133095 -0.34306154 0.57026279 0.11180232 0.63346785 0.74329948 -0.02913941 -0.14384419 0.01073605 0.38239509 0.51955503 -0.01150536 -0.04486389 -0.10418256 0.53565848 0.56560308 0.10383610 0.37732804 0.06026855 -0.03407598 0.71029282 0.21896993 0.27331737 -0.21332675 -0.12077345 0.15776934 -0.06844097 -0.24377865 0.68320817 0.15632427 0.18595502 0.30080432 -0.10104353 0.12136421 -0.09607288 0.25328395 0.37429392 0.37980342 0.09326852 -0.13125737 -0.18986471 0.26758158 0.31887960 0.58009350 0.24753043 0.11078496 -0.30690566 0.03322392 0.84967309 -0.13864712 -0.21647078 0.78379303 0.41664651 -0.16625150 0.11371360 -0.44788519 -0.15898511 0.09576138 0.24532601 0.19035356 0.10807224 0.06203191
-0.14723957 0.67841804 -0.22618896 0.31716871 -0.04699761 -0.48709947 0.01055941 0.03017695 0.10495332 -0.77120811 -0.14469080 0.38033900 -0.20594135 0.01073617 -0.33565459 -0.18149760 0.03456495 0.50089264 0.62450147 0.46905383 0.27377674 0.06162498 0.40116003 0.16990463 0.46813568 -0.31614852 0.24555464 -0.09158111 0.45928201 -0.24560186 -0.22009625 0.04443073 -0.18852977 0.06351698 0.12390459 0.17379773 0.01418286 0.22069325 0.59988588 -0.32534438 -0.17689770 0.35806412 -0.00211716 -0.23756255 -0.19515938 -0.04382787 0.13522097 0.31660557 -0.27314419 0.24968827 0.37633425 0.37745500 -0.42225581 -0.40284142 -0.03943535 0.51256257 -0.04454678 0.13475205 0.47052434 0.04772623 0.27845669 -0.42417705 -0.27302614 0.13402918 0.13277164 -0.20582007 0.21393892 -0.10285765 -0.35212815 0.37510350 0.33538258 0.07188008 -0.20964642 -0.42551646 0.57048726 0.42933694 0.22187017 0.53586674 0.12804934 0.21348628 -0.01997902 0.13811551 0.16850935 0.51422226 0.37480542 0.51815408 -0.23542957 -0.07099107 -0.23336561 0.01479174 -0.07052312 -0.07710036 -0.09086923 -0.49057743 0.46573907 0.19205226 0.67580551 -0.26212770 -0.23234737 0.35852399 -0.30479693 0.05278371 0.06826393 -0.20098339 -0.11220038 -0.12755775 0.56580478 -0.29311195 0.04671821 0.25459012 -0.13932243 -0.17098868 -0.26820827 -0.21291313 -0.08436586 0.21962938 -0.24847339 0.09059161 0.14508022 -0.06666724 -0.36885419 -0.35325664 0.39351466 0.59803426 -0.36089858 -0.48821524 -0.61493474 -0.32854673 0.00416180 0.50132114 0.34498599 0.58001679 -0.10703743 0.67495352 0.54610133 0.45664933 0.19373843 0.60056305 -0.00417200 -0.10031590 0.26008093 0.08451104 -0.09134727 0.13821106 -0.47989994 -0.24102017 -0.06448068 -0.00912245 -0.06844594 -0.12488580 0.01516705 0.69190067 0.72444248 0.03326086 -0.04639735 -0.49202028 0.08242900 0.45487541 -0.14264205 -0.08659151 -0.15236408 -0.09049061 0.06503490 0.38638955 0.04550448 -0.05054697 -0.14149570 -0.54229939 -0.01999747 0.12738010 -0.14560005 -0.24078289 -0.04656143 0.04009416 0.09465788 0.34243804 0.07317368 -0.24086055 -0.37708500 0.00606631 0.48074245 -0.13603972 0.00760722 0.27859223 0.03376099 -0.33182421 0.06280716 0.25597057 0.18918622 0.34142557 -0.20961633 0.22284406 0.09463554 -0.45227483 -0.08439129 -0.02732389 0.62830883 0.25465813 -0.06166225 -0.28662840 -0.26252368 -0.18589690 0.16579521 -0.16270044 0.44668987 0.40254021 -0.17866898 0.17040999 0.40138078 0.28337055 0.55145574 -0.34163725 0.25002235 -0.02400932 0.53077745 0.27132887 0.18461649 0.58031112 0.27895647 0.06024203 0.22483771 0.25542685 -0.48241314 0.48912293 0.36251032 -0.03797540 0.37342098 -0.33677143 -0.23440707 -0.35129616 -0.15998548 0.47298944 -0.19138378 0.08636629 -0.06038477 0.55410075 0.00203344 0.34931690 0.26485530 -0.02229413 -0.18892942 0.22721757 0.30108732 -0.16796789 0.50063318 -0.24360226 0.06548545 -0.41749755 0.01475752 -0.40017912 0.10265558 0.07342277 -0.25756982 -0.47831929 -0.04144208 -0.09424994
0.37802547 -0.29564816 0.29804218 0.00442035 0.61026514 -0.01077061 -0.23345821 0.09415155 -0.17838056 -0.07892907 -0.04124954 -0.42816919 0.21682969 -0.04962946 0.72930682 -0.15429403 -0.15302634 -0.07236098 0.48333892 0.24087165 0.10812325 -0.39278242 0.18627112 -0.08873244 -0.41356865 -0.11246687 0.86428750 0.54901332 0.18917663 0.13430771 -0.32044491 0.13974920 -0.20395043 0.27760828 0.10218338 -0.02006291 0.25838327 -0.03068660 0.27282831 -0.05760157 -0.30575842 0.11300201 0.08079449 0.51929480 0.24339598 0.42748693 0.59394366 -0.03532307 -0.34486398 -0.14654283 0.49390438 0.24162500 0.00777100 0.75608033 0.16428806 -0.17665440 -0.01713171 0.37449348 0.13803454 -0.44109979 0.44767815 -0.54163706 0.11108865 -0.05534009 0.50494283 0.46284017 0.07745191 0.28888839 -0.00837739 -0.33358768 -0.11241734 0.34298098 -0.02866100 -0.15883553 0.38118473 0.33540770 0.23438846 -0.01011639 0.49306381 0.52399755 0.03681193 0.06255825 -0.20330110 -0.38695213 -0.00719394 0.10152724 -0.02237771 0.32078519 0.33364394 -0.01956553 -0.22010638 0.08178701 0.12920898 -0.16486664 0.04903576 0.70519400 -0.32202771 0.01835387 0.60727859 0.85242593 -0.06489659 0.61974013 0.23873155 0.21383789 0.11887324 -0.25349250 0.05032074 -0.18979958 0.74232846 -0.10314302 -0.42616609 0.26209405 -0.28408611 -0.05650090 -0.01537896 -0.08069933 0.02103577 0.14148813 -0.07130992 0.03483959 -0.19811800 -0.05992149 0.34786603 -0.04526701 0.32548463 -0.16594134 0.01942121 0.74285203 0.17786780 0.05795879 0.25714034 0.30114746 0.71551794 -0.53053075 -0.31741858 -0.49946666 0.17663182 -0.26956633 0.31938034 -0.24212706 -0.16212583 0.63619602 0.36439943 0.24484383 0.30375013 -0.03083549 -0.54850334 0.36174896 0.10531574 -0.01174914 0.46085992 -0.05177395 -0.04734281 -0.27086210 0.14352161 -0.24952702 0.02836070 0.20288450 -0.01953700 -0.12625174 -0.39799404 -0.06860729 -0.04766962 -0.04545042 0.34340206 0.46709862 0.67664373 0.58985186 0.29735404 0.61337358 0.17377104 0.20115647 0.24337953 0.13799894 -0.21085888 0.07131694 0.02040392 0.02861210 0.03861789 -0.47072211 -0.22365141 0.34869730 0.39702517 0.54577720 0.06824849 -0.07724030 -0.15796705 0.15722919 -0.19854908 0.31751320 0.68714750 0.10947458 -0.04428648 0.23831463 0.59313691 0.29630363 0.60529578 0.01975792 0.13494031 0.13065940 -0.27849641 0.15944509 -0.18472195 0.42529303 0.50845152 0.25004867 -0.09006540 0.14913934 0.22462019 -0.12060849 0.84108168 0.07780677 0.41790488 -0.74861354 -0.03373470 -0.24007069 0.35204151 0.00008558 0.24042706 0.05104366 -0.07287417 0.25638065 -0.20169458 -0.00805090 -0.36070076 0.51543516 -0.06923542 -0.11853381 -0.39156771 0.17930403 0.27347308 0.49360800 -0.25467902 0.26128137 0.51161271 0.03221131 0.49429098 0.12494367 0.03500810 0.23376989 0.11928857 -0.11010607 -0.01724878 0.05686358 0.50890523 0.35794079 0.79242116 -0.06074805 0.23951595 0.55051583 0.46142626 0.35580534 0.20342501 -0.05147119 0.04310691 0.12504698
0.61568034 0.52039194 0.66869664 -0.00924727 -0.23691285 0.11123876 -0.42134616 0.06453572 -0.08802907 0.22156592 -0.31730381 -0.16009705 0.19226022 -0.18542233 0.06775808 0.32260355 -0.03563884 0.61306387 0.62213802 0.10521646 -0.11302973 0.31709728 0.47320685 0.19484501 0.06551058 0.07147016 0.11971281 -0.11912988 0.08193246 0.33741918 -0.03613157 0.12003398 -0.01514059 -0.05885298 -0.12252521 -0.35555202 0.93532485 -0.02188449 -0.10010440 0.21997257 0.14296700 0.03094790 0.09906681 -0.26334089 -0.15256196 -0.46803960 0.38144973 0.13785742 -0.17218629 0.20492467 0.26867008 -0.15289253 0.17887595 0.53648013 -0.10451567 0.03954640 0.81144041 -0.10769230 0.45977205 -0.28493810 -0.14948712 -0.14357574 -0.11149081 0.47817612 0.31286180 -0.00794987 -0.05818577 0.28336927 0.88542926 0.16976137 0.15980491 0.61588240 -0.25670478 0.62133652 0.03339833 0.40285212 0.16116849 0.17546216 0.08555683 0.11346693 -0.00566517 -0.04883733 -0.15469268 0.14675041 0.40186307 -0.25427172 -0.09201286 0.46606979 -0.19275880 0.31833065 0.76514006 -0.31071091 0.00241837 0.10584415 -0.11785053 -0.14459452 -0.71950495 -0.01010233 -0.33779430 0.17895454 0.02557486 0.49411801 -0.13161185 0.30609450 0.17250119 -0.25691110 0.07043613 0.27633959 0.13327469 0.44882217 1.41362953 -0.21307841 -0.14578280 0.13083762 0.00485013 0.01321920 0.78516984 0.67293316 -0.07457627 -0.36176082 -0.25322998 0.57080013 -0.16064022 0.48150459 0.17898539 -0.03625076 0.02330441 0.32449150 -0.09034691 0.04179614 0.07036769 0.07504245 -0.26230267 1.27072597 -0.21267967 0.45002380 -0.09961471 0.29434100 -0.00738340 0.85252917 0.04914727 0.80393732 0.37158105 -0.06267814 -0.33796284 0.05715824 0.51398265 0.24333085 0.08296003 0.16548605 0.68442190 -0.13948368 -0.10181006 0.07601533 0.38134843 0.46267268 0.31942773 -0.15072186 -0.02765059 -0.09807109 0.33670139 -0.04063411 0.05217329 -0.01950431 0.29781714 0.61518425 -0.16554022 -0.21693882 0.40341523 0.38662940 -0.31260067 0.30310088 0.10666400 -0.31098214 0.29526269 -0.12362861 0.19774871 0.23577671 1.00505257 0.73178321 -0.02893746 -0.05681442 -0.14225845 0.14078416 0.94131976 0.05977661 1.03756845 0.36437017 0.01291045 0.18722665 -0.16578738 -0.13614960 0.11765167 -0.00056181 0.76025599 0.20075808 0.41044047 0.04531838 -0.19465946 0.79610759 0.66366392 0.31137583 0.09386476 -0.23735833 0.04040186 0.03350202 0.23721069 0.62605435 0.30975869 -0.07125863 -0.12460117 0.32155406 -0.21516223 0.19479609 -0.15408404 0.22401327 0.05218481 -0.01899578 0.10437623 -0.21291395 -0.10323434 0.38374439 -0.06505548 -0.14345476 0.87185466 0.10147080 0.57460123 0.16401896 0.26195419 -0.14287668 0.57062066 0.51319718 0.06903355 0.02639822 -0.04524149 -0.36949092 0.18313153 0.38111526 0.51040816 0.24161622 -0.48133758 0.68248987 0.26923507 0.87217259 0.10691845 -0.01135861 0.20719601 0.44165823 -0.09677014 0.56570977 0.35107127 -0.35911503 0.39232475 -0.20086420 0.08865806 -0.07758664
0.65187818 -0.03732290 0.15580279 -0.06585222 0.08227963 -0.36237612 0.32459053 -0.05008488 0.00205773 0.20779383 -0.17046860 0.26156950 0.45717812 0.03855698 0.63498479 -0.17162652 0.28245226 0.70762098 0.30255699 -0.04953032 0.13140665 0.02470831 0.53766441 -0.10419862 -0.39929089 -0.15952660 0.14778987 -0.31780216 -0.28291708 -0.12344490 -0.13372818 0.10641970 0.54531080 -0.37136167 0.31528777 0.18087456 0.47102460 -0.10854103 0.38258141 0.27467814 0.32609749 -0.36016408 -0.29551029 0.23515062 0.29745683 0.05160383 0.54713398 -0.06752609 -0.25317997 0.33810699 0.18126304 0.06635819 0.59471804 0.62062061 -0.09929804 -0.01950917 -0.32059589 -0.12393727 0.03659331 0.03116069 -0.20419693 0.37943104 -0.28572837 -0.47301814 -0.49125865 -0.13206875 0.30136681 0.10167333 -0.45533144 0.51778531 0.20609504 -0.21793769 0.13228060 -0.04061946 0.17389069 0.06146768 -0.07112876 -0.25107524 -0.37253186 0.35949728 0.02767162 -0.36817911 0.11396928 0.57233071 0.33024627 0.07549953 -0.23664132 0.98347807 0.33469918 0.58001196 -0.25634560 0.02297316 -0.13912492 -0.39357924 0.03075148 0.33304846 0.28546500 -0.13971099 -0.02834988 -0.07781386 -0.43548384 0.08630784 -0.36871558 0.58389652 -0.03174799 0.13424355 0.11719640 0.28858238 0.06056236 0.33072558 -0.21625665 0.06704255 -0.03979529 -0.26714635 -0.13543601 -0.18330076 -0.22419202 0.56543267 0.24775869 0.38054144 0.45249605 -0.04051914 -0.15507346 -0.14253701 0.37575743 0.31833050 -0.37229633 0.05359881 0.52546984 -0.16853869 -0.02283144 -0.34128407 0.45094818 -0.44705412 0.11358553 -0.29240638 0.10890861 -0.41245297 -0.29048932 -0.21252286 0.38234085 -0.49436057 -0.59862804 -0.07554378 0.09702796 0.18306537 -0.42629594 0.22760110 -0.17243332 0.10933494 0.08003279 0.58282435 0.26846379 0.37060082 0.38687870 0.31838468 -0.14699446 0.09385653 -0.07167833 -0.39500046 0.15252918 0.21862532 0.33123472 0.46018195 -0.17819861 -0.17758743 0.32877868 0.46354988 0.20016645 -0.28671113 0.16644827 0.03868560 -0.10692372 -0.01181151 0.09521953 -0.43185690 0.61421216 -0.01548520 0.86389792 0.44394860 0.55959386 0.20768118 0.79413778 0.40439880 -0.01876121 0.07295738 0.08644728 -0.36859813 0.62299800 -0.00427929 -0.18134733 -0.11959411 -0.04287107 0.34134150 0.13425682 -0.34036514 0.08329473 -0.12864737 0.78808683 0.46275932 0.02683269 0.02715767 0.21156986 0.55437249 0.77780145 0.15363537 -0.01090300 0.07811642 0.52418858 0.07100933 0.45601612 -0.02570315 0.63572299 0.58036971 -0.29168606 0.28812286 -0.67552209 0.04341783 -0.07712910 -0.00239310 0.15363993 0.05778681 0.66588897 -0.28258231 0.15767440 -0.05877583 -0.11447164 -0.38181770 -0.31683394 -0.09050859 -0.22788508 -0.20613375 -0.18525545 0.40314355 -0.03684600 0.28348440 0.11105698 -0.38655648 0.67747867 0.55564767 -0.15708609 0.41576293 -0.55406898 -0.69547790 0.16938879 0.35376126 -0.17649859 -0.06764251 0.30887783 0.38463467 -0.18667822 -0.21431927 0.10872651 0.41188616 0.00155913 -0.12474362
-0.14488949 0.19094688 -0.17789941 0.02190009 0.04677273 -0.69988292 -0.47456485 0.12182625 0.35406175 -0.13471730 -0.67341930 -0.16595139 0.00218545 0.39041495 0.22167856 0.21495476 0.16208047 -0.09931061 -0.39912260 -0.12888159 0.28267360 -0.06532180 0.27133653 -0.10276707 -0.40707064 0.13715094 0.12024192 -0.01542460 0.76027459 -0.54269737 0.10045046 -0.40392777 0.44407484 0.04514085 0.13003148 -0.21529336 0.59258682 0.11599259 -0.11957706 0.34863648 -0.47520542 -0.30521488 0.21657336 -0.04415615 -0.30570173 0.27525032 0.05499816 0.15146472 0.09320108 0.33341196 -0.60684484 0.23352967 0.26594201 -0.26332292 0.32397351 0.18398327 -0.42892751 -0.36845800 -0.20139180 0.47350007 -0.05441629 0.35230505 -0.04241895 -0.16085517 0.21676666 -0.17916146 0.11738604 -0.32139105 -0.40503144 0.23798293 0.31946501 0.05653393 -0.32065371 0.33616444 0.17021209 0.86649293 -0.07862664 -0.46796107 -0.64385462 -0.68221134 -0.08151180 -0.46448657 0.51315856 -0.20997369 -0.24296741 0.23920915 -0.44922116 -0.36543122 0.17490940 0.17685179 0.11229095 0.04397763 -0.29836440 0.27854741 -0.21518715 -0.10964257 -0.53389156 -0.47935283 -0.51609814 0.03442596 0.10580567 -0.35997576 -0.40370023 0.29197389 -0.19913927 -0.47937828 -0.18625006 -0.56575179 0.07099128 -0.73537338 0.43093845 -0.06529340 0.55249733 -0.06011412 -0.01396697 -0.31337270 0.28772384 -0.48794335 0.22679228 0.11446451 -0.51506692 0.11391816 0.32850167 -0.17092851 0.74719697 0.22438458 -0.00269590 -0.38162252 0.11921094 0.43868411 0.26253742 0.01775517 0.11692550 -0.54629350 -0.52957374 -0.49396574 -0.23872863 -0.12073085 -0.00292592 0.20180126 -0.63603246 -0.77982855 -0.16066271 -0.04950451 0.26633719 0.55616957 -0.19170764 -0.24553268 -0.06611364 0.17654644 -0.28723380 -0.20524172 -0.36590552 -0.40867338 0.29968929 0.33833641 0.39935309 -0.19334020 -0.12962645 0.32168522 0.13092554 -0.11899405 -0.15325814 0.12867159 -0.48821145 -0.15720503 -0.29714924 -0.43140402 0.00336908 0.60984498 0.25197753 -0.02439709 0.17507584 -0.43636066 0.51348472 -0.59941870 0.07857602 0.11292146 -0.14750408 -0.71967685 -0.06643673 0.51123303 0.00051889 0.31214479 -0.28629270 0.17800613 0.05706286 0.38199401 0.23683986 0.13476042 -0.13540617 -0.03376281 0.13907713 -0.25107911 -0.18103850 -0.10944959 0.15732992 0.18864426 -0.14612213 0.30873939 0.49325311 0.06370480 0.23992491 0.76952612 -0.12502052 0.33211541 0.23335341 -0.52191156 -0.22446874 0.13873258 -0.44792882 0.42560825 0.39536852 -0.11111446 0.24720140 -0.34037820 0.02935509 0.02565846 0.08646991 -0.19530906 0.33919799 -0.33384138 0.49220765 -0.43578351 -0.15298817 0.02193607 0.50032240 0.22757211 -0.65111762 0.05687164 0.19677195 -0.40899152 0.51420236 0.08975694 0.03027185 -0.09243491 0.46088409 0.40603676 0.07530662 0.37505293 -0.30051473 0.37839407 0.34667596 0.33203357 0.29988557 -0.35917467 -0.47511145 -0.26859221 -0.09194353 0.32220992 -0.54954773 -0.11148889 0.02067960 -0.39725620 -0.04573255 -0.10316149
-0.04150059 0.53138572 -0.36572844 -0.05346141 0.32975706 -0.10560686 -0.04476247 0.09596123 0.34209427 0.41800216 -0.19013150 -0.01148284 0.16639526 -0.21195102 0.21324702 0.67230779 0.34883794 0.52602071 0.71826810 -0.02328988 0.08292428 -0.19033243 0.20042443 -0.02516900 0.16988629 -0.03159081 0.05568486 -0.19475690 0.18505782 -0.13390709 -0.12331376 0.20791301 0.24995475 -0.10000841 0.13652328 -0.41602117 -0.03090705 -0.13066167 -0.17531805 0.54118806 0.51133704 0.16163097 0.19956259 0.66843212 0.47692284 -0.34544584 0.55149108 0.13037783 0.19072355 1.21134400 0.06558906 0.13673276 0.47763339 -0.39661551 0.18169124 0.31382087 -0.10600784 -0.19844912 -0.00663038 -0.12107791 0.02512260 0.67305893 0.03949964 0.20253353 0.11625095 0.38120064 0.21683092 -0.01901277 0.38113564 0.70085984 0.14368045 0.45097393 -0.18197431 -0.31075278 0.13390534 -0.23730330 -0.05847706 0.64228624 -0.25634724 -0.11531062 0.03520207 -0.14565659 0.53669435 0.27060029 -0.14700769 0.10249374 0.25391054 0.38313717 0.21303673 0.55457753 0.86649930 0.54085779 -0.20425069 0.66367626 0.34483576 0.15544893 0.15982948 0.09472773 0.12263089 0.31042135 0.29656768 -0.44758600 0.13946152 0.19327159 -0.22129534 0.47127518 0.15871994 0.65714985 0.59426016 0.32074270 0.25525191 -0.26033795 0.01974481 0.43745306 -0.06954469 0.45561782 0.23122254 -0.05856342 -0.29579490 0.22379550 0.30766445 -0.00459311 0.20505628 0.71873474 0.00796096 0.22365272 -0.04798111 -0.09529378 -0.06103116 -0.11217095 0.28114796 0.52086443 -0.05139551 0.51818037 -0.14715710 -0.17500189 0.22222292 0.39426255 0.00981904 0.21181588 0.49170256 0.02014510 0.34697610 -0.13306074 -0.06071002 0.12810315 -0.33192140 0.35229877 0.64048147 -0.06461222 -0.00266280 0.83953136 0.15707001 0.29020423 0.35775679 -0.28259441 -0.19677196 0.16863459 -0.19286652 0.40880844 0.39520547 0.10021216 0.12781166 0.02972487 0.08307347 -0.13579072 0.85418403 0.25031000 0.11065479 -0.22195785 0.07240447 -0.01353427 0.38302827 -0.03580008 0.25708932 0.03418980 -0.32173780 -0.02190714 -0.33365017 0.26318678 0.70868099 0.47934359 0.42152646 0.07566429 0.00972359 0.35411012 -0.16505213 0.12996289 0.31834996 -0.00279820 0.31967822 -0.29871920 1.17259967 0.24502857 -0.30217040 0.13027172 -0.43488878 -0.08556187 0.32877553 0.02026358 0.63449579 0.49841225 0.87389255 0.13694848 0.04099972 0.02779104 0.27555537 0.67092574 0.01954927 0.45074660 -0.08500186 0.07673592 1.02103937 0.39208141 0.68498176 0.01303403 0.48842749 0.09784350 0.51984054 0.48780471 0.06409907 0.05143175 -0.19074924 0.70087600 -0.02233189 -0.00472193 0.06343811 0.41649097 0.15921366 -0.19352582 0.12129489 -0.07985450 0.06793848 -0.02927208 0.37817851 0.36777017 0.30147302 -0.07431916 -0.35465977 0.11026774 0.26231977 0.92033565 -0.21795443 0.30732378 -0.02792847 0.06652457 -0.08728219 0.12802216 0.55819243 0.30492276 -0.02028451 0.42055988 -0.19000641 0.16756633 0.13083570 0.08160448
-0.14171842 0.08783294 0.00790683 0.32011011 0.75204045 0.05146561 -0.24370618 0.00998375 -0.10280356 0.00122672 -0.02259451 -0.21750304 -0.16142523 0.41298872 0.21225558 0.70209724 0.43539491 0.01033439 0.17913613 -0.09728059 0.15455122 0.19769233 -0.49304780 0.71682233 -0.11194512 0.22203656 -0.07520100 0.36424038 0.21746354 0.14853668 0.08591851 -0.01271806 0.03442967 0.31338856 -0.41493526 -0.19402309 0.05249812 0.36542577 -0.25394377 0.00635266 0.02343987 0.44190797 -0.00111916 0.95150912 0.14122240 0.20325255 0.01464095 -0.38253042 0.29151705 1.02934813 -0.16372825 0.33885524 0.38900232 0.33690920 0.45884538 0.68912393 -0.24632946 -0.14772581 -0.11516634 0.09431591 -0.00080592 0.38664520 0.13923720 0.13262142 0.58227456 0.21993399 -0.02373936 0.00599857 0.31142294 0.23017058 -0.15002093 0.53132463 0.61188090 -0.41880262 -0.10834358 0.25057280 0.03259449 0.63873053 0.33512011 -0.05996803 0.05953220 -0.26690963 0.32434940 -0.50042748 -0.15304402 0.26826656 -0.29936424 0.10546456 0.09550890 0.35415736 0.14593209 0.24606416 -0.18486534 0.33522555 -0.15105377 0.21441923 -0.38883707 -0.17325287 -0.17365125 0.04384981 0.57456154 0.05873046 0.22212529 0.08059263 -0.15967439 0.00571185 0.05743872 0.03919724 -0.11314522 0.07777697 0.07583017 0.03055049 0.36392391 0.40121952 0.29419011 0.60711300 -0.13442937 -0.28588951 0.42336112 0.29631165 -0.50624108 -0.22036384 -0.31213939 0.02360357 0.24203674 0.01011880 -0.02575138 0.00939400 0.46423769 -0.03897149 -0.11381068 0.36762553 -0.36071330 0.42872959 -0.41442972 -0.45060089 0.04401844 -0.06958989 0.05484677 0.30908868 -0.26161525 -0.21328652 0.33560118 0.42744204 -0.48397523 0.43267429 -0.17248911 -0.27475175 -0.23632231 0.19300704 0.24791320 -0.17644890 -0.24762021 0.34345791 0.44978553 0.07901033 -0.24697366 0.23561388 0.39046699 0.18116698 0.34536728 0.09102135 -0.20853937 -0.23222303 0.48251671 0.09368780 0.52404463 -0.14463322 -0.06315719 0.06250326 -0.14665897 -0.02164220 0.42218682 -0.28564516 0.09630737 0.23975894 -0.36715347 0.03011144 0.18242581 -0.37265223 0.13324648 0.00344030 0.01883649 -0.09533127 -0.05613100 0.97925270 -0.17489628 0.10527859 -0.30172497 0.55166149 0.48137474 0.39257583 0.05597011 -0.32560113 -0.07351278 0.51678586 0.49590465 0.18178624 -0.10897561 -0.33437154 0.31796542 0.06667890 0.27342358 1.18141091 0.32763302 0.01339982 0.14651035 0.07784692 0.04675575 0.64016211 0.49440116 -0.03436163 0.97470081 -0.28744933 -0.02238517 -0.03870362 0.64809251 0.02005688 0.43855432 0.25932607 0.20334049 0.45417556 -0.22745644 -0.12322578 0.32479715 0.43844953 0.10527683 0.37561372 0.02157358 0.33779123 0.44741195 -0.01765632 0.45018500 0.32599011 0.19666904 -0.05505587 -0.27304706 0.01551963 -0.36043739 0.02549055 -0.05321187 0.48670039 0.30877113 0.32744309 0.22505164 0.22402111 -0.31794527 -0.39832184 0.49500787 0.21428646 -0.12424116 0.14703147 0.31661960 0.14194266 0.07861127 0.00923569
0.23352529 0.34111586 -0.03653187 -0.14229730 0.16348986 -0.07267240 0.66509086 0.09560658 -0.15088242 0.15444493 0.67378134 0.17183664 -0.12556247 -0.10055498 -0.30772913 -0.04291613 -0.02417978 0.25377917 -0.20583007 0.23800091 -0.01233858 0.35400787 0.25503844 0.60813445 0.23839860 -0.13886108 -0.17474262 0.41490728 0.17080864 0.54855311 0.50952792 0.64617813 0.15867418 0.76133972 0.31153268 0.36463672 0.30050915 0.18704176 0.27389225 -0.11384827 0.22197770 0.04042592 0.33983555 0.58289742 0.04919661 -0.08162034 0.50030220 0.07165103 0.40818664 0.78716469 0.64036936 -0.14991727 0.10634974 0.05448444 0.29610690 0.07179876 -0.07213134 0.08428716 -0.15352091 0.16579232 -0.01252550 0.00703139 0.12066094 -0.37607339 -0.45676109 0.25980449 0.18496259 0.61729008 0.25728884 0.53385985 0.02022881 -0.15579005 0.31368628 0.18152229 0.10290545 0.15755980 0.23778278 0.45358551 0.06808830 0.54612017 -0.00980974 -0.41952407 -0.01300732 0.20768535 0.34767407 -0.01962298 0.48765019 0.71408415 -0.06266197 -0.05812616 0.02367554 -0.18528433 0.29616356 1.42853260 -0.57162869 -0.11912793 0.01835168 0.09075349 0.05000089 0.39729714 0.41290644 0.23200697 -0.26690546 -0.13142493 -0.03597742 0.58893627 0.46329638 0.26539296 -0.24602614 0.68446493 0.03877553 0.07374110 0.58141339 0.20416749 -0.30990642 -0.19108602 -0.19188496 0.48944959 0.05296604 0.13995832 0.31186464 -0.51895100 -0.03157402 0.18285349 0.11736384 0.64367092 -0.02320818 0.26312792 0.03472701 0.06888417 -0.25372073 0.26422405 0.55020124 0.75360972 1.03285849 0.00804201 -0.06532321 0.19838370 0.38615501 -0.23192693 0.48299211 0.10422358 0.28099868 0.58239096 -0.23152827 -0.11847761 -0.15381852 -0.12948586 0.04119548 0.02077638 0.71000493 0.66493732 0.32967141 0.00183941 -0.26855838 0.20423830 0.25259244 0.50710487 0.05574095 0.15772346 0.01897248 -0.02934467 0.51367944 0.37762406 0.68220377 0.17211616 0.44592759 0.03348635 -0.19432755 -0.09107913 0.10906743 -0.00652086 -0.30127296 0.00081509 -0.23644835 0.25085002 0.19446012 -0.27111274 -0.41428325 0.52523118 -0.28062594 -0.42691359 -0.26435637 -0.22314054 0.32406667 0.35106701 -0.15731972 -0.39297447 -0.14724110 0.48120210 -0.04735753 -0.08761130 0.02319349 0.02809635 -0.08909187 -0.11339507 0.18639556 0.24385276 0.37425682 -0.02087260 0.18994936 0.16004306 0.00060427 0.27284533 -0.20170860 -0.03460393 0.20215151 0.77511513 0.62689841 0.47928205 0.07558317 0.17676972 0.81125134 -0.17054094 0.48420471 0.16926451 0.18850377 -0.18806091 -0.10083243 0.11697719 0.02265869 0.56473225 -0.19175696 -0.05699325 0.06272712 -0.24638605 -0.21621823 -0.04564518 -0.29830921 0.22912748 -0.05387878 -0.00806362 0.10343238 0.76011842 -0.11677662 0.21853699 -0.47709674 -0.05658006 0.29628950 0.05742945 0.02466685 0.82817006 0.38898695 -0.16034773 0.26955217 0.02728047 0.04741390 0.28368911 -0.00630959 0.39914045 -0.21170461 0.50016046 -0.10031129 -0.29491171 0.10779465 0.03187820
-0.30637923 -0.70328635 -0.20627296 -0.34509182 -0.12754922 0.32573396 -0.87423521 0.03180999 0.04316054 -0.22354968 -0.44539496 -0.12371381 -0.21854387 -0.40693021 -0.16252749 -0.39650366 -0.16728371 -0.56496799 0.38582450 0.37863970 -0.40199092 -0.12016628 -0.17693768 0.20313247 -0.30871785 -0.38904336 0.25318196 -0.26631826 0.09918500 -0.14327590 0.25135148 -0.03783721 -0.27470294 -0.06138553 -0.01447583 -0.48789221 -0.06227138 -0.18394029 0.01680339 0.20190801 0.26605064 0.44860616 -0.17237596 -0.21410172 -0.27989411 -0.09404352 -0.50256449 0.16299216 0.09439863 -0.15549241 0.09662536 0.17928301 -0.02025079 -0.09817929 0.45995021 -0.02364154 0.29310298 0.26572841 0.12829329 -0.54384768 -0.03706821 0.03570013 0.00301380 0.02217920 -0.34406382 -0.26825684 -0.74795455 0.19506097 0.45025185 0.12068221 -0.53141052 -0.01966952 0.07687239 -0.23488222 -0.16350061 -0.39986047 -0.03949898 -0.66682255 0.15380310 0.21784699 -0.08324642 -0.06176903 -0.24632010 0.39524767 0.16075647 -0.12455202 -0.33150941 -0.12295865 0.26089254 -0.32931998 -0.00050608 -0.09246501 0.08064947 -0.67769313 0.27856883 -0.49747601 0.18645942 0.43263197 -0.01452072 0.13258706 -0.17380230 0.32304451 -0.03413644 0.16537413 -0.70688581 0.32133693 -0.16634643 0.14849262 -0.44025481 0.04024030 0.01144146 0.09152196 -0.43100485 -0.13194282 -0.20198296 -0.61340749 -0.42584577 0.11954218 -0.31519166 -0.54992872 0.31987777 -0.14779456 0.13600771 -0.24337062 0.21799588 -0.30928865 0.30574566 -0.13213618 -0.06368618 -0.50360763 0.08457264 -0.14659995 -0.14299129 0.22222033 0.06961440 -0.53901160 0.15342920 -0.62058234 -0.15968986 -0.16524062 -0.21953881 -0.27468804 -0.01515251 -0.64512718 0.36248782 -0.44441676 -0.48820877 0.06962538 -0.11354189 -0.00202275 -0.37523761 -0.51173407 -0.67698860 -0.15084891 0.62106991 0.13180372 -0.36551642 0.29929584 -0.20271079 0.00903828 0.12457555 -0.41031268 -0.25783640 0.55414850 0.08050139 0.09131050 0.39216065 -0.42156148 -0.40055591 -0.19691816 0.11603396 -0.36165255 -0.40799758 -0.01641879 -0.23002772 0.16026045 0.10287221 0.20535341 -0.79358238 0.24951610 -0.27896243 0.27464265 0.14670695 0.15294662 -0.12177886 0.02992406 -0.03747980 -0.17220622 -0.46897486 0.12600890 0.12866499 -0.35812491 -0.05187605 -0.44918618 0.14593332 -0.54260147 0.47509843 0.05425284 -0.25303963 -0.25063044 0.05145361 -0.32611805 0.08007538 0.09942696 0.34342551 0.12013829 0.00350789 0.05953467 0.11592353 -0.48184133 0.16161910 0.40728989 -0.54302925 0.29170474 -0.22525810 0.49101719 0.00568375 -0.01485727 -0.12839901 -0.05605421 -0.46173239 0.20210277 -0.04092760 -0.03413954 -0.57950473 -0.05826002 -0.64591312 -0.55606866 -0.30714038 0.17465812 -0.08211274 0.18719900 0.02289797 -0.03046911 0.07743641 0.04629339 -0.10771699 -0.22540925 -0.52471340 -0.12469879 -0.49118775 0.17451553 0.17648385 -0.39524141 -0.32423580 0.30938485 0.28222147 -0.42904273 -0.49694061 -0.52458954 -0.13979875 -0.50868422 0.28052196 0.42690900 0.05445132 -0.07812341
-0.02628727 -0.02599709 -0.33050278 -0.16488032 -0.24512856 0.04020555 0.08011770 -0.07042465 0.08105969 0.17908034 -0.38613775 -0.12684463 -0.01844697 0.68946427 0.18999009 -0.15828720 0.30994800 0.33551776 0.20779595 -0.00480730 0.49233690 0.03003483 0.06651420 -0.18434785 -0.22881135 -0.23063651 0.40184167 -0.07006516 -0.01738594 0.21933894 -0.07173549 0.26287690 0.40266344 -0.26893935 0.43012404 -0.09435616 -0.31361517 0.07693803 -0.31909224 0.46770036 0.24854980 -0.00230552 0.65601140 0.42392263 -0.11353833 0.27490723 -0.24370658 0.28289813 0.14894070 0.45083508 -0.31935838 -0.17590627 0.37125540 0.62113911 -0.14795238 0.09769395 0.40803191 0.07443415 0.39527497 -0.05949167 0.23391566 0.38776499 0.41239980 -0.06980419 0.43527117 -0.10395943 0.30740193 0.49240479 0.71733695 0.03021163 -0.14290124 -0.29691225 0.01100304 0.08263887 0.17122304 -0.05812362 -0.03468811 -0.24892466 0.02637425 -0.37165347 -0.06404619 -0.11032019 -0.13823566 -0.32747599 0.27894604 0.29012477 -0.27991918 -0.18433134 0.23448765 -0.10391483 -0.00579326 -0.18048981 0.24681696 0.37902117 0.07265771 -0.04553086 0.50005561 -0.11189143 0.55577332 0.19378577 0.09456000 0.04810951 -0.20358199 -0.23857483 -0.59012920 0.56024384 0.24245651 -0.18571267 -0.03000713 -0.47066525 -0.02378481 0.20849866 -0.20643303 -0.50254411 0.69168115 -0.36322755 0.02223513 -0.28255239 0.10795248 -0.14226894 0.22342202 0.16152951 0.55627775 -0.00576365 0.65656644 0.06775273 -0.24420688 -0.13894255 -0.22873218 0.47712958 0.02982064 0.17503367 0.00122051 -0.28058034 0.21272951 -0.00237497 -0.04125240 0.05372412 0.07049927 -0.03098698 -0.12911151 0.12078793 -0.05130101 0.02907408 -0.02339192 -0.15816507 0.58645219 0.21383888 0.00705706 -0.18208233 -0.34270433 -0.17755444 0.33462381 -0.12111862 -0.46606314 -0.39632943 0.78795326 0.30352983 0.38777635 0.24146986 -0.15560745 0.62400073 -0.04907972 -0.11469898 0.41995525 0.06614146 -0.16755766 0.10773294 0.02930603 0.47215348 0.45104998 0.47251475 -0.11503109 -0.17845449 -0.07086638 -0.14243026 0.07058240 0.38123885 0.12912585 -0.26392487 0.19741033 0.20556214 0.52378583 0.34418097 -0.30306280 -0.42752650 -0.02873694 0.64660490 0.38363162 -0.19226524 -0.06429040 0.42174476 -0.16810702 0.62449563 0.30974039 0.42631468 0.20126823 -0.07739273 -0.28311881 0.08235167 -0.20494407 -0.24421248 -0.16728456 -0.29797468 0.31940538 0.30553094 -0.29328126 -0.27972922 0.23231389 -0.40007699 -0.32928216 0.44047445 -0.22259113 -0.25734535 0.28834176 -0.03995293 -0.26527321 0.34516057 0.11012944 -0.07442074 -0.00834076 0.26792637 -0.40411273 -0.05326603 -0.20438834 0.42643362 0.45909417 -0.26144299 -0.03078597 0.05334152 -0.09592506 -0.21889842 0.53361171 0.53002095 0.16728206 0.24689855 0.19778425 -0.54801190 -0.08774462 -0.73378646 0.51440406 -0.12378719 0.42494410 -0.11590866 0.50402522 0.66247845 0.20226996 -0.42937750 0.45594645 0.28111005 0.40907875 0.46000305 0.62956536 -0.09400349 -0.07857349 -0.05735572
0.34036741 0.53366137 0.43119580 -0.26403970 0.14478277 0.11702595 -0.19206165 0.11145788 0.07588506 0.49652451 0.12262493 0.33282253 0.93712604 0.53193551 -0.26797545 -0.04397162 0.07812299 0.15884942 0.49634761 0.18804458 -0.04403334 0.55539602 0.45522636 0.54675841 0.59721667 -0.08152947 0.89582688 -0.14130683 -0.02299309 -0.24376848 0.57447594 0.26250371 -0.07053840 -0.15981600 -0.11119598 0.66521806 -0.11329666 -0.04728756 -0.09004489 0.03034808 0.43105972 -0.22441113 -0.05291504 0.31717351 -0.23535906 0.34118718 -0.18657997 0.39170954 0.25867862 0.14477076 -0.11112915 0.37143919 0.16552164 0.26570168 0.42010874 0.11520220 -0.32805362 0.13260244 -0.03685343 0.04972742 0.35381633 -0.01163507 0.04035345 0.61022443 0.23000166 -0.11455308 0.06485970 0.16368017 -0.11127806 0.67308968 -0.15310584 -0.14112383 0.84291482 -0.28905261 -0.11866514 -0.17627870 -0.01266093 0.46276647 0.09037507 0.42544052 0.18508348 -0.33967140 0.58310348 0.81921500 -0.01433154 -0.00101981 -0.00128434 0.36548832 0.20547435 0.05396520 0.01703049 0.43079686 0.36432898 0.00658672 0.45878890 0.02884320 0.50681978 0.61620194 0.18834996 0.34861732 -0.36868697 -0.10648173 0.35702404 0.51180935 -0.19650118 0.37660864 -0.17927755 0.01969497 -0.12419608 0.86026669 -0.17912433 -0.02778229 0.02307308 0.11155290 0.28590819 0.17093989 -0.01446457 0.76772225 0.39597392 -0.00991803 -0.22399673 0.12853187 0.27954596 0.46584389 -0.01066350 -0.17349361 0.43659684 0.55814987 0.05740129 -0.23973759 0.00339775 -0.23285906 0.81107438 0.90935785 0.84785789 -0.51005864 0.08390693 0.04832093 0.47229102 0.39862221 0.20805383 -0.32781979 -0.24709000 0.01335360 0.01520018 0.39350015 -0.24156083 -0.06502839 0.04812551 0.06531645 -0.28052270 1.24738669 0.42548272 0.05644138 1.10993552 0.05479902 -0.01820225 0.13712260 0.06087092 0.12888227 0.11228301 -0.06305791 0.28576612 0.46268326 0.02369036 -0.09717009 0.31435773 -0.28020403 0.03690713 -0.35135961 0.73342144 -0.00601141 -0.02761462 0.13153790 0.40732738 0.58391184 -0.04145792 0.19199412 0.12266562 0.64809883 0.18150380 0.09998687 0.30880386 0.21099801 -0.11560322 0.49099189 -0.12793112 0.46504420 -0.02855728 0.72662514 0.33748710 0.16163851 0.25107604 -0.36893055 -0.14904027 0.17147830 0.80704653 0.64088726 0.22861609 -0.20870624 0.69537014 0.35824940 0.11494378 0.24488431 0.36016554 0.39454368 -0.01536186 0.09979609 0.33840194 -0.01749848 -0.09854940 0.20167127 0.54456633 0.32048723 0.18364570 0.46607050 0.02907825 0.01005896 0.43803930 0.06848325 0.63633430 0.56931990 0.30026105 0.70637143 0.72934151 0.11809646 -0.08287018 -0.12744895 0.08035735 0.00203636 -0.34521437 0.35505357 0.13317358 0.12893626 0.69189274 0.66374826 0.23282768 -0.13336375 0.08913344 -0.06048493 0.27524814 0.02276073 0.32963994 0.27533552 0.25401559 0.19748150 -0.05113497 -0.12087879 0.11745339 0.14494435 -0.05623841 -0.02812553 0.27431551 0.01473464 0.00796989 0.00206789
0.54766774 -0.25664577 0.19270563 0.14377233 0.11334297 0.12361837 0.26872420 0.09481490 -0.18627112 0.12407192 0.16091701 0.15901896 -0.16362031 0.08116183 0.82334214 0.13955793 0.65824485 0.46414298 0.44497934 0.07497089 0.81459373 0.01008222 0.12524641 -0.31798473 -0.32812628 0.32538673 -0.02834972 0.16108060 0.43825644 -0.07899188 0.01200779 0.49127796 0.04479868 0.01842892 0.00566537 -0.06423926 0.01303902 -0.15427655 0.10979546 0.16058527 0.26181847 0.20982768 0.72939909 0.66435885 0.00891761 0.24953999 0.16293460 -0.05951119 -0.10690683 0.36316806 0.02790152 0.42036664 0.13939743 0.45278597 0.57272750 0.57137835 0.12175141 0.24887261 0.03225398 0.81694567 0.02341763 0.48489115 -0.14680016 0.35816276 0.24867851 -0.06491908 0.03768317 0.10009231 0.11314948 0.47280988 -0.00415396 -0.05897888 0.11002885 0.15990028 0.26788300 0.13011676 0.40139630 0.10653458 -0.08722690 -0.07094847 0.00196185 -0.10269394 0.47294012 0.40026215 -0.15578426 0.04088483 -0.35723931 0.36107519 0.51787657 -0.08747206 0.85628814 0.31818911 0.01733558 0.82816547 -0.02282786 0.50259364 0.31133801 0.04990945 0.01748838 0.26483956 -0.26028043 0.30147475 0.33669055 0.58005095 0.65617311 -0.19195309 0.35344270 0.09198370 0.65847760 -0.26995045 -0.18513045 -0.01626277 0.16686068 -0.22101925 0.28392023 0.11301173 0.11757967 0.24813256 0.15304676 -0.22212954 0.10091438 0.20059612 0.06190259 0.02974225 0.32980365 0.97652066 0.18055458 0.43340090 0.87972635 0.47662479 -0.05196167 0.51620024 -0.38305336 -0.21844730 -0.22898279 0.03310094 -0.26322210 -0.03094422 -0.20755282 0.06047636 -0.25642329 0.40710342 -0.01815545 -0.15393384 0.47411078 0.34414494 0.41549498 0.37554088 0.47382796 0.82727510 0.29946053 -0.20950302 0.54759943 0.60838038 -0.20073016 -0.23646361 0.44314978 0.86148196 0.36795402 -0.02965789 0.15890260 0.68201792 -0.10313377 0.11975018 0.29655665 0.38585490 -0.05531127 0.66672361 0.29192594 0.41917562 0.05964148 0.33478847 0.84684861 -0.14030688 -0.33019570 -0.13330163 0.07858973 0.08809723 0.14658019 -0.06051750 0.61017573 0.34863207 0.53683341 0.12407785 0.12343695 -0.19826844 0.02024410 -0.02535161 0.69225305 -0.14251779 -0.11058990 -0.06788529 0.28705958 0.94633532 0.58961397 -0.04138891 0.03745710 0.13584454 0.00647932 0.32705882 -0.15579844 -0.44734892 0.00407427 -0.51821804 0.47702768 -0.14309630 -0.20179428 0.00692878 0.29319400 0.58827901 0.28220475 0.26831934 0.49848118 -0.00328063 0.42462835 0.45947725 -0.10814010 0.38680071 0.03260863 0.12038706 0.40531540 0.04114718 0.20401788 0.09943884 -0.24216929 -0.01463534 0.44750598 0.20715183 -0.09132869 -0.10593610 -0.27001375 -0.17932048 -0.05276337 0.36637601 -0.16328886 0.02379635 0.04934265 0.06030085 0.11505797 -0.11139441 0.27527702 0.27778691 -0.20682429 0.11549944 0.21602894 0.43010020 0.18153995 0.19683513 0.23844457 -0.00751763 0.74397409 0.41070530 0.15016025 0.39793795 0.01265808 0.08000859
0.31987321 0.37386236 0.17543852 -0.09633016 0.30830702 0.31794074 0.43116885 0.03174976 0.28577954 0.40031016 0.44286966 0.65504259 0.27918503 0.75043035 -0.23802431 -0.20794977 0.10988878 0.05999475 0.19516994 -0.19544207 0.12030430 -0.11549154 0.19218233 0.30210206 0.54243034 0.12415001 -0.20330305 0.19484705 0.15204912 0.61191100 0.10397610 0.63133764 0.13491595 0.06994379 0.01824324 0.82544911 0.04439894 0.42048785 -0.05141919 0.09988108 0.09678818 0.14572465 0.40026775 0.54052520 -0.09369705 -0.08602817 -0.13730809 0.12580417 -0.09043676 0.96240890 0.11298837 0.58388418 0.17635633 -0.00779718 0.29314801 0.30134520 -0.06920967 0.53892231 0.54538697 0.08049528 0.05184121 0.31905881 0.30397269 0.22653741 0.54256845 0.33238551 0.82555258 -0.01476412 0.63398087 0.86051059 -0.02568840 -0.05332050 -0.08214841 0.21800628 -0.12632458 0.16907050 0.10126964 0.24278727 -0.09578618 0.33683062 0.10822344 0.15103967 0.80627221 0.25736517 0.26791239 0.03468366 -0.14221691 0.13515568 0.32768038 0.36786965 -0.01249573 0.32103524 -0.03317748 0.02710761 -0.11231316 0.03311246 0.03407144 -0.02817339 0.21564294 0.50416678 0.03070758 -0.17129380 0.15532213 0.30834228 0.09940623 0.46364793 -0.18058664 -0.01213994 0.19568911 -0.03748407 -0.02500373 -0.07860561 0.51884598 0.16997556 0.17998584 -0.22875454 -0.13484833 0.05908424 0.22544791 0.10566039 0.35375851 -0.13126695 -0.02220513 -0.14104545 0.33072740 0.45021164 0.09134595 0.39575380 0.20944583 0.01399739 0.11449318 0.78775656 0.08309430 0.81048858 0.82687241 0.19786870 -0.04100962 -0.05804669 -0.08418104 0.03549866 0.13626267 0.31407407 -0.15326154 -0.02650773 0.10209040 0.76471376 -0.17024380 -0.20391907 -0.18366525 -0.11652905 0.01275839 0.78673649 -0.09739879 0.03832305 0.33104694 -0.09428447 0.66328937 0.02235914 0.29936329 0.03530052 1.02200627 0.41343230 0.64402455 0.64046615 0.19059476 0.16657743 0.24635220 0.07366013 -0.19838521 0.09007326 -0.02710094 0.12340526 0.43151703 0.10813893 -0.07574143 0.06455109 -0.09053733 0.07710694 -0.08519080 0.35904938 0.35933602 -0.05569643 0.00229178 0.52434659 -0.20706035 0.10976157 0.29755831 0.04007372 0.12628162 0.05073509 0.27061465 0.32411253 0.12060261 -0.23851603 -0.07382762 0.01675590 0.28089255 0.33391747 0.22395884 0.09360144 0.49890214 0.08580272 -0.04773420 0.12897387 0.09938017 -0.06594098 0.28041932 -0.13116354 0.58812612 0.24519788 -0.07933095 0.31070417 0.95889157 0.38162035 0.03784280 0.09354645 0.34124303 0.42296466 0.16843385 0.07587127 0.47455370 0.87043315 0.19330125 0.15527825 0.11901566 -0.25997505 0.47097951 0.01272979 0.05784651 0.07001155 -0.05471355 -0.01385110 -0.21196872 -0.22853744 0.03219130 0.43163583 0.09291360 -0.02792253 -0.25724486 0.18561120 0.27042273 1.14480734 0.52336979 0.06848481 -0.23907819 0.09885003 -0.03988450 0.08200327 0.69387221 0.39476392 0.14259769 0.38484347 0.00292950 -0.01418050 0.09923010 0.15387212
0.48686284 -0.24125075 -0.02961127 0.60957932 0.40612891 0.18940561 0.11131376 0.10277709 0.47354293 -0.01063871 -0.48956510 0.08148278 -0.15513901 0.34687656 0.31906313 0.21761455 -0.08336048 0.49281999 -0.00125740 -0.25331160 0.67481124 -0.41372707 0.45130941 -0.04850919 -0.02041445 0.24627376 0.34264940 0.24280892 0.42726648 0.84294921 -0.35097447 -0.03825127 0.28764978 0.27401304 0.33420208 0.06119574 0.47598231 0.13320380 0.07283121 0.02570905 0.36599231 0.03831844 0.94145358 0.09474569 0.05456199 0.28257427 0.09910043 -0.14699152 -0.29945821 0.25564611 0.32759503 -0.11879528 0.18840243 -0.11159736 -0.62534714 -0.01994822 -0.20357986 -0.02615667 0.54426765 0.16450843 0.37195140 0.33346757 0.04052124 -0.15633045 -0.10739889 0.49054885 0.21823573 0.41449478 -0.15918161 -0.18472503 -0.04657453 0.61872923 -0.20616721 -0.01111437 0.21128693 0.36351430 0.66210836 0.05120822 -0.23337273 0.34707266 0.09796295 -0.25156707 -0.13707656 -0.04002380 0.03476419 0.38366529 0.49585837 -0.26379994 0.15123278 -0.15303136 -0.12055510 0.42688087 -0.33432454 1.09159911 0.20954290 0.41800418 0.25160822 -0.47443691 0.35377410 -0.13097569 -0.06520571 0.47228920 -0.31892669 0.02201025 0.17634423 -0.04517140 0.55475736 -0.02522273 0.10736839 -0.01929504 0.42266375 0.69203806 0.34739020 -0.21650435 -0.49960992 -0.20588605 0.26531136 -0.05824315 -0.30227640 0.50785965 -0.13936736 0.20364535 0.68633413 0.11970204 0.65187961 -0.12729922 0.09890632 0.01585629 0.39051887 0.33989534 0.49908754 0.46118072 0.07873787 0.31265643 -0.24916039 0.08537672 -0.16763169 0.05049205 0.53987664 -0.29801765 -0.07873123 0.23360832 0.05747717 0.14074340 -0.11140680 0.75552797 0.12550977 0.55471176 0.15073669 0.33270997 0.48859814 -0.60134691 0.86364019 0.15419354 -0.33684078 -0.12496436 0.27084887 0.45233560 -0.34684938 0.20309447 -0.53891855 0.67188156 -0.11009791 0.01203671 0.00025929 0.28541782 0.38802665 -0.04382578 -0.10861178 0.56820464 -0.12494918 0.09787823 0.52944815 -0.17138945 -0.25440866 -0.00087372 0.22945452 0.23371498 0.10006086 -0.21301369 0.39709324 0.20220807 -0.01719393 0.39231813 0.33853677 -0.07183508 -0.16857755 0.32285351 0.66829914 -0.06189780 -0.27097109 -0.35344654 0.64596903 0.29674390 0.31820396 0.19557853 -0.25875929 0.33690721 0.05297443 -0.08115043 0.40005642 -0.18491039 -0.11888883 0.18770431 0.01364980 0.02711747 0.15820688 0.06789003 0.00821179 -0.04743720 0.19648787 0.08357067 0.16287768 0.52370173 0.75268960 -0.29447836 0.28382850 -0.10896083 -0.17794949 -0.12070992 0.10037791 -0.08376030 0.50683361 0.33572632 -0.06392588 0.69184774 0.37647891 0.21870843 0.08578088 0.44718292 -0.00831531 -0.01878215 -0.11196601 -0.05303344 -0.17629914 -0.08905604 -0.15776655 0.37843373 0.42082125 0.68837142 -0.26299733 0.12283852 0.55825645 -0.24585645 0.58964497 0.86657625 -0.31642762 0.01384844 -0.00196675 0.50085747 0.07779748 0.57341856 0.19785865 -0.12327316 -0.03591927 0.14239651
-0.37769774 -0.11632971 0.35378361 -0.02467569 -0.30805263 0.17240006 -0.39063793 -0.04032218 -0.01652498 0.01533291 0.48998389 -0.08252957 -0.11767329 -0.11424410 0.16210642 0.45353526 -0.01737331 -0.04999315 0.12265257 0.05342351 0.66579723 0.56085449 0.26292053 -0.05082111 -0.26901612 -0.08269665 0.24200161 0.59037232 0.49793780 -0.01424528 0.38996470 -0.31633317 -0.26581424 0.44757766 -0.11683039 0.10123368 0.34937704 -0.22770603 0.33923009 0.08956417 -0.14430234 -0.21922712 0.02043095 0.32110777 -0.00881168 0.41585317 0.55379295 -0.15209244 0.08576452 0.48646030 -0.04006132 -0.17097625 0.26236799 0.20515136 0.66847759 0.24588710 -0.04628485 0.65921998 -0.04388237 0.23053223 0.79746026 -0.47872320 0.01173565 -0.26741651 -0.06262644 0.22745873 0.11941370 -0.04953352 -0.36465785 -0.08317775 -0.09633711 0.12699910 0.05328909 -0.69012040 0.61563188 0.41155937 -0.42821306 0.52647996 -0.03851205 0.13064286 0.01019208 -0.09826955 0.45514217 0.32676899 0.38713458 -0.04583589 -0.10740019 -0.11305282 0.23962100 0.35405332 0.28626499 -0.13964085 0.76710647 0.12067537 -0.12102655 0.01081773 0.08820888 0.60762173 0.06911496 0.22995125 -0.12660588 0.07664701 0.36911103 0.30365014 0.47367343 0.05525970 -0.02292271 0.55249351 -0.04615163 -0.27080098 -0.35338122 0.31400111 0.40764874 0.18805729 0.06396877 -0.05627095 0.32020739 -0.12302489 0.45442310 0.05653734 -0.42902467 0.09206238 -0.16147836 -0.42478848 0.37144685 -0.27824494 0.06560008 0.66533989 0.05750285 -0.24541967 -0.08112697 0.02073934 0.30500606 0.67587149 0.63579404 -0.17114757 0.14413773 0.49724311 0.36932868 0.29580358 -0.26154187 -0.15894009 0.23926672 0.17611501 -0.35315916 -0.32053870 0.42319387 0.02481040 -0.28886703 0.32663682 -0.08608937 -0.21766725 -0.04629883 -0.16285262 -0.04260527 0.69875652 0.19557682 0.22706068 0.11972605 0.61349863 0.03276023 0.11105717 0.22995688 -0.19126295 0.36985400 -0.23985100 0.26271477 -0.05736411 0.13720016 0.11131226 0.16417310 -0.17538042 0.44465467 0.02052165 0.14015898 0.33749950 -0.24836095 -0.02610271 -0.23194332 0.37774941 -0.32675660 0.01665533 0.24477054 -0.28107566 -0.09438058 -0.12810762 -0.27083349 -0.23264731 -0.35116264 0.25659779 0.72850972 0.34889281 0.13139333 -0.05450262 0.43617085 -0.17094427 0.30905649 -0.02967585 0.23318928 -0.48249421 0.08823760 0.31944394 0.06705310 0.01505748 -0.01094507 0.57440293 -0.11675733 -0.17485143 0.60752505 -0.05378577 -0.25929093 0.55467743 0.66934842 -0.44682932 -0.64997137 0.05609295 -0.07711226 -0.27587575 0.60719419 0.08226106 0.26042041 0.32841051 -0.34516615 0.48575783 0.31695488 -0.05260140 0.21430287 -0.02909328 0.48559695 0.03043921 -0.21500818 0.83744144 -0.28118834 0.32036197 -0.12827674 -0.15819448 -0.28663251 0.01513734 0.42673096 -0.11327507 0.47671637 0.49038416 0.10503621 1.00818133 0.04426973 0.51440108 0.17336859 0.41380799 -0.22947344 0.14171483 0.48903647 -0.14257415 0.36195728 -0.08055262 -0.01851506 0.03201254
